-0.102576,0.068767,0.198718,-0.201897,-0.226645,-0.041725,-0.090329,-0.083136,0.122798,-0.309556,0.039051,-0.237945,-0.127519,-0.168326,-0.095991,0.275625,0.153881,-0.034787,0.058387,-0.254275,-0.094634,-0.191852,0.142510,-0.113380,-0.184773,-0.009868,-0.062997,-0.138433,-0.001651,-0.062820,0.300843,0.127509,-0.115718,0.002939,0.008981,0.224413,0.204133,-0.104275,-0.130259,-0.297808,-0.113372,0.115569,0.299594,-0.155764,-0.192858,-0.142415,0.143679,0.238622,-0.049891,-0.104856,-0.235189,0.009384,-0.086399,-0.017843,-0.138304,-0.091598,-0.183754,0.141812,0.004187,0.168226,0.084073,0.206788,0.107796,-0.107653,-0.299086,-0.119369,0.020800,0.149075,0.109232,-0.092515,0.363773,-0.108544,-0.262353,-0.245799,0.170654,-0.226632,0.047084,-0.092336,-0.048787,-0.084953,-0.063694,0.197129,-0.146925,-0.300764,-0.047375,0.164462,0.173808,-0.087218,-0.401305,-0.056576,-0.198330,-0.071058,0.375884,-0.184882,-0.001727,0.349743,0.058846,-0.217367,-0.053182,-0.021352,0.213285,-0.000093,-0.014649,-0.072524,-0.079912,-0.310652,0.042606,0.230164,-0.009550,-0.009868,0.238185,-0.272310,0.113090,-0.166436,-0.149108,-0.219482,-0.125761,-0.073418,-0.181315,0.299332,0.209969,-0.086279,-0.013854,-0.079458,0.008926,-0.058049,-0.077716,-0.121034,-0.137475,-0.288233,0.202895,-0.072702,-0.208887,-0.002957,-0.204695,-0.115837,-0.213255,-0.100308,-0.068348,0.070036,-0.107355,-0.278279,0.050049,-0.222521,-0.075435,-0.002597,0.230224,0.094668,0.180076,0.057458,0.165454,0.262664,-0.269687,-0.102952,-0.181119,0.311955,-0.008238,-0.172301,-0.130775,0.189279,-0.121108,-0.078841,-0.201651,-0.006010,-0.229356,0.259616,-0.002483,0.190058,0.033616,0.144335,0.032612,-0.211493,0.087844,-0.037161,0.004960,0.058554,-0.114126,-0.137195,0.123238,-0.157484,0.087471,0.264158,0.356196,0.148543,-0.027584,-0.040678,-0.109178,0.353687,0.159310,0.292201,-0.132671,-0.218735,0.206792,-0.046509,0.096514,-0.109258,-0.200459,-0.058845,0.091274,-0.186466,0.329611,-0.059276,-0.255846,0.035552,-0.148574,-0.197362,-0.175372,-0.091033,0.049712,-0.220752,0.180743,0.050857,-0.120523,0.153010,0.024407,0.136395,-0.062593,-0.006204,0.036765,0.053172,0.242174,0.089825,-0.136778,-0.061260,-0.071904,-0.082312,-0.117423,0.152644,0.124666,0.075953,0.031397,-0.085477,-0.190981,-0.161287,0.367907,-0.024218,-0.006014,0.135991,-0.058150,-0.225287,-0.232416,0.183127,-0.055817,-0.112830,0.050510,0.166582,0.200209,0.127872,0.279158,-0.262061,-0.061167,-0.022001,-0.032271,-0.048603,-0.130796,-0.125012,0.153159,-0.035237,-0.014617,-0.162882,0.105940,0.217507,0.091187,0.145834,0.016206,0.140977,0.153715,-0.039129,0.007569,0.104950,-0.179576,-0.016391,0.094368,0.171421,0.085068,0.153810,0.206530,0.066109,0.154509,-0.162545,0.148731,0.081877,-0.097129,0.021612,0.148423,0.098554,-0.152433,-0.136654,0.029584,0.138671,0.047016,0.197052,0.166800,-0.053673,-0.167856,-0.174882,0.066340,0.142596,-0.120379,-0.042125,-0.054184,0.029532,-0.023632,-0.013287,0.144115,0.058161,-0.010859,0.163317,-0.051876,-0.003417,0.158170,-0.227538,0.119643,0.067480,-0.030390,0.064262,0.251096,0.164660,-0.116891,-0.141739,-0.140367,-0.089844,0.087082,0.008323,0.103734,0.097322,0.182103,0.197504,0.105076,0.164450,-0.077812,-0.104318,0.061769,0.151292,0.078882,-0.167946,-0.065074,0.229072,0.184675,0.072589,0.015130,0.042759,0.051687,0.005757,-0.157253,0.071889,0.184185,0.081656,-0.023016,0.093485,0.013292,0.104864,0.023806,-0.275998,-0.112961,0.067242,0.011624,0.004378,-0.132410,-0.333538,-0.028507,-0.093051,0.166827,0.106396,-0.116945,0.141954,-0.022491,-0.116698,-0.090835,-0.034657,-0.069225,-0.031204,-0.192944,-0.090064,0.071776,-0.096233,0.046237,-0.073665,-0.121562,-0.044059,-0.057102,-0.101096,-0.056769,0.100187,-0.076097,0.109576,-0.016350,-0.015490,0.008488,0.180110,-0.157769,-0.191073,-0.078957,0.052973,-0.267302,0.045596,0.110693,0.093457,0.194870,0.104665,-0.165781,-0.105726,0.103592,0.081886,-0.110552,-0.108404,0.093119,-0.158180,0.082677,-0.135884,-0.151085,-0.130857,0.068377,-0.042661,0.152524,-0.117880,0.017906,-0.042555,0.030104,0.102510,0.091662,0.125949,0.176683,0.092573,0.107737,-0.103356,-0.188484,-0.100425,0.044958,-0.009800,0.216507,0.105476,0.196911,-0.012952,0.018564,-0.212191,-0.002476,0.076149,-0.033984,0.118981,0.022452,0.143616,-0.043078,-0.071677,0.037083,0.119879,-0.105510,0.193422,-0.047358,0.203473,0.093420,-0.077286,0.253994,-0.040506,-0.058693,-0.156206,0.135222,0.037280,-0.007379,0.046094,0.154402,-0.110620,-0.183731,-0.022561,0.051216,-0.017219,0.010625,-0.189236,0.018677,0.141257,0.086426,0.081729,0.169186,0.043385,-0.122817,-0.087921,0.028652,0.094994,0.033273,-0.143123,0.068329,0.093756,0.106763,-0.007752,0.218097,0.042466,-0.053916,-0.096209,-0.023643,-0.085652,0.002952,-0.200553,0.013239,-0.040379,-0.116616,-0.074608,0.066077,-0.189667,0.002825,-0.091444,0.177025,-0.143343,-0.030314,0.141543,-0.183926,-0.087393,0.111897,-0.082948,-0.007093,0.137861,0.023018,-0.138458,-0.181858,0.198880,-0.011551,0.080556,-0.103617,-0.040514,-0.109782,0.234010,-0.052918,0.120775,-0.162374,-0.239707,-0.276059,-0.175557,0.107960,0.080557,0.196023,-0.160284,0.122039,-0.217517,0.106829,0.063251,0.017357,0.151080,0.102674,0.145677,-0.091559,-0.046907,0.200022,0.009311,-0.082511,0.122937,0.155470,0.199206,-0.056357,-0.156333,0.067594,-0.192125,0.120912,-0.198857,-0.039705,-0.026086,0.021890,0.175212,-0.073334,-0.070275,-0.091633,-0.149783,-0.024455,-0.345151,-0.060122,0.297918,-0.159018,0.059599,-0.197815,-0.137645,0.038548,0.054345,-0.023933,0.179146,0.254074,0.033153,0.174662,-0.016180,-0.086378,-0.060095,-0.040476,-0.033100,-0.065228,0.099902,-0.108600,0.200088,0.061212,-0.236994,-0.201118,-0.156258,0.109464,0.082487,-0.026517,-0.099942,0.157437,0.177092,-0.032407,-0.250107,0.095529,-0.169169,0.146385,0.148323,-0.026446,0.031415,0.255035,0.005827,-0.063053,-0.102493,0.070474,-0.004944,-0.218028,0.019876,0.165034,-0.086126,0.135200,0.224785,-0.196008,-0.217543,-0.025200,0.328581,-0.072146,0.016437,0.319024,-0.451763,-0.132170,-0.193631,-0.129317,-0.049577,-0.151474,-0.208095,0.083358,-0.257787,0.099721,-0.018609,-0.285918,0.021745,-0.079343,-0.004430,-0.178458,0.137639,0.141742,0.188421,0.002232,0.166089,0.228206,0.047207,0.045464,-0.188578,0.096422,0.219283,-0.131456,0.173431,-0.274288,-0.269832,-0.196241,-0.034341,0.223416,-0.265888,-0.115340,0.011586,-0.127273,0.102783,-0.305862,0.017983,0.211367,-0.108009,-0.089550,-0.073183,0.070062,-0.086658,0.337931,0.303427,-0.037000,0.098726,-0.030604,-0.190724,0.155246,0.062554,0.250503,0.189722,-0.062594,-0.166492,-0.192890,-0.151969,-0.096045,0.159230,0.201491,-0.036787,-0.056086,-0.089282,-0.086012,-0.128116,-0.058643,0.230487,0.086345,-0.005147,0.008218,-0.107256,0.128448,0.035572,-0.002753,0.021957,0.139320,0.009076,0.102386,-0.098516,0.229462,-0.142394,-0.216432,0.028352,-0.134022,0.067736,-0.067184,0.015255,0.175113,-0.018971,0.129033,-0.122998,-0.048950,0.000370,-0.099508,-0.158763,0.062798,0.112056,-0.016125,0.065817,-0.117631,-0.014616,0.180523,0.165480,-0.082906,-0.063617,-0.132379,-0.200916,0.005301,0.106781,-0.104746,-0.198403,0.062709,-0.215402,-0.176171,-0.044825,0.007664,0.152015,0.071802,0.011777,0.201952,-0.078500,0.156522,-0.023505,0.182530,-0.043812,-0.167613,-0.034113,0.075169,-0.077951,-0.096531,0.161830,0.049826,0.119520,-0.008451,-0.135336,-0.143733,0.060823,-0.018336,-0.134495,-0.109495,0.075305,-0.012086,-0.010766,-0.039148,0.119863,-0.043812,-0.230166,0.082506,-0.061513,0.110163,-0.228204,0.112523,-0.002242,0.013186,-0.079721,-0.001469,0.188302,0.105030,0.019040,-0.159787,0.070353,0.205979,0.282262,-0.115790,-0.071960,-0.184659,0.073274,-0.134254,0.242775,-0.091931,-0.104484,0.006107,-0.106330,0.148855,-0.163471,-0.073785,0.085056,0.197282,0.035423,0.060661,0.096467,-0.109658,-0.166754,-0.025967,0.040841,0.041096,-0.027972,0.081559,-0.248123,-0.063099,0.256031,-0.111204,0.033683,0.153256,-0.020236,-0.127077,0.079711,0.027579,-0.064187,0.162956,0.186172,0.308666,0.031506,0.147044,-0.364289,-0.188445,-0.108554,-0.115971,-0.268161,-0.041850,-0.180226,-0.001526,0.162425,-0.051055,-0.118102,0.023842,-0.045373,0.036872,0.071949,-0.052054,0.145984,0.063980,0.107079,-0.236683,-0.046993,0.136753,0.237453,0.123862,-0.187497,0.054429,0.189121,-0.137350,-0.120772,0.001874,-0.209707,-0.110314,-0.267570,0.005379,0.135230,0.060142,-0.076245,-0.171416,-0.078259,0.024758,0.189171,0.071997,-0.249732,0.057729,0.101798,0.219115,0.071626,0.065271,0.172543,-0.186709,0.102023,-0.143506,-0.081754,-0.084214,0.096546,0.071832,0.085912,0.126318,0.067496,-0.008437,0.259933,0.028513,-0.078960,0.107783,0.160239,-0.078785,-0.076411,0.280636,0.098369,-0.111822,0.034745,0.059906,-0.062193,-0.025789,0.146471,0.252537,0.181398,0.050577,-0.005623,-0.038491,-0.152669,0.039676,0.098914,0.011603,-0.031595,-0.134113,0.142076,0.051802,-0.171218,-0.137586,0.089679,0.108562,-0.099810,-0.149812,0.087427,0.008886,0.082483,-0.026321,-0.078721,-0.236680,0.136976,-0.233892,-0.009995,0.067289,-0.282983,-0.025104,0.137463,0.030986,-0.070573,0.228760,-0.188901,0.157238,0.093485,0.278383,0.137406,0.032178,-0.023214,0.100522,0.028087,0.185190,-0.093353,0.100406,-0.123671,-0.030351,0.116992,-0.176960,0.096969,0.181152,-0.292183,-0.199357,0.150917,-0.148605,0.207322,0.079299,0.235353,-0.270991,-0.241402,0.080971,0.100466,-0.337752,0.147097,-0.155316,-0.046194,-0.124526,0.272526,0.148158,0.157014,-0.100766,0.072715,-0.043226,-0.015920,0.163436,-0.218357,-0.139754,0.045534,0.039401,0.069536,-0.093309,-0.059900,-0.016429,0.046598,0.108088,-0.175484,-0.168283,0.065522,-0.110561,0.209640,-0.079353,-0.272935,0.084275,0.107670,-0.012951,0.042346,-0.225784,0.002655,0.042878,0.059709,-0.157426,0.030800,-0.094966,0.245301,0.064316,-0.117117,-0.227258,0.216276,-0.002502,-0.059048,-0.013074,-0.012065,-0.081887,0.185134,-0.035443,0.095878,-0.064271,0.116877,0.146921,-0.139771,-0.262061,0.167243,0.192114,-0.138180,-0.119096,-0.002908,-0.078621,-0.091895,-0.013378,-0.065727,0.075749,-0.183640,0.253400,0.033292,-0.185212,-0.016700,-0.257256,0.111177,0.213396,-0.103051,-0.022636,-0.105437,-0.224356,-0.142311,0.145931,0.123736,0.041313,-0.059231,-0.126194,0.103756,-0.058033,-0.189554,-0.040990,-0.129153,-0.119200,-0.150819,-0.146692,-0.138992,-0.042323,0.100155,-0.194084,0.232504,0.139712,0.129680,0.106649,-0.017661,-0.078752,-0.176364,0.209012,0.160772,0.067524,0.131020,0.274366,0.152861,-0.022694,-0.044393,0.082199,0.170158,0.172123,-0.224366,-0.105117,-0.043922,-0.049663,-0.032092,0.014336,0.073769,0.090052,0.244907,-0.146679,0.069486,-0.169664,0.076237,-0.014674,-0.066783,-0.074948,-0.234008,-0.125818,0.278520,0.243963,-0.042227,0.351813,0.112044,-0.108506,0.014932,-0.001460,0.172808,0.191467,-0.018750,0.128979,-0.050958,0.085640,0.109547,-0.284088,-0.168695,0.245889,-0.112567,0.056031,-0.000967,-0.149822,-0.089533,-0.196479,0.352240,0.122311,-0.004447,0.092531,0.070296,-0.271499,-0.356846,0.299487,0.157528,0.154164,0.182399,-0.182085,0.298117,-0.038543,-0.202921,0.057982,0.208540,-0.152064,-0.226367,0.253558,-0.075449,-0.087134,0.173426,-0.095870,-0.194849,-0.084864,-0.160914,0.274596,-0.296994,0.013995,-0.057713,0.157465,0.187594,0.199438,0.099195,0.210332,-0.132063,-0.210460,-0.054743,0.012146,0.216702,-0.063676,0.188039,0.139378,0.030179,-0.150579,-0.105953,0.060581,0.102709,-0.133419,0.119027,-0.103727,0.040183,-0.005156,-0.064743,0.144112,-0.000294,0.062254,-0.041410,-0.053096,-0.200339,0.036063,0.071697,-0.143270,0.123414,-0.024113,0.016194,0.111003,0.118280,-0.103408,-0.125898,0.062253,0.125819,-0.015787,0.053900,-0.019559,-0.007122,0.175019,-0.041266,0.011392,0.037695,-0.051978,0.132773,-0.179817,0.078302,-0.065849,-0.078764,0.127278,-0.112826,-0.084916,-0.015317,0.093514,0.032504,-0.048463,-0.071558,-0.000116,0.013557,-0.105811,-0.030162,-0.059746,0.088558,0.083585,-0.120628,0.053278,0.183823,-0.026974,0.105145,0.092285,0.007401,0.155056,-0.049184,-0.148390,-0.049053,0.083380,-0.019036,-0.089329,-0.034831,-0.122894,0.108690,-0.073665,0.131463,-0.009978,-0.071250,0.065245,-0.022570,0.109963,0.173469,0.026610,-0.123063,0.032801,0.024731,-0.123718,-0.009309,0.121876,-0.145583,-0.085181,-0.021156,0.002284,0.013933,-0.145211,0.025772,0.162292,0.062116,-0.026635,-0.033805,-0.125478,-0.218447,-0.226358,-0.000316,-0.090891,0.063137,-0.113350,-0.059396,-0.113661,0.152919,0.107506,0.256882,-0.031959,-0.171451,0.058195,-0.171763,0.074761,-0.020286,-0.148369,0.186799,-0.087823,0.230820,0.102060,-0.143469,-0.061404,-0.017840,-0.033568,0.012868,0.062347,0.163465,-0.080799,-0.031781,-0.045531,0.146362,0.002509,0.067164,-0.017057,0.104238,0.221909,-0.080498,0.161122,-0.198891,0.022242,0.012992,-0.046361,-0.016285,-0.117121,-0.024698,0.008537,0.199961,-0.086749,-0.135486,-0.077236,0.059544,-0.062159,0.267775,-0.154532,-0.163526,-0.042504,0.006008,0.013392,0.111988,0.128806,-0.062078,0.059779,0.043080,0.056391,0.122116,-0.067971,-0.121271,-0.063670,-0.044347,0.157025,-0.064645,0.142899,0.109339,0.041661,0.216541,-0.001372,-0.039651,-0.051934,-0.170752,0.054829,0.066913,-0.011920,0.028939,-0.042905,-0.223984,-0.100900,0.149994,-0.104354,0.091155,-0.185361,-0.091907,0.099701,-0.100961,0.248118,0.035021,-0.022559,-0.084914,-0.222397,-0.053543,0.118902,-0.012656,0.162932,-0.109396,-0.043196,0.016440,0.046297,0.128249,-0.082882,-0.080303,0.180436,0.194132,-0.135492,0.152523,-0.172429,-0.009794,0.035134,-0.113510,-0.004088,0.239853,-0.117134,-0.214008,-0.201948,-0.162151,-0.060700,-0.021983,0.026152,-0.095079,-0.004947,0.205696,-0.056747,0.111487,-0.105604,0.125721,0.061588,-0.078962,0.003936,-0.105103,0.087113,0.120228,0.257695,0.021302,-0.079327,0.056199,-0.012794,0.073056,-0.098229,-0.239939,-0.059890,0.076770,0.152640,0.273336,-0.081602,-0.124552,-0.111748,0.211404,-0.066303,-0.154843,-0.093741,-0.178672,0.009955,-0.199006,0.283144,-0.122660,0.239441,0.064497,-0.123891,0.270240,-0.233415,-0.089057,0.055121,-0.055547,0.231662,0.084234,0.041286,0.046924,0.059451,-0.101449,-0.131481,0.062850,0.152514,-0.146089,-0.233861,0.029743,0.126250,0.231315,-0.188079,0.025088,0.044865,0.097344,0.041915,-0.250938,0.083166,-0.071708,0.039043,0.138528,-0.330507,0.104465,-0.290695,-0.001182,0.175035,-0.023202,-0.055543,0.155616,-0.192020,0.252383,0.213075,0.150087,-0.011327,-0.036078,0.022616,-0.311079,-0.173149,0.080626,-0.138024,-0.264513,0.261156,0.179106,0.204336,-0.042568,0.015776,-0.137958,-0.203523,-0.155177,0.331919,-0.019492,0.024270,0.027185,-0.170586,-0.194700,0.217650,-0.194414,0.034518,0.169658,-0.140539,0.079954,-0.160879,0.473067,-0.093918,0.087894,0.245530,-0.123529,-0.108758,-0.022753,-0.060614,-0.085442,-0.017306,-0.167063,-0.134734,-0.041060,0.242786,0.068771,0.205492,0.140511,-0.031251,-0.068289,-0.038235,-0.084031,0.262798,-0.099360,0.213285,-0.288921,-0.224705,0.046735,-0.096310,0.197885,-0.108415,-0.169929,-0.049418,-0.048682,0.120993,0.068521,-0.077522,0.281940,-0.017378,-0.008745,-0.031317,-0.022378,-0.408541,-0.318947,0.125375,0.063459,0.221362,0.237928,0.293738,0.277888,-0.006676,-0.117081,-0.153869,-0.212224,-0.235671,0.217415,-0.034370,-0.026278,-0.047211,0.029311,-0.050643,-0.113805,0.046101,0.213478,0.073902,-0.057847,0.221145,0.002569,0.242568,0.177040,0.206179,0.072976,-0.054200,0.189413,0.282527,-0.051607,-0.218868,0.184934,0.113877,-0.049148,0.006782,-0.078034,-0.036745,0.023174,0.226718,-0.019861,-0.055900,-0.127392,0.045039,0.104545,-0.169495,0.019632,-0.155567,0.140771,0.027426,-0.042525,-0.002395,-0.161585,-0.008547,0.186396,-0.028852,-0.137563,0.099682,-0.073778,0.041077,0.073329,0.159986,0.125958,-0.082288,0.080109,0.150335,-0.178090,0.173318,-0.145299,0.127907,0.014075,-0.085845,0.037342,0.024846,0.010805,0.133380,-0.095099,-0.095412,-0.090564,0.114356,-0.042021,-0.108970,0.084681,0.074901,0.143423,0.030375,0.089389,0.021661,0.138320,-0.110090,-0.177980,0.088283,0.064965,-0.118354,0.062565,0.011284,0.017718,0.084521,0.028585,-0.125283,-0.114005,0.108580,0.059514,-0.004690,0.017682,0.059008,-0.165106,-0.136542,0.149883,0.020585,0.105878,0.008261,-0.002675,0.119966,-0.129908,-0.094978,0.012990,-0.112891,0.165576,-0.087161,-0.066547,0.150964,-0.002896,-0.059040,0.066129,0.071774,0.006471,0.221270,-0.118953,0.115782,0.203049,-0.088472,-0.131195,-0.191534,0.093364,0.001135,-0.179486,-0.080909,-0.043554,0.150894,-0.026405,0.016226,0.036153,-0.113503,-0.040318,0.122764,-0.202939,0.278345,0.171071,-0.132225,0.161319,0.127716,-0.159939,-0.033290,-0.223238,-0.017749,0.081562,-0.196377,-0.027743,-0.242408,-0.091061,-0.105069,0.213751,-0.153193,-0.131979,-0.112954,-0.121975,0.186368,0.104358,-0.033992,0.113236,0.000634,0.100572,0.099467,-0.051115,-0.374168,-0.219203,-0.312466,-0.119677,0.122447,0.020864,-0.308064,0.134904,-0.078185,0.095117,-0.141293,0.008510,0.048861,-0.124064,-0.108889,-0.080522,0.221745,0.212745,0.362650,0.017815,0.387239,-0.053686,-0.283187,-0.380381,0.048996,-0.166125,0.176610,-0.226511,0.005771,-0.049800,-0.126380,-0.129663,-0.024108,-0.105444,0.086638,0.069703,0.196175,-0.037420,-0.038094,-0.078903,0.006818,-0.099380,0.054935,-0.007676,-0.169690,-0.026381,0.050637,0.097546,0.011989,-0.054646,0.030819,0.078395,-0.118531,-0.126669,-0.004210,-0.142494,0.248789,0.074989,-0.061668,-0.043621,-0.007352,-0.098774,0.151968,-0.039881,-0.021458,-0.135246,0.014267,-0.061621,-0.037621,-0.155471,-0.057523,0.010458,-0.160552,0.034295,-0.042678,-0.226646,0.022895,-0.048997,-0.302970,0.155757,0.055957,0.017721,0.117220,0.176743,-0.074364,-0.069107,0.066541,0.254184,0.012930,0.061628,0.291284,-0.029604,-0.044203,-0.153995,0.100415,-0.090941,0.013787,-0.021687,0.065513,0.160096,-0.231267,-0.073800,-0.201501,0.215595,-0.149854,-0.190680,0.159177,-0.093706,-0.095700,0.085228,0.057746,0.059010,0.070958,0.129000,0.281152,0.015657,-0.208304,-0.163622,-0.132132,-0.241916,0.059919,0.062883,-0.017990,-0.048056,-0.045453,-0.009732,0.160786,-0.023410,0.063592,0.050654,-0.135280,0.100449,-0.095327,0.072789,0.279260,0.047643,-0.206047,0.247188,0.010168,-0.057000,-0.222230,0.061489,0.144058,-0.121401,-0.233514,-0.001365,0.030047,-0.010673,-0.239088,-0.127112,0.115959,0.203807,-0.065701,-0.174995,0.173601,0.154831,-0.048546,-0.037347,0.068090,0.060276,0.036600,0.111817,-0.141337,0.165948,-0.080266,-0.089698,0.142342,0.059965,-0.013967,-0.090077,0.070263,0.113276,0.206669,-0.041167,0.182692,-0.082477,0.092086,-0.165627,-0.069985,-0.079268,0.012619,0.064102,0.012591,0.144855,-0.016946,-0.088599,-0.230953,0.142888,0.149385,-0.091756,-0.151198,0.174316,0.170086,0.132080,-0.227872,0.155041,-0.200925,-0.201079,-0.139706,-0.070085,0.107108,-0.002820,-0.079308,-0.091498,0.074230,0.024833,0.028907,0.093653,-0.161384,0.036746,0.116387,-0.131117,0.204559,0.274383,-0.075858,0.076830,-0.033489,-0.014407,0.043451,-0.049756,-0.223715,0.005989,0.014247,-0.191544,-0.162083,-0.152934,0.230522,0.152717,0.032423,-0.128427,0.042352,0.007346,0.051064,-0.356796,0.005328,-0.079749,0.000340,-0.125606,0.135615,0.198675,-0.187195,-0.113463,-0.276931,-0.041626,-0.266447,0.101813,-0.160228,-0.023411,0.169799,-0.202418,0.026745,-0.000282,0.001187,-0.084435,-0.098999,0.101625,0.098861,-0.142438,0.194774,-0.070495,0.033640,-0.095224,0.109439,-0.181395,-0.200708,0.234904,0.204221,0.029783,-0.201308,-0.164348,-0.094270,-0.004297,-0.100527,0.099355,0.246430,-0.153082,-0.218789,0.232094,-0.007497,-0.181328,-0.328353,-0.013656,-0.129928,0.106140,-0.217740,-0.075481,0.016891,0.058853,0.119347,-0.010515,0.133951,-0.142245,-0.009940,0.169379,0.167780,0.061001,-0.060588,-0.025789,0.107520,0.046242,0.088521,0.067976,-0.043926,0.048171,-0.019271,0.101227,-0.084974,0.010122,0.028353,0.136743,-0.126877,-0.037009,0.011188,-0.043385,-0.040650,-0.111214,0.040032,0.109444,-0.149176,0.128322,0.023548,0.141466,-0.043050,-0.113590,-0.137986,-0.108054,-0.028882,0.112200,0.027352,-0.116398,0.116372,0.046265,-0.171178,0.112586,-0.039270,0.037567,-0.126506,0.152088,0.088584,0.105360,-0.088259,0.065612,0.102308,-0.122621,0.154152,0.044193,-0.126841,-0.164664,0.009126,0.033945,0.086319,-0.159094,0.120076,0.159758,0.111027,-0.036440,-0.096845,-0.103429,-0.156349,-0.008005,-0.110435,0.102734,0.102349,-0.004456,-0.009529,0.049528,-0.097507,0.108068,-0.106570,0.062255,-0.008048,-0.080544,-0.084709,-0.020289,0.074540,0.103944,-0.064388,-0.096875,0.028586,-0.047952,-0.235874,-0.177673,0.004325,-0.047142,-0.192507,0.062279,0.035012,-0.107779,-0.002707,-0.046455,-0.253730,-0.110297,0.011263,-0.078115,0.253761,-0.149834,-0.001449,0.054306,0.247911,0.042997,0.043605,-0.147188,0.103782,0.108114,0.145774,-0.171484,-0.213205,0.095640,0.005508,-0.132295,0.075741,0.164845,0.196054,-0.154439,-0.099302,0.000439,0.193658,0.127517,-0.109379,-0.017254,-0.340167,0.040114,-0.089561,0.148834,-0.108324,0.184823,0.206298,-0.015941,-0.113390,-0.074575,-0.055377,0.142289,-0.170323,-0.013494,0.048290,-0.098354,0.001675,0.127357,0.120471,-0.116631,-0.171744,-0.067819,0.112443,0.024934,0.347813,0.073793,-0.188036,0.087858,-0.030358,0.084962,0.028886,0.029938,0.011205,-0.291651,0.052860,-0.001061,0.266620,-0.003030,0.098501,0.290335,0.102745,-0.119663,-0.185998,0.107760,-0.081343,0.190391,0.054135,-0.097019,-0.104023,0.289716,-0.123524,-0.156903,-0.016070,-0.153593,-0.016211,-0.235803,0.089480,0.033647,-0.144903,0.044893,0.165385,0.127897,-0.103034,-0.080950,0.182812,-0.430966,-0.048941,0.169934,0.169312,0.253667,-0.171583,-0.040067,0.107615,0.088902,-0.037999,0.021511,-0.073735,0.007173,0.040144,-0.063568,-0.039322,-0.202313,0.316087,0.050669,0.362696,-0.291005,0.055581,-0.056288,-0.347206,-0.115007,-0.232899,-0.080448,0.284492,-0.020203,0.066989,-0.033568,0.088996,0.166769,0.067878,0.075404,0.207642,0.037313,0.143541,-0.005477,0.135819,-0.006004,0.213804,-0.055524,-0.224253,0.129298,0.025202,-0.030950,-0.174454,0.114270,0.013195,0.190917,-0.017327,-0.016708,-0.111557,-0.001066,-0.012331,0.106944,0.191333,-0.036671,0.076302,-0.144792,-0.096057,0.095058,-0.017316,-0.058441,0.129962,-0.084393,0.086371,0.128248,-0.259311,-0.161147,-0.012824,0.231853,-0.163743,0.121178,-0.081488,-0.178831,-0.063118,0.005754,-0.091254,-0.059197,0.095609,0.070335,-0.286071,0.090155,-0.055504,-0.057472,0.103232,-0.034242,-0.147913,-0.079152,-0.179673,0.274673,-0.200920,-0.186260,-0.204985,-0.028132,0.083630,0.164916,0.111738,0.168770,-0.112642,0.145340,-0.092174,0.121261,0.122245,0.160236,-0.085554,-0.246602,0.185569,0.047793,-0.213260,-0.019652,0.184170,-0.226834,-0.138529,0.188172,0.000559,-0.008929,-0.074748,-0.237983,-0.093173,0.025508,-0.152766,-0.041110,-0.032762,0.096839,-0.144486,-0.059594,0.103548,0.030359,-0.147253,0.149691,-0.039693,0.109447,0.077987,0.206710,-0.073593,-0.068519,-0.103395,-0.169439,-0.065090,-0.066630,-0.210039,-0.078365,0.179678,0.074746,0.111135,0.160006,-0.154458,0.134644,0.239459,-0.247249,0.108072,0.090612,-0.107778,0.249129,0.038466,0.157432,-0.107433,0.171929,0.059700,-0.034440,-0.063336,0.099494,0.122640,0.176523,-0.066945,-0.164000,0.189312,-0.211162,-0.130060,-0.041812,-0.134908,0.007920,-0.060934,0.089490,0.155366,-0.155729,0.111133,-0.223685,-0.027836,0.082467,-0.084361,-0.082952,-0.065251,0.111065,-0.014584,-0.085512,-0.138150,-0.089032,0.245508,0.119120,-0.044293,-0.042342,-0.263215,-0.071746,-0.175937,0.203034,0.186371,-0.099958,-0.174924,0.017111,-0.068219,0.094548,-0.149066,0.011895,0.020843,0.198226,-0.086162,0.125105,0.026477,0.056379,0.108166,-0.260157,0.063081,0.102948,0.023671,-0.148948,0.214057,-0.004388,0.107271,0.147844,-0.049481,-0.078468,0.151292,0.049309,0.100598,-0.053023,-0.108364,0.123730,0.058898,-0.150572,-0.048299,-0.025972,-0.152200,0.084739,-0.095528,-0.130243,0.184278,-0.104201,-0.037758,-0.042889,-0.256979,0.109210,0.087684,-0.094047,0.055882,0.015331,0.059708,0.108145,-0.158515,0.272189,-0.105873,-0.059939,0.020752,-0.169403,-0.032872,0.120914,0.064999,-0.023177,-0.028239,-0.031707,0.071220,-0.150909,0.159338,0.208645,-0.115319,0.190951,-0.116529,0.196465,-0.179877,-0.075812,0.059391,-0.027019,0.146505,0.126657,0.258726,0.062830,0.088459,-0.171221,-0.147928,-0.008955,-0.057502,0.240162,0.267132,0.241388,-0.192836,-0.172095,-0.082222,-0.013168,-0.099736,-0.246187,0.008712,-0.005320,0.066428,0.008114,-0.051965,-0.139666,0.070321,-0.177726,-0.121987,-0.164719,-0.053577,0.240259,-0.003830,0.063445,0.027215,0.070495,0.152359,0.163696,-0.117865,-0.088924,-0.160368,0.117259,0.068221,-0.131905,0.073739,0.072063,0.032462,-0.029741,0.181390,-0.153671,-0.118147,0.179306,0.172574,-0.037002,-0.211923,-0.055523,0.208792,-0.164694,0.112130,-0.047987,-0.051020,-0.006330,-0.176877,-0.122832,-0.074651,0.186798,0.079873,0.144371,-0.061407,-0.123976,-0.126705,-0.043872,0.130951,0.196446,0.056746,-0.146162,0.000521,0.017466,0.016053,0.108557,-0.038974,-0.024601,-0.108738,-0.170015,0.011487,-0.086733,0.094706,-0.017797,-0.149036,-0.033372,-0.112234,0.039753,-0.073973,-0.130976,0.073517,0.135576,-0.046769,0.094630,-0.142745,0.072229,-0.133865,0.053782,0.191975,-0.123108,-0.037767,0.204042,-0.038878,0.125080,0.124144,-0.093734,-0.105476,-0.146471,0.073873,-0.298726,-0.118909,0.060200,-0.177744,-0.039260,0.090202,-0.106248,0.192591,0.002322,-0.222691,0.048135,0.063074,0.098673,-0.017295,-0.124220,0.007380,0.067190,0.060622,-0.001009,-0.149131,0.122241,-0.012056,0.205686,0.079013,0.120568,-0.182100,0.148348,0.193832,0.100306,-0.092677,0.010846,0.112429,0.167071,0.020154,-0.013023,0.076882,-0.007411,-0.267905,0.138547,0.028806,0.147883,0.091226,0.114826,0.103164,0.048670,-0.124512,-0.056440,-0.012741,-0.151090,-0.124276,-0.125838,-0.192508,0.020497,0.110183,-0.034457,0.069630,-0.145589,0.049872,-0.080198,-0.034236,0.151750,-0.204040,-0.187718,-0.183826,0.083735,-0.167651,0.066382,0.014216,-0.079018,-0.091877,-0.223481,0.001559,0.118958,-0.097956,0.102201,0.147612,0.011050,0.108242,0.146838,0.049142,-0.165825,-0.111193,0.065793,-0.176549,-0.016925,-0.000962,-0.060615,-0.045639,-0.070954,0.118516,-0.052886,0.222087,0.117681,-0.075548,-0.105208,-0.106792,-0.018178,0.148975,0.065335,0.158640,-0.207310,-0.070682,0.203249,-0.282995,0.012921,-0.094449,-0.090511,-0.180200,-0.109042,0.180625,-0.086438,0.104765,0.068846,-0.159467,-0.148152,-0.049520,-0.158187,-0.129334,0.033899,0.176986,0.163157,0.248691,-0.101358,0.234687,-0.018850,-0.029496,0.040487,-0.018965,0.046520,-0.096218,0.102466,0.060859,0.024421,0.064330,0.103994,-0.131344,-0.089335,-0.029999,-0.251236,-0.094610,-0.003899,-0.077675,0.020559,0.133167,-0.238357,0.124053,-0.155498,0.167429,0.062416,0.010920,-0.005141,0.066096,0.160837,0.062305,0.181852,0.072594,0.056914,-0.234114,0.245906,-0.051474,0.128269,-0.181982,0.202099,-0.175505,-0.023397,0.003555,-0.062460,0.271421,0.062339,0.112158,-0.273601,0.119334,0.121832,0.075807,0.082249,0.130402,0.161966,-0.077330,0.006735,-0.035206,-0.168354,-0.144206,0.026947,-0.121237,0.036427,-0.078994,0.111135,0.023048,-0.142748,-0.115921,0.131541,0.030747,0.012961,0.086128,0.134696,0.085605,-0.130787,0.126738,0.175116,0.061809,0.007485,-0.129038,0.146484,0.033955,0.112073,0.055954,0.182885,-0.015610,-0.106729,-0.055942,-0.007001,-0.130642,0.019535,0.003042,-0.006951,0.084578,-0.000136,-0.087996,0.092483,-0.036556,0.064543,0.108918,0.029509,0.120294,-0.085628,-0.039472,0.159588,0.084731,0.058058,0.118148,-0.142779,0.010834,-0.011959,-0.105182,-0.181241,0.005923,-0.082770,0.127407,-0.127640,-0.090555,-0.074389,-0.065874,-0.090844,-0.067446,-0.053038,0.092730,-0.043469,-0.059281,0.017123,-0.041286,0.149195,-0.089697,0.145071,-0.066028,-0.051320,-0.112887,-0.106379,0.098363,-0.033237,-0.357761,0.240311,-0.031857,-0.110119,-0.012803,0.099835,0.021304,0.309197,0.043292,0.019467,0.325819,-0.052450,0.020877,0.007932,-0.272533,0.009500,0.266294,-0.273823,0.262414,-0.111419,-0.192414,-0.001902,-0.146464,0.132977,0.195172,-0.046287,0.032526,-0.029804,-0.018394,0.154964,0.079930,0.220830,0.085117,0.087855,-0.164715,-0.320360,-0.119462,0.059032,0.371989,0.034465,-0.023468,-0.249798,-0.005531,0.214093,-0.273584,-0.181214,0.096826,-0.403451,-0.022043,-0.196110,0.051619,0.135614,-0.286326,0.214859,-0.014502,-0.056155,0.426606,0.076355,0.038187,0.120825,-0.110954,-0.167270,-0.140457,0.127527,-0.224033,0.292960,0.033826,-0.001512,0.106735,-0.023043,0.319766,0.375888,0.034964,-0.051114,-0.172091,-0.139557,-0.004821,0.115697,-0.060087,-0.106835,-0.120476,-0.065373,0.125420,0.002051,-0.025436,-0.065177,-0.019375,0.005522,-0.092319,0.058676,0.008196,-0.213901,0.160865,0.074328,-0.311482,-0.148108,-0.224168,-0.085853,0.135891,-0.090161,-0.074568,-0.004516,-0.259140,-0.251837,-0.226855,0.042577,0.035254,-0.014421,-0.263933,-0.002542,-0.221199,0.185078,-0.093221,0.113445,0.146526,-0.089815,-0.183811,0.022385,0.002799,0.040282,0.107220,0.002607,-0.312768,0.037366,0.103378,0.114180,0.002405,0.087303,-0.092979,0.272840,-0.158033,0.088729,0.129588,0.223875,0.187065,-0.335703,0.070722,0.105006,-0.058775,0.069209,-0.108989,-0.225610,-0.120137,0.110822,0.218330,0.198870,-0.121388,-0.201423,-0.185758,-0.077204,0.183213,-0.162611,-0.148036,0.203666,-0.449626,-0.222955,-0.043939,-0.113246,0.319054,-0.186680,-0.072395,0.059325,-0.094486,0.077100,0.018631,0.244686,-0.201987,-0.116440,0.044639,-0.012255,0.003151,0.022511,0.063520,-0.109898,-0.015891,-0.066538,-0.266367,0.204529,0.002164,0.024497,-0.043593,0.126380,0.084835,-0.068708,0.149962,-0.063535,0.100456,-0.191769,-0.086499,-0.060472,0.138854,0.136239,0.167816,0.160865,0.139824,0.262841,-0.203796,-0.049099,0.183773,-0.153341,-0.412649,0.080201,-0.048480,-0.139505,0.125501,-0.185642,0.154202,0.132968,-0.337486,-0.295634,0.126219,0.338598,-0.135845,0.073265,-0.050676,-0.126635,0.113273,0.137286,0.092212,0.085958,0.188210,-0.088927,-0.203500,0.194245,-0.081323,-0.241516,-0.028914,0.076443,-0.229853,0.078859,-0.108635,-0.250560,-0.013234,0.026746,-0.019835,-0.044265,0.005444,-0.008858,-0.005274,-0.053358,-0.012397,0.202153,-0.082222,-0.184304,-0.019532,-0.102966,0.045060,0.042599,-0.039536,0.112128,0.017355,0.112624,-0.068074,-0.052407,-0.100815,0.035519,-0.047623,-0.031440,0.165972,-0.045140,-0.103325,0.178260,-0.117910,-0.180302,-0.219002,-0.011656,0.095156,-0.131279,-0.072300,0.093210,0.127904,-0.134529,-0.044683,0.135692,0.115012,0.257034,-0.206211,0.039126,-0.176041,0.173979,-0.094148,-0.000835,0.142846,-0.092888,0.121964,0.046566,-0.030933,-0.052303,-0.081030,0.121356,-0.123699,0.006071,0.103261,-0.085288,-0.128813,-0.112470,-0.059976,0.091098,-0.169186,-0.016785,-0.067991,0.177421,-0.139994,-0.108779,-0.033187,0.042649,-0.079850,0.160097,0.165549,-0.142685,0.025605,0.366526,0.095492,0.089191,-0.087885,0.049554,-0.117972,0.034001,0.181058,-0.122319,0.105518,0.030070,-0.159369,0.101647,-0.015193,-0.118276,-0.079369,0.096049,-0.152286,-0.150028,-0.038367,-0.061317,-0.127427,-0.072514,0.184326,-0.185978,0.152188,0.079844,-0.027665,0.043511,-0.323396,0.103401,0.088070,-0.128045,0.165560,-0.119360,-0.170135,0.187244,-0.136417,-0.183649,-0.100721,-0.157247,-0.090817,-0.134626,0.316345,0.041156,0.125953,-0.032699,-0.056068,-0.001060,-0.103749,-0.185989,-0.008667,-0.178604,-0.036102,-0.092575,0.103745,-0.113049,-0.135226,-0.184439,0.079094,0.183531,-0.018491,-0.052200,0.031976,-0.076244,-0.010763,-0.068244,-0.099663,-0.069229,0.136118,0.255024,-0.000489,0.051180,0.031417,0.075820,-0.192558,0.140794,0.264634,0.042448,0.115861,0.222532,-0.030382,-0.143974,-0.096613,-0.016023,0.002461,0.194855,-0.263420,0.200575,0.241691,0.004767,-0.012772,-0.226761,0.002899,0.189608,0.108236,0.021265,-0.261797,0.181169,0.074161,0.114682,0.320673,0.114362,-0.264644,-0.224796,-0.041473,0.071429,0.027993,-0.086335,0.043328,-0.094094,-0.067247,0.077718,0.176481,0.141074,-0.101821,-0.049132,0.109996,0.046881,0.051806,0.220400,-0.092852,0.057671,-0.153000,-0.027431,-0.057634,0.161262,0.096431,0.129766,0.061784,0.064102,-0.202097,-0.117805,0.162032,-0.030752,-0.125906,0.042826,0.117525,-0.026694,-0.085414,0.228654,0.123584,-0.028807,-0.194500,0.142797,0.040461,-0.056577,0.208261,-0.132413,-0.135495,0.095161,-0.027880,0.166808,0.112824,-0.040864,-0.048626,0.075849,-0.013740,0.171270,0.170309,0.095815,0.149054,-0.197917,0.104772,-0.190265,0.099797,-0.083780,0.173581,0.019865,-0.092841,0.019237,0.271884,0.230060,0.178042,-0.080257,0.020829,0.078112,0.054697,0.091045,0.076659,0.081566,-0.094933,0.224925,0.168329,0.297561,-0.124734,0.096934,0.115644,-0.082233,-0.020882,0.004479,-0.032341,-0.020881,-0.111883,0.038754,-0.176949,0.065502,-0.092107,-0.201500,0.073171,-0.098179,0.018181,0.164423,-0.100568,-0.098225,-0.202600,-0.092481,-0.209812,0.029555,-0.055287,-0.133549,0.150104,-0.165690,0.153136,-0.133798,0.019240,-0.120248,-0.076625,0.221537,0.030395,0.070053,0.209941,0.007044,-0.112650,0.071483,-0.203266,-0.058162,-0.028279,0.028362,-0.202968,-0.167127,0.080854,-0.121147,-0.145657,0.051096,-0.171573,-0.107826,0.000843,0.044936,0.065121,-0.021099,0.007703,0.196426,-0.076981,-0.046188,0.140113,-0.138172,0.002861,0.051435,0.181070,-0.083607,0.059308,-0.094867,0.109573,0.143109,0.030659,-0.015018,0.036766,-0.218857,0.048844,0.227081,0.041874,-0.100994,0.065300,0.193305,0.014285,0.208457,0.073553,-0.027114,0.187600,0.149338,-0.004406,-0.047380,-0.025332,-0.049998,-0.047547,0.034787,0.193275,0.100383,0.022576,0.003202,0.116104,0.158951,0.054392,-0.260724,-0.064997,0.286235,0.154623,-0.102088,-0.015269,-0.033313,-0.062520,-0.060145,0.041836,0.148020,-0.033279,0.098925,-0.130520,0.043520,-0.109768,-0.265512,-0.194509,0.169152,-0.063729,0.018612,-0.068997,0.022699,-0.026278,-0.180664,-0.119770,-0.090286,0.034421,0.017361,0.108720,0.149980,-0.093178,0.038566,-0.068814,0.127820,-0.077537,0.175763,-0.035485,-0.070959,0.148840,0.162883,0.310107,0.192735,0.185630,0.075559,-0.117620,-0.090041,0.173325,0.151712,-0.019074,-0.305874,-0.011301,-0.094521,-0.069803,-0.163849,-0.192056,-0.142556,-0.067575,-0.118767,0.125016,-0.103477,-0.073532,0.076046,0.058806,-0.255352,0.043566,0.126772,0.096507,-0.081043,0.121702,-0.084574,0.052857,0.120952,0.145446,-0.033730,-0.014847,0.147833,-0.022847,0.159174,0.002554,0.059007,0.020947,0.094200,0.054606,0.024761,0.057954,0.117937,0.019076,0.041693,0.043213,0.005963,0.049221,0.011248,0.104767,-0.014900,0.015529,-0.076512,-0.055770,0.163544,-0.090462,0.116074,0.019850,0.033903,0.084190,-0.105434,0.011575,-0.003584,-0.095852,0.065636,0.024628,-0.151859,0.040686,0.006097,-0.009946,-0.088159,0.150307,-0.136046,-0.109470,0.117796,0.166945,0.086770,0.016478,0.039495,-0.045670,0.166877,-0.056403,0.097120,-0.156384,-0.129008,-0.096809,-0.008809,-0.045433,-0.179824,-0.109264,0.156868,-0.115870,0.018476,-0.068011,0.161560,-0.119918,0.086574,-0.050188,-0.010090,0.096306,-0.136957,-0.118312,-0.140993,0.151651,0.078416,-0.074864,0.179913,0.149302,-0.004796,0.155118,-0.099559,-0.058161,0.060197,0.041325,0.139100,0.108854,-0.156275,0.003886,0.088943,0.026254,-0.116032,-0.079888,0.003316,0.082335,0.183722,-0.136471,0.246089,0.142444,-0.037446,0.062527,-0.216475,0.058801,0.235208,-0.044914,-0.167332,-0.009040,0.044704,-0.116917,-0.065488,0.042797,0.059754,-0.000386,0.093172,0.004918,0.092412,-0.112904,0.111646,0.055550,0.159875,-0.006212,-0.053293,0.004517,0.098866,-0.155965,0.060264,-0.142912,-0.170028,-0.050708,-0.047738,0.057897,-0.004737,-0.032502,-0.082785,0.078803,-0.035692,-0.135954,0.222323,0.023890,-0.019506,0.013359,0.019634,0.023744,0.098704,-0.083484,0.098978,0.138174,0.178470,0.116741,0.179708,-0.122118,-0.132150,-0.228688,0.123792,-0.019138,-0.221454,0.103279,0.077811,-0.035303,-0.093186,-0.144313,-0.160408,0.116565,0.040939,0.081735,-0.119555,0.117772,0.178731,0.145470,0.116543,0.097616,-0.045376,-0.108588,0.089997,-0.060991,-0.119128,-0.090817,-0.325116,0.092720,0.201639,0.024077,0.126278,0.151567,-0.202551,-0.145806,0.020910,0.160017,0.128375,-0.270164,-0.156374,-0.134088,-0.063803,0.032797,0.212979,-0.148175,0.000076,-0.139719,0.105101,0.057329,0.001831,0.065440,-0.192205,-0.110685,0.042957,0.215165,0.110015,0.010529,0.256888,-0.189548,-0.140560,-0.300443,0.045419,0.200477,-0.186001,0.071396,-0.122643,-0.193849,0.310815,-0.298427,-0.044979,-0.179672,0.093763,0.162981,-0.191173,0.102626,-0.060192,-0.059921,-0.021150,-0.330520,0.138438,0.047058,0.174544,0.283042,-0.103446,0.083170,-0.179261,-0.118686,-0.122308,0.180099,-0.111895,-0.032845,-0.188021,-0.351381,0.064466,-0.139198,0.022985,-0.016713,-0.077546,0.210070,-0.313855,0.023983,0.404954,-0.191852,0.054223,0.140748,-0.105186,0.098690,0.141306,-0.183375,0.009228,0.122523,0.086909,-0.069244,0.030009,0.135095,0.119775,0.174188,0.016296,0.127306,-0.023668,-0.116114,0.067933,-0.103086,0.164397,0.060196,0.145499,0.138871,0.099348,-0.210123,-0.183095,0.083781,0.121816,0.135615,-0.192199,-0.066771,0.152705,-0.080143,-0.146879,0.057708,-0.024281,-0.059023,0.112527,0.211314,0.089603,0.035182,-0.011467,0.099816,0.173329,-0.120944,-0.185880,-0.004431,-0.139110,-0.083191,0.081781,0.095450,-0.007766,0.104996,0.041598,0.232994,-0.126849,-0.192883,-0.118523,0.056402,0.100059,0.079366,-0.108423,-0.101212,0.182639,0.029637,0.145086,0.101962,-0.053790,0.026860,-0.200112,-0.101724,0.215720,0.168771,0.036264,-0.033833,0.075432,0.085687,0.113701,-0.107934,0.081543,-0.057891,0.008489,-0.201955,-0.036795,-0.188945,-0.076090,-0.071943,0.155194,-0.058961,-0.198622,-0.053346,-0.141830,-0.040455,0.014401,-0.042469,0.171659,0.065778,-0.121907,-0.094673,-0.056206,-0.099718,0.102461,0.065961,-0.173714,-0.136135,-0.004676,-0.109754,0.230356,0.104152,-0.260742,-0.110809,0.071380,-0.176762,-0.272434,-0.064147,-0.207019,-0.203422,0.086104,0.043605,-0.035573,0.077575,-0.211982,-0.106986,0.028204,0.205024,-0.026642,-0.406611,0.013595,-0.006805,0.237725,-0.054253,-0.049111,-0.124249,-0.156523,0.033780,0.163285,0.170388,0.086844,-0.066725,0.282518,-0.148590,-0.151445,-0.021505,-0.122896,0.138257,-0.190773,0.086798,-0.049299,-0.078215,-0.165049,-0.233370,-0.042661,0.086889,0.129874,-0.075169,0.159928,0.101620,0.189873,-0.038621,0.026473,-0.015782,-0.056193,0.063893,-0.290101,-0.024939,-0.016509,0.051448,-0.109684,0.003046,-0.184856,-0.132843,0.168979,0.079857,-0.031202,0.060326,0.052925,-0.087554,-0.012449,-0.057465,0.199741,0.301844,0.095471,0.058107,-0.100627,-0.092544,0.228066,0.236958,-0.005786,-0.131100,0.067536,0.060864,0.007163,-0.230202,-0.162483,0.133014,0.074549,-0.079000,-0.106283,0.124682,-0.098396,-0.129785,0.069056,0.084873,-0.158965,0.003384,0.029852,-0.063656,0.028841,-0.003935,-0.178526,-0.103464,0.088610,-0.038854,0.131194,-0.131194,0.017864,-0.107440,-0.092008,0.102335,-0.122956,0.177852,-0.058254,0.159943,-0.074945,-0.097245,0.088994,-0.081075,0.109477,0.041072,-0.010795,-0.192562,-0.232942,0.040686,0.066351,0.111969,0.202216,0.071249,0.135473,-0.104853,0.196962,0.241237,0.193153,-0.057571,0.270285,-0.037450,0.120041,-0.018863,-0.144882,-0.068704,-0.162606,-0.082571,-0.009165,0.146399,0.069027,0.019463,0.143548,-0.181234,-0.057293,-0.095564,-0.062142,-0.100453,-0.000904,-0.102479,0.141509,-0.078897,0.160136,0.039546,0.139288,0.035086,0.075792,0.068879,0.066005,-0.107658,-0.069621,-0.015832,0.117035,0.052583,0.140972,0.101993,0.012622,0.001750,-0.112307,0.113227,0.053929,0.190654,-0.161513,-0.258757,0.135373,-0.131504,0.046162,0.174416,0.095169,-0.036008,-0.142482,0.071556,-0.156537,0.102167,0.194326,-0.194023,0.175984,0.163840,0.205829,0.094097,0.048879,-0.113451,-0.017714,0.136406,0.214625,-0.022205,0.047633,-0.107303,-0.187549,-0.111421,0.093667,0.083190,-0.016909,-0.133608,0.135573,-0.105978,0.003543,-0.159683,-0.418894,-0.096988,-0.072412,0.170558,0.034590,-0.191221,0.088115,-0.130568,-0.093994,0.253673,-0.147593,0.100097,0.152189,-0.028007,0.078588,0.088490,0.028904,-0.249916,-0.197720,0.014395,-0.003440,0.198692,0.007658,-0.137673,0.049736,0.026724,-0.102199,0.087526,0.010555,0.273868,-0.112801,0.041978,-0.025435,0.056796,-0.006133,0.225250,0.096126,-0.173256,-0.090071,0.126840,0.048636,-0.061611,0.084745,0.025348,0.047143,-0.306864,0.015576,0.171823,0.320783,0.267277,-0.171375,0.081555,0.118237,-0.228052,-0.204892,0.070480,-0.087144,-0.084296,-0.106750,0.240142,0.170323,-0.064731,-0.114634,0.126349,0.235455,0.121163,0.026753,0.221771,-0.027994,-0.053613,-0.038527,-0.127269,0.032276,0.198084,-0.173693,0.338645,0.222961,-0.007314,-0.156569,0.183179,0.229363,-0.081779,0.107635,-0.018797,0.221364,-0.019552,-0.298388,-0.078402,-0.107821,0.021124,-0.237892,-0.134405,0.217701,-0.008565,-0.160921,-0.201463,-0.007507,-0.121453,0.127523,-0.153475,0.141662,0.072462,-0.030361,0.062408,0.034671,-0.049744,-0.160774,0.190256,0.104448,0.055131,0.094574,-0.161975,-0.059743,-0.084188,-0.174863,-0.039251,-0.083296,0.129175,0.174647,-0.058466,0.079019,-0.033358,-0.100033,0.062487,0.067864,-0.053055,0.162923,0.073670,-0.109456,0.050229,0.031443,0.019494,0.106658,0.155790,0.204806,0.156521,-0.112929,-0.098374,0.028923,-0.124810,-0.140129,0.114108,-0.002388,0.093361,-0.130545,-0.149350,0.052195,-0.033481,-0.043339,0.065325,0.108044,0.117931,0.043269,-0.144875,-0.020599,0.159197,-0.057766,0.060138,-0.040260,0.072628,0.123568,0.105645,-0.015383,0.136037,0.081567,-0.123617,-0.054575,-0.050044,-0.071871,-0.007567,0.001831,0.021161,0.009144,0.071426,-0.078384,-0.009615,-0.036869,0.060864,0.094367,0.045039,0.040286,-0.201313,0.158036,0.012316,-0.100923,-0.193288,-0.156431,-0.213095,-0.007554,0.130996,-0.065691,-0.179435,0.000119,0.043681,0.184116,0.233297,-0.197273,0.077847,-0.066340,0.170572,-0.016364,-0.206940,0.170948,-0.114897,0.170215,-0.012214,0.106855,-0.089977,0.036318,0.019154,0.048672,0.224237,-0.084589,0.172958,-0.250372,0.000865,0.103830,-0.102697,-0.054353,-0.147239,0.197006,0.188020,0.109149,-0.104781,-0.141158,-0.121033,-0.075943,0.089420,0.059464,-0.024474,0.111252,-0.007625,0.198138,-0.164709,0.070676,0.301950,0.077400,0.282630,-0.187593,-0.090135,-0.034520,-0.149812,0.028007,-0.120462,0.146070,0.152942,0.041783,-0.079364,-0.040278,-0.005998,0.190136,-0.102567,0.248782,-0.144221,-0.020193,-0.110764,-0.004373,-0.091490,-0.154390,0.053339,0.014044,0.056161,0.020959,0.165546,-0.055908,0.001075,0.070520,-0.133128,-0.147718,0.057279,-0.015396,-0.085244,-0.051412,-0.054265,-0.184542,0.028126,-0.154439,-0.023764,-0.147588,0.088773,0.050221,0.076967,0.103658,-0.093469,0.106979,-0.000743,0.204412,0.118389,0.058559,-0.115796,0.059795,0.149653,0.125554,0.109638,0.043068,0.178717,0.126407,0.110525,-0.157609,-0.178688,-0.122716,0.047017,-0.144220,-0.103227,0.058848,0.150425,0.022529,-0.074798,0.096640,0.132552,-0.124312,-0.120984,0.137372,-0.071431,0.142381,0.200871,-0.056294,-0.059328,-0.107195,0.014372,-0.040243,-0.000021,-0.134591,-0.011585,0.128970,-0.047728,0.001374,-0.066988,0.055828,-0.135321,0.107850,0.028010,-0.093859,0.084723,-0.047732,-0.006799,-0.032202,0.170509,0.018394,-0.023179,-0.092891,0.140036,-0.089896,0.132710,-0.175657,-0.075555,0.003486,-0.016819,0.145783,0.101934,0.069297,-0.280104,-0.183605,0.125841,-0.041271,0.052678,-0.018055,-0.154605,-0.034950,-0.050042,-0.024295,0.164818,0.022451,-0.180211,-0.053198,0.102803,-0.090237,-0.050336,0.135675,0.038281,0.015959,-0.064359,-0.120078,0.151384,-0.190687,0.156132,0.148717,0.195260,0.009923,-0.011199,-0.052408,0.146640,0.036035,0.031201,0.132162,-0.058095,-0.182655,-0.139130,0.082845,0.169195,-0.017405,0.075902,-0.042501,0.048435,0.033277,0.052466,0.048076,0.026052,0.054128,-0.057210,0.297635,0.003305,0.038565,0.306121,-0.033455,0.251277,0.059100,0.038463,0.075217,0.124135,-0.217816,0.089317,-0.120773,0.071501,0.226025,0.107140,-0.106882,-0.190518,-0.132363,-0.226837,-0.027304,-0.056533,0.268138,-0.095859,0.100520,-0.073485,0.064942,0.180755,0.157640,-0.043423,0.076465,-0.102377,-0.012253,-0.189725,0.159070,0.153383,-0.105311,-0.029400,0.143776,-0.057571,-0.026175,-0.104558,-0.209767,0.172997,0.072594,-0.093003,-0.147055,-0.179864,0.017501,-0.243105,-0.043947,0.141364,0.085187,0.186756,0.014245,0.109414,-0.015822,0.090498,-0.107283,0.126491,0.099697,-0.207725,-0.013046,0.266629,0.176528,0.148992,-0.094154,0.055024,-0.088845,0.082160,0.007255,-0.174441,-0.037422,-0.079668,-0.110541,-0.133662,0.043039,0.028773,-0.134339,0.213147,-0.010009,0.051984,0.193100,0.161854,0.125370,-0.078923,0.027426,-0.012972,-0.190351,0.010707,-0.017559,-0.028013,0.136413,0.180289,0.185199,-0.104440,0.138154,0.008028,0.090533,0.002275,0.134520,0.163894,-0.036753,0.113572,-0.168151,0.178037,0.058965,-0.183421,0.115287,0.111224,-0.008565,0.187491,0.049178,0.156588,-0.082117,-0.137050,0.184314,0.064045,0.024257,0.093654,-0.010891,-0.093431,0.165334,0.087769,0.044701,-0.017125,-0.183483,-0.174960,0.063382,0.142306,0.087384,0.222402,0.083826,0.155200,-0.200914,-0.183421,-0.086604,0.011652,0.003070,-0.071344,-0.083160,0.044830,0.191323,-0.199867,0.026359,0.152233,-0.046893,0.295928,-0.158993,-0.020058,-0.203202,-0.005008,0.127301,-0.050490,0.119413,-0.147338,-0.099791,0.037662,-0.070358,0.150147,0.017049,-0.165680,-0.226214,0.059601,0.193271,-0.151450,0.010246,-0.037406,-0.311008,-0.330416,-0.188672,0.076281,0.152360,0.085705,0.163273,-0.029085,0.069379,0.033636,-0.058797,-0.028403,0.057264,-0.082671,0.081602,0.188250,0.030054,-0.054631,-0.216833,-0.028507,0.186920,-0.074088,0.070576,0.041774,0.113525,0.001894,0.019360,0.001794,-0.104047,-0.097385,0.072740,-0.074385,-0.056282,0.094796,-0.104324,-0.203319,-0.000692,0.105075,-0.038278,0.079189,0.021971,-0.093146,0.212961,-0.096345,-0.059622,-0.062399,0.130395,-0.066721,0.209153,0.003600,-0.070764,-0.244821,-0.002009,-0.059909,0.165513,0.148248,0.142796,0.042321,0.031446,0.142239,0.093179,0.119382,0.043691,0.154349,-0.043073,-0.112154,-0.007376,-0.043137,0.169981,-0.026954,0.094130,0.011911,-0.145755,-0.006139,0.072185,0.171380,-0.119973,-0.031598,0.090483,0.147255,0.233532,-0.066102,-0.003405,-0.044561,0.106644,0.142937,0.035444,-0.021849,0.169717,0.111988,0.094013,0.103874,-0.130533,0.067630,-0.123586,0.071365,0.008355,0.156215,0.075671,-0.102276,0.067055,0.045406,0.116700,0.113970,0.009222,0.026133,0.142794,0.084070,-0.066028,-0.089078,-0.065087,0.188274,0.161494,0.084446,-0.026165,0.142574,-0.101833,-0.076734,0.174360,-0.002969,0.124896,-0.302305,0.268263,-0.091593,-0.137098,-0.015997,0.177430,0.052384,0.206848,0.086662,0.196680,0.348039,0.135093,-0.042471,-0.119174,0.042152,0.055176,0.322540,-0.230685,-0.043211,0.016550,-0.052455,-0.016709,0.031886,0.103420,-0.135521,-0.017882,-0.283364,-0.120319,0.119659,0.357147,-0.396206,0.288409,0.052913,-0.045514,-0.084372,-0.145457,-0.222965,-0.125180,-0.114498,0.174194,0.044542,-0.046560,-0.134996,-0.032933,0.256518,-0.024701,0.259480,-0.138021,0.162861,-0.135891,-0.107935,-0.085710,-0.121282,-0.156959,0.016099,0.113900,0.075196,0.135289,0.043871,-0.053290,-0.007265,-0.170497,0.335875,-0.001590,-0.131090,0.015331,-0.001010,-0.172342,0.099064,-0.164616,0.025376,0.263788,0.038086,0.113438,-0.468442,0.056260,-0.311358,-0.009229,-0.180836,0.073008,0.063827,-0.159580,0.208860,-0.002051,0.174536,0.085898,-0.027928,-0.189123,0.036496,-0.062242,-0.060326,0.052460,-0.124343,-0.123581,0.031443,0.026123,0.100460,0.022459,-0.207898,0.192000,0.099283,0.031299,-0.037303,0.050800,0.132668,-0.183568,0.127082,0.020448,0.021874,0.254047,-0.143241,0.139914,0.123087,0.029126,0.003916,-0.074476,0.013945,-0.013182,-0.181519,-0.237085,0.164575,0.241219,-0.180635,-0.105473,0.122983,0.065326,-0.023835,-0.118725,-0.068612,0.162014,-0.038802,0.095217,0.237273,0.023409,-0.171919,-0.064523,-0.026503,-0.115599,-0.140298,0.080100,0.044156,0.026099,-0.150812,0.078293,0.192968,-0.098979,-0.200376,-0.028483,-0.082023,-0.002518,-0.188639,-0.203023,0.000700,0.038031,0.122938,-0.086420,0.148335,0.114438,-0.189981,-0.187195,0.014335,0.058358,0.017793,-0.220502,-0.024511,-0.013464,-0.126541,-0.072477,0.086389,0.008142,0.055462,-0.137625,-0.124878,-0.049569,0.142364,0.070539,0.117939,0.046822,-0.018230,0.083554,-0.099682,0.025885,0.066891,-0.138736,0.059713,0.067456,-0.014508,-0.099620,-0.021794,-0.078086,0.151799,-0.110086,-0.103482,-0.058967,0.042144,0.067610,0.165056,0.119333,0.059954,0.131829,-0.084218,0.031845,0.041924,0.097751,0.149182,-0.009543,0.095490,0.049683,0.066032,-0.009625,-0.094395,0.028470,0.102791,-0.086737,0.011294,-0.107627,0.112955,0.063808,-0.013327,0.135267,0.155368,-0.089417,-0.159021,0.095616,-0.045258,0.139591,-0.067668,-0.111048,0.093339,-0.028192,0.112669,-0.112033,0.181129,0.142381,-0.042927,0.126928,-0.135121,-0.137026,0.005250,-0.162095,-0.067569,0.138115,-0.098550,0.078821,-0.069786,0.127312,-0.146755,-0.106819,-0.078430,-0.000776,-0.071678,0.077606,0.091716,-0.140167,-0.189313,0.076280,-0.266170,-0.005585,-0.037967,-0.195516,-0.081456,0.126753,0.131070,-0.229011,0.097189,-0.161077,-0.074492,0.011122,-0.137201,0.175129,-0.142315,-0.039510,-0.081048,-0.160154,0.026401,-0.052619,0.149995,0.002000,-0.221722,0.015665,0.069223,-0.129151,-0.007181,0.047961,0.087932,-0.177278,-0.171696,0.287141,0.173983,-0.195349,-0.050150,0.159371,-0.127557,0.213568,0.217298,-0.008729,-0.126573,0.088229,-0.019600,0.249606,-0.121267,0.061802,0.306487,-0.128223,0.138343,0.111870,0.016297,-0.107353,-0.308558,-0.029951,0.176189,0.102162,0.155022,0.039434,-0.048011,-0.012902,-0.130299,-0.159264,0.102419,-0.077313,-0.027814,0.152923,-0.086699,-0.057198,-0.050117,-0.056237,0.100618,0.202193,0.080525,0.035206,-0.000706,0.341708,-0.171399,0.230708,-0.215943,-0.081485,0.020256,0.024370,-0.154209,0.105102,-0.041108,0.138211,-0.054865,-0.055199,0.043682,0.125834,0.047779,-0.029395,-0.175537,-0.009993,0.054508,0.057958,-0.012201,-0.011761,-0.112210,0.000801,-0.118915,0.137098,0.136391,0.111732,0.107633,-0.203599,0.231875,0.017721,-0.023356,0.089762,-0.108039,0.171898,-0.094834,0.061001,0.104158,-0.042541,-0.091958,-0.079107,0.164330,-0.134541,-0.154528,0.168244,-0.030318,-0.073989,0.082893,0.026739,0.046392,-0.060649,-0.225784,-0.023316,0.214684,0.019564,-0.114908,0.049873,-0.028196,-0.138360,0.094903,0.062243,0.188464,-0.110089,0.047881,0.005188,-0.078108,0.030959,0.331336,-0.067214,0.169114,0.341088,-0.071106,0.048289,-0.139809,-0.016681,-0.049927,-0.023697,0.278552,-0.120902,-0.023019,0.131182,0.265268,0.102610,0.089378,-0.153662,-0.076886,-0.184485,0.034062,0.077634,-0.116316,0.131319,-0.051491,0.122665,-0.076227,0.031785,-0.109251,-0.042760,-0.015745,0.014857,-0.007170,-0.018954,-0.368734,0.049605,-0.002216,0.136751,-0.002583,0.043550,0.050391,0.199160,-0.195528,-0.098470,0.064344,0.065852,0.204534,-0.091907,-0.125468,0.033177,-0.109500,0.180088,0.086559,0.188008,0.019782,-0.186631,-0.017237,-0.064811,0.108637,-0.125711,-0.241100,-0.163910,-0.220906,0.094041,-0.116727,0.120554,0.040006,-0.125876,-0.176534,0.053599,0.139503,0.243141,0.152409,0.001572,-0.109779,-0.068379,0.144900,0.197671,-0.155431,-0.065413,-0.060411,0.011926,-0.123803,0.082969,0.074132,0.096586,-0.200984,0.234912,-0.115129,-0.029937,0.097783,0.076460,0.055240,0.217126,-0.118826,-0.179120,0.025259,-0.031591,0.250201,-0.076432,-0.046741,0.109867,0.173050,-0.128390,0.095292,0.049205,0.174063,-0.135812,0.253309,0.052922,0.052847,0.038377,-0.088885,-0.173515,0.225181,-0.022488,-0.012056,-0.046360,0.104965,-0.169412,-0.025174,0.012334,-0.018802,-0.047548,0.106570,-0.021497,0.098113,0.231667,-0.086108,-0.137950,-0.031706,-0.176641,0.144406,-0.136067,0.219558,0.087233,0.181868,-0.047219,-0.019573,-0.037119,0.099096,0.161885,-0.072927,0.057532,-0.143082,0.103479,0.171834,-0.019975,-0.051174,0.052049,0.165726,-0.012852,-0.023080,-0.054881,-0.115314,0.118424,0.151531,-0.040106,-0.025598,0.066225,0.207763,-0.084667,0.068899,-0.019557,0.201075,0.092689,-0.093376,0.135757,-0.019858,-0.047127,0.130793,0.177063,-0.038724,0.111979,0.224414,-0.056462,-0.210135,0.114942,-0.083777,-0.069219,0.101209,-0.174597,-0.088330,0.121445,-0.068262,0.154288,-0.107134,-0.217186,0.121671,-0.111015,-0.219704,-0.204527,-0.247338,0.162883,-0.094667,0.080866,-0.111603,-0.093072,-0.045005,0.084392,-0.159499,0.040553,0.067500,-0.133719,-0.008802,-0.159723,0.166898,0.090276,-0.051849,0.152520,0.223305,-0.106373,0.014320,-0.149120,0.030862,-0.061830,0.150005,0.151053,0.030467,0.093760,-0.117399,0.093273,-0.121261,0.096122,0.071172,-0.125875,-0.091296,0.009025,-0.310646,-0.052856,0.067147,-0.106594,-0.101756,-0.027277,-0.103235,0.067540,0.095393,0.170515,0.064759,0.020029,0.174156,-0.180933,-0.124354,0.178967,0.099582,0.135568,0.142730,0.015720,-0.007114,0.224841,0.096142,0.217093,0.168439,-0.086335,0.043592,-0.205759,0.182784,-0.041670,0.103181,-0.110771,-0.059715,0.196923,0.161606,0.180818,0.091713,0.102930,-0.147461,-0.191717,-0.030452,-0.070760,-0.008938,-0.163788,0.118235,-0.191974,-0.161242,-0.147413,-0.293041,-0.030513,-0.124765,0.026507,0.071418,0.075890,-0.103164,0.218701,-0.221839,0.098558,-0.031532,0.143586,0.046755,-0.103967,-0.078245,0.091912,-0.018466,-0.053126,-0.075304,-0.047626,-0.107010,-0.021739,-0.097720,-0.247773,0.270952,-0.038775,-0.131528,0.144678,-0.277887,0.024469,0.030936,-0.056801,-0.041809,0.113723,0.115087,0.049030,-0.173340,0.075672,-0.216693,0.161313,0.249811,-0.136715,0.161929,-0.017516,0.138357,0.255765,-0.070138,0.088407,-0.040006,0.118118,0.023566,0.115563,0.145276,0.045032,-0.126514,0.058576,0.120890,0.214323,-0.037588,-0.051120,-0.188072,-0.201312,-0.247755,-0.089239,0.113656,0.266370,-0.207798,-0.020151,-0.225412,0.313445,-0.191205,-0.051525,0.053950,0.073121,0.031954,-0.229057,-0.078828,0.176456,-0.048526,-0.106198,-0.204470,-0.115886,0.043538,-0.018668,0.006731,0.028335,-0.067948,0.068695,-0.208055,0.168936,0.019242,0.052366,-0.139947,-0.136076,-0.071315,0.175922,-0.009801,-0.023051,-0.265769,-0.088953,-0.069290,-0.108294,0.184656,0.136895,0.215039,0.168988,-0.251677,-0.089101,-0.217776,0.199921,0.215566,-0.025290,-0.156217,-0.145129,-0.112577,-0.145967,0.024320,0.138857,0.001724,-0.155768,-0.267072,-0.140546,0.094439,0.201591,-0.069110,-0.119504,-0.016284,0.134852,-0.093867,0.117753,-0.062192,-0.204755,-0.154303,0.153575,-0.145926,0.139495,0.067452,-0.161354,0.179019,0.004644,-0.019908,-0.154090,-0.143196,0.001484,-0.029960,0.048381,0.086291,0.092569,0.071089,0.002485,-0.139321,0.088447,0.057235,0.110776,0.010303,-0.233263,-0.149243,0.012594,0.100331,0.116538,-0.152319,-0.059711,-0.100966,0.039467,0.061313,0.128702,0.096676,0.121325,-0.026631,0.130972,-0.203633,-0.066072,-0.096603,0.091616,0.137372,-0.167952,0.234061,-0.087125,0.014302,-0.035307,0.042027,0.114541,0.003989,-0.086950,0.191047,0.042588,-0.008117,0.060810,0.241506,-0.088662,-0.051944,0.075407,0.093256,-0.122795,-0.005219,-0.008407,-0.158987,0.118704,0.082661,0.054471,0.116406,0.018684,-0.072213,-0.071929,-0.055932,0.030832,0.028993,0.044528,0.010706,0.173850,-0.126497,-0.047347,-0.129060,-0.159218,0.022341,0.227564,0.021404,0.209589,-0.001494,-0.086000,-0.199897,-0.096274,-0.209971,0.146504,-0.127014,0.149978,-0.112661,-0.162551,0.060769,0.169720,-0.116931,-0.056065,0.072845,0.039440,0.187064,-0.037099,-0.103774,-0.156824,0.013258,-0.106081,0.056568,0.041895,0.121696,-0.209479,0.111318,0.016584,0.033109,-0.177086,0.160667,0.019418,0.016047,-0.120534,-0.245274,0.305534,-0.019346,-0.102821,-0.042779,-0.248437,-0.009776,-0.062060,0.006609,0.076742,0.178254,-0.361169,0.177767,0.252063,0.028993,0.204874,0.139172,-0.067044,0.063548,-0.034664,0.079622,-0.208581,0.238651,0.122050,-0.231456,0.248321,-0.181184,0.019122,-0.134519,-0.039588,-0.074148,0.198586,0.228635,0.220319,-0.095932,0.099336,-0.076343,-0.081676,-0.167333,-0.315563,-0.180850,-0.119166,-0.356780,0.077776,0.090820,-0.204270,0.041006,0.212264,-0.007772,0.049513,-0.285778,0.024648,-0.204628,-0.055901,0.149142,-0.086914,0.010369,0.074705,0.050949,0.205624,0.240447,-0.314919,0.272555,-0.159958,0.057081,-0.127368,-0.154347,-0.053523,0.055583,0.014937,0.182647,-0.085491,-0.065202,-0.125562,0.100020,0.128282,-0.029087,0.296910,0.050430,0.023413,0.029394,-0.239210,-0.032313,0.027740,-0.114481,-0.403926,0.151706,-0.048566,0.248833,-0.103417,-0.082219,0.227133,-0.192238,-0.020451,-0.007432,-0.118600,0.001561,-0.028767,0.228900,-0.173746,-0.011106,0.113624,0.091919,0.099433,-0.009485,0.063516,0.265765,-0.105178,0.070974,0.049568,0.104058,-0.029110,0.214089,-0.092561,-0.045022,-0.004871,-0.049067,-0.236152,-0.124719,-0.022448,0.097811,-0.097170,0.236926,0.042612,0.002002,0.028988,0.049999,-0.038603,-0.291149,0.098060,0.021872,0.081118,0.099339,0.013530,0.098181,0.141582,-0.101478,0.060352,0.135978,-0.031739,0.075583,0.142842,0.108685,-0.084582,0.237431,-0.430058,0.137394,0.286918,-0.097935,0.039448,-0.183209,-0.190273,-0.354338,-0.167276,0.262997,-0.050490,0.342286,-0.123699,-0.213888,0.028967,-0.032395,-0.020623,-0.117389,0.118962,-0.084789,-0.173975,-0.178678,0.132336,-0.057678,-0.017790,0.121705,-0.018638,-0.039707,-0.040349,0.202874,0.044753,0.027288,0.100362,-0.016736,0.119431,-0.094018,0.132271,-0.101425,0.021119,0.067760,0.132877,-0.120878,-0.059165,-0.098417,-0.143028,0.156274,0.129576,0.041654,0.089641,0.037736,0.221887,-0.005776,-0.138471,0.040405,0.296233,0.075449,-0.027267,-0.037339,-0.093658,-0.031549,-0.146194,0.081800,-0.143178,-0.106314,0.103627,-0.035321,0.065153,-0.202425,-0.096117,0.145298,0.065321,-0.008091,-0.029153,-0.063124,-0.098157,0.003067,0.062772,0.130849,-0.079962,-0.038888,-0.150171,-0.120137,-0.095721,-0.215039,-0.040358,-0.096204,-0.004496,-0.078056,0.145458,-0.145527,0.210063,0.125982,-0.093075,0.087627,0.142879,-0.151353,0.088316,0.046498,-0.013052,-0.025271,0.119136,-0.359318,-0.102660,-0.219687,-0.042301,0.017390,-0.109774,-0.110355,-0.194602,0.081872,-0.039189,0.079695,0.010950,0.162340,0.084369,0.107481,0.004884,0.113547,-0.098318,0.056635,0.056795,-0.051439,-0.179921,-0.240257,0.098584,0.313969,0.004830,-0.033316,-0.093472,0.192655,0.154178,-0.078971,-0.116105,0.006767,0.037273,-0.165247,0.070875,-0.036691,0.009963,0.038709,0.114670,-0.090065,0.088155,0.149128,0.013926,0.172065,0.223909,0.026859,-0.024640,-0.032866,0.182969,-0.079328,-0.096867,0.235080,-0.053066,-0.027051,-0.000730,-0.206049,-0.188840,-0.111243,0.343336,0.341695,0.037819,0.142749,0.199944,0.273245,0.084989,0.150720,-0.186100,0.058298,-0.230082,-0.134601,-0.058631,0.119632,-0.102213,-0.001498,-0.118702,0.170268,-0.000361,-0.166436,-0.226866,0.038121,0.337125,0.011921,-0.036263,0.179523,-0.025004,0.103983,0.150408,-0.146772,-0.114793,-0.299048,0.129151,-0.150332,-0.122622,-0.111466,-0.066517,-0.161720,0.085578,0.014437,-0.172638,-0.156645,-0.108203,-0.184386,-0.093130,0.151849,-0.126340,-0.057813,0.027482,-0.014127,0.184208,-0.009352,-0.150643,-0.033422,0.049234,0.238015,0.067227,0.168817,-0.148068,-0.155391,0.047112,0.057340,-0.161467,0.223407,0.210073,-0.096377,-0.047865,0.136225,-0.132154,0.018721,0.068649,0.123386,0.116933,-0.054765,0.085188,-0.119253,0.164969,-0.072131,-0.098697,-0.032388,0.159903,-0.141826,-0.012141,0.020770,-0.012819,0.036537,0.191591,0.200137,-0.073184,0.032835,-0.152510,-0.086612,-0.199650,-0.081674,-0.224863,0.152598,-0.028456,-0.012737,0.042390,-0.122930,0.065091,-0.067686,0.211199,0.128372,-0.148975,0.151342,-0.041662,-0.210869,-0.247624,-0.036388,-0.181056,0.296159,-0.006555,-0.016135,-0.152243,-0.057395,0.021915,0.037738,-0.025383,0.031421,-0.108451,0.056603,0.108235,-0.303416,-0.200517,0.059487,-0.010985,0.152553,-0.023993,-0.189666,0.015241,0.028513,-0.014502,-0.014984,0.089537,0.069456,-0.140801,-0.073710,-0.023572,-0.094762,0.194531,0.187900,0.039302,0.065560,-0.138884,0.003246,0.021429,0.191625,0.221100,-0.095068,0.044916,0.152796,-0.119559,-0.036084,0.079247,-0.079710,0.137098,-0.211396,0.205264,-0.002682,0.004272,0.011499,0.034204,0.029264,-0.038965,0.028143,0.092143,0.167944,-0.137034,-0.158765,-0.143125,-0.004220,-0.111147,-0.106919,0.054649,0.017586,-0.111967,0.023237,-0.148307,-0.145261,0.038913,0.002888,0.128192,0.149223,0.310235,0.013394,0.125794,0.087596,-0.308589,-0.119853,0.146247,0.071910,-0.138573,0.096187,0.101240,0.097390,0.098990,-0.006337,-0.192384,0.134683,0.031325,-0.123193,-0.175243,0.045799,0.064094,-0.092355,-0.045259,0.245809,0.106288,-0.138520,0.000936,-0.037270,0.122666,0.104747,0.152439,-0.057179,-0.151517,0.050652,0.106280,0.139215,0.202845,0.209272,0.064816,-0.158959,0.139448,-0.076690,-0.180357,0.032707,0.065648,-0.114248,0.118387,0.218276,-0.031007,0.187050,-0.003329,-0.108884,-0.127254,-0.071194,-0.139142,-0.240780,0.055064,-0.104260,0.069752,-0.047134,-0.069020,0.095917,0.109227,-0.062868,-0.036151,-0.329464,-0.038799,-0.212235,0.221920,0.157359,0.086638,-0.049526,0.141675,-0.246583,0.175465,0.128397,0.002198,0.213488,0.137113,0.112827,-0.035143,0.146942,-0.019124,0.096688,-0.191858,-0.097678,-0.160718,-0.059647,-0.019346,0.044545,0.095165,-0.144947,0.018101,-0.081140,-0.047453,-0.148214,0.288954,0.094856,-0.179624,0.039308,-0.077285,0.056816,0.181572,0.107920,0.001606,0.180370,-0.013792,0.044389,-0.036865,-0.101170,0.140292,0.095661,-0.372287,-0.253414,0.059509,0.102786,0.204192,0.064013,0.146181,0.001521,0.294687,-0.289936,-0.251544,-0.055770,-0.230348,-0.325368,0.095612,0.094591,0.155970,-0.078199,-0.029874,-0.071430,-0.032813,0.116676,-0.056838,0.052134,-0.086074,-0.131002,-0.110191,0.154020,-0.041002,0.284225,-0.123354,0.064064,0.009187,-0.124795,-0.045227,-0.167788,0.006747,-0.057975,-0.156821,0.048336,-0.051504,-0.187139,0.024700,0.085726,-0.193217,-0.061675,-0.196575,-0.226133,0.285776,-0.093238,0.178023,0.212574,-0.051306,0.061790,0.069015,0.164698,-0.124037,-0.475625,-0.211553,-0.187417,-0.286890,0.189885,-0.081382,0.087981,-0.028879,0.055007,0.098002,-0.010519,-0.132834,0.061073,0.029709,-0.133943,-0.025777,-0.081744,0.118881,0.171596,-0.355301,-0.192960,0.192884,-0.275848,-0.137022,0.081758,-0.215124,-0.137683,-0.135437,0.112762,0.070546,0.021371,-0.145727,0.202097,0.227900,0.219752,-0.118482,-0.042881,-0.017514,-0.106135,0.227555,0.237772,0.214208,0.107193,0.028331,-0.160572,0.134508,-0.177167,0.032268,-0.166549,-0.158374,0.249749,-0.216919,0.171544,-0.010869,0.142803,-0.068651,-0.082513,-0.048097,-0.077453,-0.062885,-0.023636,0.159862,-0.083757,0.311367,-0.028682,-0.029439,0.113615,0.066029,-0.089848,0.000708,0.025010,0.042362,0.081493,0.196187,-0.064497,-0.282075,0.012068,0.156342,0.186540,0.222794,0.056879,0.268095,0.164481,0.131768,0.029890,0.040518,-0.132694,0.117917,-0.275322,0.126845,0.066830,-0.042369,-0.092454,0.150326,-0.186743,0.024447,0.071606,0.139097,-0.005794,-0.002667,0.193513,-0.070772,0.048604,-0.051964,0.214392,-0.166686,-0.028842,-0.115554,0.175407,0.081917,-0.118668,-0.076945,-0.129844,0.086843,-0.085667,0.093768,-0.009309,0.123342,0.100169,0.165505,0.182331,-0.202665,0.065334,-0.137999,-0.106984,-0.047463,-0.021277,0.143294,0.082151,-0.167270,0.139230,0.039962,-0.117971,-0.057646,0.036730,-0.041992,0.159033,-0.091358,0.090532,0.005509,0.011440,0.028855,0.064222,0.141096,-0.099135,-0.154753,0.159376,-0.134715,-0.015605,0.061115,-0.026840,-0.102370,-0.046375,-0.005305,0.077198,-0.127783,0.143634,0.023161,0.297497,0.067427,-0.076137,-0.023180,0.111492,-0.014199,-0.040304,-0.157407,-0.075795,0.008893,-0.003361,-0.077643,-0.125415,-0.015525,-0.135476,0.094202,0.087270,-0.088068,0.019940,-0.007281,0.192002,0.079270,0.095331,-0.135217,0.199484,0.146358,-0.061508,0.112068,0.209964,-0.019521,-0.086323,-0.085806,-0.095858,0.101306,-0.146765,0.160339,-0.140245,-0.161442,-0.122719,-0.109523,0.299695,0.152897,-0.107088,-0.001622,-0.013151,0.163751,0.100127,0.179350,-0.018953,0.046505,-0.194121,-0.159329,0.181693,0.116080,0.064146,0.070879,-0.097059,0.143066,-0.036018,0.138007,-0.100666,-0.197728,-0.000157,0.072001,-0.154432,0.173723,0.000493,0.007495,0.040729,-0.110000,0.126683,0.170072,0.088194,-0.252080,-0.110358,-0.016000,-0.087837,0.001570,0.037485,-0.095274,0.060758,-0.055210,-0.104270,0.020681,-0.012934,0.184444,-0.059665,-0.095659,-0.000833,-0.032856,0.146031,0.190475,0.014222,-0.183275,0.060137,-0.068274,0.108227,-0.025410,-0.070814,0.138159,0.006461,0.162843,-0.291448,-0.130786,-0.094745,0.143509,0.042555,-0.132965,0.345643,0.031083,-0.077312,0.104234,0.102283,0.133961,0.008010,-0.074254,0.064385,-0.006837,-0.135766,0.066819,0.322362,-0.193456,0.009484,0.194015,0.009612,0.051921,0.151660,0.147589,0.123191,-0.021416,0.097961,-0.081731,-0.359265,-0.113539,-0.143075,0.274538,0.188461,-0.056865,-0.010064,-0.245439,0.123507,0.075534,0.116908,-0.089663,0.168882,-0.277135,0.088964,0.178640,-0.093248,-0.213363,0.156625,-0.243310,-0.037082,-0.016710,0.055796,-0.143369,-0.346650,-0.013237,-0.218727,-0.151386,0.085982,0.031869,0.281467,0.067649,-0.033785,-0.231006,0.185954,-0.182072,0.143665,-0.046195,0.120131,0.301151,0.102297,-0.008592,0.054318,-0.097531,0.038112,-0.209841,0.099385,-0.131086,-0.071425,-0.176061,0.120654,0.055998,-0.085185,-0.103301,0.067669,-0.030734,0.138874,0.068504,-0.143483,-0.141068,-0.248773,0.022173,0.097245,-0.165919,-0.139601,0.038580,-0.031438,-0.190174,0.064374,-0.087797,0.062119,0.046784,-0.058931,0.045519,0.056511,-0.113269,-0.148830,-0.075853,0.161238,0.018600,-0.195785,0.166800,0.035064,0.063838,-0.034287,0.110926,0.088599,-0.008972,-0.248721,0.083654,-0.106977,0.046531,0.136302,0.060943,-0.189390,0.024896,-0.042582,-0.043795,-0.003051,0.003300,-0.212556,0.213895,0.158754,-0.018251,-0.073040,-0.013539,0.135566,-0.240548,0.098981,0.178708,-0.184956,-0.050857,-0.042108,-0.039350,0.045681,0.218604,-0.061318,0.309648,0.069358,-0.125056,-0.158129,-0.062700,-0.220348,-0.315953,-0.000610,0.127954,-0.123878,0.057884,0.149235,-0.095141,0.236765,-0.001800,0.186660,-0.120423,0.162665,0.112025,-0.167689,0.165652,-0.049201,-0.106718,0.186539,0.056514,-0.145120,0.006256,-0.012973,0.021443,-0.043352,-0.022776,-0.029822,-0.031740,0.088611,0.192922,-0.339870,-0.041628,0.003650,-0.062448,0.040260,0.048188,0.004957,-0.015684,-0.152558,-0.192349,0.213472,0.230789,-0.206269,-0.006247,-0.019771,0.126736,-0.125318,0.216520,0.123941,0.057103,-0.037969,0.002830,-0.022248,-0.051650,-0.080899,0.202413,0.121326,-0.017987,-0.138828,-0.089824,-0.103640,0.072421,-0.002080,-0.237340,-0.076796,-0.062486,0.207030,-0.058540,0.079692,0.093774,-0.140003,-0.058302,0.046674,0.183153,0.163909,-0.093197,-0.056677,0.002660,0.114849,0.024230,0.210877,-0.037324,0.012326,-0.315011,0.111181,-0.206359,0.193214,0.279521,-0.211148,-0.108275,0.177360,0.080644,-0.100413,0.237795,-0.169494,-0.112040,-0.043818,0.079262,-0.097506,-0.046561,-0.046875,0.112482,0.173936,-0.012253,0.016410,0.084004,-0.101913,0.212110,0.138120,0.130234,-0.046371,-0.007520,-0.098151,0.034997,0.131033,-0.113844,0.025747,0.053491,0.113714,0.124509,-0.014482,0.008154,0.174032,0.134155,0.005258,-0.059240,-0.008349,0.070725,-0.015485,0.102261,-0.018742,0.205080,-0.194800,0.110428,0.078565,-0.049638,-0.130846,-0.132903,0.020622,0.173595,-0.204634,-0.136757,-0.125311,-0.178954,-0.002515,-0.060804,-0.241865,-0.225037,-0.212765,0.141682,0.041248,-0.135911,0.023324,0.106200,0.135477,-0.123073,-0.108710,0.141298,-0.237858,-0.145649,0.075825,-0.012075,-0.098958,0.057039,-0.197826,0.036219,-0.016574,-0.000794,0.128811,-0.163209,0.154960,0.029710,-0.032023,0.015501,-0.031309,-0.100691,0.206731,0.165181,-0.091830,-0.171407,0.120923,0.067962,-0.178380,0.158460,0.062260,-0.095223,-0.033073,0.110476,-0.008134,-0.023219,0.131284,0.013202,0.124001,0.254176,0.055079,-0.197328,0.174875,0.060571,-0.217373,0.025569,-0.138854,-0.101282,0.074880,-0.109857,-0.096511,-0.017310,0.254237,-0.033564,-0.000393,0.023318,0.061882,0.171727,-0.029994,0.021126,0.074727,0.267261,0.172811,0.044117,0.072354,0.050077,0.008642,0.085548,-0.179155,-0.007101,-0.013478,0.031444,0.078137,0.060306,0.047894,-0.219908,-0.020631,-0.034179,0.259246,0.004610,0.032380,-0.137531,-0.191046,-0.127850,0.099826,0.149753,0.037576,-0.111412,0.149231,0.064056,-0.138702,0.123856,0.168494,-0.154797,0.193377,-0.057948,0.002098,-0.197625,0.083074,0.057302,0.146592,0.022490,0.066247,0.086085,-0.133769,0.140978,-0.254642,0.019249,0.156681,-0.097815,-0.174861,0.214720,-0.100937,0.100676,-0.036545,-0.056872,0.028270,-0.144048,-0.105552,0.050110,-0.131891,0.015354,0.173910,0.112225,0.137188,-0.013366,-0.142174,0.106565,-0.178140,-0.116570,-0.167319,0.027603,0.144047,0.182211,-0.049208,0.032047,0.029733,0.025110,0.158015,0.153115,-0.070553,-0.024189,0.137414,0.067522,0.206876,0.014953,0.028743,0.148595,0.267739,-0.165256,-0.046554,-0.014520,-0.015077,-0.030837,-0.116603,0.063312,-0.136540,0.129074,-0.034711,-0.099409,-0.050686,-0.228680,0.156666,-0.071734,0.136353,0.210458,-0.166082,0.084529,-0.048711,-0.286183,-0.051316,-0.164231,0.114277,0.140112,-0.138459,0.206081,0.074496,-0.180134,0.083431,0.083303,-0.011364,0.177121,-0.001324,0.007271,-0.094760,0.096018,-0.177358,0.180642,-0.047306,0.172178,0.074866,0.296026,0.032355,-0.055669,0.019234,0.212071,-0.246887,-0.102091,0.110835,0.092175,-0.040053,-0.110755,-0.155965,-0.021703,-0.007735,-0.125037,0.112436,-0.196162,-0.008365,-0.038746,-0.087825,-0.000406,-0.168231,-0.218445,0.119051,-0.062730,0.104158,0.050286,0.039664,0.003070,0.047493,0.099534,-0.117489,-0.015652,0.023468,0.006725,0.274488,0.180230,-0.227375,0.006175,0.156486,-0.070372,0.046733,0.073718,-0.130987,0.184136,0.131773,0.130140,0.188499,-0.139363,-0.035747,-0.301590,0.085918,-0.264614,-0.157062,0.094406,-0.011919,0.190416,0.068273,-0.106350,0.042948,-0.059995,0.175179,0.070873,0.039983,0.140941,-0.063255,0.096237,0.173683,-0.063883,0.083809,-0.134538,0.129749,0.130931,0.139177,-0.123681,0.163358,-0.131960,-0.072158,0.162000,-0.016152,-0.154951,-0.129413,0.101664,0.082678,0.012666,0.083565,-0.126196,0.002100,0.193757,-0.051760,-0.022866,-0.025179,-0.020156,0.027663,0.157863,-0.077355,0.086434,0.108584,-0.039046,0.205086,0.180302,0.136370,-0.094411,-0.072992,-0.012533,0.122806,-0.159902,-0.019975,0.242491,0.105450,0.112072,0.146761,0.057765,-0.211281,0.239172,-0.029262,-0.070952,-0.140729,-0.108336,0.082158,0.097438,0.098178,-0.089927,-0.070794,0.116517,-0.254610,0.066980,0.032112,-0.073328,0.038895,0.192287,0.052997,-0.038847,-0.261052,0.028983,-0.251068,0.078992,-0.067949,0.108034,-0.125004,0.062201,0.072462,0.135328,0.065661,0.169176,-0.048253,-0.090761,0.002768,-0.117770,-0.075033,-0.079267,-0.112227,0.201141,0.111339,0.006193,0.133823,0.133467,-0.091651,-0.065528,-0.168219,-0.172989,0.134098,-0.120188,0.003993,0.034858,0.149391,0.025074,-0.007915,-0.100132,0.146221,0.089590,0.068339,-0.182105,0.078302,0.131290,0.161883,-0.093610,0.028982,0.105222,-0.199172,0.005720,0.200888,0.049856,0.027081,0.167646,0.080268,0.057374,-0.053314,0.027078,-0.249551,-0.229562,0.050312,0.122554,-0.115523,-0.090466,-0.113393,0.082270,-0.000529,0.050779,-0.016594,0.036976,-0.051558,-0.008360,0.019502,0.016792,0.108003,-0.147912,0.043490,-0.060011,0.143833,0.139095,-0.046952,0.205988,-0.113824,0.041176,-0.095470,-0.139393,0.132891,-0.176894,-0.055920,-0.131029,-0.124609,0.066473,0.025766,-0.107354,-0.270014,-0.049374,0.083418,0.144050,0.251904,0.073436,-0.228357,-0.122532,0.099325,0.190050,0.199809,0.159771,-0.060415,-0.023076,0.072887,0.032665,-0.253086,-0.097931,0.163640,-0.002485,0.109524,0.007049,0.036747,-0.038587,-0.075842,0.108910,-0.041669,-0.111978,0.028315,0.124952,-0.132274,0.244367,-0.106374,0.168080,-0.301802,-0.010565,0.014945,-0.230005,-0.108071,0.002168,-0.009844,0.199539,-0.073095,-0.344243,-0.094171,0.038396,-0.110593,-0.059216,-0.171526,0.104637,0.188496,0.096035,-0.077173,0.198275,-0.001633,0.136162,-0.253216,-0.155334,0.254229,0.141097,0.068471,0.112257,-0.029249,0.136952,-0.141713,-0.166265,-0.025341,-0.164680,-0.274140,-0.272563,-0.134077,0.212252,0.229070,0.238211,0.039701,-0.154988,-0.244444,-0.327550,0.070801,0.259040,-0.028370,0.013189,-0.081195,0.117149,0.062640,0.100367,0.096735,0.050678,0.011820,-0.061861,0.180117,-0.049631,-0.189850,-0.064144,0.066352,0.123251,0.194020,0.134496,0.092859,0.013766,0.004757,0.010530,0.106736,-0.018340,-0.072138,0.066844,-0.129978,0.031991,-0.068670,-0.065500,0.214767,-0.108573,0.039791,0.028353,0.226487,0.033917,0.164796,0.083401,0.103857,0.037155,0.095717,-0.022011,-0.067586,-0.015076,-0.013429,0.140536,0.081818,-0.040753,0.176962,0.008575,-0.021740,-0.076479,-0.126454,0.024502,0.161972,0.084899,0.135902,-0.067783,0.164562,-0.140224,-0.175964,-0.020389,-0.087371,-0.135778,-0.109298,-0.016658,0.077161,-0.116967,-0.115917,0.024555,-0.047531,0.017358,0.095263,-0.151540,-0.074218,-0.148224,0.108486,-0.046911,-0.018768,0.102071,-0.057543,0.125284,0.167607,0.157892,-0.024543,0.054068,0.081539,0.033528,0.071294,-0.059160,-0.008965,0.049218,0.143302,0.153933,-0.155748,-0.125183,-0.064753,-0.116025,0.149345,0.034700,-0.005263,-0.054133,0.087312,-0.000883,-0.123284,-0.143547,-0.093347,0.130275,0.065774,0.113568,0.148465,0.089217,-0.193249,0.124259,-0.144717,0.141847,-0.098924,0.167505,-0.035140,0.112455,-0.151889,-0.024088,-0.175691,-0.065018,0.152187,0.104511,0.074099,-0.139920,-0.068761,-0.200721,-0.179727,-0.156929,0.087101,0.204836,0.174219,0.107540,-0.089765,0.073645,-0.217237,0.202572,0.132603,0.017497,-0.142475,-0.120057,-0.131028,-0.117591,0.077469,0.248843,0.018251,-0.167555,0.101982,-0.108925,0.088152,-0.070551,0.121395,0.136408,-0.430536,0.112420,0.007444,0.194714,0.000020,-0.102149,0.176548,-0.069749,-0.224176,0.285939,-0.070575,0.161085,-0.104533,-0.042409,-0.142033,0.036506,-0.203006,-0.072786,0.033616,0.117876,-0.081699,0.123112,0.078293,0.168965,0.161521,0.190838,0.107340,-0.151702,-0.015095,0.038411,0.120626,0.137487,-0.048389,-0.257764,-0.121219,-0.207649,-0.064741,0.117888,0.069582,-0.172792,-0.062964,0.138144,0.075004,0.193472,0.054373,-0.191894,0.150069,-0.041911,-0.097278,0.088588,0.225722,-0.135232,0.178376,0.067912,0.080987,-0.130539,-0.033992,-0.007029,-0.077020,-0.101286,0.073293,0.056201,0.106148,0.132111,0.106633,0.031544,0.001179,0.012177,0.069834,-0.062226,0.163101,-0.003817,0.227203,-0.130763,-0.256199,-0.226086,0.071047,0.091059,0.267561,0.064624,0.154741,0.215443,0.103133,-0.130951,-0.063957,0.177835,-0.078766,0.133838,0.244233,0.095147,0.187196,-0.209748,-0.294768,-0.130937,-0.004643,0.083352,-0.029019,0.022970,-0.139431,-0.038214,0.181254,0.140877,-0.025558,0.121989,-0.008322,-0.104519,-0.093771,0.092035,0.095291,0.117207,-0.090321,-0.083752,-0.123425,-0.170672,-0.059653,-0.010602,0.078900,0.042336,0.150190,-0.226580,0.005934,-0.149563,0.149151,-0.137022,-0.208032,0.188519,0.049702,0.107120,0.210689,-0.115562,-0.087824,-0.254378,0.014195,0.056866,0.079641,0.075142,-0.025931,0.019031,0.094556,-0.175335,0.022591,0.146421,0.022270,0.241214,-0.078723,-0.194130,0.031915,0.042376,-0.131042,-0.165356,-0.294965,-0.021106,0.088571,0.009816,-0.080369,0.156560,0.205376,0.181375,-0.091896,-0.003620,0.219539,-0.049818,-0.095906,-0.341137,0.110544,0.057054,0.166734,-0.134652,0.142204,0.020917,0.032417,0.152000,-0.226280,-0.109843,0.086712,-0.085425,-0.058132,-0.172599,0.188272,-0.114527,-0.052671,0.168046,-0.061780,-0.196991,-0.239281,0.176048,-0.017335,0.066239,0.225788,0.103603,-0.015668,0.016159,0.117455,0.157654,-0.019027,0.241845,0.149787,0.060425,0.078988,0.117903,-0.133436,-0.137907,-0.039836,-0.086468,0.043289,0.131904,0.048825,0.276752,-0.073282,-0.180174,-0.182611,-0.049578,0.061302,0.215502,-0.114164,0.080492,0.040835,-0.011255,0.242569,-0.148344,-0.061234,0.116425,-0.213840,-0.027685,0.044683,0.159417,0.021214,0.166036,0.083659,-0.105781,-0.141686,0.106646,0.012058,-0.099613,-0.064786,-0.233045,-0.037465,-0.129762,0.195231,0.171193,-0.069318,0.120542,0.167441,0.072451,-0.050210,0.023682,-0.001164,-0.019280,0.146308,0.109856,0.084666,0.068931,0.137552,0.062767,-0.092117,-0.121973,0.091064,-0.116785,0.127468,-0.017506,-0.183318,-0.150668,-0.114191,-0.087685,0.036894,0.182697,-0.145999,0.144966,0.178853,0.146124,-0.165353,0.104448,-0.035363,-0.222816,-0.007310,0.159621,-0.126977,-0.111675,0.122303,0.232671,0.052909,0.190334,-0.140763,0.050186,0.212784,-0.229310,0.127322,-0.275873,-0.073252,-0.302496,-0.055361,-0.033162,-0.139976,0.039451,0.191122,0.214294,-0.072002,-0.258366,0.027122,0.155109,-0.113704,0.176742,0.128212,0.008651,0.016018,0.010585,0.157916,-0.169038,-0.057233,-0.115157,0.118605,-0.115978,0.035974,0.013516,0.168358,0.150785,0.007013,0.136213,0.061504,-0.082307,-0.097126,0.104406,0.070155,-0.066817,-0.025907,0.155183,-0.137128,0.056649,0.024045,-0.006482,-0.024848,-0.033531,-0.200898,0.076958,0.230620,0.211902,-0.001393,0.173004,0.013387,0.015466,0.016084,0.035991,0.021019,0.125641,-0.107697,-0.049715,-0.098138,0.013818,-0.188470,0.072830,-0.081321,-0.021064,-0.069598,0.109655,0.056899,0.067989,0.033169,-0.021533,0.070844,-0.111533,0.149864,0.040180,-0.053833,-0.181479,-0.108923,0.025312,-0.019195,0.020473,-0.078886,0.078242,-0.137378,0.137283,-0.141209,0.088390,-0.141213,0.230041,0.008896,-0.032873,-0.127440,-0.101698,-0.055117,0.183582,-0.050483,0.106129,-0.174674,0.094264,0.073951,-0.062275,0.034874,-0.125329,-0.092999,0.026141,0.180745,-0.040266,0.023569,-0.056876,-0.113355,-0.178751,0.141711,0.051513,-0.143383,0.063409,-0.205076,-0.088225,0.036548,-0.130348,0.227405,0.191715,0.024746,-0.093469,0.078521,0.115212,0.245302,-0.061485,0.159534,0.218458,-0.164057,-0.077631,0.148245,0.123085,0.220926,0.146196,-0.136534,-0.161237,-0.151309,-0.094563,0.121512,-0.080930,0.017074,-0.181154,0.021970,0.146894,0.123713,-0.061844,0.061271,0.005258,-0.067988,-0.088097,-0.080540,0.022520,-0.005211,0.001049,-0.037416,-0.083568,0.233161,0.100626,0.114580,0.091868,0.180266,-0.046984,0.112033,0.118796,-0.066030,-0.130492,-0.076473,0.094818,0.195866,-0.149891,-0.067362,0.176787,-0.151921,-0.041847,0.050119,0.016340,-0.067060,0.359432,-0.022063,-0.231346,0.040243,-0.026305,0.186068,0.001266,-0.281383,0.120505,0.008546,-0.152140,-0.069070,0.074642,-0.003565,0.103662,0.154149,-0.220686,0.360987,-0.083919,-0.029046,0.066299,-0.268179,0.292051,0.205218,-0.034550,-0.280306,0.207707,0.097211,0.071985,-0.040513,-0.134608,0.032814,0.053747,0.030667,-0.027456,0.312376,-0.008588,-0.410689,0.304660,-0.198120,0.161420,-0.023140,-0.012236,-0.323848,0.120689,0.196654,0.198499,-0.018095,-0.038741,0.021794,0.050386,0.222963,-0.309844,-0.053885,-0.034221,-0.068776,-0.116692,-0.075416,0.090045,-0.297534,0.042453,-0.277575,-0.199598,0.036808,-0.066730,-0.177169,-0.140748,-0.217763,-0.342039,0.326240,-0.045435,0.071942,-0.290835,0.259472,0.114771,-0.042872,0.004168,0.272531,0.158571,0.117672,0.063738,-0.427019,0.084802,-0.225168,-0.021974,0.228274,-0.032527,-0.069340,0.102482,-0.197985,-0.030804,-0.121821,0.013779,0.062633,0.067178,0.237028,-0.103818,0.114890,-0.036428,-0.161756,0.113029,-0.031421,-0.074660,0.023521,-0.087600,-0.108743,-0.073125,0.142477,-0.022205,0.023324,-0.110839,-0.191310,-0.102038,0.173173,-0.156121,-0.020506,-0.034064,-0.047241,0.008319,-0.172345,0.008756,0.120081,0.286618,0.123782,-0.069609,-0.116167,-0.034187,-0.061738,-0.118541,-0.398423,-0.104195,-0.110831,-0.232176,0.226195,-0.206638,0.200869,0.184151,-0.074358,0.208888,0.089051,-0.041140,0.032423,-0.107855,-0.112043,-0.003663,0.001822,0.138459,-0.004078,-0.280363,0.251214,0.203693,0.048959,-0.072547,0.130269,-0.143050,0.033928,0.101218,-0.009784,-0.040440,0.161749,-0.237609,-0.047506,0.065287,0.286201,0.036669,0.016381,0.131773,-0.157107,0.017075,-0.056745,0.168659,-0.054074,0.135175,-0.118760,-0.147310,-0.016851,-0.016736,0.003417,-0.038847,0.079035,-0.046731,0.017597,-0.086222,-0.005873,0.074302,-0.110010,0.154104,0.001337,0.108782,-0.041310,0.043712,0.066167,-0.034124,0.028138,0.116645,0.156451,0.120885,-0.140541,-0.119476,-0.010327,0.095138,-0.132948,-0.043437,-0.001209,0.124168,0.117380,-0.015854,0.066731,-0.078583,0.064680,0.149050,0.117285,-0.038574,-0.076880,-0.108291,-0.143751,-0.043538,-0.157619,-0.118737,0.003387,0.149251,-0.125905,-0.175172,0.154603,-0.014794,-0.014742,0.116797,-0.102757,0.136602,-0.037287,-0.041547,-0.132587,-0.103720,-0.008625,0.070338,-0.051774,-0.097728,-0.065421,0.003330,-0.018510,-0.107796,0.019509,-0.125959,0.126069,-0.015988,-0.018724,0.049862,-0.048714,-0.123660,-0.035127,0.000990,0.152509,-0.152835,-0.017514,0.096435,-0.149711,0.023299,0.055739,-0.176360,-0.084120,-0.110694,0.058902,0.079811,-0.220357,-0.178577,-0.133091,-0.093563,0.193885,0.005836,-0.016053,0.140505,-0.277890,-0.136833,-0.024236,-0.035579,0.044065,-0.168379,0.037784,0.051075,0.195065,-0.233640,0.055571,0.025899,-0.103360,-0.020854,-0.118740,-0.132264,-0.028676,0.207098,0.138425,0.034906,0.067018,-0.238933,0.065314,0.070870,-0.280012,-0.202085,0.009197,-0.076560,0.136354,-0.080382,0.195761,0.051492,-0.183121,-0.039059,-0.029491,-0.042988,-0.024958,-0.003483,-0.182091,0.041613,0.232267,0.192731,0.179793,0.021945,0.176809,-0.045950,-0.118136,0.005709,0.057133,-0.075210,-0.003186,-0.096886,0.117996,0.013144,0.242682,0.109271,-0.152132,-0.047456,0.129198,0.066617,-0.134192,0.204869,-0.212637,-0.123440,0.068568,-0.068647,-0.191051,-0.129907,-0.046234,-0.025878,0.185341,0.051478,-0.035855,0.177893,0.081333,-0.027496,-0.021371,0.026920,-0.098709,0.179706,0.133941,-0.156921,0.094844,0.291229,0.072712,-0.102732,-0.279673,0.002007,0.249641,-0.027148,0.118887,0.116474,-0.027374,0.019582,0.033065,0.114905,-0.159564,-0.144559,0.141524,0.027512,-0.131231,0.281787,-0.143208,-0.025390,0.100403,-0.095999,-0.058383,-0.036568,0.126057,0.033370,-0.001738,-0.071305,0.178641,-0.173964,-0.115797,-0.237973,0.244072,-0.325923,-0.118253,-0.294291,0.114557,-0.202763,-0.283583,-0.167450,-0.276562,-0.241398,-0.088804,-0.030669,0.103660,0.100156,-0.081392,0.069585,-0.142111,0.062651,0.059519,-0.005346,0.293530,-0.208832,0.228142,-0.234513,0.222881,-0.233018,0.050889,-0.081055,0.256624,0.157741,0.154027,-0.102848,-0.038215,-0.034766,-0.052615,0.046374,0.030236,-0.015367,-0.159928,-0.055241,-0.095615,-0.109924,-0.030595,-0.055096,-0.082126,0.196847,-0.086838,0.131526,0.154743,-0.100286,0.233344,0.359024,-0.223365,-0.172178,0.011128,-0.107060,0.146107,0.128783,-0.038953,0.291603,0.410743,-0.297804,0.142835,-0.119729,0.280759,-0.294684,0.067986,0.046864,-0.043759,-0.034787,-0.090058,0.154558,0.152631,-0.364792,0.007379,0.339163,-0.173313,-0.153806,-0.098863,-0.281511,0.804825,0.077827,0.170468,-0.300788,0.011706,-0.222016,0.169047,0.261799,0.360501,-0.001973,0.102042,0.082275,0.243075,-0.045879,0.061297,-0.096189,-0.226430,0.140740,-0.091368,-0.287207,0.064423,-0.205143,-0.029211,0.126421,-0.109470,0.058283,-0.013045,-0.080374,-0.133904,0.324702,-0.139084,0.253147,-0.129337,0.487433,-0.116232,0.225232,0.000452,0.034732,-0.292596,0.248950,-0.079162,0.041417,-0.067421,-0.007991,0.078243,0.046507,0.068325,0.037389,-0.002860,-0.122802,0.140730,0.121859,-0.024563,0.070699,-0.023643,-0.000858,-0.142449,-0.002527,0.077923,0.059728,-0.176367,0.062138,0.063402,0.162063,0.023371,0.107347,0.217916,-0.081283,-0.132420,0.052160,0.142414,-0.079822,-0.113962,-0.004295,0.090716,0.144679,-0.096832,0.018971,-0.108321,0.078620,-0.062209,0.074576,0.015677,-0.040289,0.060323,-0.210488,-0.122224,0.071870,-0.067723,-0.011081,0.079392,0.029616,-0.026336,-0.130000,0.148196,0.074380,0.173958,0.002142,0.121318,0.062594,0.002328,0.029641,0.147042,0.152984,-0.159693,-0.088991,0.067131,0.176694,0.042374,-0.076818,-0.135585,0.117499,0.006632,-0.023271,0.187670,0.039157,-0.154668,0.098765,-0.076370,0.196833,0.092715,-0.166464,0.022454,-0.082336,0.045371,0.062624,-0.100552,-0.117451,0.111585,0.150731,0.059525,0.036944,-0.027263,-0.114150,0.239036,0.151558,-0.193712,0.198018,0.011498,-0.179500,-0.008670,-0.155915,0.179891,0.153434,0.128045,-0.081669,-0.091127,-0.138213,-0.223541,0.100445,0.162780,-0.166300,-0.153356,0.049030,0.283524,0.176270,0.091166,-0.245966,0.125277,-0.071085,0.057721,-0.001192,0.067829,0.174783,0.085699,0.022874,-0.105715,-0.004472,-0.209478,-0.177896,-0.089253,-0.001658,-0.082203,0.072056,0.006787,0.169367,-0.074092,0.250786,0.093016,-0.192344,-0.071818,-0.161047,0.022496,0.183186,0.105425,0.121276,0.017826,0.005188,0.082012,0.049152,0.029354,0.031400,0.012709,-0.110903,0.197709,-0.338754,-0.095048,-0.047230,-0.032906,-0.111196,0.177558,-0.139846,0.175675,0.086256,0.060842,0.271632,0.042118,0.125368,0.061067,-0.131192,-0.098529,0.004442,0.088109,-0.129360,-0.172130,-0.075737,0.072287,-0.145486,-0.030447,0.166057,-0.139193,0.110310,0.184146,-0.246057,-0.117038,-0.080646,0.053269,0.252233,0.208646,0.213085,-0.073550,-0.103500,-0.114848,0.205925,0.210880,-0.099361,-0.039187,0.290804,-0.135510,-0.091421,-0.143825,-0.232231,-0.067475,-0.115524,-0.098401,0.155348,-0.021428,-0.098143,-0.000154,-0.033680,-0.193711,-0.049278,0.038634,-0.037649,-0.025806,-0.028054,-0.179832,-0.021565,0.150463,0.109488,0.096701,0.207237,0.051340,0.005087,0.130214,-0.041230,0.042821,-0.162372,0.051065,-0.037344,0.073306,0.158208,0.063727,0.083882,-0.166781,-0.111771,0.051884,0.016636,0.133253,0.042337,0.208509,0.107726,0.086128,-0.111540,0.175417,0.031077,-0.021122,0.066877,-0.130631,0.077996,0.093007,-0.015816,-0.138015,-0.041379,-0.218893,-0.170845,0.094850,0.018048,-0.037124,0.025557,0.108364,0.166546,0.157223,-0.007110,0.027386,-0.063412,-0.020293,0.034059,0.072892,-0.231590,0.004453,0.187139,-0.016917,0.267240,-0.253038,0.229072,0.052541,-0.061456,0.038363,-0.195410,0.027000,-0.156491,0.057500,0.208827,0.158963,0.017406,-0.026568,0.084547,-0.079657,-0.045579,-0.073793,0.005141,0.253167,0.181397,-0.067813,-0.108229,-0.087641,-0.163692,-0.064331,-0.050531,-0.115896,-0.139734,0.052246,0.218724,0.163683,0.057423,0.071444,0.064997,0.191476,0.030090,-0.182278,-0.149317,-0.194514,-0.257501,0.158042,-0.042360,-0.076801,-0.112044,0.199577,-0.029388,-0.002094,0.005481,0.101780,0.110567,-0.107903,0.120044,-0.026132,0.137300,0.092420,0.149185,0.266451,-0.010167,-0.104285,0.019652,-0.022766,0.266065,-0.012061,0.056811,0.042357,0.135801,-0.116530,0.133202,0.045485,-0.018099,-0.049032,-0.037526,-0.046798,0.157659,-0.060952,0.135935,-0.120779,0.150543,0.112299,-0.153919,-0.052023,-0.033998,0.145799,-0.000454,-0.073158,0.058979,-0.083984,-0.040872,-0.118196,0.127422,-0.119791,0.035636,0.055887,-0.129076,-0.107432,0.144336,-0.023737,-0.091608,0.097749,0.150557,-0.167926,0.073518,-0.046957,-0.075184,-0.023652,-0.020234,0.142451,0.097379,-0.140223,-0.105381,-0.012424,0.128471,-0.033027,-0.067514,0.023890,0.062798,-0.010740,0.048587,0.133893,-0.096900,0.014900,0.125626,0.045934,-0.133329,0.175775,0.143695,0.053051,0.065135,-0.108774,-0.136203,-0.083093,0.131461,0.066734,0.034401,0.122898,0.041662,0.134147,-0.139692,-0.144893,-0.062248,-0.120095,0.000383,0.109505,0.040220,-0.118587,0.146094,0.027514,-0.075232,0.228923,0.113971,0.072613,-0.030340,0.022537,-0.139244,-0.387310,0.001358,0.076030,-0.348905,0.042072,0.103590,-0.420178,0.190017,-0.180158,-0.196942,0.179346,-0.267757,0.176537,-0.240507,-0.081128,-0.068552,-0.047340,0.162698,-0.040203,-0.069044,-0.036167,-0.069557,0.373801,0.179462,0.128493,0.154960,0.171409,-0.079842,0.157285,-0.186663,0.037557,0.003515,-0.020965,0.025786,0.173860,-0.020004,0.082954,0.091939,0.110212,-0.169725,0.240102,-0.164971,-0.096590,-0.011701,0.198236,0.260112,-0.047984,-0.212159,-0.299149,0.044989,-0.146651,0.263186,0.098706,0.026485,-0.110339,-0.319846,-0.234567,-0.297645,-0.038260,-0.086607,0.084672,-0.085980,0.294022,0.108199,-0.275340,-0.146924,-0.219317,-0.145914,-0.204518,0.234295,0.186405,-0.051854,0.350757,0.186908,-0.057663,-0.041621,0.154028,-0.259581,0.129125,-0.074029,0.066506,0.074745,0.145136,-0.149207,0.027316,0.309209,0.147092,0.109018,0.200678,-0.340755,-0.058869,-0.002052,0.042255,-0.160119,-0.001562,0.105257,0.252924,0.244184,-0.024596,0.011869,0.133545,0.104388,-0.155816,0.202047,-0.082311,-0.086613,0.212289,0.010067,-0.185627,-0.033480,-0.135645,0.237169,0.057924,0.185282,-0.115355,0.162495,0.175491,0.246911,-0.043999,0.049896,0.106447,-0.147582,-0.076864,-0.264015,0.028401,-0.339022,-0.157701,-0.293628,-0.207981,-0.166726,0.039350,0.109531,-0.075017,-0.038172,-0.183503,-0.136486,-0.171507,0.247773,0.012955,-0.019289,0.193105,-0.100629,-0.070592,0.003797,-0.121688,0.130133,0.108009,-0.063494,0.131756,0.031414,-0.119507,0.137870,0.295673,0.021484,0.286979,-0.281246,-0.225412,0.201223,0.017601,0.078400,0.144232,-0.109148,0.033333,-0.025121,0.032052,-0.079359,0.105701,-0.127679,-0.139323,0.147126,-0.115519,0.104248,0.101864,-0.070645,0.069604,0.003469,-0.146262,0.057507,0.185254,-0.093493,0.017314,0.014046,-0.082046,-0.026532,-0.014190,0.117619,0.069316,-0.078490,0.086572,-0.118771,-0.070682,0.043602,-0.089042,-0.148666,-0.041354,0.128895,-0.008318,0.173287,0.155353,0.052399,0.109725,0.075781,-0.021646,-0.127662,-0.091822,0.121572,-0.110206,0.140959,-0.155410,0.155006,0.043147,0.095770,-0.121046,0.012370,-0.052177,-0.073301,0.132522,-0.072104,-0.131015,0.091956,-0.157020,0.163130,0.141887,-0.028230,-0.099243,0.036045,-0.163836,-0.147200,0.077428,-0.085280,-0.133984,0.030936,0.132464,0.060037,-0.027355,-0.035681,-0.081618,0.029343,0.061923,0.028979,0.007922,0.121692,-0.050379,-0.035884,-0.157638,-0.069544,0.011800,-0.019256,-0.041298,0.189234,0.012960,-0.062325,-0.127914,-0.079804,0.034798,-0.132110,0.181294,0.051971,0.123434,0.037075,0.086938,0.040263,-0.068395,0.090064,-0.011760,0.098862,0.109462,-0.071696,0.007348,0.204059,-0.118762,0.175012,0.143345,-0.037627,0.004254,0.099390,-0.114417,-0.050401,-0.016099,0.025449,-0.123601,0.060283,-0.026262,0.048279,0.087172,-0.137187,-0.106430,-0.019186,0.146910,0.113294,0.144623,-0.127158,-0.061480,-0.076498,-0.143340,-0.122281,-0.020082,-0.042965,0.120430,-0.139935,-0.026432,0.038227,-0.144005,0.135010,-0.006468,0.185119,-0.018473,-0.066582,-0.165572,-0.046101,-0.140381,0.068445,-0.000348,0.070396,0.109113,-0.089050,0.120831,-0.157840,-0.066019,0.060936,0.126962,0.061165,0.052519,-0.022399,-0.035605,-0.150060,-0.096132,-0.012585,-0.150796,0.112335,-0.159860,0.091740,0.039712,0.129620,-0.095005,0.026785,0.062124,-0.073213,-0.137598,0.072893,0.224943,-0.198992,0.140053,0.130625,0.216668,-0.047739,0.068926,0.032749,-0.061457,0.107992,0.228238,0.150729,0.007185,-0.170071,-0.207814,-0.146925,0.000329,-0.299558,0.439595,0.056112,-0.040070,0.213237,0.014310,-0.046015,-0.013264,0.142959,-0.181058,0.054631,-0.028966,-0.037335,0.057150,-0.100760,0.142948,-0.119148,0.028824,0.199750,0.069206,-0.147780,-0.208141,-0.226939,-0.196378,-0.290905,0.089757,0.113996,-0.109091,-0.062121,0.039345,-0.099490,0.106913,0.050195,-0.050607,-0.201094,-0.091210,-0.052741,0.230966,0.035753,0.027176,-0.041482,0.027405,0.361955,-0.264518,0.045056,0.011936,-0.006112,-0.139121,-0.090584,-0.037142,-0.093110,-0.181291,0.215752,0.082940,0.014009,-0.141359,0.172123,-0.001340,-0.055842,-0.103101,-0.030676,0.038649,-0.022810,-0.074158,-0.216829,-0.045534,-0.057028,0.136269,-0.013927,-0.015542,-0.064527,-0.080758,-0.265497,0.081921,0.146911,-0.227806,-0.244386,0.082639,-0.209846,0.182732,0.171215,-0.083329,0.027468,0.130758,0.230079,-0.007432,-0.164123,0.298451,-0.094983,0.054809,-0.176417,-0.188975,0.005865,0.082486,0.112920,-0.219246,-0.375330,-0.060322,0.037723,-0.342400,0.096584,0.220993,-0.054270,-0.023784,0.281634,0.183467,-0.079272,-0.053792,0.161971,-0.083407,-0.100375,0.068266,-0.144444,0.005362,0.234875,-0.008293,0.024461,0.022850,0.037640,-0.034149,0.137088,0.184084,0.127657,-0.059451,0.031748,-0.167637,0.145354,0.097859,-0.181201,0.022317,0.072628,-0.059634,-0.095857,-0.112365,0.101421,0.117711,-0.087418,-0.057490,-0.156718,-0.220129,-0.055920,-0.206799,0.063054,-0.060286,-0.159858,-0.058644,-0.087916,-0.070744,0.245079,-0.062019,-0.035442,-0.082800,-0.112197,0.189777,-0.066529,0.008876,-0.091759,0.107451,-0.047800,0.234503,-0.087512,0.032689,0.053799,-0.023044,-0.220047,0.085586,-0.316598,-0.078805,0.106783,0.012739,-0.001054,-0.233359,0.005005,-0.122268,-0.001150,0.298384,0.154462,-0.057832,0.165245,-0.014657,0.092781,0.145602,0.083896,0.180262,-0.117915,0.146600,-0.064121,0.051073,-0.118954,0.038410,0.148660,0.050295,-0.199142,0.102017,-0.105803,-0.084231,-0.108854,-0.123600,0.174709,0.007801,-0.225834,-0.053760,-0.167217,-0.087257,-0.282080,-0.109827,0.169283,0.055404,0.056794,0.332617,-0.291681,0.027924,-0.010465,0.027532,0.107103,-0.063340,-0.041730,0.010554,-0.142052,0.027985,0.101449,-0.156919,0.240790,-0.027423,-0.151847,0.066638,0.062033,0.076811,-0.060330,0.081878,-0.016921,0.067907,0.113230,0.030479,-0.127785,-0.117757,0.034604,0.096728,-0.133959,0.017440,-0.159019,0.080245,-0.038017,0.088945,-0.084736,-0.030998,-0.082290,0.087831,-0.127959,0.141910,0.140495,-0.054549,0.102365,0.067973,0.125016,-0.037427,0.055211,-0.148562,0.102402,0.090145,0.145889,-0.038539,-0.093470,0.016292,-0.019663,-0.145217,0.069019,0.060551,0.139082,-0.135906,-0.070052,-0.022787,-0.086956,-0.098497,-0.106688,0.025972,0.064223,0.069591,-0.110567,0.119526,0.026636,-0.119567,0.181324,0.148082,0.037203,-0.105573,-0.078566,-0.061615,0.012828,-0.135708,0.141662,0.110669,0.031396,-0.131385,0.070149,-0.011301,-0.058853,0.066787,0.054333,0.065061,0.028384,0.005615,-0.094472,0.012383,-0.011943,0.055429,-0.140926,0.014761,0.012680,0.089793,-0.037970,-0.145872,0.142088,0.159365,0.093112,0.114602,-0.056710,-0.136647,0.041328,-0.075737,-0.130926,0.038769,0.183336,-0.130503,0.092366,-0.071944,0.114442,-0.003871,0.120776,0.019075,-0.011271,-0.165468,-0.031599,-0.004232,0.095955,-0.017547,0.074759,0.127685,0.062961,0.002073,-0.155769,-0.066402,-0.102578,-0.086511,0.129265,0.087551,0.159896,0.150704,0.049170,-0.106258,-0.030573,-0.052042,0.109701,0.151504,-0.026965,0.101046,0.022208,0.165851,-0.035321,0.145454,0.157630,0.055122,0.156547,0.004658,-0.062626,-0.159840,-0.097289,0.103156,-0.011627,0.055159,-0.001870,0.191781,-0.022126,0.061665,0.190522,-0.024256,-0.019401,-0.018476,0.071322,-0.049413,0.001916,0.060177,0.161472,0.037150,-0.074199,-0.058829,0.138707,0.140712,-0.000824,0.102696,-0.122681,-0.169418,-0.115259,-0.065574,-0.083159,-0.135230,-0.030964,0.041673,0.045686,-0.049373,0.137773,-0.028639,0.153144,-0.125422,0.079961,0.087804,-0.101031,-0.238224,0.042596,0.125925,0.112828,-0.091365,-0.086229,-0.067054,0.019576,-0.062333,-0.144785,-0.073687,0.144170,-0.005525,0.025416,-0.040871,0.044042,0.048701,0.046409,0.167860,0.064461,0.041195,-0.050969,0.059909,0.019594,0.017653,-0.165823,-0.243460,0.155806,0.151547,-0.166579,0.091574,-0.106281,-0.117862,0.205364,0.126543,0.138749,-0.082115,0.062863,0.087018,-0.154837,0.032385,0.043097,-0.137231,-0.053055,-0.168582,-0.179510,0.168781,0.164414,0.187312,0.107314,-0.026833,-0.079340,-0.207176,0.069889,-0.011265,-0.210538,0.174619,-0.094835,-0.209156,0.093311,-0.092098,-0.095758,-0.165850,0.092097,-0.140649,-0.138275,0.095136,0.161242,-0.006576,0.060917,-0.258481,-0.041423,0.069870,-0.103875,-0.078012,0.032062,0.032089,-0.099541,0.076245,0.040947,-0.097188,0.084702,0.031016,0.006329,-0.091473,0.079205,-0.089050,0.194733,0.035908,-0.167637,-0.132904,0.122293,-0.189603,0.166487,0.097985,-0.143586,-0.111582,0.050120,-0.246903,0.004139,0.146102,-0.210252,0.115757,-0.111290,-0.088771,0.042389,-0.193547,-0.188498,-0.163674,0.132606,0.053274,-0.000387,-0.233723,0.090980,-0.101135,0.050639,-0.089080,0.069490,0.020914,-0.058810,-0.078447,0.259766,-0.003080,0.028127,0.126709,0.122530,0.129613,0.038212,-0.100661,-0.298365,0.149009,0.082153,-0.090749,0.023095,0.080073,-0.113515,-0.278674,0.042697,0.008338,0.171704,0.219853,0.175105,0.036192,0.030197,0.131812,0.133053,0.033365,0.078534,0.180912,0.035679,0.238417,0.094939,-0.146407,0.173727,0.055011,-0.164814,-0.011261,0.086565,-0.134166,-0.118856,0.050076,0.110909,0.066586,-0.173697,0.027087,0.039573,-0.045328,-0.024529,0.170810,-0.109194,0.089056,0.134765,0.113027,0.031257,0.105205,-0.106196,-0.080814,-0.073325,0.045957,0.031739,0.016440,0.186354,-0.045476,-0.220084,0.232857,0.073454,0.105698,0.061753,-0.074127,-0.033430,-0.138671,-0.154108,0.061985,0.150984,0.089490,-0.198005,-0.147220,0.003345,0.042998,0.072855,0.163985,0.161900,-0.117138,0.052883,0.116665,0.190780,0.088123,0.050683,0.169083,0.013002,0.062158,0.024720,0.162979,0.123511,-0.183421,-0.177144,-0.077035,0.103406,-0.078385,-0.040555,0.088120,0.116414,-0.092830,-0.149302,0.007317,-0.168924,-0.144596,-0.009151,-0.118087,0.146305,0.017266,-0.012516,0.102547,0.096427,0.064813,-0.140032,-0.176785,-0.170707,-0.031964,-0.204823,0.125244,0.104493,-0.122526,-0.035880,-0.301768,-0.031803,-0.021804,-0.091536,-0.079890,-0.187835,0.120941,0.052732,0.089205,0.121847,-0.000372,-0.019930,-0.109820,-0.039413,0.185571,-0.003536,-0.051525,-0.130739,-0.013288,-0.157008,-0.034149,-0.193162,0.159810,-0.196436,0.013617,0.178216,0.200152,0.192870,-0.188665,0.187761,0.004426,-0.242636,0.165386,0.209768,0.173461,-0.032275,-0.133898,0.104281,0.054517,0.095513,0.082443,-0.135892,-0.087801,-0.002519,-0.139166,0.072810,-0.078907,0.328737,-0.034186,0.159931,-0.006514,0.073281,-0.022860,-0.041043,0.007321,-0.124019,0.054352,-0.093168,0.125956,0.185800,-0.070373,-0.018466,-0.096813,-0.328233,-0.048260,0.243456,0.188632,-0.010737,-0.093414,0.176445,0.081848,0.063218,0.188976,0.163355,0.110534,-0.298030,