-0.061002,0.173632,-0.142004,0.038344,0.030280,-0.072448,-0.175948,-0.056823,0.150629,0.090962,0.080347,0.004253,0.000524,-0.100412,-0.065086,-0.202129,-0.390084,0.196871,-0.178488,0.226796,0.122375,-0.229583,-0.034519,0.248451,-0.384430,0.024652,0.262244,0.027657,-0.115326,-0.186160,-0.088346,-0.152429,0.167384,-0.012199,-0.071445,-0.053721,-0.242936,-0.170576,-0.108414,-0.171495,-0.075207,-0.196515,-0.234331,0.026325,0.313939,0.080089,0.260013,-0.258142,0.307672,-0.163675,0.159784,-0.221470,0.146976,0.226822,-0.062940,-0.115198,0.231173,0.119698,0.026142,-0.245480,0.003956,-0.215756,-0.073501,0.108402,0.018783,-0.099360,-0.204537,-0.145188,-0.017017,-0.081373,0.064714,0.089508,-0.166834,0.103689,-0.103282,0.216862,0.161118,-0.096880,-0.212894,0.223850,-0.099576,0.208085,0.169260,-0.149509,0.025504,-0.433278,-0.007850,0.160575,-0.310660,-0.076354,-0.168810,0.095756,0.133319,-0.236467,0.248395,0.222831,0.253156,0.056006,0.114214,-0.104233,0.012093,-0.066064,-0.259865,0.045130,0.055078,-0.264257,-0.226874,0.133363,-0.072432,-0.066564,-0.122518,0.291891,0.119959,0.316887,-0.304448,0.076003,-0.221181,0.229128,-0.301462,-0.233136,0.189476,0.199831,-0.001566,0.205124,-0.035226,-0.030319,-0.086168,-0.221138,-0.024208,-0.220470,-0.322965,-0.377686,0.076835,-0.186442,-0.090830,-0.234108,-0.235975,0.137033,0.150404,0.165314,-0.067730,0.144378,0.212855,-0.058790,-0.375325,-0.252469,-0.269521,0.100853,0.057483,-0.176747,0.262799,0.102230,-0.242596,-0.240177,-0.335023,0.283488,0.165933,0.140655,0.017363,-0.056012,0.023822,-0.110558,0.367811,-0.019945,-0.240780,0.178123,0.056377,0.091747,-0.291075,-0.116977,-0.119184,-0.204112,0.159242,0.087953,-0.092967,-0.123012,0.073736,-0.156201,0.168015,0.097717,-0.278627,-0.143398,-0.266874,-0.031544,-0.031390,-0.331274,-0.245952,-0.330220,-0.314634,0.069969,-0.139664,-0.013110,0.113095,-0.127579,-0.148816,-0.397357,-0.458549,0.221200,0.249681,-0.218490,0.105114,0.121815,0.146309,-0.250510,0.123839,-0.124468,-0.021931,0.261613,-0.023601,-0.191141,0.230046,0.020623,-0.059911,-0.337009,0.232580,-0.385145,-0.173720,-0.152182,0.157530,-0.080227,0.091279,-0.395849,0.057659,-0.193786,-0.176934,-0.009802,-0.036896,-0.406391,-0.284462,0.019760,-0.221804,0.055303,0.014520,-0.305311,-0.053725,0.110076,0.046980,-0.094713,-0.154955,-0.230299,-0.257442,0.227091,-0.014042,0.135621,-0.276658,-0.063553,0.202204,-0.225967,0.094761,-0.299563,0.081585,-0.161395,0.077424,0.225707,0.170822,-0.169389,-0.443851,-0.000379,-0.051729,-0.076316,-0.218699,0.032366,-0.242699,-0.321404,0.039081,-0.043644,-0.246293,0.130691,-0.308419,0.099776,-0.190650,-0.278998,0.135479,0.104889,0.209322,0.214831,-0.235386,0.138711,-0.261717,0.028254,-0.291478,0.117189,0.169520,-0.114057,-0.279500,0.086596,-0.096167,-0.270437,0.003684,-0.095646,-0.296168,-0.163907,0.090722,0.258738,0.057403,-0.170624,0.006839,0.171484,0.167660,0.170537,0.311026,-0.051713,0.013695,-0.280823,0.175502,-0.356505,0.162126,-0.508096,0.047493,0.067311,0.181992,-0.082436,-0.145913,-0.330472,0.259912,-0.138182,0.249785,-0.289024,-0.342728,0.068532,0.221273,-0.072752,-0.119711,0.273028,-0.583118,-0.059741,0.067935,-0.102377,0.277443,-0.176208,-0.169961,0.043384,-0.321599,-0.079207,-0.008211,0.313061,0.318256,-0.025567,-0.162153,-0.295773,0.286079,-0.084342,-0.239542,-0.075598,0.047998,0.307094,-0.147586,0.032736,-0.291026,0.343215,0.250457,0.276263,0.152408,-0.154592,0.041588,0.069151,-0.182069,0.171373,-0.277663,-0.094793,-0.500082,0.229894,-0.342718,-0.232331,-0.216934,-0.237434,0.008340,0.208077,-0.386851,-0.135786,-0.083042,-0.314543,0.247186,0.258538,-0.062882,-0.061707,0.021556,-0.177878,-0.158283,-0.211651,-0.180392,-0.129082,0.190015,0.100622,-0.119152,0.077499,0.045061,-0.057662,0.135971,-0.021556,-0.017214,0.318380,-0.024833,0.209338,0.135401,0.056006,-0.051495,-0.319061,-0.004607,0.095642,-0.250869,-0.254455,0.013246,-0.169284,0.254801,-0.220138,0.263877,-0.305997,0.187440,-0.023322,-0.376492,-0.203408,0.137426,-0.355216,0.286305,0.009014,0.260347,-0.086512,0.085594,-0.190845,0.211485,-0.084224,0.221597,-0.212606,-0.242121,-0.093674,0.166007,-0.312945,-0.056335,-0.186789,-0.064035,-0.032870,0.139672,-0.053276,-0.145759,-0.033488,-0.150039,0.209877,-0.102709,0.073441,-0.384438,0.070069,-0.391946,0.153822,-0.011451,-0.200689,-0.286192,-0.404158,-0.391898,-0.181510,0.247479,-0.243199,-0.230370,0.036615,0.074695,0.046845,-0.109344,-0.255223,0.259257,0.221655,-0.002677,0.237693,0.026978,0.005063,-0.157772,0.186706,-0.072623,0.057550,-0.288351,0.303756,0.129717,-0.285843,0.234996,-0.321257,-0.024548,0.068432,-0.159663,-0.031511,0.110010,0.106513,-0.000635,-0.151568,-0.401623,-0.156859,-0.224548,-0.258758,0.154177,0.009069,-0.040356,-0.115694,-0.281793,-0.378827,-0.210819,0.288331,-0.165727,-0.094657,-0.196702,-0.118755,0.015405,0.264603,-0.281111,-0.042845,-0.032651,0.157982,-0.274670,0.052175,-0.390343,0.086979,-0.137055,-0.209256,-0.352711,0.186053,-0.423428,-0.141819,-0.099778,-0.139053,-0.289698,-0.093555,0.112650,0.246477,-0.186547,0.189946,-0.337475,-0.173754,0.080980,0.115988,0.161675,0.249121,0.239250,0.133494,0.147930,-0.345562,-0.174989,0.062963,-0.021778,0.117598,-0.099640,0.134833,0.157638,0.250942,-0.233790,0.142298,0.233691,-0.030761,0.082635,-0.337403,-0.247077,-0.096685,0.155161,0.220761,0.007652,0.033048,0.273381,0.057352,0.002553,0.155074,0.081294,-0.253813,0.155328,-0.170206,-0.338980,0.086464,-0.073990,0.129100,-0.244364,0.136204,-0.271469,-0.375509,0.277309,0.266982,-0.124574,-0.386899,0.267581,-0.039735,0.145172,0.162827,-0.153606,-0.142129,-0.080806,0.030917,-0.103168,-0.277074,0.048529,-0.304583,-0.190753,-0.015493,-0.212796,-0.173878,-0.358180,-0.292646,0.036460,-0.213994,-0.358701,-0.145801,-0.248541,-0.002966,0.202455,0.169554,-0.082109,0.202200,0.143252,-0.230397,-0.083075,-0.082860,-0.369953,0.258839,-0.201431,0.165280,-0.162253,-0.206652,0.225863,0.159671,-0.007470,0.133257,0.094873,-0.193471,0.088109,-0.428514,-0.284951,0.008679,0.051172,0.101507,0.128717,-0.170177,0.150876,-0.022973,-0.163160,0.110916,-0.096834,0.202999,-0.376516,-0.111668,-0.157965,0.092391,0.121784,0.157389,-0.268106,0.080614,-0.168922,0.067707,-0.295056,0.089703,-0.306887,0.188809,0.183428,0.274867,-0.272161,-0.003093,-0.134863,0.048378,-0.056969,-0.352937,-0.073020,0.144392,0.054320,0.268043,-0.275986,-0.100864,0.005859,0.165374,0.150156,0.081473,-0.263445,-0.235234,-0.438405,-0.160535,-0.195182,0.007089,-0.233767,-0.275911,0.178637,0.124867,0.062591,-0.062049,-0.026537,0.232685,0.181187,-0.367975,-0.175802,-0.004198,0.149633,-0.250174,-0.275155,-0.003699,0.138155,-0.211544,0.037924,-0.292616,-0.438956,0.054884,0.028651,-0.169329,0.195144,0.097696,-0.085974,0.074367,-0.185276,0.346031,0.023001,-0.257943,0.156426,0.177251,0.152029,-0.076208,0.216119,-0.356822,0.247404,0.125504,-0.282873,0.095401,-0.123303,0.098046,-0.108784,-0.300188,0.402706,-0.082342,-0.194608,-0.150488,-0.659021,-0.030795,-0.239918,-0.260326,-0.105777,0.103578,0.108448,0.124933,-0.265214,0.133371,-0.147979,-0.203447,-0.244622,0.065142,-0.075389,-0.265554,0.054926,0.093711,-0.350464,-0.205579,0.231346,-0.074167,-0.033238,-0.070634,0.318931,0.030729,-0.406298,0.080578,0.237583,-0.074176,0.164472,-0.171265,-0.241042,0.264525,0.158787,0.101390,-0.189583,0.257644,-0.119728,0.061068,0.036045,-0.240488,0.061488,-0.002010,-0.086229,-0.118254,0.187926,-0.077448,-0.168441,0.289032,-0.287379,-0.148904,0.171827,0.133726,-0.225692,-0.311826,-0.115385,0.084102,0.179400,0.004206,0.201869,-0.359141,0.162077,-0.165698,-0.361572,-0.264477,0.267647,-0.092164,-0.129800,-0.312205,-0.073607,0.028876,0.155268,0.184560,-0.348453,-0.233211,-0.327653,0.161396,0.134923,0.138384,0.140156,0.207045,0.292964,-0.291617,-0.103819,0.140795,-0.195836,0.155021,0.141351,-0.142439,0.216120,0.221140,0.172879,-0.481541,0.221083,0.312915,0.150211,-0.363919,-0.018980,-0.113973,-0.221038,-0.148681,0.010572,-0.346168,0.082939,-0.022383,0.166526,-0.107368,-0.301010,-0.087859,-0.024068,-0.137398,-0.270802,0.234046,-0.118623,-0.026267,0.225110,-0.378246,-0.137045,0.157408,-0.354958,0.210868,