-0.0466064140
-0.0093401223
0.0246871877
-0.0393302068
0.1211584657
0.0007154507
-0.0457637645
-0.0457911231
-0.0509857461
0.0175800808
-0.0005027291
-0.0099546537
0.0107943881
0.0438393801
0.0055053323
0.0095020020
-0.0429402143
-0.0170307718
-0.0219789986
0.0862595811
-0.0442876965
0.0695159808
-0.0379506350
-0.0110660074
0.0721323565
0.0160529893
-0.0200555902
-0.0234514363
-0.0049460945
0.0643696934
0.0147883771
0.0059863529
0.1353444606
0.0230979659
-0.0422424115
-0.0385365188
0.0001221796
-0.0198586509
-0.0264554080
0.0603760667
0.0710408315
0.0595043749
-0.0266199745
-0.0254253019
-0.0299936887
0.0703194514
-0.0441160351
0.0090459371
-0.0369376279
0.0580180138
-0.0347919464
0.0692269877
0.0492758974
0.0845439211
0.0606266484
0.0337528437
0.1145472154
-0.0563507639
-0.0228244532
0.0104092257
-0.0137019185
0.0056058788
-0.0538019575
0.0044252835
0.0304142646
0.0375260189
-0.0141642001
-0.0097280126
0.0100748558
-0.0318853557
-0.0214765985
-0.0721802637
0.0044085914
0.0520121492
0.0136112971
0.0131600853
-0.0405382328
0.0512295850
0.0348856412
0.0779836252
0.0892163888
-0.0168637019
0.0049305926
-0.0040905834
