0.079709,-0.143480,-0.048411,-0.083133,-0.031096,0.060146,-0.130509,0.084833,-0.177244,-0.123091,-0.014641,-0.125281,-0.083100,0.164705,-0.139477,-0.219214,-0.061657,0.060938,0.038249,-0.039770,-0.090109,0.110824,-0.085557,-0.203793,0.046255,0.123874,0.032218,-0.100231,0.007702,-0.126483,-0.074922,-0.127655,-0.093238,-0.168292,-0.122948,-0.110897,0.161925,0.022755,0.068850,0.064735,0.109174,0.164790,0.032104,0.065440,-0.046758,-0.104474,-0.021137,0.062242,-0.055480,-0.130705,-0.025233,0.180273,-0.090213,0.069322,0.139458,0.068308,0.151212,0.101325,-0.090598,-0.011741,-0.090022,0.101702,0.060476,0.037147,0.130554,0.043033,-0.095660,-0.128802,-0.277451,0.078410,-0.085403,0.140063,-0.132246,-0.170376,-0.149620,0.104232,-0.135843,-0.063241,-0.089107,-0.055421,-0.065668,-0.112702,-0.205550,-0.066378,-0.048030,0.001915,0.020726,-0.008249,0.187852,-0.126647,0.076624,-0.043923,-0.261207,-0.136984,0.012619,-0.113378,-0.052101,-0.036172,0.076120,-0.103789,-0.094911,-0.463602,0.010668,0.108295,0.023090,0.023637,-0.036538,-0.010839,-0.133251,0.073388,-0.005162,0.038285,0.117530,-0.139384,-0.049218,-0.106903,0.063571,0.173591,0.167924,0.001247,0.008985,-0.013977,-0.017633,-0.021849,0.110723,-0.026885,0.043364,-0.005844,0.214832,-0.043907,-0.150383,0.180296,0.161807,-0.035872,-0.144446,0.035770,-0.038078,0.048382,-0.113603,0.034831,0.232157,-0.262454,-0.090216,0.026973,-0.068237,-0.147495,-0.022304,-0.251350,0.155940,0.038608,0.083066,0.101197,-0.073696,-0.077852,0.150327,0.142852,0.009735,-0.038484,-0.032185,-0.076057,0.057745,0.031536,-0.059041,0.075261,0.389173,0.129358,0.222924,-0.007743,-0.047584,0.145096,-0.089717,-0.067429,-0.080676,-0.174986,0.054118,0.037280,-0.060843,-0.185243,0.236302,-0.108707,0.055747,-0.125524,-0.081461,0.090695,-0.146053,-0.339423,-0.035380,0.089274,0.009947,0.050135,-0.007074,-0.053720,-0.019119,-0.119772,0.114738,0.206730,-0.161423,0.070253,0.313836,0.031916,-0.000670,-0.179075,-0.149761,0.049003,-0.105286,0.007275,0.027801,0.245235,-0.258588,-0.126004,-0.179512,0.040637,0.024389,0.038486,0.007434,-0.271548,-0.069935,0.224271,-0.032382,-0.286257,-0.147421,-0.028154,0.028358,-0.004238,0.209478,-0.172198,-0.004026,-0.116460,-0.152253,-0.041093,-0.073879,-0.007613,-0.014254,0.008923,-0.038863,0.110207,0.084171,0.065467,0.010469,0.149179,0.131715,-0.058450,0.003405,-0.035987,-0.035653,0.027704,-0.045926,-0.162386,0.047773,-0.064230,-0.078954,0.108731,0.014373,0.224860,-0.065810,-0.107370,-0.079964,-0.117667,0.031345,0.019814,0.112004,0.102052,0.065790,-0.077484,0.054976,0.225110,-0.235419,0.078412,0.056358,-0.035833,-0.101861,-0.069838,0.024591,0.014630,-0.168053,0.025841,0.071436,0.035505,0.029385,0.051080,0.110654,0.001982,0.110812,0.110443,0.206445,0.001429,0.191459,-0.061213,-0.008865,0.062897,-0.050888,0.212683,0.005047,0.027999,0.154992,-0.087722,-0.044874,-0.171684,-0.026693,-0.044783,-0.045565,-0.026754,-0.050169,0.138697,-0.139820,0.023307,0.083815,0.123045,-0.176409,0.108319,0.048185,-0.100399,-0.144650,-0.036521,-0.110807,0.212117,0.074584,0.029086,0.105033,0.075558,-0.046043,-0.208055,-0.160202,-0.151345,0.018141,-0.081898,0.048800,-0.166719,-0.089125,-0.053983,0.147942,0.038339,0.039629,0.110958,0.064601,-0.142849,0.013685,-0.063642,-0.002820,0.053850,-0.139579,-0.175532,-0.130533,-0.028629,0.140196,-0.110286,-0.106034,-0.023996,-0.270125,0.042095,0.047364,-0.182544,0.035645,-0.075050,-0.130344,-0.122072,0.094967,0.106693,0.149396,-0.139921,-0.077387,0.113046,-0.359862,0.023006,0.102259,-0.019997,-0.057223,0.101657,-0.095857,0.170221,-0.176020,-0.047043,0.074741,0.141632,0.073670,0.088337,0.065544,0.012467,-0.185563,-0.120310,-0.014215,-0.062849,-0.046190,0.163316,0.107255,0.079398,0.202139,-0.076372,0.088728,-0.199081,-0.218956,-0.018050,-0.037733,-0.113649,0.258079,-0.065476,-0.028445,-0.013239,-0.080797,0.050513,0.086100,-0.061026,0.004970,0.070682,0.061786,-0.094138,0.195876,-0.082430,-0.110497,-0.018612,-0.015969,-0.108112,-0.088604,-0.111717,-0.049007,0.038768,-0.069525,0.020323,-0.026147,-0.070416,-0.099921,-0.004406,0.058477,-0.096424,-0.014240,0.059669,0.078290,0.020466,-0.122948,-0.025710,-0.061319,-0.158739,-0.155487,-0.100455,-0.039511,-0.118976,-0.067688,0.014057,0.018622,0.210031,-0.250056,-0.061077,-0.022803,0.201407,0.038782,-0.252845,0.111293,0.079751,-0.186450,-0.087641,-0.112877,0.077788,0.019632,0.023156,0.090193,0.096144,0.271728,0.027833,-0.130018,-0.025104,0.010842,-0.033772,-0.032297,-0.106868,0.073374,-0.182749,-0.096660,0.038752,-0.035693,0.035344,-0.033343,0.047992,-0.069388,0.034709,-0.016868,-0.150058,-0.001221,0.125169,0.082777,-0.042892,-0.183022,-0.366088,0.040055,-0.125504,-0.006662,-0.124170,-0.028528,-0.064767,-0.171554,0.032322,-0.007319,-0.123549,-0.155255,-0.012072,-0.079367,0.013741,-0.109018,-0.087849,0.124863,-0.033507,-0.096388,-0.121601,0.160694,-0.307437,0.010576,0.163792,0.158554,-0.042783,-0.086423,-0.018736,0.149965,-0.212550,-0.011145,0.017837,-0.233453,0.026674,0.227100,-0.005234,0.114600,0.020124,0.122111,0.013333,-0.033069,0.042534,-0.135903,0.021982,0.127329,-0.029132,0.115571,-0.197054,-0.118537,0.020433,-0.100102,0.213116,-0.140279,0.033424,0.009525,0.130640,0.107854,-0.062556,0.031898,0.052623,-0.091617,0.045580,0.050663,0.130032,0.027653,-0.115455,0.057703,-0.005735,-0.180973,-0.024477,0.115407,0.105046,0.010328,0.152787,0.158296,-0.126866,-0.261795,0.101867,-0.023332,-0.003753,-0.004391,-0.075864,-0.144326,-0.035434,-0.051633,-0.188070,-0.007312,-0.166932,0.068937,0.159660,-0.119833,0.044567,-0.185648,0.068988,0.128812,0.032439,-0.135628,0.095823,0.108646,-0.493741,0.028122,-0.062597,-0.193831,0.014289,0.033437,0.128301,-0.082826,-0.074901,-0.110385,-0.140907,-0.082278,0.133963,0.075005,-0.015621,-0.052263,-0.110671,0.006756,0.003386,0.169368,0.008720,0.189387,0.010748,0.160482,0.122228,-0.285819,-0.408991,-0.035781,-0.060963,0.063536,-0.173858,0.097857,-0.017542,0.044945,0.108336,-0.226800,-0.016344,0.050640,0.069764,0.182005,-0.068486,0.069117,0.008363,-0.016065,-0.104247,-0.112435,0.120596,0.020507,0.039080,0.139705,0.044503,0.094049,-0.062958,0.019405,-0.060572,-0.067814,-0.077258,0.038434,-0.024779,-0.073065,-0.285733,-0.116201,-0.011269,0.125031,-0.138070,0.083583,-0.117230,-0.053924,0.021509,-0.147533,-0.129338,-0.048591,-0.002920,0.157373,-0.011946,-0.099519,0.038738,0.049558,-0.068977,-0.079766,0.108118,-0.001399,-0.136391,-0.169257,0.140809,-0.056714,-0.034827,-0.031212,0.063070,-0.016925,0.111389,-0.137004,-0.145361,-0.166024,0.048471,0.106807,-0.121733,-0.094638,0.131838,-0.020540,-0.158838,-0.103079,0.048953,0.182710,-0.236298,0.046006,0.147082,-0.211773,0.062366,0.008127,-0.208287,-0.028490,-0.192575,-0.143669,0.075897,-0.097765,0.088663,-0.107508,0.041829,0.028997,-0.307695,0.055563,0.096310,0.104557,-0.021549,-0.068794,-0.054642,0.048746,0.043188,-0.058857,0.116190,0.103234,-0.097797,0.047677,-0.122771,0.070137,0.124222,-0.013476,0.111647,0.113722,-0.104809,-0.217861,-0.015492,-0.299737,0.161124,0.017335,-0.053811,-0.002453,0.068121,-0.069170,0.021182,0.054740,0.140029,0.055516,0.144114,0.022586,-0.005700,-0.118591,-0.100510,0.149287,-0.089817,0.061667,-0.005821,-0.094223,-0.095782,0.018682,-0.016915,0.164140,-0.026151,-0.123131,0.244207,-0.063365,-0.056502,0.078895,0.163746,0.015091,0.064970,-0.017300,-0.176077,-0.107301,0.144149,-0.114147,-0.108674,0.193043,0.099205,0.118255,0.071580,0.202205,-0.027498,-0.040032,0.090405,-0.066461,-0.096775,-0.099970,0.155749,0.037402,-0.094772,-0.055315,-0.063063,-0.020252,0.124102,-0.052950,0.112173,-0.043243,-0.212423,-0.272683,0.233180,0.071303,-0.260475,-0.126114,0.035986,0.144962,0.026707,0.158749,-0.003522,-0.168101,0.086935,0.089412,0.058990,0.147899,0.034229,-0.040859,0.025207,-0.324297,-0.190322,-0.304166,-0.032868,-0.071647,0.007996,-0.048063,0.177745,-0.058901,-0.152848,-0.114130,-0.079387,0.158867,-0.046628,-0.063749,0.075146,-0.057828,0.006497,0.080157,-0.210449,-0.157698,0.014267,0.046873,0.149903,0.034105,0.015104,0.039765,-0.078261,-0.089466,-0.033645,0.110880,-0.122396,-0.073332,-0.200780,-0.024881,0.011958,-0.060671,-0.111958,-0.024186,-0.014870,0.005326,-0.106951,0.060277,0.100072,-0.061282,0.183074,0.027242,0.149336,-0.164244,0.113825,-0.112244,-0.006366,0.062064,-0.109954,0.066136,0.014054,0.252016,0.001544,0.049619,0.125751,-0.072206,-0.142995,0.052840,-0.175797,0.000885,-0.082105,0.092511,0.027543,-0.001821,-0.126311,0.022789,-0.050164,0.044456,-0.048393,-0.101442,0.085764,0.085409,-0.172871,-0.120307,-0.038521,-0.073242,0.040681,0.015455,0.031366,0.092845,-0.008574,0.005665,0.044285,0.000931,-0.096548,0.069878,0.027214,-0.059595,0.038939,-0.188438,-0.075700,0.041369,-0.031074,0.065875,-0.055149,0.127595,-0.150684,-0.085583,0.108345,0.007116,-0.150237,-0.133697,0.018266,-0.059778,-0.148363,0.060599,-0.248769,0.026036,0.023280,0.062725,0.008689,-0.057466,0.039970,0.110584,0.016770,-0.144876,0.079634,0.030172,0.052295,0.059124,-0.078237,0.018998,0.162248,0.081787,-0.016267,-0.052799,-0.098895,0.048195,0.017983,-0.031371,-0.032707,0.117390,0.015333,-0.024010,0.113884,-0.019269,0.070979,-0.023568,-0.230533,0.106437,-0.171175,0.074943,-0.098324,0.008598,-0.034502,-0.119139,0.037773,0.018068,-0.073556,0.057678,0.142035,0.123244,0.050793,-0.081990,-0.148041,0.016814,0.034613,-0.120349,0.010575,-0.121272,0.053026,0.035222,0.032335,-0.048467,0.147818,-0.046493,-0.076520,-0.000759,0.065026,0.142584,-0.124767,0.233119,0.029338,-0.058915,0.168270,-0.082986,-0.016556,-0.057359,0.032270,-0.025549,0.061591,-0.136854,0.041588,0.027493,-0.118014,-0.025168,0.036341,0.070897,0.007548,0.209041,-0.162103,-0.001452,-0.000267,-0.123743,0.063827,-0.151235,-0.003705,0.134850,0.075485,0.053190,0.055784,-0.037240,0.166275,-0.057230,0.080593,0.016798,0.049699,-0.108946,0.003059,-0.034548,-0.058658,-0.152775,-0.016832,0.040253,0.124353,-0.257632,-0.090004,0.141062,-0.050222,-0.264044,0.144185,-0.112103,-0.076483,0.013101,-0.123057,-0.187554,0.086794,0.078805,-0.128309,0.006489,0.005077,0.179374,0.031363,-0.373355,-0.056044,0.067278,-0.215564,-0.059283,-0.079641,-0.057132,0.073897,-0.098487,0.128069,-0.018380,-0.061100,-0.149752,0.148680,-0.019752,0.037615,0.015118,0.016282,-0.252915,-0.222651,0.113471,0.044711,-0.060450,-0.132261,-0.047295,0.112740,-0.175255,0.128959,-0.060505,-0.026068,0.057446,-0.156782,0.108710,0.004942,0.007538,0.203351,0.136310,0.076210,-0.059696,-0.307509,0.024442,0.064115,-0.041026,-0.010485,0.134635,-0.066368,-0.231279,-0.114245,-0.212696,-0.064931,-0.101244,-0.033605,-0.067906,0.093704,-0.034349,0.042495,-0.072990,-0.081384,-0.071875,-0.006678,0.274292,-0.274638,0.000927,0.189264,0.001518,0.040191,-0.122672,0.044051,0.404380,0.077963,-0.204249,0.039108,-0.043713,0.128999,-0.090660,-0.113909,0.144744,-0.080216,-0.295873,0.308276,-0.136426,-0.036197,-0.234121,0.265667,0.081967,-0.135933,0.132517,-0.346171,0.037149,-0.201263,0.074098,0.063361,-0.079128,-0.280057,0.107816,-0.047023,0.318646,-0.116687,0.086632,-0.235306,-0.077647,0.036064,-0.078538,0.182080,-0.003425,-0.065734,0.297468,-0.109470,-0.047546,-0.125619,0.162081,0.428092,0.179544,-0.017408,0.140397,-0.141783,-0.235404,-0.040975,0.124091,0.206329,0.117284,-0.321744,-0.150414,-0.017141,-0.094714,-0.270106,0.197070,-0.119365,-0.104935,0.123450,-0.119202,-0.077554,-0.072639,-0.168832,-0.052202,-0.106957,0.037833,-0.156034,0.127217,0.165795,-0.111389,-0.034926,-0.131062,0.114127,-0.070604,0.308390,0.041575,-0.108454,0.008883,-0.035746,-0.326589,-0.184032,-0.032907,0.085872,-0.172032,-0.017333,0.006325,0.034470,0.062198,-0.138213,-0.212917,0.077083,0.150872,0.283815,-0.004225,-0.086799,-0.008524,0.017216,0.029025,-0.395585,0.237916,0.060235,-0.062250,-0.078655,-0.227059,-0.019085,0.252516,0.073321,-0.085541,-0.276075,-0.080411,0.125741,-0.093279,-0.145790,0.012248,-0.194296,-0.110736,-0.107580,0.227402,-0.007361,0.116065,0.033652,0.145486,-0.020496,-0.246983,0.246157,0.073042,-0.155998,0.104455,-0.136457,-0.116074,0.043933,0.030964,0.021556,0.169377,-0.230267,-0.208839,-0.149812,0.115534,-0.268454,0.057177,-0.069784,0.062415,-0.090859,-0.139460,0.241848,0.167853,-0.066064,-0.250254,0.130315,-0.000704,-0.012764,-0.092649,0.095560,0.228466,-0.042191,0.129560,0.130097,-0.086908,0.062706,0.055064,-0.038565,-0.033922,0.196697,0.049722,-0.074461,-0.070514,0.126049,-0.027088,0.008172,0.232200,-0.007822,0.205300,-0.124789,0.138457,-0.120794,-0.218028,0.052386,-0.128362,-0.122882,-0.008547,-0.175475,-0.127407,-0.027618,0.090046,0.091667,-0.135985,0.047461,0.210485,-0.102045,-0.010839,-0.117406,0.163421,-0.084594,-0.035512,-0.050350,0.377699,-0.080686,-0.136018,-0.075540,-0.018473,0.042580,-0.049219,0.033529,-0.024861,0.210219,-0.057732,-0.152398,0.061314,0.145014,-0.048917,-0.111572,-0.143793,-0.120370,0.013993,0.085270,-0.014968,0.106043,0.067940,0.210641,-0.047455,-0.070819,0.076488,-0.066748,0.032693,0.089617,0.018771,0.119935,0.134259,-0.039403,0.058498,-0.031217,-0.051141,0.041861,0.074891,-0.232101,0.030641,-0.072273,-0.227430,-0.003384,0.001045,-0.134952,-0.037782,-0.041792,0.143286,-0.041361,-0.043351,0.144029,-0.022268,0.071202,-0.027400,-0.067010,0.048736,-0.112912,-0.115885,0.040042,0.067420,0.152035,-0.065662,0.093733,-0.018851,-0.337987,0.054897,0.133589,0.138542,-0.092761,0.073823,-0.084674,0.052996,0.134339,0.159417,0.030632,0.032061,-0.134339,-0.156432,0.041711,-0.131839,-0.091846,0.057096,0.118062,0.009933,-0.143523,0.053142,0.054599,-0.087628,-0.173552,0.141721,0.163614,-0.074988,-0.040526,-0.043014,-0.034058,-0.235987,0.055107,-0.145002,0.126706,0.217413,0.083609,-0.103065,0.184073,-0.004828,0.099023,0.060426,-0.119134,-0.131041,-0.151954,0.069300,-0.023424,-0.136515,-0.293399,0.018471,-0.134930,-0.043105,-0.016078,-0.117924,-0.023791,-0.080291,0.000980,0.119202,0.214358,0.231535,-0.031991,-0.143438,0.037708,-0.035452,-0.182194,0.117621,0.011808,-0.075371,-0.082712,-0.014823,-0.078595,-0.157474,-0.122595,0.149910,-0.093867,0.074088,0.103502,-0.017848,0.020596,-0.069343,-0.092327,-0.081641,-0.018609,-0.207776,0.055599,-0.008280,-0.099566,-0.127808,0.066833,0.124447,-0.153167,0.068481,0.006725,0.077952,0.097657,-0.030433,0.131394,0.178600,-0.099357,-0.182567,0.066359,0.089888,0.019763,-0.006051,-0.038358,-0.033415,-0.042045,-0.025667,-0.003138,-0.024178,-0.066498,0.171080,-0.025232,-0.075465,0.027334,-0.091056,-0.151624,0.079948,0.001785,-0.154725,0.164886,0.087772,0.012434,0.015267,-0.028907,-0.009429,-0.096764,0.044763,-0.014700,-0.066238,-0.103362,-0.067871,-0.105481,0.116058,0.068061,0.198862,0.008029,-0.004997,0.004804,0.025841,-0.022094,0.095226,-0.074019,0.012752,-0.007379,-0.073740,0.105197,0.040778,-0.016619,0.051873,-0.093512,-0.016766,0.173844,-0.172270,0.039592,-0.215608,-0.087940,0.068259,-0.030510,-0.043534,-0.141457,-0.133592,0.043987,-0.056031,0.038107,-0.098105,0.078636,-0.076162,-0.099280,0.067068,-0.127786,-0.087723,0.115069,-0.001336,0.078818,0.040906,0.078256,-0.015143,0.069863,-0.124512,0.169745,-0.074736,-0.090628,-0.064386,-0.106647,0.025998,0.105465,0.071135,-0.110539,-0.115612,-0.026961,-0.135810,0.132467,0.052992,-0.120344,-0.046007,0.013234,0.088893,0.110973,-0.065358,0.043897,-0.026683,-0.038503,0.248850,0.104870,0.000980,0.062713,0.045718,-0.028952,0.075250,-0.308385,-0.057279,0.191068,0.021992,0.128018,0.035348,-0.101775,0.154699,0.085994,-0.126548,-0.041226,-0.232746,0.125194,0.091688,-0.019806,0.124207,0.072023,-0.099202,0.232808,0.017423,0.021415,0.038102,0.061067,0.043653,0.121463,-0.006976,-0.194587,-0.135708,0.032519,0.090821,0.026940,-0.163290,0.014702,0.186229,0.011591,-0.015718,0.091395,0.125765,-0.060841,-0.051778,-0.003620,-0.033363,-0.130637,0.019752,-0.157454,-0.050336,0.161316,-0.140636,-0.068969,0.074992,0.155120,-0.072628,-0.033150,-0.022711,-0.177633,0.065052,0.088402,0.194041,-0.190056,0.058343,-0.089064,-0.108453,-0.269474,-0.132535,-0.102511,0.164294,0.035529,0.023348,0.038030,-0.207927,-0.114740,0.005923,-0.263790,-0.061303,-0.371095,-0.113863,-0.110434,0.128264,0.191690,0.006987,-0.117100,-0.074423,0.064709,0.037047,0.239252,-0.158278,0.048937,-0.060343,-0.037690,-0.067345,0.027251,-0.043875,-0.109445,-0.049692,0.009459,0.067741,-0.074984,0.056750,-0.178728,-0.046620,0.002997,-0.044402,0.055764,0.095992,-0.034986,-0.025423,-0.122845,0.028074,0.020265,-0.003519,0.053737,-0.085207,-0.006960,0.070217,0.097330,0.069083,0.074162,-0.079280,0.040556,0.125485,-0.250826,0.055743,-0.023453,-0.052310,0.072984,-0.008522,0.076058,0.139013,-0.161942,-0.117631,0.084133,-0.007809,0.137538,0.283915,-0.040565,-0.083914,0.148588,0.064784,0.151127,0.093910,0.085237,-0.128213,0.161291,0.136966,0.054675,0.105297,-0.160443,-0.167874,-0.074934,0.044001,0.043926,-0.025124,0.075978,0.117136,-0.019047,0.010190,-0.068350,0.210325,0.032441,0.010804,0.098690,0.087628,0.105849,-0.018022,-0.030163,-0.120806,0.038738,-0.039228,0.087509,0.036560,-0.084729,-0.098714,0.048420,0.074758,-0.102391,-0.246965,0.075590,-0.080629,0.102100,0.079418,-0.112192,-0.235345,0.017378,-0.260275,-0.028815,0.066815,-0.114806,-0.005340,0.233569,-0.124611,0.010640,-0.081392,-0.049812,0.028716,0.050591,0.032372,0.121930,0.123554,-0.043245,-0.135794,0.065823,-0.037465,-0.033636,-0.077715,0.054105,-0.061051,-0.013557,0.097714,0.106883,0.005579,0.090241,-0.009276,0.001479,-0.118184,0.106378,0.226082,0.014897,0.223140,-0.022945,-0.102212,-0.031444,0.071112,0.012992,0.043470,0.034296,0.179727,0.101531,0.032582,0.163887,-0.030508,0.026898,-0.028570,0.006994,-0.170822,-0.059963,-0.154307,0.083237,0.118581,0.148134,0.028122,-0.043452,0.051684,-0.140279,-0.173773,0.074885,0.021040,0.026880,-0.154833,0.104406,-0.089468,-0.038764,0.052304,-0.188558,0.101178,-0.116537,0.157821,-0.053222,-0.113030,0.152153,-0.108296,0.008385,0.229768,-0.040242,0.154355,0.017209,-0.017644,-0.000810,0.081537,0.077002,-0.119532,-0.029209,-0.078447,0.077368,-0.039327,-0.117457,-0.047244,0.102618,-0.339692,-0.084079,0.179440,-0.124682,-0.177125,-0.125563,0.068982,0.173320,0.077048,-0.109655,0.070067,-0.282073,0.130916,-0.175543,0.005216,0.023656,-0.229510,0.005565,0.208803,-0.016730,-0.035133,-0.147596,0.058807,-0.066184,-0.039045,-0.067055,-0.045521,0.110920,-0.018190,-0.144192,0.033430,0.064479,-0.162370,0.115480,-0.057783,-0.148786,-0.088136,-0.053288,-0.059190,-0.147138,-0.120325,-0.193078,-0.080223,-0.106996,0.113150,-0.159511,0.080137,-0.123056,0.085640,-0.121363,-0.036797,0.051299,-0.013327,-0.221147,0.036217,0.082638,-0.004533,0.072961,-0.108664,-0.037202,0.145747,-0.051919,0.003110,0.006715,-0.176246,0.056909,0.041264,0.017345,-0.052001,0.095291,0.076471,0.027176,0.212122,0.020287,0.003204,-0.118935,-0.236954,-0.092441,0.174672,-0.051687,-0.038587,-0.107413,-0.109673,-0.078592,-0.055039,0.058559,-0.129551,0.033501,0.126425,0.001413,-0.085877,-0.025861,0.017074,0.110477,-0.033636,0.030824,0.078335,-0.143596,0.009701,0.204078,-0.067284,0.040663,-0.095513,-0.110881,-0.055060,-0.085943,-0.071572,0.188306,-0.075287,0.034055,0.047655,0.150420,-0.072240,-0.123038,0.091408,0.072422,0.051002,-0.000623,-0.060611,-0.140031,0.034965,0.145739,0.079480,-0.120787,0.093389,0.031397,-0.139579,-0.203027,-0.023678,0.042339,0.082515,0.027024,-0.090678,0.037574,-0.049290,-0.091953,-0.112307,-0.061923,0.185512,-0.033519,-0.168551,-0.014628,-0.083601,-0.051088,0.162673,0.028795,-0.081648,0.088065,0.039623,0.048680,0.015580,0.133427,-0.105277,0.035643,-0.103750,0.006430,0.077183,0.057324,-0.073604,0.112667,-0.138503,0.130276,0.088765,0.044848,0.066179,0.147026,0.073052,-0.087608,-0.176351,-0.145914,-0.021609,0.035291,0.171232,-0.035258,-0.031904,0.046445,-0.058458,-0.034287,0.047960,-0.078054,-0.108503,0.244026,-0.041827,0.023102,0.117447,-0.069144,-0.006808,0.054229,0.002504,-0.083992,-0.118881,0.133004,0.166470,0.176252,0.057455,0.116121,0.055190,0.148239,0.052186,0.039375,-0.081535,-0.036795,-0.224909,0.182203,0.009523,-0.199939,0.053001,0.129568,-0.028077,0.068626,-0.136907,0.024435,0.090218,-0.033101,-0.086152,0.094539,-0.001793,0.138023,-0.039599,-0.339467,-0.020039,0.077085,-0.104483,0.287125,0.282895,-0.188890,0.030252,-0.056947,0.035994,0.120090,0.070647,0.078673,-0.117123,-0.069825,-0.046880,-0.009041,-0.205288,0.006183,0.152354,-0.036793,-0.405206,0.072191,-0.051025,-0.057292,-0.033482,-0.083812,-0.060652,0.048600,-0.308865,0.262063,-0.075429,-0.079247,0.147256,-0.061058,-0.143426,0.244192,0.142833,0.076566,0.009573,0.124566,-0.055349,-0.167699,-0.326407,0.213124,0.094323,-0.292441,0.194514,0.183850,-0.080232,-0.086860,-0.014126,-0.013772,0.335363,0.094899,-0.036020,0.124144,-0.023538,0.338816,0.016132,0.191191,-0.336700,-0.283273,-0.038471,0.011603,-0.023927,-0.230834,-0.038868,-0.028387,-0.025863,0.105125,0.007414,-0.195688,0.211648,-0.093645,0.050445,0.096564,0.026593,0.052727,0.004755,-0.149874,-0.052579,0.151767,-0.091068,0.070011,0.007367,0.079871,0.108928,0.135969,0.068136,-0.070179,0.184339,0.222464,0.083518,0.111537,0.023883,-0.075194,0.078098,0.071749,0.004502,-0.090197,-0.097197,-0.097707,0.058063,0.056784,-0.093826,0.011371,-0.198006,0.145406,0.173075,0.061019,-0.127403,-0.074513,-0.062870,-0.017171,0.032423,0.153109,0.146897,-0.093866,-0.032393,0.015856,-0.082175,0.142243,0.089336,-0.027240,-0.007160,0.049161,-0.012332,0.098627,-0.044072,0.051313,-0.043935,0.193033,-0.108799,0.060325,0.029697,0.006010,-0.045857,-0.111225,-0.087234,-0.060481,0.011068,-0.017409,0.001863,0.079113,0.013066,-0.130663,0.026967,-0.098484,-0.246965,-0.004550,-0.129942,0.060391,-0.079763,0.021509,-0.032040,-0.049113,-0.099874,-0.020500,0.151897,-0.036013,0.025047,-0.232000,-0.077920,0.119880,-0.000156,0.124261,-0.129291,0.141724,-0.010836,-0.088589,-0.019992,0.002422,0.039043,-0.099515,-0.054895,-0.137496,-0.149586,-0.139156,0.063481,-0.012857,-0.367829,-0.178325,0.009980,0.101183,0.061183,0.101306,0.047317,-0.009601,-0.169545,-0.063809,-0.000243,-0.031980,0.157004,0.110715,-0.093111,-0.141409,0.159886,0.140007,-0.033082,-0.170150,-0.051035,0.099141,-0.115730,-0.045781,0.023667,-0.096396,-0.091921,0.105846,-0.089326,0.121430,-0.033882,-0.098891,-0.014818,-0.068333,0.088439,-0.097310,0.051601,0.048307,-0.146127,-0.107530,-0.037688,-0.023130,-0.000619,0.067786,-0.112681,-0.082258,-0.004499,-0.103638,0.193488,-0.219069,0.012767,-0.076636,0.041363,-0.117205,-0.004972,-0.154413,0.037025,-0.194981,-0.007768,-0.167743,0.200561,0.027030,-0.029203,0.003664,0.129756,0.070492,0.213015,-0.184244,0.081886,0.076048,-0.011033,0.079161,-0.049145,-0.062071,-0.100814,0.047511,-0.118567,0.004040,-0.101606,-0.092652,-0.020822,-0.046695,-0.051484,-0.088004,-0.024682,0.094079,-0.061091,-0.036238,-0.177174,-0.030131,0.106858,-0.102187,-0.098704,0.025483,-0.012763,0.147128,-0.027989,0.164964,0.039404,-0.136647,-0.008186,-0.078673,0.032322,-0.014210,-0.047558,-0.081605,0.117366,0.107341,-0.052353,0.048723,-0.167197,0.008392,0.119871,-0.020444,-0.057645,0.094145,0.240921,0.026062,-0.124729,0.112358,0.082513,-0.112493,-0.067969,-0.018410,0.124500,-0.063636,-0.010045,0.069145,-0.043348,0.080679,0.038704,-0.023845,0.122588,0.068349,-0.030641,-0.003435,-0.037721,0.096689,0.047424,0.112797,-0.164675,-0.184711,0.101138,0.031005,-0.094012,-0.085387,0.028876,-0.066965,-0.137828,-0.146825,0.087295,-0.192979,-0.035298,0.212999,0.085922,0.011241,-0.255309,0.076353,-0.069088,-0.044949,-0.011647,-0.020818,0.132561,-0.108379,0.021968,0.008474,-0.083387,0.156005,0.158015,0.040419,0.210179,0.070564,0.074277,-0.131230,-0.021728,0.034214,0.096389,-0.076367,-0.118098,0.005300,-0.148171,0.007126,-0.104080,0.031750,-0.094369,0.100309,-0.081312,0.054251,-0.047464,0.028049,-0.076947,-0.094246,-0.096312,0.028658,-0.065079,-0.067540,0.188195,0.094811,-0.225754,-0.171974,0.026569,0.024823,-0.091877,0.004837,0.053277,-0.065435,-0.117869,-0.047096,-0.012582,-0.037207,-0.148603,0.007532,0.011967,0.234541,-0.051026,-0.229285,0.200035,-0.103439,0.050704,-0.084172,0.113600,0.103364,0.049918,0.104480,0.057604,0.147546,-0.250358,-0.002131,0.029066,0.004020,0.080963,-0.100699,-0.084599,-0.050239,-0.102152,-0.072919,0.197798,0.027952,-0.084896,0.027737,0.191715,-0.030561,-0.021428,-0.171781,0.114296,0.257853,0.035960,-0.032269,0.052151,-0.032854,0.011488,-0.140583,-0.027873,0.240283,-0.078939,-0.005719,0.167264,0.087438,-0.125099,0.122752,-0.159969,-0.105437,0.007570,0.078677,-0.002521,-0.019723,-0.034326,0.213378,-0.078093,0.043289,-0.032141,0.147050,0.009778,0.065429,-0.052912,-0.017531,-0.106326,-0.006212,0.034243,0.003950,-0.035095,0.077046,0.170571,0.219900,-0.090690,-0.085043,0.069308,-0.106690,0.075901,-0.043777,0.094586,0.101405,-0.059524,0.019392,0.098853,0.069563,0.054001,-0.113771,-0.008256,-0.032104,0.041684,0.016094,-0.055466,0.061874,-0.017991,0.025993,0.051834,0.058458,-0.096155,-0.015680,0.001838,-0.111887,0.061963,0.187475,0.068143,0.176524,-0.145781,0.082723,-0.082320,-0.058036,-0.186542,0.145394,0.047534,-0.063341,-0.183318,0.191570,0.094365,0.083576,-0.186342,0.046571,-0.021017,-0.195450,-0.128161,-0.098210,0.048357,0.170098,-0.027222,-0.008128,0.013422,0.147237,-0.089967,-0.197809,0.059090,0.150543,0.204669,-0.183630,-0.028071,0.136785,-0.206021,0.021053,-0.042027,-0.117086,0.101916,-0.217370,-0.002687,0.188577,0.090210,0.013064,0.003696,0.056078,-0.256935,-0.032054,0.084813,0.147633,0.026794,0.035009,-0.053583,-0.023130,-0.055356,0.023363,-0.132078,-0.097672,0.142813,0.147347,-0.054818,-0.119484,-0.002046,0.071529,0.034485,-0.105242,0.017280,0.057534,-0.195578,-0.212016,0.160382,-0.113478,-0.047338,-0.065299,0.012996,0.304617,-0.088792,0.026953,0.028021,-0.001681,0.087941,-0.053230,0.126930,-0.067242,0.143100,-0.119609,0.163758,0.018519,-0.084390,0.020198,-0.118310,0.061124,0.129793,-0.100703,0.174784,-0.176333,0.102639,-0.158772,-0.153164,-0.033462,0.140608,0.012753,0.124040,0.114339,-0.011522,-0.118215,-0.221588,0.032193,-0.025577,0.010599,-0.033102,0.033876,-0.148269,-0.030478,-0.091969,-0.059134,-0.048965,0.002217,0.040804,-0.057681,0.102786,0.190449,0.011454,-0.017993,-0.155261,-0.102933,-0.297417,-0.080244,0.000298,0.045434,0.046229,0.023360,0.107984,0.001699,-0.007077,-0.110251,-0.207171,0.022262,0.029426,-0.051669,-0.002747,0.135570,-0.047900,0.036540,-0.060992,0.111343,0.075483,-0.015300,0.043571,-0.083366,-0.032302,-0.154555,0.031715,0.063908,0.062978,-0.039462,-0.025929,0.007865,0.159134,0.155219,0.000070,0.217338,0.017806,-0.095547,-0.150788,-0.079042,0.114197,-0.233150,0.111473,0.160412,-0.011757,-0.056026,0.001653,-0.023251,0.046940,0.088681,-0.006952,0.132603,-0.108634,-0.201944,-0.039701,0.024973,-0.020489,-0.084687,-0.100620,0.136756,-0.136683,0.141090,0.014131,0.230851,-0.038515,-0.075961,-0.133948,0.059856,0.120690,-0.053278,-0.122919,-0.082676,0.004536,0.189821,-0.059602,-0.046223,0.108946,-0.257559,-0.000590,-0.041850,0.166649,-0.120804,-0.002425,0.016780,-0.062196,-0.085461,0.014568,-0.268665,0.273667,0.064398,0.034332,0.242402,-0.100836,0.122868,0.217306,-0.272721,0.068605,-0.175970,-0.011427,-0.096717,0.218912,-0.271657,0.090757,0.010953,-0.129490,0.022980,0.040199,0.032449,-0.070258,0.056309,-0.087196,-0.237128,0.009790,-0.029409,-0.069043,0.033417,-0.020294,-0.032518,0.115581,0.110976,-0.179188,-0.000804,-0.067039,-0.048817,-0.057796,0.017607,-0.114906,0.043796,0.118833,-0.232298,0.122439,-0.024681,0.061160,-0.065479,-0.037585,0.034507,-0.182421,0.154104,0.018846,-0.115115,-0.042895,0.050764,0.107772,-0.005148,0.005319,0.030726,0.136142,-0.117604,-0.266906,-0.028717,0.147882,-0.026598,0.174120,-0.127490,-0.051148,0.041610,0.386612,-0.090165,0.061012,-0.048397,0.253132,-0.051827,-0.020137,-0.126808,-0.069303,0.020434,-0.048165,0.057486,0.174752,-0.008027,-0.041787,0.040193,-0.176002,0.074376,-0.093043,-0.143847,-0.011157,-0.090673,0.077524,0.061250,0.030571,-0.094955,0.011044,-0.129931,0.059736,-0.101682,-0.177285,0.054037,-0.218304,-0.019633,-0.035040,-0.084874,0.071624,-0.002214,0.090428,-0.200715,-0.108278,-0.013576,0.161058,-0.127879,0.114793,0.182397,-0.046042,0.052927,-0.015389,0.181360,0.150658,0.069502,-0.077175,0.051371,-0.054130,-0.004814,0.064566,0.033680,0.047050,-0.068871,0.263103,0.061483,0.127158,0.035563,0.040484,-0.086081,0.026341,-0.005820,-0.164847,-0.131233,0.079331,-0.015434,0.130351,0.023466,-0.061857,-0.095656,-0.130644,-0.032532,-0.059440,-0.097795,0.009585,-0.041002,-0.024979,-0.124047,-0.002939,-0.031471,-0.093119,0.008745,0.115717,0.177673,0.184207,-0.097432,-0.395422,0.026688,-0.095860,-0.009953,-0.016961,-0.039469,-0.185423,0.200380,0.016931,-0.090774,-0.103851,0.111963,0.071268,-0.231023,-0.159958,-0.299787,-0.042482,-0.160776,-0.059943,-0.054550,-0.093054,-0.007630,0.182526,-0.027569,0.007721,0.004200,0.040946,0.203586,-0.096393,0.095267,-0.059095,0.180338,-0.319407,-0.362734,0.005044,0.041605,0.121180,-0.166062,-0.015022,-0.079709,-0.314973,-0.087297,0.085345,-0.049199,0.123984,-0.131007,-0.034446,-0.102792,0.139574,0.180914,0.057265,-0.064850,-0.023002,0.064072,-0.052117,-0.128432,-0.107785,0.115879,0.218859,-0.009396,-0.083877,0.089655,0.124611,-0.101560,-0.160985,0.139526,-0.054559,-0.064266,-0.026708,0.044790,0.002718,0.057821,0.054244,-0.134760,-0.018138,-0.224284,0.002811,0.031792,0.018459,-0.235387,0.013448,-0.127978,0.124906,-0.004440,-0.140643,-0.001928,-0.127782,-0.026501,-0.062546,-0.077682,-0.116983,-0.185097,-0.278390,0.122654,-0.122291,0.039820,-0.043216,0.022304,-0.094655,0.001967,-0.053400,-0.072501,-0.069673,-0.122732,-0.115478,-0.142350,-0.146853,-0.028297,-0.064647,-0.050151,0.061003,-0.061458,-0.175437,0.041187,-0.051633,-0.157327,-0.032107,-0.214498,-0.022801,-0.159058,0.106266,0.051209,-0.072530,0.064355,-0.067759,0.069478,0.058467,-0.107842,0.184731,-0.105794,-0.258576,0.211831,0.018042,0.244608,0.252536,0.017895,0.020344,0.150545,-0.078475,-0.034476,0.214970,0.102032,0.023727,0.146213,-0.172446,0.016944,-0.156770,-0.139632,0.091186,-0.005689,0.003675,0.157648,0.052286,-0.050366,-0.153800,0.073253,-0.086300,0.063657,-0.040625,0.143286,0.104811,0.038975,-0.064069,-0.008062,-0.169971,0.091104,0.054254,-0.076896,0.030811,-0.172798,-0.221675,0.075077,-0.255702,0.137800,0.014032,0.104547,0.023416,0.128562,-0.376189,-0.174117,-0.090135,-0.087228,0.145454,-0.290058,-0.031269,0.210590,0.029945,-0.045407,-0.107386,0.078483,0.049141,-0.116187,-0.130711,0.109237,-0.002823,0.165239,-0.058642,-0.005771,-0.000333,0.171190,0.095744,-0.172883,0.099254,0.009303,-0.001723,-0.032494,-0.018288,-0.054003,-0.050669,0.071658,0.030200,0.083474,0.075147,-0.281666,-0.019801,0.130613,-0.082808,-0.150823,0.151856,-0.171771,-0.134425,-0.046307,-0.068140,-0.056000,0.005836,0.131469,-0.055029,0.017409,-0.080418,0.022931,-0.160259,0.040553,0.005684,0.084774,0.029469,0.011108,0.008610,0.176663,0.044956,-0.005597,0.075954,-0.005389,-0.178233,0.088270,0.075423,-0.040742,-0.079645,0.125263,-0.023845,-0.009484,-0.044313,-0.085945,-0.194302,0.075463,0.161508,-0.032117,0.129728,-0.196205,0.205041,-0.066923,-0.092059,0.103216,0.012319,-0.352156,-0.012073,-0.059464,-0.017555,0.012711,0.062307,0.211741,-0.094341,0.061287,0.117165,-0.165369,-0.054776,0.057536,0.141008,0.084063,-0.067189,-0.018818,0.085344,-0.127260,-0.037703,-0.135116,-0.019093,-0.109265,0.077078,0.069530,0.069113,0.003350,-0.004712,0.009590,0.293873,-0.157896,0.044283,-0.140357,-0.105073,-0.181110,0.227371,0.104041,-0.273950,0.028251,0.005407,0.119624,-0.007412,0.071538,-0.136198,0.076248,0.044668,0.092361,-0.138812,0.042175,0.165666,-0.069679,0.055557,-0.309604,0.002353,0.091487,0.070028,0.005324,-0.092755,-0.159443,0.042566,0.002820,0.020120,0.148297,-0.063691,-0.249646,0.077555,-0.169816,0.248698,0.169922,-0.156511,-0.035675,0.087307,0.112156,-0.392996,0.129230,-0.068148,-0.051978,-0.004763,-0.079341,0.105329,0.062182,-0.113298,-0.109786,0.010592,0.113001,0.002003,0.041287,0.184815,-0.030162,-0.106247,-0.064219,-0.112992,0.137430,0.246081,0.099528,-0.091617,-0.126024,0.070585,-0.163870,0.146401,-0.134330,0.030242,0.073954,0.012045,-0.139693,0.019117,0.002441,-0.160861,-0.144762,0.038173,0.033078,0.044440,0.024690,-0.168888,0.236374,-0.197108,-0.101433,-0.052155,-0.060798,0.058923,0.272891,-0.064506,-0.004437,0.058526,0.093447,-0.072566,-0.061352,-0.083394,-0.121717,0.023192,0.018986,0.027089,-0.001301,-0.175413,-0.100154,0.059678,0.122329,-0.013689,0.071026,0.060620,-0.093387,-0.146092,0.048067,0.044162,0.092420,0.046549,0.181679,0.083415,0.025275,0.008344,-0.025660,0.012097,0.222517,0.039246,0.056777,0.104019,-0.064375,-0.053498,0.002439,-0.178642,-0.032235,0.051700,-0.005817,0.053230,0.022401,0.011320,0.085348,-0.105249,-0.047306,-0.134220,0.049575,0.181906,0.063747,-0.062941,-0.039610,0.082620,0.093642,0.118032,0.026713,0.088924,-0.093671,-0.078031,-0.152757,0.179287,0.100118,-0.064860,-0.071841,-0.152445,-0.035432,-0.243328,-0.073997,0.086004,-0.016167,-0.372649,0.215570,-0.183440,-0.063532,0.060024,0.025931,0.075954,-0.097250,-0.148309,0.126816,-0.243922,-0.106231,0.052182,-0.209605,0.006437,-0.034675,0.197783,0.037908,0.024527,-0.063889,0.129830,-0.140833,0.051924,-0.015041,0.262108,0.030922,-0.083648,-0.003284,-0.104662,0.222126,0.024566,-0.144659,0.129392,-0.024853,-0.116158,-0.051205,0.218931,0.208812,0.120725,-0.001417,-0.152683,-0.016364,-0.069584,-0.063197,0.022727,-0.048122,-0.006171,0.002121,0.132566,-0.089501,0.000241,-0.084090,-0.022792,-0.177700,-0.097861,-0.016318,0.171564,0.114442,-0.066516,-0.093353,-0.053118,0.109287,-0.111182,0.183170,0.161822,0.015440,0.039130,0.047366,-0.095495,0.006265,-0.091149,-0.098791,-0.190677,-0.240099,0.003793,0.199286,0.185643,-0.061048,-0.005020,-0.108432,0.097256,-0.050102,-0.036806,-0.071759,-0.024626,-0.143604,-0.015237,-0.176840,-0.117738,0.043979,-0.114397,-0.076254,0.092080,-0.064628,-0.027987,-0.005704,0.097093,-0.170319,-0.157875,-0.179321,0.054892,0.041999,0.176468,-0.168539,0.067667,-0.046071,0.022394,0.055388,-0.073282,-0.059659,-0.096442,-0.064863,0.084978,0.013153,0.024227,0.073495,-0.139149,0.092603,0.084927,-0.001491,-0.001013,-0.055787,-0.120024,0.083146,0.011998,-0.247498,-0.152637,-0.064238,-0.032438,-0.244067,-0.130706,0.176260,0.112277,0.186114,-0.028913,0.083698,-0.099463,0.129170,0.049251,-0.081435,0.125374,-0.160313,-0.056296,-0.022208,-0.009834,-0.064739,-0.034196,0.031630,0.127915,0.054872,-0.029716,0.037726,0.164232,-0.104685,-0.075794,0.173002,-0.073554,0.209547,0.183291,-0.051170,-0.083596,0.147164,0.106655,-0.156543,0.165618,-0.063943,0.032442,-0.091257,-0.221854,-0.046008,-0.032355,-0.102691,0.134615,0.003110,0.082161,0.070457,0.205519,-0.100605,-0.011014,-0.091646,0.055653,-0.056536,-0.057349,-0.073947,0.046930,0.020676,0.040355,0.046026,-0.153454,-0.010528,-0.035600,0.008968,-0.030291,0.021745,0.030754,0.110629,0.108012,-0.090021,0.169201,0.036073,0.097394,-0.119466,0.140233,-0.039550,0.026141,-0.053764,-0.024237,-0.029102,-0.097245,-0.090755,0.008370,0.018034,-0.031039,-0.038636,0.113457,-0.134865,-0.022013,0.023193,0.044295,-0.127693,-0.082063,0.105858,0.213001,-0.017854,-0.056198,0.072031,-0.045695,0.028178,0.117449,-0.072423,0.122309,0.136351,-0.013539,-0.085918,-0.018474,0.003131,-0.033545,-0.059018,-0.003120,0.048552,0.001193,0.132196,-0.084301,-0.094245,-0.015593,-0.107147,-0.050910,0.040354,-0.094042,-0.003933,-0.097998,-0.174139,0.099403,0.111046,-0.023079,-0.130757,0.042522,-0.071221,0.049734,0.087140,0.069390,0.076017,-0.067905,0.005479,0.072770,-0.150410,-0.097323,0.019058,0.033912,-0.022945,-0.090784,-0.173769,0.028655,-0.004490,0.108631,-0.005472,0.090817,0.139677,-0.164802,-0.139881,0.094437,-0.107638,0.026602,-0.012749,-0.144101,0.028960,0.005305,-0.051616,0.024675,-0.067351,-0.111096,0.047354,0.021454,0.081667,0.046399,0.029523,0.106099,-0.011896,-0.081376,-0.046045,-0.079648,0.043764,-0.016646,-0.007109,-0.103177,0.077616,-0.050693,-0.157176,0.064625,-0.128943,0.081563,0.008221,-0.122887,-0.138502,0.080472,0.055246,0.011051,0.025097,-0.010628,0.018817,0.058534,-0.004763,0.110681,0.188862,0.070192,0.109548,0.041761,0.244861,0.025410,-0.061528,0.097339,-0.101834,0.223170,-0.086479,0.045280,-0.009348,0.190887,0.083954,0.145051,0.132114,0.085743,0.032809,0.000377,-0.022943,0.047863,-0.109431,0.051804,-0.016744,0.111176,-0.072079,-0.016686,0.011839,0.109253,0.053785,0.165743,0.009310,0.000388,0.073585,-0.071084,0.067085,0.210125,-0.118051,0.040724,-0.053840,0.089080,0.176572,-0.102994,0.069961,0.047408,-0.056922,-0.049558,0.133654,-0.219931,-0.138477,0.220382,-0.075006,-0.209528,0.024646,0.048333,0.108798,-0.154782,0.181097,-0.081703,0.071064,-0.194268,0.162220,0.060922,-0.319155,0.057247,0.008102,-0.110761,0.150768,0.130934,0.062923,0.000467,-0.001663,0.001819,-0.279052,-0.005123,0.017830,-0.026593,-0.048223,0.034708,0.060912,-0.104390,-0.163235,0.022155,-0.009716,-0.069298,-0.149735,0.061845,-0.004980,0.067118,-0.024887,-0.040988,0.140407,-0.120071,-0.158316,-0.000210,-0.055934,0.045639,0.024755,0.056532,0.008233,-0.292211,-0.023277,0.040840,-0.020907,0.185096,0.208669,-0.108361,-0.064227,0.011501,-0.068726,-0.006908,-0.057713,0.027708,0.063213,-0.059575,-0.147303,-0.012569,0.163798,0.064085,-0.057192,-0.103569,-0.065013,0.082982,0.031277,-0.061136,-0.189647,-0.152773,0.009283,-0.095087,0.064116,0.045501,0.020150,0.012293,-0.025610,-0.191104,-0.058377,-0.016300,-0.050007,0.016967,-0.139355,-0.027595,-0.172662,0.000646,-0.107329,-0.000520,0.121474,0.068304,-0.208574,0.059862,-0.027237,0.151149,0.065230,0.101859,-0.105152,-0.094426,-0.130686,-0.345954,-0.130417,-0.099186,0.055925,-0.035753,0.092450,0.113685,0.073418,-0.085146,-0.245309,-0.058922,-0.098476,0.102025,0.049478,-0.073438,-0.039645,-0.001122,0.142507,0.100771,-0.113452,0.107842,-0.076453,-0.203143,-0.340910,0.035482,-0.205731,0.180080,-0.007887,-0.043880,0.036350,-0.077562,-0.027538,0.036196,-0.034040,-0.233569,0.021185,-0.104492,0.102531,-0.166782,0.061855,0.053705,0.042654,-0.043972,0.092282,0.127943,0.021767,0.032026,0.081291,-0.139513,0.008093,0.071379,0.242110,0.051012,0.090398,0.100421,-0.113278,0.108371,0.066340,0.115921,0.069773,-0.033628,-0.026373,0.076722,0.248355,-0.114872,-0.052266,-0.082272,-0.067606,0.013864,-0.014647,-0.074326,-0.065404,0.175366,-0.017323,-0.113271,-0.033243,0.022710,0.127272,-0.011389,-0.109463,0.048203,-0.132833,-0.117930,0.139678,-0.192753,0.049112,0.032832,0.280687,0.133347,0.029477,-0.017970,0.005039,-0.001227,-0.026242,0.144028,0.120134,-0.109161,-0.016136,-0.044095,0.254088,-0.027659,0.076841,0.044794,0.122177,-0.003353,-0.035498,0.032773,-0.086897,0.044668,0.022570,-0.038420,-0.049781,-0.072615,-0.121482,-0.022963,-0.356948,-0.103815,-0.031799,-0.042502,0.218379,-0.013676,-0.227370,0.161130,-0.081440,0.105493,0.081154,-0.050009,0.077074,-0.098709,0.165894,0.172766,0.146520,0.030820,-0.006079,-0.004679,-0.021225,-0.234092,-0.021832,-0.029135,-0.045818,0.130795,0.084540,0.145270,0.066796,-0.359207,0.128053,-0.063573,0.082606,0.048340,-0.130031,-0.103009,0.122477,0.076600,0.096709,0.039627,0.205536,-0.061194,-0.046173,-0.247965,-0.047202,-0.034213,-0.249439,-0.036522,0.177208,-0.019016,-0.066940,-0.205740,0.031356,0.361053,-0.033630,0.046120,0.086597,0.005910,0.023676,-0.111927,0.139766,-0.103429,-0.378204,0.070948,-0.072777,0.115410,-0.121023,0.024020,-0.080065,-0.185490,-0.099880,0.051581,-0.103414,0.169763,-0.053605,0.081148,0.086230,0.121436,-0.047153,0.040705,-0.030561,0.087652,-0.056505,-0.013609,0.027437,0.022232,-0.182463,0.015391,0.180935,-0.122476,0.145672,-0.062549,0.235151,-0.072766,-0.153577,-0.112776,-0.115537,-0.014476,0.110575,0.160602,-0.127416,-0.062996,0.043706,0.094669,0.079306,-0.083374,-0.006040,0.023832,-0.107451,-0.029399,0.029702,-0.089415,0.017114,0.054259,0.023694,0.060293,0.040562,0.000724,0.162224,-0.007489,-0.063693,0.053411,-0.169395,-0.130217,-0.106191,-0.229990,0.007089,-0.063750,0.026881,0.079374,0.179671,-0.007719,0.079907,-0.100749,-0.179910,-0.016502,0.102752,-0.052203,-0.054510,0.116767,0.087154,0.037522,-0.073136,0.104482,-0.005825,-0.015890,-0.011592,0.025238,0.081405,-0.211190,-0.030362,-0.025908,-0.077001,-0.091841,-0.019071,0.049773,0.091749,-0.067596,-0.080359,0.067230,0.059338,-0.105022,-0.034303,-0.123266,0.041817,-0.157171,-0.063083,-0.090525,-0.021601,0.007641,-0.122634,0.075791,0.011012,-0.088980,0.108290,-0.001255,0.074731,0.112263,0.170452,-0.056856,-0.077728,-0.017314,-0.055332,0.060388,-0.091738,0.040230,-0.149693,-0.130665,-0.042856,-0.014071,0.073901,-0.020520,0.066747,0.081680,0.015848,0.104297,-0.034818,-0.083150,-0.007605,0.047379,-0.120306,-0.175702,-0.046950,0.043563,0.070916,0.048035,0.009499,-0.027881,0.019044,-0.051282,0.003905,0.063841,-0.227525,-0.007387,-0.053840,0.040029,0.076933,0.116874,0.022704,-0.120337,-0.022791,0.110766,0.114623,0.144061,0.044250,0.092786,0.066167,0.087959,0.073167,0.025219,-0.099086,-0.090459,0.080375,-0.089561,-0.149151,0.026353,-0.144567,0.002434,0.014507,0.030429,-0.025563,0.104239,-0.103540,-0.089556,-0.110866,0.078162,0.034421,0.036709,-0.137785,0.065168,-0.074089,-0.119063,-0.201815,-0.018517,0.053843,0.093932,0.044313,-0.101961,0.199716,0.107453,-0.087330,0.036926,0.025615,0.104645,0.092851,-0.069029,0.105497,0.141011,0.125820,-0.163521,-0.118309,-0.096551,-0.071611,-0.021269,0.082182,-0.024487,-0.129406,0.055927,0.007116,0.059118,-0.097919,0.002255,0.093012,-0.061924,0.045305,-0.113759,-0.010128,0.109333,0.002118,0.019514,-0.032314,0.098931,0.063574,-0.014553,0.042806,-0.097696,-0.022570,0.117846,-0.021555,-0.002979,0.058318,0.171453,-0.086854,-0.149256,0.007230,-0.062018,-0.151940,-0.049824,-0.001470,-0.168149,-0.053900,0.010094,0.025383,0.102631,-0.094243,0.048282,0.007575,0.006899,0.186852,-0.049158,0.075105,-0.114049,0.141159,-0.144659,0.017485,0.080052,0.021000,-0.069227,-0.070616,0.038360,-0.183406,0.058233,0.076501,0.066379,0.086722,-0.100316,-0.067688,-0.249330,-0.214334,0.098252,-0.093797,-0.124499,-0.017005,0.021850,0.064991,-0.093914,0.059016,-0.176181,-0.082931,-0.076984,-0.087509,0.058245,-0.021335,0.070344,0.009327,0.014137,-0.102567,-0.158838,-0.063380,-0.106241,0.029499,-0.120974,0.131150,-0.036129,0.136798,0.022187,-0.073686,-0.104608,0.020352,-0.076674,0.167226,-0.035763,-0.208309,-0.143858,0.028874,-0.066333,-0.118785,-0.148558,-0.123179,0.007242,-0.110610,0.021545,0.000716,-0.104012,-0.055257,-0.043543,-0.144034,-0.048009,-0.085946,0.123493,-0.004544,-0.112972,0.087622,0.036806,-0.041034,-0.024667,0.121087,-0.123303,-0.094965,0.107718,0.143147,-0.076473,-0.020853,0.122730,0.140035,0.231248,-0.069749,-0.100873,-0.089203,-0.030035,-0.025162,-0.021292,-0.052214,-0.101931,0.105571,0.007192,-0.241409,-0.019219,-0.041776,-0.011571,-0.066105,0.128448,0.144606,-0.079289,-0.141538,-0.015692,-0.094674,0.074926,-0.081048,-0.005089,-0.090653,0.065967,-0.042329,-0.138127,0.102007,-0.087772,0.066034,-0.029745,-0.068538,-0.089080,-0.140711,-0.015830,-0.160851,0.170631,-0.089851,0.072588,-0.091539,-0.094364,0.336485,0.009962,0.312219,0.083310,0.223621,0.004879,0.116136,-0.039648,-0.227586,0.153112,0.115009,-0.000837,-0.074087,0.187874,-0.096969,-0.025716,-0.130499,-0.123168,-0.023826,-0.066928,0.011519,0.242801,-0.112495,-0.006151,0.000160,-0.103030,-0.138171,-0.026853,-0.086120,0.234024,0.017412,0.117171,-0.109857,0.130815,0.084768,-0.041812,0.140904,-0.153213,-0.067446,-0.013431,0.101047,0.085439,-0.022048,-0.140584,0.007503,-0.129698,-0.005563,0.098001,-0.025479,-0.085955,-0.187949,-0.143033,0.058794,-0.017939,0.113184,0.054560,-0.061026,-0.072442,-0.110801,0.102673,0.060936,-0.389642,-0.006681,0.014161,-0.155989,-0.212562,-0.102168,-0.074540,0.027929,-0.172140,-0.031459,-0.018681,0.101846,0.110052,-0.171772,-0.064350,-0.083618,0.041034,-0.060304,-0.089178,-0.019770,-0.195204,0.003343,0.088047,0.232259,0.073003,-0.092906,-0.185320,-0.158471,-0.049347,0.063665,0.037804,-0.098460,-0.082415,-0.062049,0.109062,0.162161,0.233891,-0.122495,-0.083460,-0.036594,-0.053833,0.019932,-0.110766,-0.010027,0.129757,0.181554,0.048280,0.038677,-0.069068,0.197892,0.126317,0.077847,0.287705,-0.050837,0.111483,-0.112263,-0.260846,-0.096318,0.131400,0.135662,0.044600,0.168575,-0.144459,-0.139328,0.229731,0.148561,0.029801,-0.056794,-0.145275,-0.265657,0.053731,-0.048099,0.273861,-0.300206,-0.011282,-0.374859,0.007548,0.151871,0.215208,-0.009363,0.098279,-0.298694,0.055544,0.131540,-0.072448,0.067086,0.066145,-0.477125,-0.151267,-0.241007,-0.158750,0.052743,-0.021887,-0.082834,-0.021089,-0.154061,-0.081304,-0.038490,-0.074689,0.064450,-0.183846,0.173354,0.084484,0.033888,0.057947,-0.163781,-0.088158,0.118872,-0.048316,-0.113904,-0.035384,0.037311,0.007827,0.052760,0.105882,-0.029577,0.028548,-0.490045,-0.165366,0.132299,0.130167,-0.005296,0.065708,-0.113046,0.059758,-0.017866,0.084085,0.176296,0.059500,-0.021858,-0.200353,0.151680,-0.295494,0.241079,-0.065931,-0.006335,-0.128740,0.095671,-0.061714,-0.301952,-0.031285,-0.019515,-0.120009,0.042220,-0.000733,0.099711,-0.100049,0.005282,0.229348,0.029908,0.040629,-0.088916,0.202901,0.300530,-0.123317,-0.030637,-0.229545,-0.037010,-0.033272,-0.008137,-0.002461,0.077370,0.012751,0.112549,0.001033,0.264842,0.031228,-0.125670,-0.145289,-0.365048,-0.067404,0.172401,-0.050067,-0.228442,0.070987,0.237415,0.043051,0.056911,-0.063343,0.082419,-0.283304,-0.169889,-0.184834,-0.223668,0.094639,0.157743,0.067709,0.131109,0.045833,-0.086767,-0.102323,-0.140782,-0.062812,-0.120943,0.157915,0.156866,0.107750,0.009384,0.081783,0.253847,-0.017357,-0.166405,0.021641,0.004706,0.050546,0.112160,0.166772,-0.360445,-0.106104,-0.282428,-0.007203,0.016313,-0.008481,-0.040198,0.016692,-0.132671,-0.180375,0.024639,0.235216,-0.038358,-0.048385,-0.043322,-0.022329,-0.175022,-0.008523,0.232454,0.000538,-0.083347,-0.045920,0.255338,0.105768,0.080661,-0.159739,-0.032206,0.058201,0.090600,0.032672,0.060314,0.071138,0.087310,-0.055589,-0.248465,0.116904,-0.102392,0.046779,0.121493,0.066445,-0.038128,0.020456,0.035536,-0.199417,-0.003371,-0.112574,0.113634,-0.044747,0.152460,0.033066,0.086411,0.035166,-0.088571,-0.088686,0.012810,-0.170626,-0.217640,0.115989,-0.128515,0.062067,0.130165,0.263337,0.050561,0.095911,0.324498,0.089063,0.041171,-0.072809,-0.111724,0.108562,0.062986,-0.136162,-0.056737,0.108296,-0.082032,-0.036184,0.145396,0.069300,0.160529,-0.008468,0.098981,-0.214583,-0.066707,0.122829,0.028393,-0.119573,-0.152042,0.136994,0.009997,0.010504,-0.003621,-0.003322,0.123738,-0.059522,-0.201765,0.152336,-0.038456,-0.055135,-0.019526,-0.124571,0.011465,-0.199129,0.152693,0.058165,-0.096996,-0.044584,0.178015,0.135092,0.109835,0.109524,-0.004621,0.052147,0.181970,0.024209,-0.053529,-0.009158,0.040316,0.038327,-0.026142,-0.092949,0.130748,0.076738,0.041453,0.178214,0.103442,0.096369,0.024866,0.030910,0.101367,-0.114318,-0.000031,-0.040683,0.039484,0.179577,0.125677,-0.010656,0.066762,0.068011,0.138632,-0.075601,-0.070838,0.186112,-0.061229,-0.081887,0.040355,-0.057390,0.015402,0.032696,0.105889,0.109783,0.139025,0.097438,-0.114595,-0.426387,-0.167397,-0.057223,-0.262580,0.014403,0.064011,-0.226190,0.036766,0.095331,0.072724,0.029815,-0.169139,-0.079188,-0.231284,-0.112299,-0.060198,0.180109,-0.000395,-0.096347,-0.129632,-0.211341,0.036528,-0.100801,-0.000442,0.157543,-0.140383,-0.092186,0.094871,-0.143420,0.142089,0.054420,-0.020656,-0.303374,-0.118046,-0.013361,0.023554,0.026111,-0.014947,-0.046974,0.025315,-0.161607,0.091132,-0.098981,-0.045345,0.207895,0.077776,-0.125651,0.063741,0.148414,0.140231,-0.013570,0.098933,-0.074340,0.029749,-0.107371,0.001074,-0.072193,0.091528,0.203937,-0.194128,0.147357,0.052792,0.006916,-0.105394,0.126353,-0.051915,-0.104284,-0.125137,0.052338,-0.105951,0.059842,-0.115810,0.007674,-0.286341,0.011487,0.143268,-0.121807,-0.102020,-0.294398,-0.043945,-0.142643,-0.036997,0.147509,0.283414,0.113796,0.103421,0.082751,-0.088112,-0.195003,-0.017882,-0.217070,-0.036642,-0.205456,-0.117384,0.092094,-0.093792,0.209916,-0.015735,-0.035885,0.121052,-0.139569,-0.059995,0.018118,-0.027940,0.035653,-0.046309,-0.030338,-0.248125,-0.065848,0.010562,0.099252,-0.116718,0.093815,-0.158101,-0.037434,-0.088652,-0.170988,-0.339589,-0.217937,-0.074826,0.298736,0.144325,0.055432,0.003688,0.088227,0.039172,0.118524,-0.009613,0.044350,-0.052469,0.211222,-0.143493,-0.014144,-0.028062,0.214090,0.108449,0.161527,0.098330,0.100493,0.117102,0.111503,0.027764,-0.139051,0.141977,0.064869,0.209156,-0.179310,-0.272916,0.096282,-0.024823,-0.032297,-0.051885,0.234024,0.098009,0.027142,-0.051633,0.028333,0.221912,-0.094467,-0.219159,0.306989,0.057759,0.044912,-0.147626,-0.126786,0.065161,-0.003402,0.081104,0.067002,-0.018747,-0.180921,-0.162108,-0.068498,-0.206353,0.065845,-0.044875,-0.071130,0.122790,-0.099770,-0.130622,0.132973,0.062820,0.081037,0.006794,-0.076888,0.222403,-0.045390,0.022292,-0.182452,0.141434,0.056219,0.068042,0.174087,-0.039413,-0.164423,-0.017828,0.043928,-0.198573,0.065007,-0.166383,-0.023651,-0.006917,-0.141231,0.111130,-0.111408,-0.130637,0.028847,-0.047329,0.132670,0.109845,-0.107094,0.073605,0.123085,-0.085988,-0.009531,0.116030,0.101051,-0.038354,0.178064,-0.002478,0.115877,0.034107,-0.133185,-0.068147,-0.069564,0.072651,-0.045486,0.104335,0.091834,0.149086,-0.129855,-0.144215,0.063783,-0.017385,0.100380,-0.064236,-0.003779,-0.068573,0.157294,0.053455,-0.109218,0.001823,-0.087892,-0.041688,-0.095376,0.009261,-0.102776,-0.006846,-0.093026,0.007903,-0.099059,-0.031394,0.083483,-0.034284,-0.144266,-0.166430,0.139581,0.048891,0.046691,-0.113003,0.019727,0.035637,-0.005903,0.031220,-0.097775,-0.051636,-0.057944,-0.018013,0.176139,0.133717,-0.009532,-0.014370,-0.116040,0.141763,-0.108140,0.003347,0.160457,-0.206276,0.077071,-0.099316,-0.102309,-0.141827,-0.040518,-0.114286,0.138280,0.088925,-0.022314,-0.078974,0.087336,-0.013102,0.002495,-0.008981,-0.103736,0.087689,-0.147860,0.041130,-0.023695,-0.215564,0.137382,-0.142039,-0.347310,-0.169915,-0.103981,-0.292849,0.000109,-0.151847,-0.078976,0.158904,0.192887,0.040293,-0.049674,-0.093706,-0.051027,-0.044737,0.050028,-0.206851,-0.098086,0.161645,0.041622,0.179358,-0.184475,-0.049884,0.199042,-0.280835,0.137678,0.014590,-0.095350,-0.074572,0.253501,-0.113752,0.316898,-0.172603,-0.140791,0.147715,0.021845,-0.110279,-0.263815,0.072356,-0.135698,-0.133029,0.033513,-0.049555,-0.113548,-0.036079,-0.007557,0.328400,-0.076947,-0.166590,0.089309,-0.107253,0.085876,-0.088308,-0.018070,-0.108234,-0.238890,0.034815,0.155051,-0.052265,0.177294,-0.261566,0.370176,-0.164977,-0.060504,-0.139597,0.199492,0.373056,-0.105030,-0.430852,0.318807,-0.000447,-0.360983,-0.095590,-0.279142,0.126341,0.019321,0.056856,-0.110648,0.271062,-0.322861,-0.033011,-0.048012,-0.035959,-0.110665,-0.037177,0.136617,-0.000689,0.054455,0.153457,0.092449,-0.119441,-0.124736,0.257444,0.254062,0.061404,0.039983,-0.103158,-0.360766,0.006160,-0.038477,0.219095,-0.124473,-0.152121,0.083948,-0.046579,-0.323470,0.132125,-0.099212,0.040042,0.033382,-0.232414,0.015203,0.127757,-0.057799,0.268996,-0.086912,0.264877,0.051563,-0.099588,-0.038064,0.070032,-0.127561,-0.227657,-0.097682,-0.229944,-0.138140,0.086108,-0.088836,0.038800,0.009127,-0.080375,0.107231,0.089962,-0.090984,0.115457,0.209052,-0.006035,-0.049071,0.052752,0.124474,0.130477,0.025652,-0.093878,0.247532,-0.060017,0.061159,-0.058113,0.040173,0.020395,-0.071313,0.085584,-0.145770,0.169449,0.006828,0.039116,-0.024522,0.068596,-0.205278,0.229157,-0.120603,-0.019509,-0.075249,-0.177143,-0.083137,0.027602,-0.040168,0.161495,-0.274329,-0.226177,0.259914,0.155583,0.065632,0.078621,-0.122728,-0.014378,-0.146714,0.194928,-0.054628,0.042670,-0.024327,0.151313,0.200977,-0.084926,-0.113646,0.054993,-0.079154,0.150949,-0.012268,-0.233445,0.184212,-0.209849,-0.042830,0.077285,0.132667,0.144960,0.309098,-0.054026,0.221466,0.132658,-0.011009,-0.193694,-0.042348,-0.016425,-0.057934,-0.069167,-0.139644,0.007802,-0.113000,-0.113890,0.067611,-0.071126,0.029902,0.088501,0.167398,0.192131,-0.021860,0.033385,0.024464,0.290057,0.069949,-0.292048,0.140669,-0.072118,-0.093299,0.004693,-0.241729,-0.057736,-0.057759,-0.047556,-0.105475,-0.240195,-0.101230,0.079358,0.038431,0.056680,0.003271,-0.181071,0.015828,0.023134,0.155744,-0.134853,0.098510,0.040714,0.037198,0.051893,0.170910,-0.093411,-0.015505,-0.126426,-0.136943,0.041248,-0.055011,-0.046356,0.251643,0.000974,-0.123474,0.129950,-0.073468,-0.168736,-0.243707,-0.134189,-0.033702,-0.077181,-0.006337,0.037001,-0.153564,-0.097576,-0.248331,-0.038614,-0.144583,-0.003518,-0.063429,-0.033416,0.042291,-0.112236,-0.097582,0.119397,0.392850,-0.067941,0.158898,0.109801,-0.077986,0.031854,-0.104111,0.029587,0.059424,-0.147311,-0.009312,0.006489,-0.321882,-0.018899,0.071208,-0.009266,0.053095,0.046109,-0.005696,-0.112730,-0.113902,-0.073321,-0.294858,-0.089841,0.014481,-0.042651,0.048371,0.220953,-0.030611,-0.081557,0.112324,0.179133,-0.217237,-0.129604,0.075235,-0.054012,-0.106198,0.021404,0.086914,0.112230,0.004452,0.077032,-0.089643,0.103196,-0.061319,-0.135000,-0.206589,0.173348,-0.109481,0.078129,-0.099421,-0.266383,0.093728,0.144110,-0.104191,-0.138205,0.106220,0.040066,0.029063,-0.107920,-0.042105,-0.099390,-0.066712,-0.029045,-0.000140,-0.149234,-0.022269,-0.012059,0.096130,0.116168,-0.069692,0.050343,0.140717,-0.074184,0.045374,-0.090897,0.006882,-0.057101,-0.002314,-0.014391,0.016830,-0.001663,0.171075,-0.136404,0.021716,0.033745,0.188929,0.021384,0.022248,0.090554,0.000180,-0.143494,-0.216866,0.041673,0.130274,0.099576,0.073285,-0.125596,0.062430,0.138242,0.038542,0.068390,-0.197520,0.100324,-0.007656,0.129833,0.031398,0.092656,0.072550,0.129276,0.000956,-0.080935,-0.183340,0.060456,0.006477,0.059386,-0.102975,-0.148657,0.086973,0.069513,0.088016,-0.100059,0.011836,0.108191,-0.131825,0.059884,-0.012660,-0.088016,-0.046982,-0.017478,0.198942,-0.136408,0.005508,-0.139696,-0.147991,0.034033,0.066151,0.072344,-0.112373,-0.081785,0.047184,-0.105856,-0.167552,-0.014494,0.211900,0.193571,0.085093,-0.022928,0.154673,-0.062714,-0.080575,-0.134511,0.154911,0.008397,0.093998,-0.158363,-0.031405,-0.055643,0.222603,0.203393,0.182647,-0.044208,-0.146205,0.087672,-0.123841,-0.048875,0.021040,0.029348,-0.016906,0.066408,-0.165888,-0.187363,-0.149744,0.000949,0.019384,0.026612,0.116618,0.028142,0.012033,0.043544,-0.043934,0.161073,-0.074832,-0.059876,0.028899,-0.119753,-0.103065,-0.051909,-0.036621,0.061430,0.068791,0.101756,0.074654,-0.093676,-0.176932,-0.041342,0.088621,0.043373,0.039326,0.093959,-0.092833,-0.209119,0.287907,0.395883,-0.190869,-0.030739,0.007504,0.082722,-0.045365,-0.282135,-0.100560,-0.000769,0.206051,0.086803,-0.039517,0.015384,-0.066799,-0.076231,0.085299,0.008487,0.065450,0.112357,-0.016657,-0.018502,-0.057080,0.080104,0.108544,0.021012,-0.029375,-0.082206,0.134913,0.054920,0.022997,0.048771,-0.026392,-0.130359,0.008649,0.117426,-0.126355,0.053603,-0.368223,0.069936,-0.214481,0.096004,0.052547,0.210006,-0.106056,0.223577,0.037605,-0.088797,0.094244,0.039134,-0.145478,-0.110517,0.201269,0.021775,-0.191565,-0.144423,-0.007589,-0.053631,0.179564,0.104482,0.237520,-0.042351,-0.291219,-0.073695,-0.141681,-0.271313,0.188966,0.133592,-0.098890,-0.044689,-0.051504,0.059818,0.018555,-0.055670,-0.026639,-0.049102,-0.190678,0.167178,-0.121109,0.101578,-0.009880,0.067694,-0.065306,-0.028897,-0.055578,0.136544,0.008851,-0.037757,0.049024,-0.069237,-0.223644,0.132953,0.090932,0.108460,-0.248976,-0.197053,-0.080919,0.080223,-0.003828,0.063404,0.017617,0.061776,-0.337489,-0.093879,-0.134718,-0.060563,-0.064654,0.028740,-0.007203,0.028532,0.187039,-0.097813,0.002920,-0.089665,-0.199536,0.109065,-0.016242,0.290751,0.163450,0.048033,0.035937,-0.321509,-0.056380,-0.183358,-0.036111,-0.271649,0.128246,-0.311718,0.027967,0.024878,-0.122463,-0.043946,-0.402664,0.083358,-0.056936,-0.083046,-0.099787,0.082466,0.058340,-0.174739,0.122127,-0.113395,-0.167391,-0.420545,0.343964,0.117922,0.102888,0.115173,-0.008306,-0.237419,-0.095082,-0.036575,0.114726,-0.165504,-0.000327,-0.004935,-0.063904,-0.130548,-0.022309,-0.050328,-0.116410,-0.121658,-0.198168,-0.051975,-0.075590,-0.389701,0.116886,0.058593,-0.077009,-0.384484,0.046551,0.324543,0.089304,-0.160160,-0.331672,-0.023178,-0.112355,0.207867,-0.087500,0.165262,0.167184,-0.426563,0.280666,0.009379,-0.127351,-0.165727,0.042192,0.207460,-0.126158,0.174754,0.014594,0.012598,-0.228833,-0.183381,-0.124064,0.150036,0.113821,0.087242,0.332556,-0.105680,0.158729,-0.172304,0.101501,-0.039393,-0.204013,-0.060422,-0.100948,0.081967,-0.060476,-0.007763,0.119744,0.048642,0.114815,0.277129,0.182873,0.145409,-0.131858,0.007258,-0.055338,0.138057,-0.076551,0.017497,0.140264,-0.134491,-0.019031,-0.337513,-0.279929,0.025311,-0.132116,0.048118,0.014151,0.123858,-0.127111,0.036069,0.096214,0.190104,-0.132268,0.063942,-0.133379,-0.387587,0.033161,0.111443,-0.380071,-0.111627,0.029719,0.087523,-0.012467,-0.132990,-0.020700,0.047646,-0.046883,0.069408,-0.187018,-0.078701,-0.111263,0.016090,0.106503,-0.066506,0.011561,0.346463,0.021394,0.059380,-0.166075,-0.034297,0.236599,-0.125843,-0.082518,-0.113422,0.048938,-0.015363,0.241944,-0.129282,0.078313,-0.019681,-0.208270,-0.128790,-0.055519,0.140872,-0.366378,0.005977,-0.167690,0.128488,0.143477,0.030293,-0.094265,0.079925,-0.003296,0.136250,-0.152117,0.006879,0.253920,-0.399575,-0.003120,-0.107461,0.021773,-0.260925,0.023265,-0.040335,0.310170,-0.238938,0.146427,0.165893,-0.270195,-0.147367,-0.042082,-0.065308,0.097526,0.214011,-0.038704,-0.082498,0.197751,0.001022,0.038690,0.190156,-0.099945,0.161740,-0.111842,-0.042270,-0.053024,-0.050835,-0.184620,-0.173788,0.120195,0.012867,-0.144098,0.044506,0.067901,0.213525,-0.004035,0.079008,-0.282209,0.058402,0.065048,0.044167,-0.065605,-0.366805,-0.091540,-0.198174,-0.051023,-0.042932,-0.033003,-0.235537,-0.424181,0.020963,0.001917,-0.053653,-0.074666,-0.097143,-0.030073,0.070772,0.060432,-0.195699,0.179420,0.299577,-0.006718,-0.094991,-0.053334,0.061730,-0.124318,-0.012591,-0.045917,-0.151705,0.019394,-0.011148,-0.073895,-0.034224,-0.028455,-0.271911,-0.118744,-0.030749,0.170722,0.032290,-0.096525,-0.045499,0.007523,0.185227,-0.061643,-0.121478,0.000658,0.176098,-0.091227,0.069222,-0.078042,-0.096818,0.017408,-0.076606,0.172846,-0.044226,-0.047101,-0.045059,-0.109396,-0.016075,0.192885,0.118222,0.125170,-0.064248,-0.070150,-0.010115,-0.254500,-0.076882,-0.062606,0.063131,-0.065215,-0.156895,-0.178296,0.055887,-0.122610,0.121510,0.047602,-0.214595,0.066852,-0.178214,0.128512,0.091994,-0.123921,-0.006153,-0.101251,0.191568,-0.031207,0.006871,-0.101353,-0.127065,0.200394,-0.041704,0.045409,-0.216156,0.160900,0.021245,-0.142950,-0.063021,-0.096826,-0.141622,-0.071943,-0.251493,-0.005455,0.167952,0.021102,-0.172318,0.185739,0.050479,0.000586,-0.160211,0.123560,-0.164362,0.065452,-0.067807,-0.023161,0.009740,0.020590,-0.044403,-0.133727,-0.000982,0.067521,-0.028240,-0.006524,-0.097148,0.038694,0.082748,0.120635,0.027941,0.041723,-0.173169,0.084545,0.046352,-0.106977,-0.063589,0.142188,-0.225260,-0.007164,-0.036515,0.103119,0.089825,-0.001685,-0.196127,0.071268,-0.041262,-0.072174,-0.129378,-0.003229,0.129356,0.212397,0.111073,0.069690,0.157705,0.047806,0.152773,-0.054653,0.062011,-0.156085,0.075115,-0.065818,0.241555,-0.118544,-0.077297,-0.052306,-0.088153,-0.127477,-0.135200,-0.018738,-0.175987,-0.008181,0.088469,0.003460,-0.171547,0.070979,-0.098376,0.098517,-0.084464,-0.013807,0.183674,0.187463,0.094316,0.054482,0.037710,0.146261,-0.010880,0.054801,0.087415,-0.085526,-0.047364,-0.125786,-0.090087,0.040294,-0.046895,0.019476,0.028144,-0.099031,0.069633,-0.002018,0.021779,-0.024267,0.090396,0.045605,0.036228,-0.015830,-0.032512,0.076848,-0.066285,-0.000649,0.162973,-0.012505,-0.070149,-0.084833,0.057612,-0.180275,0.038023,-0.103482,0.131672,0.043183,-0.100742,0.001127,-0.013582,-0.014791,0.003787,0.197735,0.103692,-0.059471,0.152743,0.017526,-0.029730,0.011759,0.081688,-0.098419,0.060366,-0.051656,0.095914,0.000459,-0.046993,0.061705,-0.106546,0.100257,0.149674,0.104375,0.100311,-0.003485,-0.036064,0.064951,0.141127,0.064215,-0.109422,-0.094421,0.222071,-0.189728,-0.047457,-0.138603,-0.130853,0.044014,0.015923,0.003506,-0.012002,0.029317,0.026900,0.036493,0.075608,0.256129,-0.110034,0.316712,0.082928,0.134856,0.182803,-0.132582,0.164871,-0.013068,-0.027046,-0.057640,0.043287,0.021754,0.076493,-0.092623,-0.176751,0.025254,0.026297,0.143347,-0.011305,-0.052459,-0.248948,-0.050007,-0.178539,-0.006956,-0.268420,-0.093973,-0.277427,0.229085,0.046550,-0.165753,0.049692,-0.056606,0.074855,0.202546,-0.022847,-0.157392,-0.274383,-0.268391,0.094198,-0.128531,0.118232,-0.164321,-0.231442,0.005710,0.245839,0.043962,0.166265,-0.148350,-0.110844,-0.104789,0.006413,0.063339,-0.022218,0.105732,0.030306,0.054115,-0.002045,-0.127012,0.085490,-0.031123,0.004684,0.047309,0.038190,-0.179725,-0.014927,-0.037513,-0.051640,0.118926,-0.097809,0.088277,0.050908,-0.400342,-0.106031,0.103929,0.121193,-0.385763,-0.171189,-0.005444,0.313998,-0.159728,-0.181313,-0.030844,-0.046194,0.133999,-0.014726,0.276869,-0.010831,0.233847,0.026617,0.131191,-0.120901,-0.286789,-0.196380,-0.010458,0.003598,0.040191,-0.132232,0.034163,-0.277601,0.024089,0.273794,0.050232,0.007915,0.191588,0.129936,0.025274,0.176795,0.143112,-0.124696,0.092883,0.039829,-0.031160,-0.014585,-0.080366,-0.135011,-0.138796,-0.123794,-0.173823,-0.181156,0.056182,-0.014080,0.093839,0.034229,0.096244,0.014194,0.111961,0.414134,-0.206579,0.172711,-0.055988,0.101904,-0.019497,-0.121256,-0.039653,-0.010959,0.060323,-0.119010,0.152734,0.037430,0.153040,0.061773,0.043725,-0.069435,-0.013737,0.120435,0.240168,-0.042098,-0.090230,-0.125954,0.014550,0.077245,-0.017378,0.130289,0.034963,0.188569,0.205082,-0.212726,-0.006086,-0.018782,0.009391,0.143230,0.063750,0.097793,-0.223936,-0.008544,-0.079276,0.124703,0.098983,-0.057918,0.069222,0.032779,-0.056943,-0.133822,-0.041370,0.088609,0.090502,0.063656,-0.164487,-0.062949,-0.133218,-0.123017,0.138270,-0.047162,0.058996,-0.173000,-0.025026,-0.034205,-0.340361,-0.210045,-0.031312,-0.333274,0.073223,0.110368,-0.186519,-0.074292,-0.186579,0.000524,-0.091362,0.211375,0.181425,-0.261948,-0.102366,-0.040402,0.004655,-0.127680,0.057720,0.035012,-0.039510,-0.052099,0.144116,0.030949,0.130887,0.078165,-0.006274,0.074222,0.016194,-0.123769,0.014215,0.090740,-0.197208,-0.065228,-0.035841,-0.032319,0.157070,0.064763,-0.022772,0.157028,-0.118681,-0.059892,-0.047815,0.079249,-0.114491,-0.085268,0.057041,-0.001564,0.011988,0.109476,0.189212,0.101142,0.026618,0.116544,-0.015537,0.044558,0.082049,0.182708,-0.142675,-0.082480,0.075397,0.012683,-0.235879,0.088543,-0.004267,-0.044844,0.051522,0.019569,-0.095917,-0.152895,0.210933,-0.118112,0.018135,-0.247653,0.057861,-0.197072,0.008395,0.032847,-0.244548,-0.136203,0.105284,-0.146161,0.083759,0.010185,-0.237791,-0.136597,-0.019755,-0.193391,-0.061198,-0.049002,0.064857,0.143763,-0.199618,0.019382,-0.119667,-0.057927,0.016278,-0.014969,0.012963,0.006638,-0.044093,-0.136225,-0.123870,-0.054060,-0.008067,-0.112248,0.049216,0.124143,-0.127379,0.022163,0.120573,-0.005415,-0.138170,-0.050555,0.113757,0.038377,-0.106040,-0.210833,-0.036454,0.141209,0.102479,0.161807,-0.077265,0.217335,0.077979,-0.275577,0.221913,0.054927,-0.342876,-0.002671,0.042292,0.110632,-0.068485,0.177648,0.151531,-0.028819,0.178992,0.035171,0.079755,-0.041745,0.005298,-0.116786,0.045305,-0.025365,-0.158973,-0.031298,0.061697,-0.068907,0.024343,-0.051344,0.068657,-0.358437,0.016832,0.100812,0.014945,0.035986,-0.063686,0.165168,-0.074127,-0.107134,0.207510,-0.061053,-0.041212,0.186597,-0.195888,-0.064295,0.000851,-0.095330,-0.021794,-0.014065,-0.081356,-0.036799,-0.258675,0.093934,-0.252675,-0.005678,-0.105425,-0.123612,0.190639,0.026261,-0.061329,0.068696,0.076190,-0.017264,0.042887,0.106814,0.088950,0.197774,-0.007618,-0.002651,-0.048431,-0.141658,0.000797,0.050846,0.112470,-0.203291,-0.052538,0.188200,0.110879,-0.017208,-0.038460,-0.194097,0.042884,-0.210677,0.006133,-0.153275,0.018956,-0.090331,0.259807,-0.151840,0.072132,0.134980,-0.033897,-0.128132,-0.050858,-0.052036,0.024872,-0.013471,0.068159,-0.074991,0.029972,0.045930,0.048643,0.027229,-0.011769,0.136825,-0.137379,0.151650,-0.004882,0.109113,0.036839,-0.135103,0.088638,0.050322,-0.137864,0.013235,0.214190,-0.235779,0.005014,0.003357,0.010152,0.054256,-0.067160,0.151050,0.059443,0.044866,0.055849,-0.042114,0.197348,-0.060518,0.012850,-0.092730,-0.045774,0.191525,-0.154075,0.170222,-0.336795,-0.002757,-0.266594,-0.069632,-0.088052,-0.007843,-0.008685,0.247882,0.000666,0.065871,-0.113783,0.081725,0.190155,-0.138837,-0.065249,0.191173,0.118365,0.187003,-0.096031,-0.235323,-0.351320,0.081086,-0.094850,0.071608,-0.011060,-0.039411,0.081117,0.041193,0.073074,0.172487,0.025999,0.010923,-0.012150,-0.158224,-0.027287,0.285114,0.015064,0.059854,0.118617,0.087907,0.035171,0.101063,-0.112101,-0.088724,-0.094251,-0.234238,0.079593,0.104164,-0.102488,-0.028177,-0.017190,-0.053856,-0.153811,-0.156729,0.030745,-0.068807,0.064415,0.151697,0.098558,0.204014,-0.049714,0.034938,0.039945,0.091843,-0.113521,0.007894,0.067341,-0.030984,0.178138,-0.100160,-0.053214,-0.114291,-0.100504,0.042677,-0.000030,0.164139,0.185594,-0.090137,-0.129289,0.117821,-0.081056,0.002581,0.034608,0.187099,-0.007328,0.206322,0.024638,-0.010267,-0.051712,0.019252,-0.060638,-0.134190,0.022408,0.047855,0.059631,-0.062176,-0.135294,-0.125665,-0.130237,-0.079369,0.205029,-0.005933,-0.137791,-0.152200,-0.162495,0.091210,-0.104658,0.023739,0.162004,0.227001,-0.077335,0.115444,0.060076,-0.063079,-0.070091,0.014985,-0.009923,-0.033762,0.108164,0.016177,0.344143,-0.114401,-0.024864,0.075362,-0.138109,0.044066,0.043405,-0.178505,0.113751,-0.023561,0.102069,0.097705,0.024844,0.000397,0.024374,0.126562,-0.004858,0.040695,-0.129009,0.045232,0.134431,0.144654,-0.120561,-0.013465,-0.026727,-0.110934,0.038154,-0.160275,0.113749,0.015336,0.085685,0.031635,0.139413,0.114532,-0.002265,0.062916,-0.157560,0.127779,0.081362,0.065715,0.110518,0.224287,0.053268,-0.076554,0.043216,0.135617,-0.067365,0.109502,-0.019936,-0.033785,0.062334,-0.188581,0.036806,-0.094738,0.153956,-0.121394,-0.047460,-0.174765,-0.110303,0.181753,-0.021957,0.000321,-0.181988,-0.127068,0.013637,-0.019616,-0.066952,0.270727,0.031003,-0.093304,-0.088529,-0.084037,-0.177399,0.151419,-0.123008,-0.244730,0.044121,0.040463,-0.156989,-0.009862,0.004707,0.008649,-0.183948,-0.156316,-0.147996,0.032737,-0.175606,0.012887,0.064959,-0.156268,-0.040528,-0.221395,-0.081084,-0.151398,0.206609,-0.070509,-0.120180,0.033740,-0.183124,-0.149332,-0.079707,-0.097436,-0.164105,-0.125383,0.252580,-0.032410,-0.033383,0.078555,-0.034289,-0.109848,0.174985,0.001199,-0.289840,0.024894,0.099178,-0.014444,0.026937,0.036343,0.167380,0.056563,0.172008,-0.021610,0.142669,0.008983,0.153584,-0.146766,-0.098489,-0.090576,0.021970,0.138012,-0.154352,0.013820,-0.180142,0.149388,0.000655,-0.336299,0.116442,0.117782,-0.019890,-0.016219,0.029557,0.075316,-0.060886,-0.200574,0.186952,-0.044680,-0.092285,-0.130712,-0.072723,0.016347,-0.091172,-0.108918,-0.184153,0.013264,-0.077378,-0.276632,0.195141,-0.026381,0.164823,-0.126174,0.115368,0.137099,-0.066722,0.198422,-0.015142,0.175511,0.068389,0.024658,-0.068877,-0.141973,0.052712,-0.066663,-0.120968,0.157168,0.071082,0.011713,0.086114,0.063117,0.042879,-0.012423,0.050561,0.095241,0.072745,-0.044401,0.085610,-0.000964,0.014287,-0.036452,-0.197338,-0.151138,-0.002357,0.074246,0.101410,-0.134390,0.011095,-0.073548,0.180830,0.032196,-0.097631,0.068856,-0.088314,0.127889,-0.017756,0.055111,0.188874,-0.067132,0.022852,0.083537,-0.121431,-0.068643,0.071207,0.048119,-0.056751,0.032657,-0.056283,-0.114867,-0.022223,0.035186,0.032808,-0.135198,-0.144179,0.114143,-0.017339,-0.032303,-0.100919,-0.050472,-0.142153,-0.127339,-0.052744,-0.048028,-0.000724,0.072031,-0.105873,-0.110465,-0.004673,-0.000280,0.214098,-0.129590,-0.176132,-0.117957,0.033615,-0.111477,0.009843,-0.096781,-0.161215,0.004156,0.105727,0.202691,0.076212,-0.125230,-0.094460,-0.117828,-0.223227,-0.075705,0.012636,-0.015172,0.037648,0.003863,-0.009022,0.038006,-0.022055,0.004919,-0.158315,0.022008,-0.197854,-0.121443,-0.102436,-0.008483,0.134173,-0.188194,-0.077791,-0.078909,-0.043127,0.016815,0.221706,0.138411,-0.160249,0.332080,-0.244337,0.185822,-0.106020,0.010639,0.208165,-0.157663,-0.197639,-0.223923,0.039773,-0.016269,0.017862,0.024484,0.057038,0.111186,0.128461,-0.086928,-0.058131,0.032284,-0.026927,-0.069128,0.259760,0.126828,-0.102987,0.167094,0.154452,0.230680,-0.057784,0.102869,0.303822,-0.007567,0.041946,0.121350,0.020165,-0.037166,-0.066873,0.090980,-0.089102,-0.152471,-0.205229,-0.158881,-0.039552,-0.061281,0.058499,-0.022390,-0.178276,-0.040187,-0.217264,0.115360,-0.118197,0.031784,0.002790,0.212123,-0.254459,-0.303437,-0.091620,0.059315,0.264056,-0.077448,0.236698,-0.245871,-0.097478,-0.024773,0.104548,-0.305991,0.034234,-0.127252,0.236363,0.077820,-0.035074,-0.095053,0.185475,0.222618,-0.016469,0.082673,0.094855,-0.012433,0.089312,0.068989,-0.081427,0.239107,0.129101,0.269552,-0.137712,-0.041899,-0.390405,0.034988,-0.151756,0.003732,-0.427637,-0.070697,0.080534,0.034573,0.006153,-0.003097,0.250956,-0.042143,-0.117170,0.115412,0.158801,0.126511,-0.083671,-0.262137,-0.029670,0.099697,-0.098524,-0.148396,-0.011542,-0.153182,-0.152567,-0.220867,-0.223792,0.014047,0.003936,-0.070678,0.152353,-0.348444,-0.267119,0.039714,-0.195438,-0.105395,0.029407,0.192064,-0.033807,-0.066195,0.063098,-0.010937,0.155375,-0.027223,-0.119500,-0.069781,-0.237315,0.113861,0.086814,0.058366,-0.161310,-0.061397,-0.067697,-0.116731,-0.092480,-0.207642,0.009058,-0.031698,-0.049328,-0.094429,0.101302,-0.249147,-0.037375,0.066234,0.098180,0.312084,0.071085,-0.071536,-0.117272,0.094198,-0.231695,0.020747,-0.163923,-0.040319,-0.159625,0.227474,-0.104288,-0.028826,0.233390,0.252903,0.097862,-0.144869,0.011681,-0.352018,-0.130560,-0.085840,0.013665,0.137160,-0.131118,-0.076993,0.026971,-0.087688,-0.053887,-0.154754,0.081927,0.055602,-0.159422,0.100380,0.002052,0.124304,-0.071977,-0.074418,0.204324,0.194912,0.118291,0.016599,0.169170,0.163752,0.150379,-0.104628,0.131645,-0.099082,0.102657,-0.186199,-0.015530,0.264381,0.194589,-0.105590,0.160683,-0.098928,0.084409,0.110055,0.185359,-0.011838,-0.067594,-0.060245,0.055848,0.120009,-0.056855,-0.091445,-0.046485,-0.021615,-0.057999,-0.067153,0.158252,-0.076988,-0.022677,0.085242,0.060782,0.178629,-0.070412,0.050592,0.289105,0.068896,-0.052898,-0.048800,-0.032569,-0.012498,0.077271,0.068550,-0.068916,-0.076422,-0.101188,-0.023487,0.009822,-0.075464,0.099327,0.118764,-0.052414,0.043670,0.101924,0.008682,0.148511,0.162798,-0.160356,0.261009,-0.014339,-0.178437,-0.109741,-0.118246,0.008535,0.076916,-0.206295,0.039262,-0.124218,-0.028679,0.079992,0.192550,-0.101170,-0.117650,-0.280907,-0.063279,0.137923,0.149515,-0.080888,0.019522,-0.125097,-0.113497,-0.135100,0.034836,-0.095657,-0.023485,-0.088636,-0.129752,0.160152,0.150514,0.020454,0.034566,-0.191860,-0.018426,0.079270,-0.030064,-0.029073,0.054918,-0.041009,0.135559,-0.098338,-0.143242,0.210575,-0.073543,-0.265295,0.019819,0.029607,-0.001587,-0.065485,-0.039917,-0.111704,-0.119342,-0.215942,-0.077834,-0.065396,0.087115,-0.001905,-0.154102,0.069719,0.186047,-0.067291,-0.160156,0.059423,0.250518,-0.419600,0.020067,0.084001,-0.014047,0.026335,-0.159402,-0.094960,0.091002,0.000797,-0.059770,0.203091,0.167906,-0.032047,0.092087,-0.172994,-0.058074,-0.030054,-0.070460,0.035012,-0.074825,0.106280,0.164655,-0.000630,-0.422651,0.007447,0.015855,-0.142171,0.068469,0.220826,-0.042917,0.073311,-0.076959,0.067296,0.054267,-0.101538,0.042446,0.097330,-0.087268,-0.020227,0.006143,0.067426,-0.063748,0.054345,-0.207568,-0.018178,0.000233,0.037026,0.086840,0.030965,0.053250,0.031765,0.002897,-0.047857,0.033488,-0.126690,0.182273,0.039130,-0.044199,-0.123212,-0.027650,-0.071045,-0.088949,-0.012466,-0.114233,-0.162296,0.048328,0.108204,0.100706,-0.021633,0.079611,-0.034521,-0.057354,0.091482,-0.040577,0.005146,0.183610,-0.092437,-0.128004,0.015002,0.001215,0.009975,-0.053139,0.039820,0.056903,-0.120334,-0.010258,0.048890,-0.118451,-0.314405,0.150814,-0.083447,0.036793,-0.097315,-0.097215,0.070216,0.136848,-0.029240,-0.142815,0.015341,0.079477,0.052866,-0.049106,-0.075955,0.066400,-0.066020,-0.111432,-0.014165,-0.061270,-0.211992,-0.010732,-0.183186,0.082086,0.045792,-0.158277,-0.162278,0.059932,-0.009263,-0.018831,0.146500,0.143053,-0.139748,-0.048266,0.200081,0.131020,0.042195,0.167195,0.133044,-0.095225,-0.113259,-0.170552,0.116157,0.059227,0.095423,-0.154861,-0.114459,-0.051040,-0.052577,-0.112598,-0.125419,0.087402,0.085088,-0.007293,-0.070645,-0.278772,-0.127039,0.069993,0.020176,0.041019,0.180976,0.116647,-0.100435,-0.045261,0.058914,-0.154127,0.027511,0.166044,0.043680,-0.047156,0.024726,-0.051078,-0.127034,-0.123556,0.056715,0.023490,0.053348,-0.089253,-0.104184,0.028839,-0.072005,-0.212125,0.116102,-0.090786,-0.293000,-0.226995,-0.010739,-0.209043,-0.059432,-0.361319,0.110408,0.085090,-0.084420,0.151303,0.027877,-0.103383,-0.100567,0.063179,0.141334,-0.155768,-0.125387,0.169258,0.070016,0.289775,-0.251398,0.056060,0.053942,-0.210198,0.168000,-0.081383,-0.095587,-0.011497,0.175198,0.088689,0.262332,0.054449,-0.166020,-0.167134,-0.076300,0.025106,-0.430862,0.014456,-0.149743,-0.070270,0.191330,0.192388,-0.111724,-0.088060,0.039069,0.159680,-0.228073,-0.366855,0.283201,-0.145784,0.224870,-0.038343,-0.148546,-0.220887,-0.208388,-0.041826,0.115370,-0.043233,0.092498,-0.159583,0.026748,-0.326519,-0.109510,-0.374111,0.380847,0.180993,-0.034062,-0.247093,0.095735,-0.093296,-0.150237,0.123764,-0.148474,0.274830,-0.022219,0.026036,-0.065654,0.177032,-0.427398,-0.315151,-0.005406,0.103414,-0.205091,0.029242,-0.142439,0.113677,-0.055155,0.094158,-0.252154,0.080074,-0.032836,0.047162,0.122970,0.024207,0.086253,-0.198321,-0.014546,0.034619,-0.056414,0.091523,-0.172266,-0.027755,-0.084238,-0.059443,-0.337288,-0.112371,0.069527,0.048987,-0.036669,0.050415,-0.027924,-0.026149,0.137167,0.027330,-0.074779,0.017448,0.102760,-0.128912,-0.089081,-0.094085,0.013553,-0.082059,-0.045489,-0.130780,0.161361,-0.014767,0.050294,0.013232,0.022683,-0.233213,-0.106456,-0.122328,0.249378,-0.064090,0.087378,-0.030770,-0.118740,-0.036553,-0.007897,-0.233620,0.163507,-0.195692,-0.039776,0.000803,0.136642,-0.069928,0.035754,-0.371463,0.008977,-0.204481,0.035799,0.108770,0.011949,-0.167869,-0.141932,0.128753,-0.121733,0.165383,0.091700,-0.055255,-0.094698,0.222874,-0.112652,-0.194344,0.018813,-0.136798,-0.157684,0.090801,0.013875,0.229601,-0.112065,0.062994,-0.272752,0.041832,0.130749,-0.113155,0.170940,-0.146722,-0.052505,0.130725,0.108611,-0.083459,0.107315,-0.076878,-0.114814,-0.111724,0.076802,-0.173976,-0.088544,0.009696,-0.040023,0.015494,-0.211843,0.054107,0.142375,0.057901,-0.086857,0.039522,0.088584,0.005292,0.072078,0.048361,0.149790,0.093355,0.101516,-0.015667,0.072285,0.177201,0.105288,0.124216,-0.005311,-0.076765,0.110234,-0.011743,-0.048049,0.092517,0.077538,-0.041718,0.048910,0.047591,0.114410,0.063200,-0.000147,0.112380,-0.107271,-0.058610,0.048461,-0.173772,0.081970,0.113703,-0.156633,0.083084,-0.030355,0.011918,-0.135504,0.030403,0.174986,0.217783,0.274694,-0.103044,0.231381,-0.087869,-0.145290,0.192637,-0.038841,-0.016046,0.027330,-0.114577,-0.050811,0.027498,0.115407,-0.080447,0.026451,-0.035693,-0.121104,0.235337,-0.033738,-0.085917,-0.062207,-0.076584,0.122157,-0.108949,0.096364,0.199962,-0.032814,0.094060,-0.124059,-0.107717,0.013871,-0.018766,-0.011827,-0.189031,0.061180,0.089874,-0.082503,-0.015886,0.197848,-0.003318,0.171900,-0.159023,-0.082213,-0.020003,-0.056660,-0.037393,0.013394,-0.311711,0.129052,0.114903,-0.224557,0.050682,0.159309,-0.010281,-0.170502,-0.158572,-0.156468,0.073946,-0.160771,0.002257,0.067046,0.114760,-0.143415,0.086802,-0.075000,-0.077592,-0.029007,-0.091028,-0.104190,0.358887,-0.147173,0.055419,0.262712,-0.008901,-0.142952,-0.089743,-0.145755,0.103887,-0.034439,-0.053615,-0.044190,0.120334,-0.119487,0.088780,0.074617,0.035386,0.239903,0.250261,-0.071225,-0.150637,0.052983,-0.188489,-0.051472,-0.095486,-0.038051,-0.132717,0.077313,-0.013077,-0.016445,-0.273070,-0.025362,-0.054308,-0.027110,0.041922,0.082737,-0.059208,0.253800,-0.175206,-0.051235,0.006086,0.031215,0.203100,-0.154750,-0.195329,-0.056528,-0.066038,0.044143,-0.143600,0.213871,0.015918,-0.044968,-0.012248,-0.172495,-0.093022,-0.125546,-0.144222,0.067653,0.042603,0.017427,-0.076113,-0.116580,0.020313,0.172002,-0.047972,-0.060117,0.001639,0.029236,-0.146206,-0.074753,-0.056637,0.068663,-0.032036,-0.062709,0.044994,0.137681,0.055504,-0.090601,0.027815,0.067407,0.028346,-0.043775,0.178916,0.019907,0.052870,0.049333,0.083435,-0.069577,0.003232,0.023219,0.060935,-0.093600,-0.040298,0.054028,-0.042684,0.075051,-0.131805,0.013015,0.118813,0.004070,-0.009898,0.161651,0.031251,-0.130330,0.051305,-0.156049,0.041623,0.007745,-0.040545,0.177605,0.013694,-0.074497,-0.110677,-0.049728,0.063907,0.016498,0.089052,-0.088592,0.083936,0.069774,-0.032657,0.153347,0.015264,-0.075838,0.033453,0.099260,0.098724,0.064939,-0.080353,-0.086768,-0.171478,0.061375,-0.003678,0.104237,-0.023844,0.058945,-0.013016,-0.036383,0.123225,0.074392,0.012274,-0.057215,0.096432,-0.035442,-0.074679,-0.104497,-0.222169,-0.054711,0.155209,-0.013859,-0.077010,-0.133347,0.021716,-0.014663,-0.151951,-0.104706,-0.008980,-0.057818,0.108486,0.090571,-0.080937,-0.036391,0.213101,0.002615,0.040727,0.073460,0.214275,0.081894,0.092257,0.056213,-0.109243,-0.125964,0.083614,0.093630,0.032021,-0.045308,0.004175,0.188940,-0.055757,-0.043771,-0.180066,-0.070722,-0.075547,-0.202033,-0.074932,-0.047514,-0.000008,0.206215,0.136301,-0.116442,-0.010019,-0.107644,-0.099211,0.061839,-0.163038,0.077850,0.247781,-0.008377,0.025618,0.148809,-0.098959,-0.014744,0.027058,-0.077899,0.064642,-0.035323,-0.023616,0.045838,-0.011246,-0.274921,0.108374,0.025081,-0.012042,-0.098214,0.103709,0.032142,-0.098487,-0.027088,-0.032922,-0.143091,-0.002962,0.133526,-0.267184,-0.016121,-0.032296,-0.103833,0.025422,0.077043,0.046288,-0.159974,-0.081665,-0.062854,0.077682,-0.094012,-0.155779,0.000563,-0.171480,-0.127394,-0.069277,0.013665,0.052331,-0.051797,-0.004792,-0.080573,0.091395,0.021420,-0.023428,0.116765,-0.047937,0.156562,-0.197327,0.048114,-0.052469,-0.031675,0.062437,-0.024710,-0.153084,0.244903,-0.272557,0.018395,0.204591,-0.140853,0.225029,-0.079220,-0.246177,-0.006827,-0.017487,-0.098340,0.104560,0.062573,-0.144798,0.073878,-0.125430,0.065282,0.026030,-0.004856,0.101576,-0.243207,0.061085,-0.132054,-0.016187,-0.093477,0.051844,0.052953,0.103060,-0.141941,-0.214184,0.116107,-0.122579,0.070347,-0.148606,0.017941,0.127152,-0.171747,-0.041249,0.051204,-0.020223,-0.248103,0.036001,-0.113499,0.069434,-0.090564,-0.151313,-0.019779,0.085057,0.022518,-0.104083,-0.097497,-0.132764,-0.006396,-0.004508,0.165218,-0.123852,-0.147281,0.094348,0.119786,0.040556,-0.006938,0.021129,0.010833,-0.027592,0.139932,-0.025215,0.158335,-0.027918,0.024711,0.149469,0.010182,0.109434,0.012543,-0.059644,0.082637,-0.121354,0.161320,-0.085952,0.086971,-0.134743,0.004127,0.087025,0.044663,-0.137365,-0.067812,0.083396,-0.129787,-0.052616,-0.138827,0.013389,0.052177,-0.102713,-0.040387,0.100823,0.045642,-0.127875,0.125153,0.040802,-0.099982,0.053186,0.183082,0.100440,-0.031635,0.027362,-0.006283,-0.249444,-0.014140,-0.039103,0.050975,0.067605,0.030985,-0.052219,0.142206,0.100806,-0.000768,-0.121663,-0.062620,-0.075291,0.122777,0.156362,-0.097046,0.185536,0.001229,0.089742,0.180366,-0.071676,-0.028738,-0.051221,0.083260,-0.122745,-0.042374,-0.103327,-0.191056,0.108880,-0.091233,0.161825,-0.084765,-0.002724,0.070096,-0.188267,-0.085386,0.030853,0.029067,-0.128901,-0.051866,0.113521,-0.012597,0.122882,-0.218192,0.200319,-0.182483,0.041678,-0.045756,0.052711,-0.189264,-0.099692,-0.025488,-0.173474,-0.047720,-0.172881,0.027984,-0.087280,-0.115868,0.011085,-0.062524,0.020166,-0.080308,0.033123,-0.336629,0.001299,0.203115,0.002877,0.048119,0.089887,0.103784,0.131065,0.147651,0.112228,0.099143,0.045723,0.135951,0.002374,-0.043595,0.203969,0.139241,0.168197,0.003236,-0.005125,0.033316,0.106495,0.004178,0.003880,0.112614,0.050890,0.078130,-0.057418,0.127407,0.204807,-0.164624,0.101798,-0.104017,0.102299,-0.246128,-0.149356,-0.080927,-0.107466,0.238151,-0.048632,-0.036367,-0.222022,-0.032525,0.102127,-0.067470,0.058143,0.181482,0.030371,-0.161303,-0.099849,-0.086231,-0.112862,-0.123366,0.068875,-0.070017,0.076507,-0.011066,0.052521,-0.118676,0.163973,-0.130254,-0.055272,0.008556,-0.101080,-0.091977,-0.208125,-0.119665,-0.013450,-0.017972,0.051988,-0.113244,-0.351031,-0.017551,-0.250856,-0.001283,-0.095059,-0.076430,-0.049543,-0.079021,-0.041876,-0.003807,-0.166716,-0.085286,-0.260279,0.114979,0.058711,-0.008374,-0.343754,0.146056,0.014771,0.033869,0.006659,-0.115393,-0.071213,0.012161,-0.096095,0.040795,0.082115,0.071592,-0.047192,-0.060019,-0.030844,0.113940,-0.051383,-0.092737,0.003791,0.217879,0.035642,-0.105800,-0.033539,0.112293,-0.157254,-0.080166,0.174678,-0.058957,0.056923,-0.090920,0.072083,-0.019979,-0.042135,0.136537,-0.188987,-0.072707,-0.132672,-0.113957,0.011925,-0.011929,-0.062546,0.059731,-0.145512,-0.159875,-0.037728,-0.058075,-0.078971,-0.305592,0.057455,-0.057466,0.019622,-0.001683,-0.058334,0.060851,-0.084985,-0.085508,-0.139737,-0.065116,-0.193338,0.126132,-0.174902,-0.024873,0.037879,0.033326,0.069301,0.072077,-0.014251,0.137038,-0.122433,0.044822,-0.000596,-0.115107,-0.004966,-0.139699,0.009049,-0.159362,-0.077744,0.115238,-0.203706,0.085927,-0.116706,0.159722,0.095434,0.007424,-0.104042,-0.132531,-0.142650,-0.011045,-0.103929,0.036809,-0.042665,-0.052795,-0.134755,0.058059,-0.032686,0.001423,-0.133596,-0.172637,-0.035104,0.050249,-0.031135,0.036905,-0.019884,0.096811,0.085159,-0.172896,-0.095385,-0.004978,-0.143522,0.193651,0.013998,0.088148,-0.236035,0.150433,-0.037053,0.072822,0.019330,0.084411,-0.055569,-0.110281,0.113514,0.013124,-0.050663,0.041658,-0.062947,-0.013733,-0.092667,-0.065200,-0.093612,0.141820,-0.119565,-0.168623,0.002739,-0.086541,-0.075926,0.051190,0.179116,-0.096406,0.176981,-0.096365,-0.010365,-0.047795,-0.040669,0.059366,0.137199,0.001500,-0.041684,0.050851,-0.005529,-0.045208,-0.004478,-0.103045,-0.013211,0.034054,0.128733,0.013961,0.165765,0.029827,-0.075214,-0.195823,0.235327,0.113283,0.160770,0.074546,-0.088611,-0.021399,0.087865,0.140792,0.128336,-0.017206,0.095121,0.111534,-0.080046,0.052484,-0.136636,-0.134365,0.093394,0.057875,-0.009837,-0.171052,-0.043691,-0.018928,0.036785,0.071434,-0.020581,-0.043222,0.107267,0.046864,0.124756,0.078961,-0.164622,0.033483,-0.044146,0.147453,-0.004437,0.024001,-0.023288,0.098189,0.056029,-0.034532,-0.023481,-0.069682,0.060857,-0.100472,-0.014345,-0.055281,0.054878,-0.097687,-0.068390,0.053680,-0.105000,0.074588,-0.173541,0.076557,-0.044500,0.127665,-0.006666,-0.003855,-0.149144,-0.018270,0.030545,-0.097802,-0.124312,0.112441,-0.130999,0.075876,-0.067384,-0.084784,-0.183727,-0.147902,0.089184,-0.105183,0.104383,-0.097265,-0.047414,-0.014418,-0.104659,0.169110,0.125186,0.069495,-0.301233,-0.114456,0.021354,-0.004389,-0.056037,0.033044,-0.099786,-0.023900,0.081041,-0.018778,0.018890,-0.061317,0.010836,0.011352,0.088427,-0.045800,-0.105547,0.151719,-0.034175,-0.148968,0.222672,-0.182333,0.114002,0.005209,-0.005377,-0.078638,-0.005278,-0.080142,-0.024239,-0.009026,0.143230,-0.092825,0.015444,-0.026393,-0.013990,0.000385,-0.034547,-0.126083,-0.108845,-0.108556,0.110659,0.146109,-0.108622,0.034625,0.066771,-0.079383,-0.011524,0.041034,0.110958,0.204143,-0.003335,-0.034046,0.128449,0.210490,0.024626,-0.123875,0.107897,0.130484,0.136880,0.122803,0.165481,0.035171,0.108267,0.036542,-0.058129,0.029362,-0.150423,-0.063284,0.091801,-0.033740,-0.189972,0.113420,-0.014145,0.110715,0.191897,0.029485,0.092492,-0.213094,-0.045796,0.010529,0.024021,-0.119792,0.232162,-0.115740,-0.018857,-0.288164,0.097696,-0.012486,-0.233415,0.011159,0.051237,-0.007935,0.211825,0.043114,-0.059390,-0.133042,-0.015248,-0.017747,-0.189215,0.002375,0.063390,-0.133865,-0.097245,0.107431,0.185336,0.072758,0.046566,-0.164087,0.100020,0.084551,-0.061957,-0.082157,-0.118182,0.106566,-0.102162,-0.115325,0.049193,0.156325,-0.093838,-0.122437,0.029760,0.019437,0.025001,-0.021615,0.058674,-0.194521,-0.029536,0.041565,0.067192,-0.144651,0.077141,0.076357,-0.090247,0.171003,-0.074217,0.095465,-0.111746,-0.044284,-0.050649,0.198266,0.059327,-0.029436,0.031556,0.029819,0.098485,-0.061967,0.046983,-0.101694,0.087197,0.100400,0.046548,0.029775,-0.123444,0.096762,-0.006772,-0.162410,-0.112272,0.010783,-0.109342,0.101843,0.001927,-0.327858,-0.210880,0.046901,-0.016273,-0.065984,-0.062753,-0.128460,0.056874,0.042935,0.048157,0.046161,-0.078239,0.035792,0.015199,-0.040167,0.077851,-0.160572,0.009210,0.014459,-0.051874,-0.012182,-0.232417,0.043158,0.041913,-0.083775,-0.057368,0.049253,-0.151703,-0.023756,-0.016814,0.010161,-0.001181,-0.063272,-0.095123,0.040850,0.109001,0.028144,0.062923,0.042369,-0.042131,-0.069468,0.054864,-0.229416,-0.092377,0.133267,0.073703,0.083801,0.017131,-0.054726,-0.189305,0.029195,0.054832,0.074315,-0.002485,0.023216,-0.004803,-0.043293,-0.152192,0.091563,-0.099335,-0.015399,0.065368,-0.020769,0.119440,-0.026324,-0.109737,-0.164357,-0.096804,-0.041147,0.017126,-0.086919,0.027261,-0.049173,-0.134537,0.020346,0.050185,0.117141,-0.069882,0.012259,0.205287,-0.035460,0.032609,-0.073061,-0.086039,0.164252,-0.122546,-0.122090,-0.043329,0.205801,0.029607,0.062703,-0.039393,0.021687,0.055668,-0.135577,0.100135,-0.284679,-0.154828,-0.130238,-0.180405,-0.109290,-0.198275,-0.071064,-0.197029,-0.017753,-0.076916,-0.117146,-0.157071,0.009577,0.184934,-0.024717,-0.003643,-0.252682,0.074290,0.053911,0.019053,0.032978,0.037167,-0.024611,0.046678,-0.065402,0.316589,-0.084351,-0.121926,0.058881,0.116301,0.166039,0.188773,0.104222,0.026828,0.116987,0.188585,-0.158578,0.160955,-0.008554,0.139413,-0.116139,0.163448,-0.048996,0.056030,0.081970,0.151864,0.097257,0.090722,0.017271,0.121379,-0.221750,-0.091034,0.236302,-0.098823,0.056700,-0.061805,0.075051,-0.223392,-0.181063,-0.004292,-0.115605,0.049951,0.054660,-0.130134,-0.065058,-0.067748,-0.015070,-0.034575,0.014927,0.045565,-0.034274,-0.438635,0.181574,0.009688,-0.163779,-0.208503,0.100077,-0.025455,0.101706,-0.103915,0.046742,-0.185414,-0.002223,-0.113078,0.137906,-0.117002,-0.084932,-0.012056,0.000943,-0.086070,0.026336,-0.010905,-0.040351,-0.059825,0.059856,-0.109362,-0.072200,0.058814,-0.106455,-0.041562,0.098855,0.042629,0.007376,0.062663,0.093821,-0.118783,-0.022538,0.085069,-0.060229,0.112488,0.061845,-0.107277,-0.139263,0.043662,-0.044056,-0.173288,0.054591,0.161039,0.031580,0.184942,-0.019491,-0.010075,-0.130570,-0.159761,0.027289,0.153993,0.003809,0.115731,0.132204,0.135038,-0.044417,-0.089750,0.121837,-0.125283,0.159716,-0.041574,0.227785,0.028331,0.002692,0.107731,0.109188,-0.022834,-0.199192,-0.123074,0.023448,-0.114740,0.109129,0.111072,0.009979,-0.046525,0.203624,-0.178528,-0.297551,0.026829,-0.052160,-0.089164,-0.144472,-0.191375,-0.110859,0.177620,-0.098738,0.131416,-0.146747,-0.122159,-0.027902,0.026182,0.076628,-0.121535,-0.017341,-0.254789,0.000479,0.005877,-0.212577,-0.220416,0.092001,-0.108599,-0.372559,0.123737,0.035821,-0.135888,-0.090489,-0.145617,-0.108576,0.109553,0.042534,-0.073391,0.063440,-0.040690,0.087518,-0.083002,0.205177,0.426195,-0.158344,0.057692,-0.053854,0.040949,-0.028097,0.098408,0.045566,0.038476,0.171898,0.171471,0.204069,0.019211,-0.227563,-0.026660,0.017515,-0.122158,0.266244,-0.057949,-0.030549,-0.049702,-0.166886,0.065763,0.012763,-0.054380,0.060686,-0.091542,0.123323,-0.114129,0.182357,-0.004311,-0.102620,-0.276493,0.087216,0.041034,-0.033107,0.047124,0.141099,0.003933,0.042646,-0.113154,-0.016191,-0.036205,-0.133248,0.103596,-0.069324,0.073092,0.000161,0.117829,-0.228019,-0.026275,0.057095,0.035836,-0.073759,-0.157979,0.045491,0.179041,0.085076,0.109332,0.058841,-0.142457,0.054885,-0.049905,0.063805,-0.075245,-0.152297,0.062428,0.136466,-0.151004,-0.029174,0.002527,-0.000833,0.142537,0.185137,0.146690,0.061453,0.012432,-0.080596,-0.133453,-0.101967,0.049933,0.148271,-0.012937,0.036346,0.106713,-0.072408,0.098071,0.003554,-0.147042,0.142184,0.076466,-0.126929,0.052434,0.144370,-0.021228,-0.028511,0.071260,0.002207,-0.071169,-0.066621,0.060390,0.094285,0.005658,-0.032835,0.008914,0.204059,-0.004180,0.003149,-0.106969,0.065254,-0.112495,-0.059919,0.019601,-0.055310,0.043643,-0.155753,0.084662,0.040120,0.086524,0.116995,0.157701,0.054179,-0.205745,0.021479,0.133395,0.126706,-0.038134,-0.049744,0.046390,-0.125482,0.038264,-0.062570,-0.066796,0.117354,0.095188,0.040421,0.022895,0.067514,0.077285,-0.072078,-0.192002,-0.111669,0.063209,-0.114663,0.017574,-0.171987,-0.175834,-0.134950,-0.063088,-0.076861,0.105475,-0.078189,-0.104723,-0.005232,-0.144726,0.056886,-0.007302,0.100996,0.007091,0.090262,-0.015679,0.102844,-0.108767,0.041512,-0.128982,0.153239,-0.188438,0.143011,-0.074293,0.220205,0.073388,0.034055,0.160306,-0.005144,0.122675,-0.260397,0.000991,0.061770,0.023235,-0.002730,-0.182915,0.124198,-0.167192,-0.005016,0.073282,0.133612,-0.094236,-0.158248,-0.250429,0.036190,-0.100074,-0.005346,-0.316658,-0.206492,-0.214219,0.013977,0.061358,-0.094140,0.074832,-0.134118,-0.338244,-0.127488,-0.036195,-0.285590,-0.107754,0.010227,0.160800,0.043025,0.016730,0.021595,0.083689,-0.216057,-0.316799,-0.153230,-0.182540,0.056734,0.078873,-0.116901,-0.105655,0.187312,-0.182502,-0.086683,-0.025294,-0.076009,0.086137,-0.052138,0.120946,-0.027063,-0.014159,0.158720,-0.027864,-0.028534,-0.061841,0.245471,-0.020157,-0.052783,-0.006198,-0.015422,-0.082940,0.114442,-0.192885,-0.332888,-0.166683,0.074652,-0.044124,-0.140085,0.132608,0.131217,-0.247881,-0.046281,0.093758,0.048206,0.034695,0.216455,0.067844,0.101040,-0.022299,-0.471065,0.002812,0.032038,-0.258020,0.008207,-0.095527,-0.043021,-0.290744,0.067289,0.057255,0.005610,0.147821,0.098331,0.274007,-0.115175,0.205381,0.075983,-0.104383,0.076463,-0.029753,-0.107957,-0.094484,-0.038324,0.061031,-0.140460,-0.022037,-0.058913,0.012406,-0.166335,-0.070731,0.111435,0.087493,0.037640,0.061508,-0.133956,-0.029241,-0.090837,0.030590,-0.126817,-0.024155,-0.116918,-0.086741,-0.134690,-0.164188,-0.126979,0.059650,0.099918,-0.084549,0.020482,-0.027276,-0.049062,-0.148228,-0.132969,-0.040959,0.082704,-0.044105,0.043468,0.063641,-0.046938,0.002748,-0.156671,-0.084502,-0.219891,0.089543,0.178522,-0.026779,0.046916,0.142981,-0.126699,0.118439,0.024785,-0.040181,0.010719,-0.040868,0.086288,-0.038317,0.100573,-0.061598,-0.057710,-0.011739,-0.007339,-0.105549,0.118338,-0.119429,0.129095,0.133161,-0.083811,-0.042182,0.023501,-0.060055,-0.034711,0.110067,0.045183,0.068287,-0.048383,0.121432,0.066324,-0.066053,-0.054492,0.023735,0.046039,0.031718,-0.065993,-0.069514,-0.037633,0.032315,-0.155631,-0.125984,0.168783,0.130514,-0.023257,-0.246832,0.092550,0.080938,0.130498,-0.146461,0.301237,-0.052731,0.038009,0.056748,-0.083368,0.032972,-0.134872,-0.079003,0.094968,0.095864,-0.010862,0.044510,0.090038,-0.136967,-0.039723,0.177240,0.092470,0.045472,0.014485,-0.082402,-0.014168,0.023566,-0.057110,-0.204155,0.105909,-0.134952,-0.005306,-0.033694,0.048284,-0.018407,0.114446,-0.096806,-0.002763,0.100832,-0.034413,0.049561,-0.050713,-0.037410,-0.047923,-0.049304,0.148658,-0.030671,0.129848,0.074659,0.200939,0.075601,-0.047630,-0.086090,-0.142151,0.070024,0.157537,0.037592,-0.121894,-0.066579,0.066824,0.013260,-0.015930,-0.034011,-0.151909,0.126832,0.105526,0.130103,0.041428,0.170309,-0.105350,0.045265,0.133671,0.047869,0.078906,-0.105866,-0.054227,-0.123018,0.005766,-0.141680,0.063970,0.057216,0.058518,0.031727,0.000789,-0.085196,0.025860,-0.040960,0.076491,0.090113,0.088768,0.051598,-0.048173,0.067071,0.121730,-0.218226,-0.145086,0.050202,0.129878,0.055372,0.014388,0.138414,-0.211374,-0.120540,0.003367,0.093479,-0.231561,0.138630,-0.100942,0.051342,-0.152940,-0.103799,0.081155,0.209517,-0.217664,0.027378,0.218615,0.069640,-0.117624,-0.172512,-0.069004,-0.099914,-0.042079,-0.139424,-0.014526,0.005967,-0.144822,-0.122636,0.096204,-0.001033,-0.099258,-0.115755,-0.036809,-0.030778,-0.255063,-0.044732,0.051982,-0.128989,-0.327277,-0.030504,0.046412,-0.095581,0.159762,-0.143233,0.087280,-0.037693,-0.187159,-0.043855,-0.048048,0.209502,-0.025001,0.091397,-0.093997,-0.126494,0.035671,-0.010834,0.138508,0.068105,-0.088465,0.010296,-0.091425,-0.155452,-0.024132,-0.105670,0.123339,-0.034296,-0.136681,0.025401,0.161222,-0.024828,-0.090007,-0.138274,-0.081314,0.040082,0.177279,0.136325,-0.211495,-0.072581,0.151652,0.113468,-0.201945,-0.047266,0.044938,0.024140,0.069752,-0.057524,-0.080674,-0.107442,-0.120782,-0.087921,0.239095,0.030317,0.002266,-0.008757,0.086938,-0.059347,0.097932,-0.023707,0.039357,-0.118195,-0.047009,0.063918,-0.110753,-0.181484,-0.123719,-0.037713,0.028083,0.071309,0.117240,-0.065906,0.104512,-0.133396,0.142006,-0.161172,-0.134810,0.044835,0.078398,0.023085,-0.082269,-0.105165,-0.127831,0.033777,0.291062,0.132076,0.278838,-0.052494,0.125134,-0.063107,0.093338,-0.175366,0.044589,0.156593,-0.069744,-0.204971,0.067292,0.115565,-0.061269,-0.161529,-0.062461,0.179937,-0.039368,0.143911,-0.023059,0.175950,-0.270258,0.000067,0.040854,-0.084772,0.037209,0.096699,0.092808,0.032726,0.128820,0.233303,0.167706,-0.037378,0.045862,-0.009954,0.062057,-0.084464,0.083346,-0.043746,-0.090423,-0.238586,-0.030335,0.033914,-0.260024,0.014132,0.082636,-0.105419,0.129865,-0.131343,-0.030485,-0.111213,0.081178,0.155579,-0.008853,-0.095566,0.129118,0.428800,-0.151013,-0.111485,0.058045,0.058346,0.001142,-0.179236,0.061704,-0.122676,0.184390,0.104014,0.204845,0.011846,0.047261,-0.130363,-0.054119,0.101725,0.196715,-0.124714,-0.104811,-0.082394,-0.161619,0.159740,0.097631,-0.043192,0.273885,-0.161595,-0.101794,-0.032834,-0.094380,0.120538,0.177392,0.090008,0.042950,-0.016588,-0.150035,0.051555,0.026065,-0.175124,-0.091417,-0.015553,0.072866,0.114385,0.083459,-0.219794,0.092825,-0.064774,0.001731,0.177301,-0.136953,0.044663,0.069267,-0.002231,0.082298,0.020104,-0.068847,0.037404,-0.040499,0.043346,-0.215478,0.083192,0.007418,0.050651,0.120815,0.056610,0.007313,-0.038358,-0.104635,0.207629,-0.073275,0.021279,0.103038,-0.249432,-0.031064,0.005448,-0.025041,0.033376,0.196346,0.213595,0.012721,-0.097629,-0.043908,0.070653,0.151326,-0.207117,-0.140677,0.131342,0.177824,0.086186,-0.072260,-0.175775,0.122355,0.177979,-0.002718,0.053849,-0.001358,-0.008796,-0.076946,0.094662,-0.130360,-0.072727,0.007625,0.027987,-0.063868,-0.157873,-0.133036,-0.082423,0.022861,-0.113939,0.117222,0.179493,-0.017370,-0.034212,0.102985,-0.116821,0.002448,-0.005419,-0.007933,-0.172147,-0.034357,0.070946,0.060276,0.171085,-0.077760,-0.077297,0.007913,0.020395,0.133845,-0.097193,-0.101464,0.081911,0.036470,-0.119828,-0.046103,0.020072,-0.242253,0.053441,-0.184561,0.059791,-0.077500,0.048965,0.140633,0.078038,-0.120478,0.069689,-0.134295,-0.179608,-0.127086,-0.056753,-0.048920,0.076459,0.045683,-0.141426,-0.155606,-0.069408,-0.133105,0.001471,0.068462,-0.071666,-0.123377,-0.021409,-0.037016,-0.151157,0.073383,0.128947,-0.084691,-0.109363,-0.107682,0.036392,-0.167000,0.081574,0.085377,-0.058045,0.025173,-0.086159,0.041549,-0.127705,-0.076976,0.086522,-0.052878,0.006013,0.124384,0.065520,0.021452,-0.111357,0.020395,0.089352,0.090412,-0.284238,0.011382,0.013430,0.012978,-0.109250,0.079572,0.045121,-0.040908,0.067037,0.037885,-0.027068,-0.118517,-0.071620,0.043832,0.179294,-0.091961,0.134292,0.006256,0.097493,0.211154,-0.066440,-0.105604,-0.071999,0.106309,0.136605,-0.137893,-0.089665,0.053877,0.121633,-0.061287,0.088087,-0.105939,-0.114296,-0.130637,-0.111355,-0.059992,0.110375,-0.024327,-0.072613,0.093742,0.043984,-0.108632,0.027073,-0.076302,-0.050836,0.100254,0.098616,0.096518,-0.116574,-0.254740,-0.062599,0.183850,0.062795,-0.051825,-0.036896,-0.094091,0.015787,0.094676,0.158074,0.011363,0.107820,-0.139393,-0.014602,-0.051528,-0.113281,-0.101927,-0.054396,0.125852,0.042129,-0.109015,0.105371,-0.039430,0.012253,0.160521,0.094052,-0.035362,0.184823,-0.140894,-0.067998,-0.004829,0.009454,0.153046,0.184522,-0.009477,0.069461,0.258535,0.094066,0.060489,-0.114184,0.024647,0.055531,-0.129452,-0.020719,-0.031872,0.026426,-0.112583,0.093110,-0.027047,0.071302,0.035024,0.005847,-0.018140,0.048634,-0.083864,-0.150395,-0.057343,-0.006482,0.046790,-0.162333,0.008006,-0.114651,0.021442,-0.210522,-0.011905,-0.120079,0.055753,0.005548,-0.102587,0.113016,0.083247,-0.117919,0.004692,-0.061576,0.031696,0.072240,0.208859,-0.108929,-0.003324,0.088681,0.053137,-0.040317,-0.040647,-0.097260,0.018664,-0.075731,-0.166813,-0.111096,-0.059099,-0.134119,0.089778,0.049803,0.038146,-0.007328,0.035648,-0.055674,-0.186861,0.215566,-0.068158,-0.050489,0.008931,-0.110306,-0.072245,0.092470,-0.043966,0.131508,0.078441,-0.159495,-0.048531,-0.141372,0.148435,0.034137,-0.051893,-0.029517,-0.183083,0.061176,-0.016762,-0.017664,-0.236398,-0.156971,-0.055009,0.026131,-0.299012,-0.095630,0.045682,0.039777,0.026791,0.070677,0.159278,0.059581,-0.004863,0.102547,0.014892,0.063914,-0.238835,0.086575,-0.050610,0.077058,-0.001095,0.030387,0.091379,0.036862,-0.061136,-0.051726,-0.045365,-0.063985,-0.108333,0.048654,-0.120999,0.089337,-0.084423,0.035805,-0.019310,0.012718,-0.023291,0.089932,-0.083485,0.114368,0.016887,0.051865,0.049829,0.171780,-0.117381,-0.099878,-0.036795,-0.035135,0.143333,0.114542,-0.069287,0.014694,0.123330,-0.072854,-0.129939,-0.064796,-0.158484,0.041291,0.097382,-0.077682,-0.033755,0.161566,-0.114020,-0.050717,0.118845,-0.185782,-0.066654,-0.113501,-0.028277,0.042555,-0.137270,-0.128270,0.064227,0.162112,0.051355,0.084131,0.035612,0.230750,0.001840,-0.148550,0.053237,-0.090281,0.064220,-0.109866,0.177969,-0.105644,0.053735,0.006273,0.078088,0.211060,-0.141030,-0.017557,0.084790,-0.146205,0.119781,-0.038992,0.065507,0.129206,-0.113047,-0.133039,0.086673,-0.020140,-0.068941,-0.101943,0.127232,0.115334,-0.142923,-0.148956,-0.100918,-0.044425,-0.116994,-0.246374,-0.089256,0.041487,0.099047,-0.039173,-0.029270,0.128130,-0.039544,-0.152078,0.123823,0.096563,-0.087702,0.051134,-0.258294,0.083502,-0.067890,-0.024186,-0.139313,-0.085296,-0.188727,0.116680,-0.149920,0.027680,0.000490,-0.060228,-0.108684,0.106334,-0.041786,0.038256,0.063433,-0.004901,-0.203115,0.098250,-0.151573,0.099063,0.093210,-0.069392,-0.125569,0.053629,0.139744,0.157119,0.035227,0.171249,-0.055431,-0.065941,0.056991,-0.116983,0.081424,0.268500,0.010224,0.049819,0.067189,0.104006,0.105566,-0.103946,-0.008971,-0.028894,-0.032151,-0.108394,-0.095744,-0.134390,0.122795,0.080520,-0.012011,0.043736,0.047930,0.214197,0.054168,0.097227,0.100486,-0.228591,-0.124826,0.011374,0.195718,-0.023154,0.091008,0.136265,0.062424,0.130576,-0.000499,0.164511,-0.079205,0.131661,0.030381,0.155779,0.010999,-0.121616,-0.157376,-0.160850,0.034009,-0.122115,0.187403,-0.149208,-0.005753,-0.003525,-0.266496,-0.134770,-0.163162,-0.123407,-0.039414,0.154529,-0.223476,-0.111280,-0.010804,-0.035790,0.135425,0.092493,0.072397,-0.144507,-0.007781,0.063374,-0.082824,-0.074773,-0.120382,-0.164527,-0.093349,-0.139970,0.075646,0.082002,-0.011715,-0.094225,-0.119208,-0.071605,0.025264,-0.003188,-0.044254,0.050588,-0.106356,-0.059738,-0.034320,-0.099629,0.067474,0.009561,0.022310,0.134984,0.176327,0.017799,0.001422,0.076260,0.014661,0.116810,-0.052552,-0.122906,0.160270,0.194953,-0.054403,0.159200,0.132454,-0.237794,0.067200,-0.082819,-0.007619,-0.103418,-0.023997,-0.097537,0.026091,0.212386,-0.113773,-0.003248,0.277998,0.156261,-0.141552,-0.252329,0.026177,-0.126002,0.132091,0.083569,-0.229441,-0.166814,0.104502,-0.117497,-0.134498,-0.200426,0.158446,0.029426,-0.143213,0.093685,-0.112239,-0.220862,0.155854,0.177320,0.185255,-0.127129,-0.125955,-0.043135,-0.082587,-0.016394,0.251220,-0.104963,-0.101789,0.302650,0.062331,-0.026988,-0.164019,-0.143271,-0.147617,0.007867,0.196350,0.281595,0.229391,-0.153520,-0.314088,0.142003,-0.105442,-0.080075,0.004589,-0.039051,-0.332456,0.057100,0.081133,-0.160339,-0.108848,-0.130817,-0.169581,0.046107,-0.138267,0.175077,0.192985,0.049773,-0.051060,-0.069540,-0.065587,-0.178258,0.024665,0.029488,0.042213,-0.038554,-0.079148,-0.141059,0.314925,0.116786,-0.003780,0.150283,-0.090214,-0.118010,-0.039838,0.124368,-0.079037,-0.108428,-0.007176,0.043857,-0.190675,-0.060985,0.056545,-0.135137,0.129989,0.080791,0.047842,-0.108591,0.228587,0.099196,-0.003643,0.009123,-0.008315,0.021456,-0.047065,-0.160399,0.044288,-0.164898,0.124336,-0.095831,-0.011250,0.051748,0.056640,-0.004067,0.122726,0.093847,0.025898,-0.032043,0.085499,0.211714,0.040278,-0.042061,0.144350,-0.037238,0.096961,0.070232,-0.082617,-0.197795,-0.171140,-0.042177,0.168959,0.057890,0.199217,-0.105885,-0.092611,-0.107234,0.199679,0.033474,-0.031665,-0.024290,-0.095678,-0.023539,-0.165170,-0.000787,-0.048868,0.073132,-0.103093,-0.039041,-0.022346,0.077289,-0.081615,0.215276,-0.080060,-0.016491,-0.011584,-0.177158,0.100601,0.058432,0.054433,0.078303,0.070568,0.007704,