#ifndef __LENET_5_C1_PARAMS_H__
#define __LENET_5_C1_PARAMS_H__

#include <general_settings.h>
#include <cnn_features.h>

feature_t biases_c1[C1_NUMBER_OF_FILTERS] = {
    -0.029260866
   , 0.052397344
   , -0.14843524
   , -0.0017278476
   , -0.012863549
   , -0.01321448
};

feature_t filters_c1[C1_NUMBER_OF_FILTERS*C1_INPUT_CHANNELS*CONV_FILTER_SIZE*CONV_FILTER_SIZE] = {
    0.082442746,0.066686414,0.09990212,0.043548085,-0.07323937,0.009353547
    , 0.030417208,0.123720214,0.09770847,-0.13263305,0.15916178,-0.22066669
    , 0.21463676,-0.11070604,0.20495851,-0.08812646,0.011579024,-0.40007675
    , 0.1991632,0.03635086,0.16588354,0.06419624,0.033873625,-0.15234508
    , -0.41628733,0.17038241,0.22810753,-0.11310163,0.010672059,0.17610492
    , -0.16228466,0.25856796,0.16687481,0.20879464,-0.080240786,-0.11671857
    , -0.23576498,0.11563246,0.15082878,0.31758052,-0.32759815,-0.5317977
    , 0.18396027,0.26506606,0.05172489,0.14018974,0.007953349,-0.099697
    , 0.48058096,0.17058077,0.09273348,0.10348565,-0.111488916,0.19596869
    , -0.056892864,0.24784182,0.09017419,0.10404113,0.11955082,0.26359144
    , -0.22481869,0.17583224,-0.1348315,0.1547108,-0.33073694,-0.50805306
    , -0.19886866,0.19438194,0.252368,0.2517243,-0.14325498,-0.25243548
    , 0.1439414,0.042597838,0.03751194,0.2128483,-0.13254347,-0.023626883
    , 0.40793097,0.027357781,0.15612908,0.11402769,0.19077921,0.33025888
    , 0.41803667,-0.030086536,-0.08630463,0.21700552,0.10045483,0.17204377
    , -0.24799861,-0.12776749,0.15983091,-0.08787072,0.07824518,-0.47939256
    , -0.24110986,-0.13052435,0.24598213,-0.2271326,-0.062240366,-0.05237397
    , -0.2862145,-0.16729209,-0.011381163,-0.018892916,0.044324327,0.07998538
    , 0.099915974,-0.3776066,-0.102924496,-0.011403289,0.19469713,0.2911895
    , 0.13534895,-0.3301679,-0.19590485,0.18293905,0.18545495,0.12282182
    , -0.031862278,-0.32916552,0.14969389,-0.41223592,0.09822159,-0.3362283
    , -0.29046243,-0.3727926,0.13988332,-0.30852664,0.22694236,-0.1646884
    , -0.32177553,-0.38049152,-0.092904426,-0.1621247,0.25913703,0.23096421
    , -0.16157274,-0.13301806,-0.014589801,-0.1216255,0.18105467,0.072340764
    , 0.09962214,-0.11194903,-0.14045359,-0.02963247,-0.2099386,-0.03567221 
};

#endif /* __LENET_5_C1_PARAMS_H__ */
