#ifndef __LENET_5_D5_PARAMS_H__
#define __LENET_5_D5_PARAMS_H__

#include <general_settings.h>
#include <cnn_features.h>


feature_t biases_d5[D5_OUTPUT_SIZE] = {
    -0.03916203
    , -0.07384809
    , 0.061986852
    , 0.01509838
    , -0.051044147
    , 0.04514589
    , 0.026942763
    , 0.06697207
    , 0.0018618635
    , -0.026162645
    , -0.025783055
    , 0.027829522
    , -0.06348012
    , 0.021183135
    , -0.03362414
    , -0.041985862
    , -0.06421269
    , -0.00963752
    , 0.014507466
    , -0.022661397
    , -0.021667873
    , -0.009718097
    , 0.047067676
    , -0.028344894
    , -0.01930594
    , 0.01738975
    , -0.029416293
    , 0.05262155
    , 0.022807695
    , 0.001570751
    , -0.02024228
    , 0.04515257
    , 0.027501391
    , -0.034406826
    , -0.008231529
    , 0.038829617
    , -0.0032128934
    , -0.015729701
    , 0.0036958444
    , 0.07282375
    , 0.06200051
    , 0.04392316
    , -0.012052829
    , -0.027106544
    , 0.014528923
    , 0.05839683
    , -0.017996784
    , 0.04420924
    , 0.056829054
    , -0.044627104
    , -0.03591357
    , 0.0470979
    , -0.0264112
    , 0.038052987
    , 0.012523056
    , -0.060899854
    , 0.025852446
    , -0.041453883
    , 0.05889853
    , -0.030512199
    , 0.055437487
    , 0.00063931826
    , -0.024809467
    , -0.06350825
    , 0.018458245
    , 0.01929557
    , -0.010756312
    , -0.041408334
    , 0.0006419377
    , -0.010213745
    , -0.05329325
    , -0.0139597785
    , 0.0004266614
    , 0.047131762
    , -0.026595522
    , -0.039664052
    , -0.012416979
    , -0.05077707
    , 0.035949554
    , -0.03508678
    , 0.034417067
    , -0.014857132
    , 0.002775862
    , -0.002471271
    , 0.051375177
    , 0.03254764
    , 0.017443648
    , 0.0044109006
    , -0.029546173
    , -0.033726268
    , 0.06397898
    , 0.04475786
    , -0.022092503
    , -0.010065794
    , -0.045062505
    , -0.04358184
    , -0.04446545
    , -0.018963113
    , -0.014382106
    , -0.031790752
    , 0.01232388
    , -0.004943064
    , -0.05716284
    , -0.009060103
    , 0.025880191
    , 0.065772355
    , -0.02465413
    , -0.009768121
    , -0.0067362324
    , -0.049346913
    , -0.03324911
    , -0.04758154
    , 0.0070351725
    , -0.002989313
    , -0.016530221
    , -0.013806588
    , -0.013432162
    , 0.0125760995
    , 0.081481814
    , -0.018524364
};

feature_t weights_d5[D5_INPUT_SIZE*D5_OUTPUT_SIZE] = {
    0.079708636,-0.14347962,-0.048411086,-0.083132885,-0.031095717,0.060145877,-0.13050862,0.08483289,-0.17724381,-0.12309061,-0.0146408565,-0.12528086,-0.08309981,0.16470543,-0.13947737,-0.21921372,-0.061656725,0.060937963,0.03824932,-0.039770152,-0.09010872,0.110824026,-0.08555731,-0.20379263,0.04625486,0.123873554,0.03221827,-0.10023148,0.007701587,-0.12648286,-0.074921526,-0.12765494,-0.09323846,-0.16829173,-0.1229479,-0.110897176,0.16192459,0.022754736,0.0688502,0.06473537,0.10917365,0.16479008,0.03210409,0.06544006,-0.046757925,-0.10447365,-0.021137334,0.062241953,-0.055479962,-0.13070507,-0.0252331,0.18027288,-0.09021315,0.069322035,0.13945757,0.06830797,0.15121225,0.10132529,-0.09059835,-0.011740504,-0.090021625,0.10170247,0.060475595,0.037146997,0.13055354,0.04303349,-0.09565991,-0.12880191,-0.27745104,0.07840964,-0.0854027,0.14006294,-0.13224629,-0.17037648,-0.14961992,0.10423185,-0.1358428,-0.06324078,-0.08910665,-0.055421237,-0.065667644,-0.11270206,-0.20554982,-0.06637836,-0.048029687,0.0019146709,0.020726144,-0.008249292,0.18785237,-0.12664717,0.07662366,-0.04392264,-0.26120663,-0.13698359,0.012619032,-0.113377765,-0.052100968,-0.03617246,0.07611984,-0.10378925,-0.09491084,-0.46360216,0.010668008,0.10829468,0.02308953,0.02363659,-0.03653807,-0.010838815,-0.1332509,0.073387854,-0.005162021,0.03828462,0.11753036,-0.13938366,-0.049218,-0.10690341,0.063571036,0.17359069,0.1679242,0.0012468162
    , 0.008984902,-0.01397687,-0.017632714,-0.02184933,0.110723376,-0.026885426,0.04336431,-0.005843851,0.21483156,-0.043906618,-0.15038294,0.18029585,0.16180676,-0.03587215,-0.14444613,0.03577047,-0.038078282,0.04838225,-0.11360275,0.034830943,0.23215708,-0.26245403,-0.09021594,0.026973378,-0.06823658,-0.14749523,-0.02230446,-0.25135022,0.15593988,0.03860824,0.08306589,0.10119736,-0.07369607,-0.07785186,0.15032674,0.14285235,0.009734789,-0.038484033,-0.03218461,-0.07605668,0.057744816,0.03153582,-0.05904064,0.07526136,0.38917315,0.12935753,0.22292425,-0.00774287,-0.047583934,0.14509617,-0.08971686,-0.067429155,-0.08067579,-0.17498621,0.054117557,0.037280157,-0.060842507,-0.18524303,0.23630202,-0.10870657,0.055747323,-0.12552357,-0.0814608,0.090694755,-0.14605267,-0.33942297,-0.03538019,0.08927363,0.009947011,0.050135445,-0.0070738713,-0.053720295,-0.019118678,-0.119771816,0.11473781,0.20673,-0.16142297,0.07025306,0.31383556,0.031915557,-0.00066974777,-0.17907524,-0.14976083,0.049002547,-0.10528595,0.007274721,0.027801411,0.24523461,-0.25858817,-0.12600386,-0.17951219,0.04063742,0.024388757,0.03848581,0.0074341134,-0.27154824,-0.06993533,0.22427067,-0.03238189,-0.2862568,-0.14742082,-0.028153557,0.02835836,-0.0042384486,0.20947829,-0.1721977,-0.0040255566,-0.11646046,-0.15225278,-0.04109346,-0.07387887,-0.00761347,-0.014253674,0.008923449,-0.038862668,0.110207394,0.08417099,0.06546668,0.010468863,0.14917909
    , 0.13171464,-0.058449943,0.0034050464,-0.03598662,-0.035652835,0.027703771,-0.04592574,-0.16238554,0.04777258,-0.064230375,-0.07895429,0.10873062,0.014372546,0.22486,-0.06580963,-0.107370116,-0.07996368,-0.11766704,0.031345442,0.019813748,0.11200442,0.10205173,0.06579037,-0.077484295,0.05497637,0.22510952,-0.23541874,0.07841185,0.056357715,-0.035832502,-0.10186148,-0.06983759,0.024590828,0.014629825,-0.16805308,0.025840897,0.07143616,0.035504814,0.029385312,0.051079523,0.11065419,0.0019820053,0.11081199,0.11044312,0.20644492,0.0014294779,0.19145893,-0.061213426,-0.008865036,0.06289669,-0.05088761,0.21268329,0.005046799,0.027999097,0.15499185,-0.08772197,-0.0448739,-0.1716835,-0.026692992,-0.044782598,-0.045564532,-0.026754014,-0.05016934,0.13869733,-0.13981979,0.023307256,0.08381505,0.12304533,-0.1764088,0.108319074,0.048185136,-0.10039877,-0.14464997,-0.036521368,-0.11080713,0.2121174,0.074583605,0.029085508,0.10503289,0.07555838,-0.046043172,-0.20805539,-0.16020167,-0.15134463,0.018141245,-0.08189803,0.048799828,-0.16671924,-0.089124754,-0.053982876,0.14794232,0.038338795,0.039629407,0.11095783,0.06460119,-0.14284872,0.013685262,-0.06364249,-0.0028199356,0.053849716,-0.13957877,-0.1755321,-0.1305329,-0.028629387,0.14019628,-0.11028638,-0.106033586,-0.023995584,-0.27012497,0.04209516,0.047364477,-0.1825442,0.035644725,-0.07504974,-0.1303444,-0.12207159,0.09496714,0.10669344,0.1493956,-0.13992113
    , -0.07738723,0.1130463,-0.3598623,0.023005817,0.10225884,-0.019997144,-0.057223134,0.10165661,-0.0958574,0.170221,-0.17602038,-0.047043424,0.074740544,0.14163156,0.0736697,0.08833715,0.06554438,0.012466509,-0.18556339,-0.12030974,-0.014214519,-0.06284936,-0.046189718,0.16331571,0.107255414,0.07939835,0.20213851,-0.07637222,0.088727795,-0.19908075,-0.21895602,-0.018050289,-0.037733197,-0.11364923,0.2580794,-0.06547588,-0.028444622,-0.013239303,-0.08079746,0.05051267,0.08609955,-0.061026216,0.0049700155,0.0706822,0.061786268,-0.09413843,0.1958761,-0.082429595,-0.11049685,-0.018612102,-0.015969269,-0.10811205,-0.08860441,-0.11171671,-0.04900693,0.038768362,-0.069525264,0.02032254,-0.02614664,-0.07041626,-0.09992132,-0.0044059055,0.05847653,-0.09642369,-0.01424021,0.05966888,0.07828999,0.02046632,-0.12294808,-0.025710236,-0.06131949,-0.15873946,-0.15548736,-0.100455,-0.0395106,-0.11897631,-0.06768796,0.0140570905,0.01862168,0.210031,-0.25005642,-0.061076764,-0.022803416,0.2014066,0.038781796,-0.2528447,0.11129304,0.07975085,-0.18644966,-0.08764135,-0.112876974,0.07778829,0.019632468,0.023155862,0.090192616,0.09614384,0.27172756,0.027833307,-0.13001776,-0.025104076,0.010842209,-0.03377246,-0.03229682,-0.10686816,0.07337447,-0.18274851,-0.09665982,0.038752303,-0.035692867,0.035343908,-0.03334272,0.047991943,-0.06938793,0.03470904,-0.016867671,-0.15005808,-0.0012210998,0.12516855,0.08277749,-0.04289187
    , -0.18302153,-0.36608803,0.04005514,-0.12550439,-0.00666248,-0.12417044,-0.028527597,-0.06476658,-0.17155373,0.03232225,-0.007319319,-0.1235492,-0.15525526,-0.012071912,-0.07936719,0.013740773,-0.10901808,-0.087848656,0.12486347,-0.033506542,-0.0963885,-0.121601336,0.16069447,-0.30743697,0.010576188,0.16379246,0.15855448,-0.042783197,-0.086423114,-0.018735891,0.14996481,-0.21254958,-0.01114477,0.01783735,-0.23345296,0.026674239,0.22710027,-0.0052343714,0.11459986,0.020124076,0.12211112,0.0133329565,-0.03306859,0.042533584,-0.1359034,0.02198191,0.12732923,-0.029131522,0.11557082,-0.19705443,-0.11853689,0.020432996,-0.1001015,0.21311599,-0.14027867,0.033423718,0.009524987,0.13064043,0.107853875,-0.06255555,0.03189757,0.05262252,-0.091617495,0.04558011,0.050663088,0.1300319,0.02765319,-0.11545486,0.05770334,-0.0057350467,-0.18097349,-0.024476795,0.115407124,0.105045706,0.010327753,0.15278742,0.15829593,-0.12686622,-0.26179487,0.10186662,-0.023331521,-0.0037526903,-0.004391366,-0.07586422,-0.14432631,-0.035433523,-0.05163304,-0.1880703,-0.007312317,-0.16693172,0.0689374,0.1596602,-0.1198332,0.044566736,-0.18564822,0.06898844,0.12881169,0.032439142,-0.13562822,0.095823206,0.1086458,-0.49374142,0.028122207,-0.0625974,-0.19383137,0.014289438,0.0334369,0.1283009,-0.08282606,-0.07490095,-0.11038488,-0.14090669,-0.08227825,0.13396333,0.075004816,-0.015620795,-0.052262504,-0.11067133,0.006755886,0.0033862959
    , 0.16936812,0.008719965,0.18938696,0.010747525,0.16048224,0.12222803,-0.28581908,-0.4089907,-0.035780717,-0.060962908,0.06353594,-0.17385812,0.09785738,-0.017541707,0.044944637,0.10833649,-0.22679965,-0.0163438,0.050640013,0.06976447,0.18200453,-0.06848585,0.069117196,0.008363113,-0.016064703,-0.10424659,-0.11243465,0.12059639,0.020507244,0.03908032,0.13970506,0.044502888,0.09404914,-0.06295782,0.019404521,-0.060571652,-0.067814134,-0.077258065,0.038434118,-0.024778593,-0.073064506,-0.28573298,-0.116200544,-0.011268562,0.12503113,-0.13806996,0.08358346,-0.117230125,-0.053923506,0.021508602,-0.14753285,-0.12933838,-0.048590623,-0.002920182,0.15737334,-0.011946048,-0.09951869,0.038738325,0.049558107,-0.06897739,-0.07976604,0.10811847,-0.0013985448,-0.1363914,-0.16925697,0.14080948,-0.056713708,-0.034827124,-0.03121165,0.063070275,-0.016924774,0.111389056,-0.13700382,-0.14536142,-0.1660239,0.048471432,0.106807366,-0.12173271,-0.09463766,0.13183828,-0.020540293,-0.1588382,-0.10307933,0.048952896,0.1827102,-0.23629819,0.04600634,0.14708199,-0.2117727,0.062365923,0.008126805,-0.20828706,-0.028490465,-0.1925751,-0.14366914,0.075896576,-0.09776459,0.08866281,-0.10750816,0.041828874,0.028996924,-0.30769476,0.05556311,0.096309796,0.10455659,-0.02154893,-0.06879433,-0.054642104,0.048745606,0.043188393,-0.058857497,0.11619002,0.10323385,-0.09779746,0.047677357,-0.12277119,0.070137344,0.12422209,-0.013475776,0.11164738
    , 0.113721974,-0.104808696,-0.21786128,-0.015492095,-0.2997371,0.16112377,0.017334804,-0.053810675,-0.0024526424,0.06812073,-0.06916995,0.02118164,0.054739773,0.14002927,0.055516228,0.14411354,0.022586359,-0.0057001417,-0.118591346,-0.1005104,0.14928734,-0.08981733,0.06166655,-0.0058209724,-0.09422343,-0.09578189,0.018681696,-0.016914679,0.16413979,-0.02615074,-0.12313145,0.24420689,-0.0633647,-0.05650192,0.07889502,0.16374558,0.015091032,0.06496956,-0.01730049,-0.1760771,-0.1073014,0.14414918,-0.11414705,-0.10867429,0.19304281,0.09920539,0.118254535,0.07157992,0.20220527,-0.027497962,-0.040032014,0.09040522,-0.06646098,-0.0967751,-0.099969655,0.15574868,0.03740188,-0.09477193,-0.05531512,-0.06306307,-0.020252096,0.124101736,-0.05295047,0.11217253,-0.04324273,-0.21242347,-0.27268323,0.23318008,0.07130306,-0.26047453,-0.12611446,0.03598586,0.14496166,0.026707377,0.15874861,-0.0035219989,-0.16810118,0.086935155,0.08941239,0.05898987,0.14789876,0.034229495,-0.040859275,0.025206735,-0.32429665,-0.19032225,-0.30416554,-0.032867927,-0.07164683,0.007995871,-0.048063077,0.17774469,-0.058901295,-0.15284799,-0.11412967,-0.07938659,0.1588668,-0.04662779,-0.06374913,0.075145975,-0.057827827,0.0064966576,0.080156974,-0.21044889,-0.15769817,0.01426718,0.046873264,0.14990275,0.034105115,0.015103817,0.039764535,-0.07826108,-0.089466065,-0.03364538,0.11087977,-0.12239646,-0.073331736,-0.20078018,-0.02488111,0.011957717
    , -0.060671393,-0.11195792,-0.02418563,-0.014869975,0.0053260033,-0.10695078,0.06027724,0.10007233,-0.06128189,0.18307362,0.027242105,0.14933643,-0.16424373,0.11382516,-0.112244196,-0.0063655186,0.06206395,-0.10995443,0.06613638,0.014054362,0.25201643,0.0015443993,0.049619373,0.12575059,-0.072206,-0.14299454,0.052840214,-0.17579675,0.0008846097,-0.082105346,0.092510596,0.027543284,-0.0018205672,-0.12631083,0.022789178,-0.050164074,0.04445576,-0.048392657,-0.10144204,0.0857639,0.08540857,-0.17287087,-0.12030733,-0.0385214,-0.07324179,0.040681288,0.015454824,0.03136625,0.09284471,-0.008574101,0.005664758,0.04428485,0.00093140756,-0.09654753,0.06987794,0.027213892,-0.05959537,0.03893873,-0.18843769,-0.07569992,0.041369382,-0.031073652,0.06587485,-0.05514851,0.12759487,-0.15068357,-0.08558301,0.10834511,0.0071159727,-0.15023719,-0.13369745,0.018265802,-0.059778385,-0.148363,0.06059916,-0.24876899,0.026035668,0.023280216,0.062725104,0.008689294,-0.057466377,0.039969847,0.11058411,0.01676968,-0.144876,0.07963433,0.030172389,0.052295256,0.05912444,-0.07823656,0.018998228,0.16224821,0.08178667,-0.016266728,-0.05279874,-0.09889502,0.0481945,0.017983422,-0.031371094,-0.032707136,0.11738978,0.015332908,-0.024010228,0.1138844,-0.019268708,0.070979066,-0.023568446,-0.23053278,0.10643711,-0.17117499,0.07494271,-0.09832391,0.008598272,-0.034502015,-0.11913874,0.037773233,0.018068407,-0.07355559,0.057677995,0.14203471
    , 0.123243526,0.05079347,-0.081990436,-0.14804107,0.01681427,0.034613263,-0.12034942,0.010575477,-0.121272,0.053025965,0.035222474,0.03233467,-0.04846728,0.14781842,-0.046492666,-0.07651955,-0.0007590324,0.06502585,0.14258409,-0.12476665,0.23311909,0.029337928,-0.058914904,0.16826972,-0.082985684,-0.016556183,-0.0573592,0.032270074,-0.025548548,0.061591323,-0.13685445,0.041587915,0.027493287,-0.11801408,-0.025167663,0.036341377,0.07089739,0.0075483476,0.20904063,-0.16210252,-0.0014516357,-0.00026666606,-0.12374286,0.06382666,-0.15123491,-0.0037047616,0.13485023,0.07548451,0.053189676,0.055783756,-0.037239797,0.16627534,-0.057229783,0.08059275,0.016797934,0.049699057,-0.10894601,0.0030588573,-0.0345485,-0.05865795,-0.15277512,-0.016832005,0.04025344,0.12435253,-0.25763217,-0.090003885,0.14106248,-0.050222434,-0.26404443,0.14418451,-0.11210343,-0.07648316,0.013100518,-0.12305672,-0.1875538,0.08679389,0.078804865,-0.12830867,0.006489198,0.0050766165,0.17937423,0.0313625,-0.3733547,-0.056043793,0.067278065,-0.21556436,-0.05928311,-0.079640836,-0.05713214,0.07389714,-0.098487236,0.1280687,-0.018380394,-0.061099574,-0.14975159,0.14868039,-0.019751506,0.037615277,0.015117965,0.016282288,-0.25291458,-0.22265097,0.113471255,0.044711247,-0.06045037,-0.13226134,-0.04729531,0.11273968,-0.17525542,0.1289593,-0.060504828,-0.026068402,0.057445843,-0.15678175,0.10870961,0.0049422784,0.007538019,0.20335105,0.13631023,0.07621031
    , -0.059696287,-0.30750883,0.024442038,0.06411511,-0.04102638,-0.010484841,0.13463466,-0.06636766,-0.23127876,-0.11424473,-0.21269594,-0.06493138,-0.10124373,-0.03360506,-0.0679058,0.09370378,-0.03434863,0.042495098,-0.072990485,-0.08138419,-0.071875185,-0.0066778995,0.27429193,-0.27463806,0.0009269362,0.1892636,0.0015183913,0.040190954,-0.122671574,0.044050556,0.40438032,0.07796331,-0.20424862,0.039108075,-0.04371275,0.12899905,-0.090659715,-0.11390903,0.1447439,-0.08021643,-0.29587293,0.30827618,-0.13642566,-0.0361973,-0.23412062,0.26566744,0.08196688,-0.1359327,0.13251734,-0.34617108,0.037148517,-0.20126268,0.07409843,0.063360795,-0.07912775,-0.2800572,0.107816204,-0.04702251,0.31864595,-0.11668676,0.086632304,-0.23530556,-0.07764733,0.03606436,-0.07853809,0.18207984,-0.0034245704,-0.06573435,0.29746804,-0.109470144,-0.047546137,-0.12561885,0.16208099,0.4280919,0.17954418,-0.01740843,0.14039718,-0.14178288,-0.23540433,-0.040975284,0.12409077,0.2063287,0.11728439,-0.32174435,-0.15041418,-0.01714121,-0.09471402,-0.27010632,0.19707027,-0.11936499,-0.104934655,0.12344961,-0.119202256,-0.07755369,-0.072638504,-0.16883214,-0.0522022,-0.106956854,0.037833083,-0.15603428,0.12721664,0.16579485,-0.11138907,-0.03492571,-0.13106157,0.11412659,-0.07060383,0.3083898,0.04157476,-0.108453676,0.008883252,-0.035746213,-0.32658917,-0.18403171,-0.032907452,0.08587176,-0.17203224,-0.017333329,0.0063249837,0.034470484
    , 0.062198117,-0.13821347,-0.21291725,0.077082835,0.15087226,0.28381547,-0.0042252513,-0.08679896,-0.008524287,0.017216397,0.029024862,-0.39558533,0.2379159,0.060235094,-0.06225038,-0.07865544,-0.22705898,-0.019085405,0.25251567,0.0733206,-0.085540816,-0.27607536,-0.080410875,0.12574056,-0.09327893,-0.14578989,0.012247715,-0.19429556,-0.110735506,-0.10757952,0.22740227,-0.007360679,0.116065085,0.033651963,0.14548646,-0.0204955,-0.24698281,0.24615727,0.07304225,-0.15599844,0.104454584,-0.1364572,-0.116074,0.043932654,0.030964375,0.021555522,0.16937697,-0.23026696,-0.20883885,-0.14981239,0.11553363,-0.26845354,0.057177402,-0.06978397,0.062415026,-0.09085901,-0.13946038,0.24184763,0.16785313,-0.066063546,-0.25025418,0.13031524,-0.0007037405,-0.01276374,-0.092648715,0.09556011,0.22846627,-0.042191047,0.12956014,0.13009697,-0.08690763,0.06270632,0.05506385,-0.038565215,-0.033922147,0.19669679,0.049722172,-0.074461214,-0.07051391,0.12604912,-0.02708843,0.008171922,0.23220009,-0.007822485,0.20530039,-0.12478898,0.13845694,-0.12079379,-0.21802773,0.052386303,-0.12836249,-0.12288161,-0.008547161,-0.17547469,-0.1274066,-0.027618136,0.0900463,0.091667034,-0.13598542,0.047460597,0.21048534,-0.10204508,-0.010838631,-0.117406294,0.16342083,-0.08459434,-0.035512116,-0.05034993,0.37769893,-0.08068645,-0.13601807,-0.075539716,-0.01847323,0.0425796,-0.04921912,0.03352879,-0.024860945,0.21021906,-0.057731595,-0.15239815
    , 0.061313845,0.1450143,-0.048916966,-0.11157201,-0.1437935,-0.120370395,0.013993026,0.08527018,-0.0149679035,0.10604307,0.067940176,0.21064116,-0.047455024,-0.070818864,0.076487824,-0.06674809,0.03269314,0.089617334,0.01877085,0.11993548,0.13425897,-0.039403383,0.058497798,-0.031217398,-0.051140837,0.04186098,0.07489088,-0.23210132,0.030640744,-0.0722727,-0.22743016,-0.0033838234,0.0010450382,-0.13495155,-0.037782155,-0.04179162,0.14328597,-0.041360576,-0.043350533,0.14402911,-0.022268098,0.07120173,-0.027400183,-0.067009546,0.048735872,-0.11291164,-0.11588505,0.040041707,0.06741971,0.15203482,-0.065661654,0.093732975,-0.018851237,-0.33798748,0.054897238,0.13358891,0.13854188,-0.09276123,0.073822856,-0.0846743,0.05299611,0.13433918,0.15941685,0.030632067,0.032061264,-0.13433872,-0.1564323,0.041710675,-0.13183898,-0.0918457,0.05709579,0.11806201,0.009933433,-0.14352322,0.053141892,0.054598995,-0.08762809,-0.17355177,0.14172113,0.16361429,-0.074987724,-0.040525775,-0.04301382,-0.034057617,-0.2359871,0.055106577,-0.14500207,0.12670562,0.21741337,0.08360852,-0.10306469,0.18407296,-0.004827854,0.099022694,0.060425792,-0.11913386,-0.13104132,-0.15195419,0.06930035,-0.023423959,-0.13651475,-0.29339874,0.018471228,-0.13493015,-0.043105032,-0.016078133,-0.11792427,-0.023790956,-0.08029145,0.00097968,0.11920231,0.21435833,0.23153535,-0.03199123,-0.14343768,0.037708186,-0.035452027,-0.18219417,0.117620856,0.011807808
    , -0.07537092,-0.08271172,-0.014822515,-0.07859512,-0.15747353,-0.122594796,0.14990988,-0.093866564,0.07408846,0.10350225,-0.017847814,0.020596141,-0.06934294,-0.092327006,-0.08164064,-0.018608812,-0.20777628,0.055598766,-0.008280356,-0.09956568,-0.12780811,0.06683256,0.1244469,-0.15316671,0.06848071,0.006725461,0.07795166,0.09765669,-0.030432532,0.13139358,0.1785995,-0.099356525,-0.18256652,0.0663594,0.08988783,0.019762794,-0.006051113,-0.038358085,-0.033414807,-0.042045318,-0.025667481,-0.0031375585,-0.024178103,-0.066497825,0.17108041,-0.025231518,-0.07546509,0.02733361,-0.0910556,-0.15162447,0.07994807,0.0017848181,-0.15472469,0.16488607,0.08777212,0.012434166,0.015267423,-0.02890669,-0.009429017,-0.09676425,0.044762902,-0.014699705,-0.06623828,-0.10336205,-0.06787071,-0.10548085,0.11605788,0.06806091,0.19886233,0.008028876,-0.0049968846,0.0048038787,0.025841389,-0.022094358,0.09522615,-0.07401946,0.012752234,-0.007378555,-0.0737396,0.10519744,0.04077779,-0.016619228,0.051872514,-0.09351206,-0.016765662,0.1738442,-0.17227015,0.039592013,-0.2156081,-0.08794034,0.068259306,-0.030509768,-0.043534085,-0.14145657,-0.13359249,0.043987352,-0.056031022,0.038107138,-0.09810453,0.0786356,-0.0761621,-0.09927962,0.0670679,-0.1277861,-0.08772268,0.11506926,-0.0013362216,0.07881831,0.040905908,0.07825607,-0.015142772,0.06986314,-0.124511905,0.16974509,-0.07473574,-0.09062816,-0.06438584,-0.10664692,0.025998259,0.10546497
    , 0.07113484,-0.11053884,-0.1156124,-0.026961423,-0.13580985,0.13246654,0.052991692,-0.12034366,-0.046007417,0.0132335955,0.08889299,0.110972814,-0.06535836,0.043897256,-0.026682641,-0.03850287,0.24884987,0.1048705,0.0009796609,0.06271318,0.045717776,-0.028951935,0.07525032,-0.3083848,-0.057279155,0.191068,0.021991946,0.12801829,0.03534777,-0.101774946,0.15469937,0.08599377,-0.12654823,-0.0412262,-0.23274621,0.12519364,0.09168788,-0.019805793,0.12420676,0.07202258,-0.09920153,0.2328082,0.017422514,0.021415476,0.03810229,0.0610669,0.043653466,0.12146265,-0.0069761365,-0.19458705,-0.1357085,0.032518703,0.090820596,0.026939673,-0.16328971,0.014701531,0.18622877,0.011590869,-0.015717508,0.09139504,0.12576519,-0.060841285,-0.05177848,-0.0036195752,-0.033363413,-0.13063674,0.019752184,-0.15745391,-0.05033619,0.16131608,-0.14063554,-0.0689692,0.07499206,0.15512015,-0.07262842,-0.03315025,-0.022710567,-0.17763296,0.06505177,0.088401794,0.19404113,-0.19005604,0.058343086,-0.089063756,-0.10845313,-0.26947418,-0.13253477,-0.10251059,0.16429351,0.03552873,0.023347642,0.038030043,-0.20792733,-0.11473986,0.0059229312,-0.26379007,-0.061303105,-0.37109482,-0.11386343,-0.11043382,0.12826419,0.1916897,0.0069874357,-0.1171003,-0.0744228,0.06470889,0.0370467,0.23925151,-0.15827847,0.04893724,-0.060343426,-0.037689548,-0.06734474,0.02725105,-0.04387476,-0.10944452,-0.049691852,0.009459022,0.0677414,-0.07498386
    , 0.05674993,-0.17872831,-0.04661966,0.0029966445,-0.044401597,0.05576442,0.09599227,-0.03498636,-0.025423164,-0.122844666,0.028073885,0.020264512,-0.0035193635,0.053736664,-0.08520738,-0.0069595207,0.070217274,0.09732977,0.06908251,0.074162126,-0.07927962,0.040555954,0.12548478,-0.25082555,0.05574317,-0.023453299,-0.052310433,0.07298392,-0.0085215615,0.07605795,0.13901298,-0.1619424,-0.11763144,0.08413287,-0.0078088106,0.1375382,0.28391507,-0.040564775,-0.083913766,0.14858826,0.064783625,0.15112658,0.09390996,0.085236736,-0.12821314,0.16129103,0.13696602,0.054675188,0.10529652,-0.16044292,-0.16787407,-0.07493428,0.04400062,0.04392561,-0.02512369,0.075978436,0.11713589,-0.019047314,0.010190087,-0.068350345,0.21032482,0.03244074,0.010803954,0.09869007,0.087627895,0.10584876,-0.018021628,-0.03016334,-0.120805964,0.038738046,-0.03922772,0.087509446,0.0365596,-0.084729075,-0.098713584,0.048419856,0.074758165,-0.10239097,-0.24696511,0.07559032,-0.080628775,0.1020995,0.0794181,-0.1121918,-0.2353446,0.017378405,-0.26027524,-0.028814696,0.066815175,-0.11480599,-0.0053404435,0.23356853,-0.124610916,0.01063984,-0.08139184,-0.04981218,0.02871602,0.050591398,0.032371562,0.121930316,0.12355406,-0.043244522,-0.13579375,0.06582256,-0.03746516,-0.033636063,-0.07771518,0.0541052,-0.061050743,-0.013557312,0.09771414,0.10688316,0.0055794893,0.09024148,-0.0092759095,0.0014792308,-0.11818407,0.10637808,0.22608212,0.014896819
    , 0.22313991,-0.022944817,-0.10221237,-0.031444497,0.071111634,0.012991966,0.04347002,0.034295876,0.17972706,0.101531275,0.032582257,0.16388716,-0.030507965,0.026897565,-0.028569592,0.0069939676,-0.17082155,-0.059962515,-0.15430698,0.08323736,0.11858145,0.14813372,0.028122228,-0.043452464,0.051683705,-0.14027943,-0.17377323,0.07488549,0.021040138,0.026879666,-0.15483329,0.10440605,-0.089467965,-0.038764086,0.052303754,-0.18855806,0.101177864,-0.11653744,0.15782142,-0.05322184,-0.11303022,0.15215325,-0.10829556,0.008385394,0.22976771,-0.04024214,0.15435463,0.01720872,-0.017643997,-0.0008104981,0.08153662,0.077002496,-0.11953157,-0.029208746,-0.07844683,0.07736767,-0.03932716,-0.11745678,-0.04724444,0.10261792,-0.3396916,-0.08407931,0.17943957,-0.12468206,-0.17712502,-0.12556309,0.068982,0.17332031,0.07704812,-0.10965461,0.07006662,-0.28207278,0.13091564,-0.17554264,0.005215884,0.02365583,-0.22950988,0.0055653234,0.20880322,-0.01672959,-0.03513344,-0.14759599,0.058806993,-0.06618391,-0.0390451,-0.06705453,-0.045521375,0.11091996,-0.018190414,-0.1441916,0.033430193,0.06447935,-0.16236985,0.11548006,-0.05778337,-0.14878567,-0.08813612,-0.053288262,-0.059190396,-0.14713773,-0.120324776,-0.19307795,-0.08022345,-0.10699577,0.113149546,-0.15951127,0.08013714,-0.12305568,0.08563988,-0.12136284,-0.036797024,0.05129949,-0.0133269,-0.22114746,0.036216993,0.08263779,-0.00453304,0.07296114,-0.10866407,-0.037202075
    , 0.14574671,-0.051918995,0.0031100805,0.006714514,-0.17624621,0.05690893,0.041263904,0.017345294,-0.052000575,0.0952911,0.07647071,0.027176108,0.2121222,0.020287417,0.003204397,-0.11893482,-0.23695445,-0.09244135,0.1746722,-0.05168704,-0.038587425,-0.10741309,-0.10967274,-0.07859197,-0.055039085,0.05855922,-0.12955105,0.03350108,0.1264249,0.0014130635,-0.08587743,-0.02586076,0.017073661,0.1104768,-0.03363612,0.03082423,0.07833471,-0.14359634,0.009700858,0.20407769,-0.06728418,0.040662937,-0.09551318,-0.11088091,-0.055059686,-0.08594346,-0.071572244,0.18830611,-0.07528659,0.034054954,0.047654744,0.15041985,-0.07224014,-0.123038344,0.09140786,0.07242155,0.051002216,-0.0006230159,-0.060611416,-0.14003052,0.03496489,0.14573863,0.07947951,-0.120787084,0.09338879,0.031396814,-0.13957864,-0.20302741,-0.023678059,0.04233877,0.08251458,0.027024245,-0.09067838,0.03757371,-0.049289886,-0.09195266,-0.112306885,-0.061922707,0.18551207,-0.033518836,-0.16855088,-0.014628009,-0.08360131,-0.051088016,0.16267282,0.028795412,-0.081647806,0.088065304,0.039622635,0.04867984,0.015579502,0.13342673,-0.105276726,0.035642833,-0.10374975,0.00643002,0.07718349,0.057323676,-0.07360369,0.112667315,-0.13850257,0.13027613,0.08876482,0.044847585,0.066179104,0.14702553,0.073051676,-0.08760764,-0.1763505,-0.14591444,-0.021608878,0.03529055,0.171232,-0.035258155,-0.031904224,0.0464452,-0.058457952,-0.03428716,0.04795954,-0.078054294
    , -0.10850329,0.24402569,-0.041826982,0.023102274,0.11744667,-0.06914379,-0.006807964,0.054228876,0.0025036677,-0.0839921,-0.11888135,0.13300426,0.16647023,0.17625217,0.057455346,0.11612086,0.055189624,0.14823872,0.052186392,0.039374534,-0.08153501,-0.03679545,-0.22490934,0.18220301,0.009523394,-0.19993909,0.053001124,0.12956809,-0.028077379,0.06862633,-0.136907,0.024435256,0.09021794,-0.033100676,-0.08615184,0.094539486,-0.0017933202,0.13802333,-0.03959854,-0.33946666,-0.020039089,0.07708545,-0.10448276,0.28712517,0.2828951,-0.18889049,0.030251728,-0.056947455,0.03599416,0.12009046,0.07064669,0.07867252,-0.117122605,-0.069824934,-0.046880092,-0.009041026,-0.20528762,0.006182702,0.15235357,-0.036792524,-0.40520582,0.07219147,-0.05102503,-0.057291713,-0.033482235,-0.0838122,-0.060652148,0.04860009,-0.30886468,0.26206347,-0.07542937,-0.07924741,0.14725646,-0.061058436,-0.14342636,0.24419248,0.14283265,0.07656604,0.0095729,0.12456606,-0.055348873,-0.16769913,-0.3264071,0.21312444,0.09432256,-0.29244137,0.19451424,0.18385021,-0.08023176,-0.08685982,-0.014125528,-0.013771545,0.3353632,0.09489922,-0.03602011,0.12414428,-0.02353819,0.3388157,0.016132409,0.1911908,-0.33669987,-0.28327265,-0.03847144,0.011603034,-0.023926565,-0.23083432,-0.03886754,-0.028387394,-0.025863396,0.10512528,0.00741386,-0.19568798,0.21164837,-0.09364507,0.050445367,0.09656379,0.026593415,0.05272677,0.004754914,-0.1498738
    , -0.052578777,0.15176733,-0.091068335,0.07001134,0.0073670824,0.079871066,0.10892785,0.13596882,0.06813628,-0.07017914,0.1843392,0.22246385,0.08351806,0.11153654,0.023883138,-0.07519383,0.078097604,0.07174911,0.0045022313,-0.090197235,-0.09719714,-0.09770683,0.058062874,0.05678396,-0.09382559,0.0113713145,-0.19800562,0.14540562,0.17307495,0.061018527,-0.12740251,-0.07451349,-0.06286976,-0.01717142,0.03242287,0.153109,0.14689735,-0.09386559,-0.032393232,0.015855614,-0.082175165,0.14224297,0.089336395,-0.027240077,-0.007160329,0.049160913,-0.012331867,0.0986272,-0.044071835,0.051312596,-0.043935247,0.19303344,-0.10879934,0.060325064,0.029696625,0.0060095624,-0.045856796,-0.11122455,-0.0872344,-0.06048087,0.011068296,-0.017408578,0.0018632496,0.079112716,0.013066225,-0.13066319,0.026966851,-0.098484136,-0.24696484,-0.004549919,-0.12994248,0.060390577,-0.07976255,0.02150909,-0.032039534,-0.049112674,-0.09987421,-0.020499729,0.15189691,-0.036013182,0.02504664,-0.2320002,-0.07792045,0.119880445,-0.00015641881,0.124260776,-0.12929086,0.1417241,-0.010836029,-0.088589475,-0.019991716,0.0024224035,0.03904314,-0.09951547,-0.05489492,-0.13749632,-0.1495863,-0.13915591,0.06348064,-0.012857377,-0.36782917,-0.17832473,0.009980294,0.10118311,0.061183076,0.10130604,0.047316883,-0.009600961,-0.16954541,-0.06380946,-0.00024276266,-0.03197973,0.15700419,0.110715024,-0.09311107,-0.14140876,0.15988591,0.14000653,-0.033081766,-0.17014965
    , -0.05103478,0.0991406,-0.11573043,-0.045781225,0.023667429,-0.096395515,-0.091921404,0.10584645,-0.08932617,0.12143049,-0.033882476,-0.09889059,-0.014818456,-0.068333134,0.08843944,-0.09731007,0.05160131,0.048307054,-0.1461268,-0.107530475,-0.037687786,-0.023129886,-0.00061870576,0.06778557,-0.11268131,-0.082257636,-0.0044989176,-0.103637874,0.19348752,-0.21906908,0.012767488,-0.07663577,0.041362733,-0.11720517,-0.0049719764,-0.154413,0.037024975,-0.19498122,-0.0077677164,-0.1677425,0.20056076,0.027029563,-0.029203357,0.0036641737,0.12975557,0.070492364,0.21301535,-0.18424425,0.08188559,0.07604752,-0.011033181,0.079161026,-0.049145423,-0.062070794,-0.100813754,0.047510773,-0.118567325,0.004040075,-0.10160555,-0.09265219,-0.020821957,-0.0466954,-0.051483504,-0.08800439,-0.024682442,0.09407901,-0.06109083,-0.036237605,-0.17717402,-0.030131305,0.106857575,-0.10218706,-0.09870366,0.02548306,-0.012762644,0.1471279,-0.027988585,0.16496412,0.03940355,-0.13664703,-0.008185716,-0.07867273,0.032322068,-0.014209562,-0.04755774,-0.081604585,0.11736584,0.10734078,-0.052353293,0.048722766,-0.16719651,0.008392246,0.11987112,-0.020444488,-0.05764509,0.094145104,0.240921,0.026061768,-0.12472915,0.11235842,0.08251262,-0.11249308,-0.06796851,-0.018410256,0.12449997,-0.06363637,-0.010044661,0.06914529,-0.04334818,0.08067865,0.03870357,-0.02384453,0.122587845,0.06834854,-0.030640842,-0.0034350322,-0.037721474,0.09668872,0.04742409,0.11279715
    , -0.16467527,-0.18471146,0.10113838,0.031005016,-0.09401247,-0.08538701,0.028875783,-0.066965,-0.13782816,-0.14682524,0.08729476,-0.1929793,-0.035297733,0.21299863,0.08592186,0.011241156,-0.25530887,0.07635329,-0.06908761,-0.044948574,-0.011647118,-0.020818146,0.13256136,-0.10837884,0.021967592,0.008473565,-0.08338703,0.15600476,0.15801491,0.040418856,0.21017857,0.070563845,0.07427725,-0.13122983,-0.021728035,0.034214053,0.09638879,-0.07636676,-0.11809792,0.0052995724,-0.14817138,0.0071263895,-0.10407983,0.031750403,-0.09436922,0.10030939,-0.081312306,0.05425117,-0.047463946,0.02804922,-0.076946884,-0.09424604,-0.096312076,0.028657848,-0.0650793,-0.06753954,0.18819518,0.09481146,-0.22575441,-0.17197429,0.026568826,0.024822768,-0.091876894,0.004836548,0.05327651,-0.06543513,-0.11786856,-0.047096256,-0.012581796,-0.037206993,-0.14860307,0.0075320797,0.01196665,0.23454085,-0.05102629,-0.22928457,0.20003502,-0.10343909,0.05070354,-0.08417216,0.113599926,0.10336378,0.0499183,0.104480155,0.05760378,0.14754628,-0.2503581,-0.002131417,0.029066078,0.0040204907,0.080962986,-0.10069897,-0.08459875,-0.050238725,-0.10215171,-0.0729194,0.19779791,0.027951678,-0.08489636,0.02773704,0.19171453,-0.030560993,-0.021428011,-0.17178129,0.11429584,0.25785252,0.035960376,-0.032268934,0.052150577,-0.032853846,0.011487613,-0.14058326,-0.02787306,0.2402828,-0.07893916,-0.0057194303,0.16726391,0.08743828,-0.12509851,0.12275188
    , -0.15996885,-0.105437316,0.007570111,0.078676626,-0.0025208136,-0.019723447,-0.0343259,0.21337824,-0.07809267,0.043288518,-0.03214133,0.14704987,0.009777889,0.0654294,-0.052911956,-0.01753091,-0.106326416,-0.006211824,0.03424328,0.003949661,-0.035095442,0.07704644,0.17057063,0.2199,-0.09068962,-0.085043035,0.06930847,-0.10668999,0.07590059,-0.04377654,0.09458581,0.101405025,-0.059523657,0.019391771,0.09885336,0.069562905,0.05400084,-0.11377069,-0.008256093,-0.032103524,0.041683912,0.016093846,-0.055465773,0.061873935,-0.01799134,0.025993047,0.051834416,0.058458447,-0.096155345,-0.01567984,0.0018375579,-0.111886576,0.061962724,0.18747482,0.06814334,0.176524,-0.14578053,0.08272277,-0.082320444,-0.058036074,-0.18654211,0.1453939,0.04753382,-0.063340634,-0.1833184,0.19157021,0.09436539,0.08357572,-0.18634176,0.04657092,-0.021016572,-0.1954505,-0.12816091,-0.098210365,0.048357453,0.17009774,-0.02722166,-0.008127909,0.013422076,0.14723735,-0.089967206,-0.1978086,0.05908965,0.15054302,0.2046693,-0.18363006,-0.02807147,0.13678461,-0.20602085,0.021053419,-0.042026836,-0.11708641,0.101916395,-0.21736966,-0.0026869187,0.18857725,0.09021,0.01306429,0.0036957406,0.05607823,-0.25693542,-0.032053996,0.08481267,0.14763336,0.026794061,0.03500908,-0.053582713,-0.02313013,-0.055356026,0.023362868,-0.1320776,-0.09767168,0.14281267,0.14734703,-0.054818157,-0.11948441,-0.0020459301,0.07152876,0.034484662,-0.10524202
    , 0.017279726,0.05753368,-0.19557832,-0.2120163,0.16038164,-0.113478266,-0.047338232,-0.06529893,0.012995784,0.30461746,-0.08879159,0.026952753,0.028021019,-0.0016811906,0.087941214,-0.05323037,0.12692979,-0.067242,0.14309998,-0.119608715,0.1637579,0.018519435,-0.08439039,0.020197652,-0.11830971,0.061123524,0.12979293,-0.10070315,0.17478432,-0.17633311,0.10263914,-0.15877178,-0.15316378,-0.033461645,0.14060801,0.012753171,0.12403995,0.114338726,-0.011522365,-0.11821469,-0.22158791,0.032193024,-0.025576686,0.010598515,-0.033101793,0.03387577,-0.14826928,-0.03047787,-0.09196877,-0.059133552,-0.048964523,0.0022172395,0.04080393,-0.057681225,0.10278559,0.19044933,0.011454055,-0.017992983,-0.15526104,-0.102932565,-0.2974166,-0.080244325,0.00029780448,0.045434263,0.046229087,0.023359999,0.10798379,0.0016994798,-0.007077193,-0.11025072,-0.20717128,0.022261664,0.029425755,-0.051668547,-0.0027474624,0.1355698,-0.04790034,0.03653997,-0.060991995,0.11134338,0.07548285,-0.015299791,0.043571055,-0.08336592,-0.032301903,-0.15455543,0.031715084,0.0639082,0.06297774,-0.03946165,-0.025929429,0.007865339,0.15913384,0.15521911,7.005039e-05,0.21733752,0.017806236,-0.09554721,-0.15078829,-0.07904159,0.11419707,-0.23315018,0.11147269,0.16041246,-0.01175668,-0.056025635,0.0016529235,-0.02325129,0.04693992,0.08868107,-0.006952433,0.13260274,-0.10863438,-0.20194437,-0.039701466,0.024972562,-0.02048943,-0.084687375,-0.1006203,0.13675633
    , -0.13668297,0.14108992,0.014130615,0.2308507,-0.03851483,-0.07596129,-0.13394849,0.05985586,0.12068966,-0.053278178,-0.12291921,-0.082675815,0.004535582,0.18982145,-0.059602022,-0.04622324,0.10894567,-0.25755894,-0.00058972824,-0.04184951,0.1666487,-0.12080386,-0.0024254837,0.016779888,-0.06219612,-0.08546066,0.014567987,-0.2686653,0.2736665,0.064398326,0.034331985,0.24240188,-0.1008356,0.12286793,0.21730585,-0.2727209,0.06860484,-0.17597015,-0.0114265485,-0.09671652,0.21891212,-0.2716566,0.090756856,0.010953232,-0.12948991,0.022980347,0.04019945,0.032448985,-0.0702584,0.056308717,-0.08719638,-0.23712787,0.009789721,-0.029409153,-0.069043435,0.033417452,-0.020294046,-0.0325175,0.11558057,0.11097646,-0.17918819,-0.0008035331,-0.06703856,-0.04881655,-0.05779624,0.017606538,-0.11490555,0.043796375,0.11883277,-0.23229788,0.12243889,-0.02468096,0.061159622,-0.065479234,-0.037585363,0.03450702,-0.18242124,0.15410382,0.018846044,-0.11511471,-0.04289461,0.05076422,0.10777165,-0.005148046,0.0053185998,0.030726016,0.13614152,-0.11760373,-0.2669063,-0.028717082,0.14788204,-0.0265978,0.17411989,-0.12749037,-0.05114838,0.04161046,0.38661164,-0.090164505,0.061011974,-0.048397124,0.25313172,-0.051827442,-0.0201371,-0.12680817,-0.06930284,0.02043375,-0.048165493,0.057486452,0.1747524,-0.008026661,-0.04178699,0.04019337,-0.17600237,0.074376486,-0.09304251,-0.14384712,-0.01115729,-0.09067264,0.07752411,0.06124974
    , 0.030571498,-0.09495518,0.011043902,-0.1299311,0.05973616,-0.10168236,-0.17728513,0.054037057,-0.21830405,-0.019633193,-0.035039887,-0.08487424,0.07162372,-0.0022135274,0.09042804,-0.20071523,-0.10827794,-0.013576074,0.1610581,-0.12787895,0.11479268,0.18239653,-0.046042312,0.052927114,-0.015388797,0.18136017,0.15065825,0.06950223,-0.07717499,0.051371366,-0.054129552,-0.004813826,0.06456617,0.033679575,0.047049724,-0.06887075,0.26310313,0.061483115,0.12715773,0.035563454,0.04048437,-0.086080715,0.02634098,-0.0058196196,-0.16484724,-0.13123274,0.079331145,-0.015434055,0.13035126,0.023465974,-0.06185724,-0.095656075,-0.13064377,-0.03253166,-0.05944031,-0.09779483,0.009585292,-0.041001584,-0.024979174,-0.124047235,-0.0029386445,-0.031471483,-0.093118936,0.008744658,0.11571716,0.17767306,0.18420729,-0.0974319,-0.3954217,0.026687974,-0.095860004,-0.009953053,-0.016960828,-0.039469272,-0.1854229,0.20037976,0.016931023,-0.09077412,-0.10385051,0.111963175,0.07126781,-0.23102307,-0.15995832,-0.2997874,-0.04248191,-0.16077591,-0.059943136,-0.05455046,-0.09305377,-0.007630129,0.18252623,-0.027568955,0.0077213096,0.0041999016,0.04094634,0.20358557,-0.09639275,0.09526691,-0.05909461,0.18033803,-0.31940722,-0.36273405,0.0050442875,0.04160463,0.121179886,-0.16606177,-0.0150217125,-0.0797087,-0.31497326,-0.087296546,0.0853448,-0.049199402,0.12398433,-0.13100696,-0.03444628,-0.10279246,0.13957387,0.18091415,0.057264823,-0.06484973
    , -0.023001885,0.06407219,-0.052117016,-0.12843226,-0.10778472,0.11587945,0.2188591,-0.009396472,-0.08387719,0.0896551,0.12461119,-0.101559594,-0.16098526,0.13952604,-0.0545592,-0.06426552,-0.026708284,0.044790033,0.0027179378,0.05782148,0.05424443,-0.13476026,-0.01813802,-0.22428413,0.0028106468,0.031791776,0.018459206,-0.23538727,0.013448371,-0.12797835,0.12490607,-0.0044398415,-0.14064324,-0.0019276266,-0.1277817,-0.026500659,-0.06254617,-0.07768223,-0.11698267,-0.18509693,-0.27839002,0.12265397,-0.122291155,0.039820265,-0.0432156,0.02230398,-0.09465531,0.0019665314,-0.053399533,-0.072501116,-0.06967264,-0.122731626,-0.115477614,-0.1423497,-0.1468531,-0.028297063,-0.064647436,-0.050151218,0.061003044,-0.06145828,-0.17543678,0.041186564,-0.051633406,-0.15732706,-0.03210724,-0.21449809,-0.022801466,-0.15905783,0.10626611,0.051208623,-0.072530024,0.06435546,-0.0677594,0.06947762,0.05846749,-0.10784156,0.18473141,-0.105793595,-0.25857636,0.21183091,0.01804178,0.24460778,0.25253588,0.017894598,0.020344473,0.15054531,-0.07847451,-0.034476023,0.21496992,0.10203194,0.023727411,0.1462125,-0.17244604,0.016944049,-0.15677036,-0.13963237,0.09118558,-0.005689052,0.0036748534,0.15764785,0.05228625,-0.05036578,-0.15380004,0.07325311,-0.086299755,0.063657194,-0.040624823,0.14328563,0.104810536,0.03897457,-0.06406876,-0.008062068,-0.1699712,0.09110399,0.054253697,-0.076895654,0.030810634,-0.17279807,-0.22167528,0.07507729
    , -0.25570196,0.13779995,0.014032359,0.10454714,0.023415886,0.12856172,-0.37618876,-0.17411746,-0.090135336,-0.08722763,0.1454537,-0.29005814,-0.031268947,0.21059005,0.029945001,-0.045407303,-0.1073861,0.078482784,0.049141075,-0.11618726,-0.13071135,0.10923658,-0.002822888,0.16523875,-0.05864177,-0.0057707923,-0.00033267177,0.17118987,0.09574421,-0.1728833,0.09925441,0.0093027,-0.0017230876,-0.03249429,-0.018287657,-0.05400258,-0.05066896,0.07165838,0.030200133,0.08347395,0.075147144,-0.28166637,-0.019801408,0.13061251,-0.08280764,-0.15082327,0.15185624,-0.171771,-0.13442464,-0.046307027,-0.068139784,-0.055999637,0.005836424,0.13146909,-0.055029243,0.017408894,-0.08041846,0.022931496,-0.16025876,0.040552944,0.0056841685,0.084773794,0.0294693,0.011108196,0.008609833,0.17666323,0.04495555,-0.005597159,0.07595357,-0.005389254,-0.1782325,0.08826986,0.07542294,-0.040742025,-0.079644635,0.12526254,-0.0238446,-0.009483978,-0.044313285,-0.085945345,-0.19430207,0.07546324,0.1615081,-0.03211737,0.12972821,-0.19620457,0.20504057,-0.0669234,-0.09205868,0.10321635,0.012318798,-0.3521558,-0.01207321,-0.05946368,-0.017554944,0.012710979,0.06230746,0.21174118,-0.09434113,0.06128694,0.117165476,-0.16536906,-0.05477635,0.05753621,0.14100821,0.08406326,-0.06718851,-0.018817812,0.085344024,-0.12725997,-0.037703276,-0.13511573,-0.01909294,-0.109265454,0.077078156,0.069529735,0.06911253,0.0033504849,-0.0047123414,0.009589623
    , 0.29387268,-0.15789598,0.044283364,-0.14035748,-0.10507258,-0.18111013,0.2273709,0.10404113,-0.27394983,0.028250866,0.0054074563,0.119624466,-0.0074116066,0.07153795,-0.13619792,0.076247595,0.044667866,0.09236117,-0.13881248,0.042174693,0.16566615,-0.06967943,0.055557393,-0.30960357,0.0023528254,0.091487095,0.07002761,0.005323839,-0.09275495,-0.1594435,0.04256564,0.0028196434,0.020120384,0.14829732,-0.063690916,-0.24964613,0.07755458,-0.1698158,0.24869801,0.1699218,-0.15651079,-0.035675295,0.08730699,0.112156354,-0.39299577,0.1292303,-0.06814792,-0.051977657,-0.0047625834,-0.07934137,0.10532925,0.06218213,-0.1132982,-0.10978614,0.010592086,0.113001205,0.0020031652,0.04128669,0.18481527,-0.03016176,-0.10624698,-0.064219385,-0.11299218,0.13743031,0.24608122,0.09952754,-0.091617316,-0.12602419,0.070584655,-0.1638704,0.14640054,-0.13432965,0.030241918,0.073954076,0.01204496,-0.13969284,0.019117191,0.0024407865,-0.16086088,-0.14476232,0.038173247,0.03307829,0.044440493,0.024689758,-0.16888836,0.2363736,-0.1971081,-0.101432785,-0.052154966,-0.060798075,0.05892265,0.27289084,-0.064505994,-0.0044365874,0.058525503,0.093447,-0.07256627,-0.061351612,-0.0833941,-0.12171653,0.023192447,0.018986417,0.027088886,-0.001301453,-0.1754128,-0.10015379,0.059677813,0.122328795,-0.013688603,0.07102593,0.060620014,-0.09338679,-0.14609228,0.04806695,0.044161845,0.09242039,0.046548802,0.18167897,0.08341484,0.025275204
    , 0.008343997,-0.025659565,0.01209683,0.22251692,0.039246015,0.056776993,0.104019396,-0.064375035,-0.05349823,0.0024394414,-0.17864238,-0.032234862,0.05170048,-0.0058168527,0.05322972,0.022400806,0.011319973,0.08534836,-0.10524879,-0.047306146,-0.13422017,0.04957453,0.18190554,0.06374729,-0.06294139,-0.03961001,0.08262048,0.09364152,0.118031636,0.026713256,0.08892399,-0.09367073,-0.07803132,-0.15275665,0.17928742,0.10011814,-0.06486014,-0.071841,-0.15244456,-0.035432003,-0.24332836,-0.07399711,0.086004354,-0.016167302,-0.37264946,0.21556988,-0.18344027,-0.06353186,0.060024418,0.025930904,0.075953595,-0.097250186,-0.1483092,0.12681562,-0.24392185,-0.10623076,0.052181873,-0.20960507,0.0064374963,-0.034675002,0.19778317,0.03790841,0.02452695,-0.063888855,0.12982996,-0.14083321,0.05192375,-0.015041174,0.26210773,0.030921746,-0.083647795,-0.003284032,-0.104662314,0.2221256,0.024565663,-0.1446586,0.1293921,-0.024852948,-0.11615843,-0.051205195,0.21893108,0.20881167,0.12072474,-0.0014168427,-0.1526828,-0.016364094,-0.06958445,-0.06319726,0.022727175,-0.048122033,-0.00617084,0.002120838,0.13256589,-0.0895008,0.00024084089,-0.08408986,-0.022792151,-0.1777004,-0.09786102,-0.016317734,0.17156392,0.114441656,-0.06651555,-0.09335256,-0.05311821,0.10928674,-0.11118156,0.1831701,0.1618223,0.015439572,0.039129686,0.047365725,-0.09549511,0.006265391,-0.09114877,-0.09879068,-0.1906766,-0.24009894,0.0037926196,0.19928612
    , 0.18564324,-0.061047662,-0.0050199335,-0.10843249,0.0972565,-0.050101504,-0.036806077,-0.071758844,-0.024625786,-0.14360389,-0.015237094,-0.17683986,-0.117738366,0.043978587,-0.11439738,-0.07625433,0.09208012,-0.0646283,-0.027986698,-0.005703761,0.09709261,-0.17031902,-0.15787503,-0.17932108,0.054892406,0.04199925,0.17646758,-0.16853917,0.06766714,-0.04607104,0.022393562,0.05538789,-0.07328182,-0.059658688,-0.09644166,-0.064862795,0.08497828,0.01315254,0.02422744,0.07349549,-0.139149,0.09260347,0.08492733,-0.0014910817,-0.001013065,-0.05578747,-0.12002377,0.08314598,0.011997984,-0.24749833,-0.15263687,-0.064238474,-0.032437515,-0.24406734,-0.13070576,0.1762601,0.11227715,0.18611374,-0.028913144,0.08369758,-0.099462576,0.12916993,0.04925112,-0.08143485,0.12537399,-0.16031252,-0.056295935,-0.022207953,-0.009833819,-0.06473864,-0.034196187,0.031629845,0.12791522,0.05487208,-0.029715875,0.037725892,0.16423227,-0.1046848,-0.07579437,0.17300221,-0.07355427,0.20954734,0.1832909,-0.05116963,-0.083596416,0.14716421,0.10665494,-0.15654281,0.16561775,-0.06394277,0.03244166,-0.091257446,-0.2218541,-0.04600768,-0.032354895,-0.10269103,0.13461527,0.0031095357,0.08216073,0.070457034,0.20551944,-0.100604706,-0.011014008,-0.09164564,0.05565271,-0.05653644,-0.05734926,-0.0739473,0.046930328,0.020676041,0.04035527,0.046026338,-0.15345384,-0.01052849,-0.035599664,0.008967919,-0.030291185,0.021744505,0.030754127,0.11062941
    , 0.10801194,-0.09002111,0.1692009,0.036072858,0.0973939,-0.11946576,0.14023258,-0.039549954,0.026140781,-0.053764038,-0.02423685,-0.029102353,-0.097244546,-0.09075461,0.008369787,0.018033726,-0.031039383,-0.0386365,0.113456525,-0.13486513,-0.022012627,0.023193136,0.044295378,-0.12769283,-0.082063325,0.10585783,0.2130007,-0.017854255,-0.056197613,0.07203114,-0.045694802,0.028177813,0.11744866,-0.07242319,0.12230885,0.13635136,-0.013539187,-0.08591805,-0.018474083,0.0031314057,-0.03354509,-0.05901765,-0.0031202985,0.04855222,0.0011931458,0.13219647,-0.08430133,-0.09424536,-0.01559322,-0.107146546,-0.050909694,0.0403544,-0.094041556,-0.0039334334,-0.09799834,-0.17413901,0.09940253,0.11104552,-0.023079071,-0.1307575,0.042522397,-0.07122114,0.049733505,0.087139875,0.06938953,0.07601749,-0.06790468,0.005479444,0.07277043,-0.15040976,-0.09732256,0.019058323,0.033912037,-0.022944767,-0.090784,-0.17376925,0.0286545,-0.004489575,0.10863067,-0.00547239,0.0908169,0.13967676,-0.16480246,-0.13988134,0.094436586,-0.10763833,0.026602399,-0.012749411,-0.14410122,0.02895978,0.005305091,-0.05161591,0.024674673,-0.06735058,-0.11109622,0.047353864,0.021453522,0.08166682,0.046398643,0.029523449,0.10609898,-0.011896485,-0.08137554,-0.046044867,-0.079647735,0.04376396,-0.016646381,-0.0071086343,-0.10317664,0.07761568,-0.05069264,-0.15717553,0.064625464,-0.12894316,0.08156315,0.008221492,-0.12288702,-0.13850239,0.08047161,0.055246286
    , 0.011051113,0.025096891,-0.010627603,0.018817252,0.058533885,-0.0047626086,0.11068085,0.18886204,0.0701918,0.10954769,0.04176075,0.24486125,0.025410226,-0.061527647,0.097338706,-0.101833746,0.22317031,-0.086479396,0.04527975,-0.009347929,0.19088714,0.083954,0.14505121,0.1321144,0.08574346,0.032808777,0.0003771456,-0.0229433,0.047862936,-0.10943077,0.05180444,-0.01674442,0.11117614,-0.07207904,-0.016686033,0.011839133,0.1092534,0.05378499,0.16574326,0.009309845,0.00038759876,0.07358529,-0.07108411,0.06708536,0.21012475,-0.11805128,0.04072392,-0.05384037,0.089080386,0.17657195,-0.102993965,0.06996094,0.047407795,-0.056922145,-0.04955761,0.13365433,-0.21993075,-0.13847692,0.22038177,-0.07500612,-0.20952791,0.024645898,0.04833339,0.10879837,-0.15478161,0.18109731,-0.08170267,0.07106376,-0.19426829,0.16222005,0.06092158,-0.31915456,0.057247337,0.008101653,-0.11076139,0.15076838,0.130934,0.06292331,0.00046656097,-0.0016629208,0.0018186404,-0.2790516,-0.0051234956,0.017830126,-0.02659317,-0.048222594,0.034708403,0.060912125,-0.10438997,-0.16323517,0.022155372,-0.009716044,-0.06929783,-0.14973481,0.06184547,-0.0049799047,0.06711752,-0.024887457,-0.040988415,0.14040677,-0.120070755,-0.1583163,-0.00020960034,-0.055933673,0.04563907,0.024754656,0.056531526,0.008233175,-0.2922108,-0.023277467,0.040840443,-0.020907333,0.18509564,0.20866948,-0.10836142,-0.0642265,0.01150089,-0.06872592,-0.006908245,-0.057712995
    , 0.027708054,0.06321321,-0.059574887,-0.1473031,-0.012569409,0.16379839,0.0640849,-0.057191897,-0.10356914,-0.06501281,0.082982086,0.031276874,-0.06113615,-0.18964703,-0.15277284,0.009282741,-0.09508727,0.0641157,0.045501307,0.020150142,0.012292618,-0.025609553,-0.19110426,-0.058377277,-0.016300432,-0.050006844,0.016967183,-0.13935468,-0.027594702,-0.17266247,0.0006464295,-0.10732904,-0.0005204693,0.12147397,0.06830433,-0.20857425,0.05986154,-0.027237426,0.15114889,0.065230325,0.10185856,-0.10515204,-0.09442569,-0.13068578,-0.3459544,-0.13041651,-0.09918589,0.055924557,-0.03575281,0.09245031,0.11368522,0.073418364,-0.085145734,-0.24530938,-0.058921523,-0.09847628,0.10202491,0.049478285,-0.073437974,-0.03964515,-0.0011216749,0.14250658,0.10077126,-0.11345202,0.10784236,-0.07645309,-0.20314315,-0.34091008,0.035482366,-0.20573065,0.18007977,-0.007887462,-0.043879803,0.036349613,-0.07756161,-0.027538413,0.03619648,-0.03403962,-0.2335693,0.021184623,-0.10449179,0.102531254,-0.16678171,0.061854824,0.05370456,0.042654175,-0.043972097,0.09228151,0.12794268,0.021766637,0.032026213,0.081290886,-0.13951322,0.008093176,0.071379445,0.24210961,0.051012296,0.09039781,0.1004209,-0.113277726,0.10837088,0.06634013,0.115921035,0.069773264,-0.033628438,-0.026372503,0.076722085,0.24835451,-0.11487155,-0.052266352,-0.082272194,-0.06760571,0.013864238,-0.014646786,-0.07432637,-0.065404214,0.17536597,-0.017323067,-0.1132707,-0.033242643
    , 0.02270996,0.12727205,-0.011389113,-0.10946336,0.0482031,-0.13283314,-0.11793036,0.139678,-0.19275263,0.04911245,0.03283221,0.28068668,0.13334703,0.029476874,-0.01797044,0.0050393892,-0.0012271147,-0.026242347,0.14402784,0.12013367,-0.10916084,-0.016136494,-0.04409506,0.25408792,-0.027658679,0.076841466,0.044793658,0.1221768,-0.0033532616,-0.0354985,0.032773104,-0.08689663,0.044667687,0.022569833,-0.038420275,-0.04978125,-0.07261475,-0.12148172,-0.022963112,-0.3569476,-0.10381461,-0.03179902,-0.0425018,0.21837868,-0.013675852,-0.22737014,0.16113,-0.081439815,0.105492696,0.081153594,-0.05000877,0.07707378,-0.09870941,0.16589448,0.17276558,0.14652008,0.030819757,-0.0060787564,-0.004678895,-0.021225417,-0.23409222,-0.021831706,-0.029135406,-0.045817815,0.13079537,0.084539816,0.1452703,0.066795714,-0.35920662,0.1280532,-0.063572854,0.082606085,0.048340105,-0.13003133,-0.10300878,0.12247682,0.07660043,0.09670887,0.039626896,0.20553559,-0.061193623,-0.04617314,-0.24796455,-0.04720158,-0.034212504,-0.24943943,-0.036522325,0.17720768,-0.019015972,-0.06694007,-0.20573962,0.031356182,0.3610532,-0.033630118,0.046120487,0.086596854,0.005910337,0.023676284,-0.11192658,0.13976577,-0.103429444,-0.3782038,0.070947684,-0.07277708,0.115410306,-0.1210232,0.024020184,-0.080064796,-0.18549019,-0.09987972,0.051580686,-0.1034141,0.16976279,-0.05360526,0.08114819,0.08623044,0.12143558,-0.047153227,0.040705193,-0.030560588
    , 0.08765163,-0.05650522,-0.013608929,0.02743725,0.022231907,-0.18246345,0.015390714,0.18093549,-0.12247557,0.1456716,-0.06254866,0.23515105,-0.07276608,-0.15357701,-0.112776294,-0.11553695,-0.014475911,0.11057522,0.16060176,-0.1274164,-0.06299642,0.04370582,0.09466921,0.07930555,-0.08337429,-0.0060403007,0.023831967,-0.10745131,-0.029398866,0.029702276,-0.08941468,0.017113678,0.05425875,0.023693707,0.060292512,0.040561747,0.00072364276,0.16222441,-0.0074887956,-0.063693285,0.053411413,-0.16939466,-0.13021709,-0.106191166,-0.22999048,0.0070893504,-0.06374986,0.026880627,0.07937404,0.17967056,-0.0077187256,0.07990654,-0.10074862,-0.17991035,-0.016501918,0.10275236,-0.05220251,-0.054509535,0.116766736,0.087153725,0.0375217,-0.07313577,0.10448201,-0.0058246455,-0.015890189,-0.011592423,0.025237799,0.08140544,-0.21118975,-0.030362427,-0.0259082,-0.07700118,-0.09184085,-0.01907081,0.0497725,0.09174928,-0.06759645,-0.08035867,0.06722963,0.059338182,-0.105022304,-0.034303457,-0.12326568,0.041817054,-0.15717082,-0.06308252,-0.090525195,-0.021600828,0.007641405,-0.12263447,0.07579075,0.011012345,-0.08897956,0.10829042,-0.0012554659,0.07473061,0.11226273,0.17045201,-0.05685636,-0.0777281,-0.017314209,-0.055332232,0.06038807,-0.09173752,0.040230434,-0.14969346,-0.1306653,-0.042855803,-0.014071177,0.07390077,-0.020520112,0.066746935,0.08167964,0.015848307,0.10429685,-0.03481783,-0.083150335,-0.0076051117,0.047378786,-0.12030566
    , -0.17570187,-0.046950288,0.043563474,0.07091622,0.048034664,0.0094987145,-0.02788073,0.019044293,-0.051281907,0.0039047543,0.06384126,-0.2275245,-0.0073867915,-0.05384045,0.040029332,0.07693334,0.11687373,0.02270424,-0.12033678,-0.022791093,0.11076601,0.1146233,0.14406109,0.04425032,0.092786066,0.06616696,0.08795927,0.07316742,0.02521921,-0.099086344,-0.090458624,0.080375396,-0.089561254,-0.1491508,0.026353227,-0.14456719,0.0024338553,0.014507364,0.030429292,-0.025562793,0.1042387,-0.10354049,-0.08955596,-0.110865675,0.07816248,0.03442058,0.03670902,-0.13778535,0.06516771,-0.07408885,-0.119063005,-0.20181456,-0.018517198,0.053843275,0.09393204,0.04431263,-0.10196076,0.1997163,0.10745258,-0.087329715,0.03692618,0.02561536,0.104644835,0.09285073,-0.06902871,0.1054969,0.14101104,0.12582038,-0.16352142,-0.11830911,-0.096551254,-0.071611285,-0.021269247,0.08218151,-0.024486933,-0.12940569,0.055927023,0.007115821,0.05911828,-0.097919405,0.0022553618,0.093012124,-0.06192394,0.045304723,-0.113758765,-0.010128273,0.10933287,0.0021181027,0.019513875,-0.032314464,0.09893089,0.06357361,-0.014552809,0.042805646,-0.09769574,-0.022570126,0.11784606,-0.021555377,-0.002979445,0.058317833,0.17145321,-0.08685358,-0.14925593,0.0072303344,-0.062018327,-0.15193963,-0.04982357,-0.001469518,-0.1681485,-0.053899974,0.01009396,0.025382744,0.102631025,-0.09424307,0.048281677,0.0075748134,0.006899074,0.18685153,-0.04915846,0.075105
    , -0.114049375,0.14115943,-0.14465898,0.017484894,0.080052294,0.020999512,-0.06922702,-0.070616126,0.03836028,-0.1834064,0.05823306,0.07650054,0.06637925,0.08672246,-0.10031575,-0.067688234,-0.24933003,-0.21433443,0.09825218,-0.09379654,-0.124498636,-0.017004529,0.021850422,0.06499117,-0.093913615,0.059016164,-0.1761815,-0.082931295,-0.07698418,-0.08750935,0.058245163,-0.02133476,0.07034379,0.009327086,0.01413714,-0.102567144,-0.15883824,-0.063380465,-0.10624051,0.02949922,-0.12097374,0.13115045,-0.03612866,0.13679805,0.022186697,-0.073686495,-0.104608305,0.02035192,-0.076674186,0.16722627,-0.035763033,-0.20830873,-0.14385751,0.028874097,-0.066332646,-0.11878494,-0.14855771,-0.12317901,0.0072418475,-0.11061033,0.021544639,0.0007162104,-0.10401193,-0.055256974,-0.043543033,-0.14403403,-0.048008826,-0.0859456,0.12349316,-0.004543734,-0.11297185,0.08762192,0.036806423,-0.041033782,-0.024667077,0.12108723,-0.123302974,-0.094964616,0.10771834,0.14314725,-0.07647324,-0.02085341,0.12273034,0.14003524,0.23124823,-0.06974912,-0.100873016,-0.089202546,-0.030034844,-0.025161784,-0.02129154,-0.052214146,-0.10193112,0.10557137,0.007191943,-0.2414094,-0.019219017,-0.041776314,-0.011570512,-0.06610451,0.1284484,0.14460555,-0.07928905,-0.14153804,-0.015691599,-0.09467447,0.07492608,-0.08104792,-0.00508853,-0.0906527,0.06596747,-0.042329013,-0.13812692,0.102007486,-0.087771915,0.06603398,-0.0297449,-0.068537526,-0.08907971,-0.14071068
    , -0.01583042,-0.16085112,0.17063056,-0.08985128,0.07258757,-0.09153874,-0.09436386,0.33648548,0.009962388,0.31221947,0.08330954,0.22362067,0.004878851,0.11613626,-0.039648447,-0.22758608,0.15311174,0.11500902,-0.00083694945,-0.0740866,0.1878742,-0.09696925,-0.025715532,-0.13049927,-0.123168424,-0.02382572,-0.0669279,0.011519247,0.24280132,-0.11249487,-0.006151142,0.00016017939,-0.10302973,-0.13817132,-0.026852667,-0.08612002,0.23402388,0.017411819,0.117171094,-0.109856784,0.13081498,0.0847677,-0.04181186,0.14090368,-0.15321265,-0.067445606,-0.013430986,0.10104724,0.08543859,-0.02204774,-0.14058408,0.007502958,-0.12969764,-0.0055632833,0.09800119,-0.025479125,-0.08595513,-0.18794858,-0.14303339,0.058793742,-0.017939467,0.11318443,0.05456028,-0.06102638,-0.072442286,-0.11080124,0.1026734,0.060935646,-0.38964188,-0.006680775,0.014160986,-0.15598871,-0.21256198,-0.10216794,-0.07453953,0.027928604,-0.17213981,-0.031459108,-0.018681103,0.10184632,0.11005183,-0.17177196,-0.06435001,-0.08361813,0.041033994,-0.060303777,-0.0891778,-0.019769525,-0.19520374,0.0033426136,0.08804738,0.23225929,0.07300256,-0.09290624,-0.18531974,-0.158471,-0.0493471,0.063664585,0.037804198,-0.09846016,-0.082415104,-0.062049344,0.1090618,0.16216125,0.23389067,-0.12249534,-0.08346038,-0.03659369,-0.05383325,0.019931898,-0.11076645,-0.01002675,0.12975676,0.18155397,0.04827972,0.03867726,-0.0690685,0.19789228,0.12631702,0.07784709
    , 0.28770512,-0.05083663,0.1114826,-0.11226275,-0.26084575,-0.096318044,0.13139977,0.13566232,0.044599716,0.16857469,-0.14445871,-0.13932788,0.22973108,0.14856112,0.02980108,-0.056793783,-0.14527541,-0.2656565,0.053731382,-0.04809919,0.27386123,-0.3002061,-0.011281517,-0.3748589,0.007548308,0.15187138,0.2152077,-0.009363374,0.09827885,-0.2986937,0.055544242,0.13154027,-0.07244807,0.06708639,0.06614461,-0.47712475,-0.1512665,-0.24100722,-0.15875031,0.05274336,-0.021886736,-0.08283378,-0.021088647,-0.15406106,-0.08130403,-0.038489755,-0.074688554,0.06444987,-0.18384577,0.17335355,0.08448404,0.033888187,0.057946987,-0.16378051,-0.08815793,0.118872076,-0.04831641,-0.113903746,-0.035383906,0.03731127,0.007827369,0.052759692,0.10588189,-0.02957676,0.028548256,-0.49004468,-0.1653656,0.13229905,0.13016671,-0.005296249,0.0657081,-0.11304599,0.05975762,-0.017865885,0.084085435,0.17629582,0.059500404,-0.021857904,-0.20035253,0.15167983,-0.29549375,0.24107926,-0.06593079,-0.006335426,-0.12874031,0.09567093,-0.061714295,-0.301952,-0.031285163,-0.01951501,-0.12000898,0.042220343,-0.0007330062,0.09971125,-0.10004903,0.0052816253,0.22934845,0.029907633,0.0406285,-0.08891624,0.2029012,0.30053005,-0.12331653,-0.030637262,-0.22954547,-0.037010245,-0.033272065,-0.008136904,-0.0024613347,0.077370055,0.012750887,0.1125487,0.0010331396,0.26484233,0.03122761,-0.12567018,-0.14528894,-0.36504844,-0.0674041,0.17240077
    , -0.050066575,-0.22844222,0.070987344,0.23741497,0.043051153,0.05691104,-0.063343056,0.08241916,-0.28330442,-0.16988857,-0.1848344,-0.22366777,0.094639495,0.15774296,0.06770866,0.13110913,0.045833413,-0.086766556,-0.10232284,-0.14078191,-0.06281217,-0.12094346,0.15791537,0.15686566,0.10775033,0.0093835825,0.08178256,0.25384748,-0.017356694,-0.16640462,0.021640778,0.0047059143,0.050546393,0.11216038,0.16677205,-0.36044493,-0.10610392,-0.28242806,-0.007203273,0.016312934,-0.008480626,-0.04019797,0.016692232,-0.13267098,-0.18037455,0.024639497,0.23521593,-0.03835813,-0.048385244,-0.04332204,-0.022329241,-0.17502187,-0.00852271,0.23245402,0.00053755444,-0.08334665,-0.04591953,0.25533804,0.10576793,0.080660835,-0.15973912,-0.032206096,0.058201402,0.09060025,0.032671973,0.060313623,0.07113776,0.08731049,-0.055588998,-0.24846493,0.116904244,-0.1023924,0.046778984,0.12149266,0.06644505,-0.038127545,0.020456387,0.035535786,-0.19941667,-0.0033711905,-0.112573735,0.11363364,-0.044746824,0.15246032,0.03306627,0.08641129,0.03516633,-0.08857095,-0.0886863,0.012809506,-0.17062579,-0.21763964,0.115988955,-0.12851532,0.062067345,0.13016488,0.26333672,0.05056067,0.09591144,0.32449758,0.08906283,0.041170813,-0.07280908,-0.1117239,0.1085624,0.062986016,-0.1361624,-0.056737028,0.10829562,-0.08203168,-0.03618443,0.1453955,0.069300026,0.16052926,-0.00846831,0.09898058,-0.21458258,-0.066707104,0.12282851,0.028393373
    , -0.11957276,-0.15204188,0.13699447,0.009997189,0.010504368,-0.0036207102,-0.00332204,0.12373815,-0.059521675,-0.20176524,0.15233588,-0.038455695,-0.05513454,-0.019526014,-0.12457099,0.011464535,-0.19912861,0.152693,0.058165483,-0.09699608,-0.044584233,0.17801456,0.13509178,0.10983477,0.10952437,-0.004620712,0.05214727,0.18197036,0.024208646,-0.05352925,-0.009158064,0.040316314,0.0383269,-0.026141597,-0.09294916,0.13074769,0.076737836,0.041452885,0.17821406,0.10344169,0.09636874,0.02486551,0.030910281,0.10136735,-0.11431827,-3.102279e-05,-0.040682737,0.039484005,0.1795774,0.12567726,-0.010656137,0.06676206,0.068011336,0.13863179,-0.07560107,-0.07083828,0.18611188,-0.061229464,-0.081887364,0.040355425,-0.057389587,0.015402036,0.032695558,0.10588855,0.10978333,0.13902539,0.097438194,-0.11459532,-0.4263869,-0.16739704,-0.057223417,-0.26258004,0.014403051,0.0640111,-0.22619021,0.036765546,0.09533075,0.07272362,0.0298145,-0.1691389,-0.07918813,-0.23128358,-0.11229918,-0.060198,0.18010896,-0.0003947501,-0.09634658,-0.12963225,-0.21134122,0.036528386,-0.100801215,-0.00044201917,0.1575434,-0.14038321,-0.092186294,0.0948713,-0.14341971,0.1420893,0.054420106,-0.020656416,-0.30337396,-0.11804572,-0.013361433,0.023554035,0.026111241,-0.014946778,-0.046974234,0.02531516,-0.16160701,0.091132425,-0.0989808,-0.045345098,0.20789456,0.07777564,-0.12565073,0.06374093,0.14841378,0.14023125,-0.0135703655,0.09893253
    , -0.07433954,0.029749263,-0.10737089,0.001073848,-0.07219281,0.09152844,0.20393735,-0.19412811,0.1473574,0.052791562,0.0069162166,-0.10539446,0.1263528,-0.05191473,-0.10428368,-0.12513742,0.052337915,-0.105950706,0.059841953,-0.11580954,0.0076737003,-0.28634092,0.011487448,0.14326796,-0.12180676,-0.102019705,-0.29439825,-0.043944724,-0.1426431,-0.036997043,0.14750874,0.2834138,0.113796026,0.10342099,0.08275067,-0.088112235,-0.19500288,-0.017882496,-0.21706958,-0.03664175,-0.20545642,-0.1173837,0.09209446,-0.09379248,0.20991616,-0.015734598,-0.035885062,0.12105164,-0.13956885,-0.059995208,0.018118003,-0.027939752,0.035653073,-0.04630937,-0.030338258,-0.24812514,-0.065847516,0.010561569,0.09925173,-0.11671765,0.09381478,-0.1581011,-0.0374338,-0.088651754,-0.17098802,-0.33958894,-0.21793687,-0.074826,0.2987358,0.14432453,0.055431794,0.0036875233,0.08822737,0.039172005,0.11852426,-0.009613385,0.04435013,-0.052469384,0.21122168,-0.14349313,-0.014144256,-0.028062379,0.21408978,0.10844861,0.16152705,0.09832975,0.100493416,0.11710247,0.111503236,0.02776375,-0.13905102,0.141977,0.064868994,0.20915638,-0.17931044,-0.27291635,0.09628154,-0.024822595,-0.032297276,-0.051885426,0.23402369,0.098009154,0.027142031,-0.051633433,0.028333262,0.22191218,-0.09446673,-0.21915886,0.3069895,0.057759095,0.044911806,-0.1476256,-0.12678623,0.06516067,-0.003401848,0.0811043,0.06700178,-0.018747238,-0.18092069,-0.16210845
    , -0.0684984,-0.20635337,0.06584497,-0.04487459,-0.071130306,0.12278967,-0.09976984,-0.13062225,0.13297273,0.062819794,0.08103729,0.006793722,-0.076887704,0.22240306,-0.04538972,0.02229231,-0.1824517,0.14143437,0.056219134,0.0680416,0.17408708,-0.039412994,-0.16442296,-0.017828407,0.04392818,-0.19857284,0.06500657,-0.1663832,-0.023651466,-0.0069165756,-0.14123052,0.11113021,-0.11140786,-0.130637,0.028847363,-0.047328603,0.13266994,0.10984484,-0.1070945,0.07360522,0.12308453,-0.085988455,-0.0095313955,0.11603014,0.101050794,-0.038354438,0.17806393,-0.0024777795,0.11587706,0.03410659,-0.13318506,-0.06814737,-0.06956372,0.072651096,-0.045485504,0.10433533,0.091834426,0.14908606,-0.12985499,-0.14421546,0.06378276,-0.017384628,0.10037972,-0.06423578,-0.0037792816,-0.06857341,0.1572944,0.053455416,-0.10921846,0.0018231419,-0.08789157,-0.041688398,-0.09537644,0.009261107,-0.10277618,-0.0068455483,-0.093025535,0.007903235,-0.09905914,-0.031393986,0.08348313,-0.03428369,-0.14426605,-0.16642958,0.13958114,0.048891086,0.04669145,-0.1130035,0.01972745,0.03563683,-0.005902567,0.031219544,-0.09777475,-0.051636003,-0.057944037,-0.01801346,0.1761392,0.13371716,-0.0095321825,-0.014369913,-0.11603992,0.1417634,-0.10813977,0.0033474006,0.1604573,-0.2062762,0.07707085,-0.09931615,-0.10230939,-0.14182743,-0.040518083,-0.11428581,0.13828048,0.088925295,-0.022313898,-0.078974016,0.08733616,-0.013102061,0.002495108,-0.008981265
    , -0.10373649,0.0876889,-0.14785989,0.041130155,-0.023695296,-0.21556403,0.13738164,-0.14203915,-0.34731,-0.16991544,-0.103980504,-0.29284924,0.00010927691,-0.15184677,-0.07897612,0.15890443,0.19288674,0.040292833,-0.049674112,-0.09370583,-0.05102695,-0.044736877,0.05002779,-0.20685056,-0.098085605,0.16164473,0.041621633,0.17935784,-0.18447489,-0.049884483,0.1990415,-0.28083518,0.13767803,0.014589806,-0.09535037,-0.07457152,0.2535007,-0.11375168,0.31689823,-0.1726025,-0.14079109,0.1477146,0.021845425,-0.11027915,-0.26381534,0.07235616,-0.13569753,-0.13302906,0.03351261,-0.04955546,-0.11354802,-0.036079485,-0.007557059,0.32839993,-0.07694716,-0.16659005,0.08930866,-0.10725346,0.08587598,-0.08830813,-0.018070402,-0.10823352,-0.2388897,0.034814812,0.15505134,-0.05226536,0.17729442,-0.26156643,0.3701765,-0.16497672,-0.060504433,-0.13959736,0.19949186,0.37305614,-0.10503,-0.43085214,0.31880727,-0.00044663457,-0.36098272,-0.09559006,-0.27914217,0.12634148,0.019321404,0.056855813,-0.11064836,0.2710617,-0.3228614,-0.0330114,-0.048012495,-0.035959307,-0.1106653,-0.037176702,0.13661674,-0.00068918307,0.054455254,0.15345654,0.092449315,-0.119441256,-0.12473649,0.2574439,0.25406206,0.061404075,0.039982613,-0.103158236,-0.36076593,0.0061602257,-0.038476914,0.21909519,-0.124473214,-0.1521208,0.08394788,-0.046579156,-0.32347,0.13212512,-0.09921179,0.040042352,0.033382397,-0.2324144,0.015203066,0.12775744
    , -0.057799052,0.26899648,-0.08691227,0.26487723,0.051562935,-0.09958787,-0.038064167,0.07003184,-0.1275615,-0.22765732,-0.09768215,-0.22994426,-0.13814038,0.08610846,-0.08883596,0.038800217,0.009126964,-0.08037464,0.107231185,0.0899625,-0.09098414,0.11545719,0.20905212,-0.006034633,-0.049071208,0.052752443,0.124473825,0.13047697,0.025652189,-0.093878195,0.24753244,-0.06001721,0.06115922,-0.05811342,0.040172968,0.020395111,-0.07131347,0.08558389,-0.14577045,0.16944851,0.00682844,0.039115585,-0.024522096,0.06859625,-0.20527752,0.22915661,-0.12060276,-0.019509446,-0.075248756,-0.1771428,-0.08313682,0.027601883,-0.04016793,0.16149527,-0.27432856,-0.22617726,0.25991395,0.15558314,0.06563172,0.07862088,-0.12272764,-0.014378389,-0.14671361,0.19492824,-0.05462774,0.042670235,-0.02432739,0.15131281,0.20097719,-0.08492591,-0.11364567,0.05499334,-0.07915395,0.1509489,-0.012268411,-0.23344506,0.18421154,-0.20984896,-0.042830255,0.07728503,0.13266686,0.1449605,0.30909827,-0.054026294,0.22146584,0.13265753,-0.01100919,-0.19369392,-0.04234809,-0.016424533,-0.057933763,-0.06916691,-0.13964398,0.0078022005,-0.11299983,-0.113890134,0.067611165,-0.071126215,0.029901553,0.08850062,0.16739845,0.19213064,-0.021859534,0.03338492,0.024464222,0.29005724,0.06994857,-0.29204834,0.14066909,-0.072118446,-0.0932985,0.0046925712,-0.24172892,-0.057735585,-0.057759274,-0.047556337,-0.105474666,-0.24019505,-0.101229645,0.07935847
    , 0.038431346,0.05668009,0.0032714347,-0.18107106,0.015828272,0.023134092,0.15574364,-0.13485314,0.09851037,0.04071394,0.03719764,0.051893424,0.17090963,-0.093411066,-0.015505106,-0.12642594,-0.13694258,0.041247994,-0.055011302,-0.046356052,0.25164306,0.00097432185,-0.12347364,0.12995005,-0.0734685,-0.16873558,-0.24370666,-0.13418902,-0.033701662,-0.077180825,-0.0063367467,0.03700122,-0.15356396,-0.097575635,-0.24833088,-0.038613684,-0.14458275,-0.0035177106,-0.063428976,-0.033415623,0.042291008,-0.11223572,-0.09758197,0.11939704,0.39285,-0.0679414,0.15889794,0.10980074,-0.07798609,0.031854022,-0.10411056,0.029586663,0.05942436,-0.14731131,-0.009312421,0.006489456,-0.3218819,-0.018898737,0.07120823,-0.009265903,0.053094845,0.046108577,-0.005695648,-0.11273036,-0.11390231,-0.07332064,-0.29485822,-0.08984135,0.014481216,-0.042650748,0.048371088,0.22095308,-0.030611178,-0.08155728,0.11232363,0.17913303,-0.2172373,-0.12960418,0.07523513,-0.054011866,-0.106198475,0.021404147,0.08691439,0.11222992,0.004451678,0.077031605,-0.08964334,0.10319645,-0.061318707,-0.13499981,-0.20658918,0.1733475,-0.10948147,0.078128524,-0.09942072,-0.26638317,0.093728304,0.14411014,-0.10419088,-0.13820538,0.10622021,0.0400658,0.029062998,-0.10791959,-0.042105343,-0.09938992,-0.06671203,-0.029045383,-0.00013980363,-0.14923401,-0.022268612,-0.012058898,0.0961303,0.11616765,-0.06969217,0.050342623,0.14071658,-0.07418446,0.045373708,-0.09089665
    , 0.006881673,-0.057101108,-0.0023138209,-0.014390743,0.016829822,-0.0016626492,0.17107463,-0.136404,0.021715557,0.033744864,0.18892932,0.021383924,0.022248298,0.09055399,0.00017992855,-0.1434938,-0.21686634,0.0416733,0.13027361,0.09957644,0.07328546,-0.12559617,0.062429853,0.13824208,0.038542036,0.06838973,-0.19751969,0.1003244,-0.0076562758,0.12983268,0.031398095,0.09265582,0.072550155,0.12927635,0.00095565803,-0.08093499,-0.18333977,0.06045613,0.0064774333,0.05938589,-0.102974944,-0.14865732,0.086973295,0.069512635,0.08801643,-0.10005905,0.011836166,0.10819115,-0.13182488,0.05988371,-0.0126601765,-0.088015914,-0.046982184,-0.017478082,0.19894156,-0.13640754,0.005507761,-0.13969612,-0.14799137,0.034032788,0.06615065,0.072344415,-0.1123727,-0.08178454,0.047183704,-0.10585627,-0.16755195,-0.014494364,0.21189989,0.19357055,0.08509319,-0.022927936,0.15467286,-0.06271408,-0.08057549,-0.13451058,0.15491128,0.0083973175,0.093997896,-0.15836328,-0.031405266,-0.055642724,0.22260292,0.20339338,0.18264657,-0.04420768,-0.14620548,0.08767173,-0.123841114,-0.048874613,0.021040082,0.029347857,-0.016905883,0.06640829,-0.16588806,-0.18736275,-0.1497444,0.00094885053,0.019383883,0.026611779,0.11661763,0.028142326,0.012033073,0.04354392,-0.043933623,0.16107313,-0.07483218,-0.05987558,0.02889923,-0.119752824,-0.10306476,-0.051908787,-0.036621004,0.061430156,0.068790816,0.10175557,0.07465436,-0.09367627,-0.1769323,-0.041341964
    , 0.088621326,0.04337347,0.03932596,0.09395942,-0.09283306,-0.20911945,0.2879066,0.3958834,-0.19086865,-0.030738905,0.007504314,0.08272178,-0.04536528,-0.28213495,-0.10055968,-0.0007691426,0.20605122,0.08680305,-0.039517045,0.0153835565,-0.0667991,-0.07623078,0.0852992,0.0084870495,0.06545035,0.11235666,-0.016656553,-0.018501662,-0.057079837,0.080104,0.10854375,0.021011865,-0.029374823,-0.0822059,0.1349126,0.05492025,0.02299735,0.048770595,-0.026391875,-0.13035887,0.008648504,0.1174258,-0.12635505,0.053603105,-0.36822343,0.06993578,-0.21448109,0.09600374,0.052547216,0.21000575,-0.10605551,0.2235773,0.03760494,-0.08879706,0.09424404,0.03913393,-0.145478,-0.11051716,0.20126949,0.021774555,-0.19156487,-0.14442308,-0.0075888904,-0.05363141,0.17956358,0.10448206,0.2375199,-0.04235062,-0.29121903,-0.07369499,-0.14168115,-0.27131262,0.18896616,0.13359158,-0.09889019,-0.044689,-0.051503997,0.059818465,0.0185553,-0.055669725,-0.026638594,-0.049102094,-0.19067788,0.16717768,-0.12110926,0.10157811,-0.009880194,0.067693755,-0.06530604,-0.028897088,-0.055578034,0.13654433,0.008851019,-0.037756987,0.049024478,-0.069236815,-0.22364354,0.1329533,0.09093198,0.10845958,-0.24897572,-0.19705272,-0.08091882,0.08022252,-0.0038284885,0.063404076,0.017617475,0.061776128,-0.33748898,-0.093878604,-0.13471751,-0.060562953,-0.06465358,0.028739925,-0.007202674,0.028531777,0.18703869,-0.09781262,0.002919597,-0.08966466
    , -0.19953632,0.109065115,-0.016241916,0.29075107,0.1634503,0.048033282,0.03593664,-0.32150915,-0.056379505,-0.18335842,-0.036111154,-0.2716491,0.12824586,-0.311718,0.027966842,0.024878334,-0.12246335,-0.043945573,-0.40266377,0.0833585,-0.056935925,-0.08304565,-0.099786885,0.08246612,0.05834013,-0.17473868,0.12212652,-0.113395244,-0.16739108,-0.4205453,0.3439645,0.117921725,0.10288765,0.11517325,-0.008305729,-0.23741937,-0.095081925,-0.036575068,0.11472551,-0.16550414,-0.00032689475,-0.0049351086,-0.06390361,-0.13054754,-0.022309294,-0.05032804,-0.11641007,-0.12165768,-0.1981684,-0.051974926,-0.07558971,-0.3897013,0.11688556,0.058592804,-0.07700935,-0.3844844,0.046550654,0.3245432,0.089303516,-0.16015984,-0.33167192,-0.023177518,-0.112354994,0.20786731,-0.08749965,0.16526228,0.16718417,-0.4265627,0.28066647,0.009378928,-0.12735061,-0.16572672,0.04219231,0.20745996,-0.12615752,0.17475355,0.014594389,0.012598488,-0.22883339,-0.18338056,-0.12406401,0.15003625,0.11382081,0.08724226,0.3325563,-0.10568024,0.15872855,-0.17230424,0.10150054,-0.039393462,-0.20401293,-0.060421962,-0.1009483,0.08196686,-0.060476437,-0.0077625825,0.11974355,0.048642192,0.11481462,0.2771292,0.18287256,0.1454088,-0.13185807,0.0072581894,-0.055338237,0.13805671,-0.076550566,0.017497422,0.14026402,-0.13449097,-0.019030644,-0.33751345,-0.27992922,0.025311168,-0.1321158,0.04811806,0.014150729,0.12385822,-0.12711085,0.03606884
    , 0.09621378,0.19010442,-0.13226752,0.06394217,-0.13337857,-0.3875869,0.03316079,0.11144272,-0.3800715,-0.11162687,0.029718928,0.087522686,-0.012467177,-0.13299009,-0.020699611,0.047645643,-0.046882898,0.06940836,-0.1870183,-0.07870099,-0.11126277,0.016090037,0.10650308,-0.06650587,0.01156062,0.3464631,0.021394495,0.05938024,-0.16607451,-0.034297146,0.23659858,-0.12584327,-0.082517795,-0.113422215,0.04893825,-0.015363101,0.24194376,-0.12928204,0.07831303,-0.01968081,-0.20827001,-0.12878959,-0.05551871,0.14087182,-0.3663779,0.005977152,-0.16768986,0.12848796,0.14347658,0.030292818,-0.09426491,0.07992487,-0.0032959974,0.13624974,-0.15211688,0.0068791085,0.25392044,-0.39957538,-0.0031196806,-0.10746072,0.021772848,-0.2609249,0.023264816,-0.040334757,0.31017005,-0.23893823,0.1464269,0.1658928,-0.27019486,-0.14736725,-0.042082347,-0.06530808,0.09752611,0.21401142,-0.038704224,-0.08249813,0.19775112,0.0010219492,0.038689625,0.19015637,-0.09994475,0.16174008,-0.111841604,-0.042269535,-0.053024027,-0.050834563,-0.18461983,-0.17378819,0.12019482,0.012866865,-0.14409825,0.044505786,0.06790113,0.21352501,-0.004034942,0.07900805,-0.28220892,0.0584019,0.06504811,0.04416743,-0.06560461,-0.36680496,-0.091540016,-0.19817394,-0.051022504,-0.042932108,-0.0330031,-0.23553714,-0.4241809,0.020962695,0.0019172281,-0.0536527,-0.074666195,-0.097142845,-0.030073227,0.07077152,0.06043242,-0.19569927,0.17941971,0.29957727
    , -0.006718386,-0.09499144,-0.053333536,0.06172959,-0.12431761,-0.012591187,-0.04591699,-0.1517047,0.019394485,-0.011147661,-0.07389516,-0.034224384,-0.028454697,-0.27191114,-0.118743904,-0.030748872,0.17072153,0.032289837,-0.096525416,-0.045498565,0.0075225574,0.18522702,-0.06164328,-0.12147849,0.00065836665,0.17609826,-0.091226935,0.06922216,-0.078042276,-0.09681795,0.017407956,-0.07660584,0.17284563,-0.044226423,-0.047100965,-0.045058917,-0.10939592,-0.016074726,0.19288473,0.11822247,0.12517034,-0.06424803,-0.07015027,-0.010114642,-0.2544999,-0.07688156,-0.06260563,0.06313125,-0.06521466,-0.15689513,-0.17829604,0.055886634,-0.12261036,0.12150975,0.047601834,-0.21459475,0.06685233,-0.17821409,0.12851208,0.09199358,-0.12392116,-0.006152548,-0.10125063,0.19156753,-0.031207398,0.006871401,-0.10135343,-0.12706503,0.20039432,-0.041703906,0.045408934,-0.2161557,0.16089982,0.021244943,-0.14294998,-0.06302111,-0.09682573,-0.14162189,-0.07194328,-0.25149348,-0.005455188,0.16795158,0.02110247,-0.1723184,0.18573853,0.050479386,0.00058553804,-0.16021058,0.12355976,-0.16436175,0.06545163,-0.06780705,-0.02316135,0.00974039,0.020590128,-0.044403072,-0.1337266,-0.0009815593,0.06752098,-0.028239574,-0.0065244082,-0.097147636,0.0386936,0.08274823,0.120634794,0.027941257,0.04172334,-0.17316921,0.08454474,0.046352267,-0.10697718,-0.0635893,0.1421881,-0.22525978,-0.0071636187,-0.036514618,0.10311878,0.08982469,-0.0016851258,-0.19612706
    , 0.07126823,-0.041262176,-0.072174475,-0.1293776,-0.0032294004,0.12935573,0.21239744,0.11107329,0.06968998,0.15770543,0.04780636,0.15277347,-0.054653108,0.06201051,-0.1560854,0.07511488,-0.06581752,0.24155475,-0.11854389,-0.077297166,-0.052306406,-0.08815331,-0.1274766,-0.13519958,-0.01873816,-0.17598738,-0.00818113,0.088468954,0.003460209,-0.17154677,0.07097885,-0.09837619,0.098516546,-0.08446378,-0.013806777,0.18367386,0.18746288,0.094315976,0.054482076,0.03770963,0.1462615,-0.010879968,0.054800734,0.08741519,-0.08552588,-0.047363963,-0.12578644,-0.09008667,0.04029373,-0.046895392,0.019475706,0.028143601,-0.09903135,0.06963262,-0.002018149,0.021779124,-0.024266986,0.09039637,0.04560527,0.036227513,-0.015830057,-0.03251233,0.0768483,-0.06628512,-0.0006487681,0.16297323,-0.012505462,-0.07014941,-0.08483291,0.057611637,-0.18027472,0.03802269,-0.10348208,0.13167214,0.043183256,-0.10074246,0.0011266589,-0.013582448,-0.014791446,0.0037869434,0.19773506,0.10369183,-0.059470512,0.15274292,0.017526135,-0.02972993,0.011759334,0.08168848,-0.09841921,0.060365826,-0.051655855,0.095914125,0.00045919055,-0.046993006,0.061705,-0.106546246,0.10025709,0.14967445,0.10437512,0.10031073,-0.003485115,-0.036063932,0.06495135,0.14112705,0.064215496,-0.10942198,-0.094421245,0.22207096,-0.18972825,-0.04745654,-0.13860255,-0.1308526,0.04401418,0.015923494,0.003505858,-0.012001849,0.029317057,0.026899794,0.03649334,0.075608045
    , 0.25612855,-0.11003377,0.31671223,0.08292812,0.13485645,0.18280305,-0.13258173,0.16487055,-0.013067673,-0.027045602,-0.057639893,0.04328686,0.021753592,0.07649287,-0.09262305,-0.17675142,0.025253799,0.026296588,0.14334652,-0.011304892,-0.052458823,-0.24894755,-0.050007436,-0.17853908,-0.006955633,-0.2684195,-0.093972646,-0.27742687,0.22908476,0.04655018,-0.16575271,0.049691584,-0.05660579,0.0748554,0.20254578,-0.022847254,-0.15739171,-0.27438328,-0.26839137,0.094198115,-0.12853052,0.118231885,-0.16432105,-0.23144229,0.0057102223,0.24583939,0.043961894,0.1662653,-0.14835,-0.110843845,-0.1047891,0.006413057,0.06333914,-0.02221783,0.105731934,0.030306272,0.054115217,-0.002044963,-0.12701192,0.085490294,-0.031123132,0.004683544,0.047309168,0.038190123,-0.17972462,-0.01492669,-0.037513476,-0.05163959,0.11892555,-0.097809404,0.08827681,0.05090758,-0.40034163,-0.10603089,0.10392885,0.121193394,-0.38576305,-0.17118932,-0.0054443018,0.31399813,-0.15972772,-0.18131308,-0.030844433,-0.046193633,0.1339989,-0.014726472,0.27686927,-0.010831402,0.23384698,0.026617171,0.13119136,-0.12090084,-0.28678864,-0.19638024,-0.010457721,0.0035979555,0.040191244,-0.13223206,0.03416297,-0.27760074,0.024088819,0.2737941,0.05023182,0.007915462,0.19158834,0.12993553,0.02527442,0.1767951,0.1431123,-0.124696374,0.09288301,0.03982906,-0.031160053,-0.014585288,-0.080366135,-0.13501118,-0.13879621,-0.12379366,-0.17382349,-0.18115596
    , 0.05618238,-0.014079811,0.09383938,0.03422917,0.096244484,0.014193987,0.11196095,0.41413432,-0.20657921,0.17271112,-0.055987757,0.10190383,-0.01949729,-0.121255904,-0.03965335,-0.010959196,0.060323343,-0.11901043,0.15273401,0.037429757,0.15304008,0.061773233,0.043724526,-0.06943547,-0.01373664,0.120434806,0.2401677,-0.042098265,-0.090229526,-0.1259545,0.014550319,0.07724516,-0.017378462,0.13028866,0.0349633,0.18856923,0.20508203,-0.21272612,-0.006086293,-0.018782303,0.009391358,0.14323011,0.06374962,0.09779283,-0.22393566,-0.008543664,-0.07927605,0.12470348,0.098983236,-0.05791827,0.06922199,0.0327793,-0.056942698,-0.13382213,-0.041369505,0.08860864,0.09050189,0.063655995,-0.16448723,-0.06294875,-0.13321811,-0.12301702,0.13826957,-0.047161877,0.058996253,-0.1729996,-0.025025852,-0.034205474,-0.34036127,-0.21004465,-0.031311687,-0.33327395,0.073223285,0.11036784,-0.18651909,-0.074291594,-0.18657885,0.00052403985,-0.09136199,0.21137543,0.181425,-0.26194784,-0.102366336,-0.040402405,0.0046553835,-0.1276796,0.05771955,0.035011884,-0.039510384,-0.052099228,0.1441156,0.030949017,0.13088694,0.0781647,-0.006274212,0.07422185,0.016193848,-0.12376872,0.01421472,0.090739995,-0.19720799,-0.065228246,-0.035841443,-0.032319,0.15707037,0.064762674,-0.02277177,0.15702826,-0.11868098,-0.059891615,-0.047814835,0.079248525,-0.114490665,-0.08526784,0.057040878,-0.0015639436,0.01198759,0.10947569,0.18921219,0.101141825
    , 0.026618171,0.11654427,-0.015537033,0.044558346,0.08204854,0.1827076,-0.14267467,-0.08247981,0.075396925,0.012683211,-0.2358788,0.0885431,-0.0042669065,-0.044843998,0.0515218,0.01956924,-0.09591679,-0.15289508,0.2109327,-0.11811152,0.018135123,-0.24765265,0.057860855,-0.19707203,0.008394511,0.032846887,-0.24454823,-0.13620336,0.1052844,-0.14616102,0.08375914,0.010185056,-0.2377912,-0.13659666,-0.019755408,-0.19339101,-0.061197724,-0.049001515,0.06485746,0.14376302,-0.19961776,0.019382143,-0.119666964,-0.05792661,0.01627804,-0.014969109,0.012962754,0.006637826,-0.04409278,-0.13622463,-0.12386952,-0.0540604,-0.008067014,-0.11224812,0.049216144,0.12414257,-0.12737928,0.02216332,0.12057288,-0.00541477,-0.13816984,-0.050554898,0.11375712,0.03837703,-0.10604011,-0.21083304,-0.036454268,0.14120854,0.10247872,0.16180708,-0.07726528,0.2173347,0.07797854,-0.27557713,0.22191338,0.05492734,-0.3428764,-0.0026710138,0.042292487,0.1106321,-0.06848494,0.17764801,0.15153079,-0.028819412,0.17899153,0.035170667,0.07975479,-0.04174466,0.0052979253,-0.116785996,0.045305036,-0.025364961,-0.15897325,-0.03129775,0.061697014,-0.068906985,0.02434258,-0.05134414,0.06865656,-0.35843742,0.016831743,0.1008124,0.014944531,0.035985824,-0.06368612,0.16516781,-0.07412715,-0.10713392,0.20751044,-0.06105267,-0.04121171,0.18659694,-0.19588786,-0.06429458,0.00085056626,-0.09532997,-0.021793636,-0.014064854,-0.08135625,-0.036798503
    , -0.25867525,0.093934044,-0.25267547,-0.0056780954,-0.10542504,-0.12361229,0.19063878,0.026261348,-0.06132945,0.068695694,0.0761897,-0.017263543,0.042886615,0.10681367,0.08894951,0.19777398,-0.0076180953,-0.0026512966,-0.0484308,-0.1416583,0.0007965282,0.050846398,0.11247023,-0.2032914,-0.052537836,0.18820043,0.11087939,-0.017207725,-0.038460158,-0.19409677,0.04288428,-0.21067742,0.0061334176,-0.15327452,0.018956363,-0.0903313,0.25980747,-0.1518404,0.07213247,0.1349795,-0.03389659,-0.12813157,-0.050857753,-0.05203628,0.024872385,-0.0134711405,0.06815886,-0.07499109,0.02997178,0.045930207,0.04864286,0.027228966,-0.011769036,0.13682528,-0.13737936,0.15164965,-0.0048818504,0.10911292,0.03683855,-0.1351031,0.08863752,0.050322063,-0.13786393,0.013235378,0.21418966,-0.23577921,0.0050136936,0.0033567841,0.010152121,0.05425551,-0.067159735,0.15105031,0.059442777,0.044865828,0.055849347,-0.042114157,0.19734754,-0.0605178,0.012849649,-0.0927297,-0.045774028,0.19152464,-0.15407504,0.1702217,-0.3367949,-0.0027571835,-0.2665942,-0.06963203,-0.08805196,-0.007842621,-0.008685399,0.24788184,0.000666182,0.06587064,-0.11378344,0.081724524,0.19015478,-0.13883741,-0.065249264,0.19117334,0.11836515,0.18700276,-0.09603067,-0.23532332,-0.35131958,0.08108624,-0.094850354,0.071607895,-0.011059874,-0.039410602,0.08111653,0.041193422,0.07307435,0.17248717,0.02599914,0.010923339,-0.012150388,-0.15822369,-0.027287032,0.28511354
    , 0.015064245,0.059853565,0.118617065,0.08790666,0.035170935,0.101063095,-0.112100974,-0.08872371,-0.094251245,-0.2342377,0.07959283,0.10416397,-0.10248835,-0.02817684,-0.017189581,-0.053855855,-0.15381102,-0.1567285,0.030744787,-0.068807214,0.06441495,0.1516967,0.09855767,0.20401372,-0.04971424,0.03493792,0.039945155,0.091842644,-0.11352102,0.007894193,0.06734124,-0.030983558,0.17813773,-0.10015968,-0.053213753,-0.11429061,-0.10050402,0.042677388,-3.0443734e-05,0.16413875,0.185594,-0.09013669,-0.12928945,0.11782132,-0.08105619,0.0025806876,0.034608018,0.18709882,-0.007327584,0.20632176,0.024637839,-0.010267384,-0.05171179,0.019252216,-0.06063803,-0.13418981,0.02240797,0.047855258,0.059630588,-0.062175944,-0.1352942,-0.12566471,-0.13023679,-0.07936868,0.20502862,-0.005933397,-0.13779108,-0.15220022,-0.16249523,0.09121021,-0.1046581,0.023739167,0.1620035,0.22700052,-0.07733459,0.115443654,0.06007601,-0.06307927,-0.070090845,0.014984852,-0.009922964,-0.033762135,0.108163975,0.016176797,0.34414285,-0.11440138,-0.024863696,0.07536165,-0.13810946,0.04406575,0.043404732,-0.1785049,0.1137509,-0.023561174,0.10206913,0.0977054,0.024844179,0.00039749968,0.024373844,0.12656209,-0.0048579783,0.040695332,-0.12900913,0.04523183,0.13443112,0.14465387,-0.120560914,-0.013464714,-0.026727201,-0.11093447,0.038154364,-0.1602753,0.11374923,0.015335818,0.08568454,0.031635363,0.13941255,0.114531934,-0.0022646538,0.06291589
    , -0.15755989,0.12777871,0.08136171,0.06571525,0.1105182,0.22428691,0.053268198,-0.07655432,0.043216065,0.13561743,-0.0673655,0.10950215,-0.019936481,-0.033784542,0.062333655,-0.18858127,0.036806367,-0.094737664,0.15395589,-0.12139393,-0.047459688,-0.17476538,-0.11030261,0.18175285,-0.021956878,0.00032114552,-0.18198837,-0.12706795,0.013637009,-0.019615915,-0.06695208,0.2707272,0.031003041,-0.09330441,-0.088528655,-0.08403662,-0.17739889,0.1514186,-0.12300815,-0.24473004,0.0441206,0.040462907,-0.15698875,-0.009861951,0.0047074975,0.008649065,-0.18394764,-0.1563163,-0.14799565,0.032737475,-0.1756063,0.012886714,0.06495876,-0.15626834,-0.040527996,-0.22139487,-0.08108421,-0.15139826,0.2066092,-0.07050911,-0.12017991,0.033740398,-0.18312356,-0.14933234,-0.0797068,-0.097435564,-0.16410509,-0.12538266,0.25257954,-0.0324101,-0.033382867,0.07855489,-0.03428909,-0.109847955,0.17498451,0.0011991834,-0.2898395,0.02489369,0.09917849,-0.014444318,0.026937447,0.03634302,0.16737998,0.05656288,0.17200789,-0.021610435,0.1426689,0.008982766,0.15358363,-0.14676619,-0.09848905,-0.09057567,0.021969518,0.13801229,-0.15435182,0.013819884,-0.18014185,0.14938767,0.0006545936,-0.33629918,0.11644226,0.11778179,-0.019889604,-0.016219055,0.029557485,0.075316474,-0.06088604,-0.2005743,0.18695179,-0.04467971,-0.092284605,-0.13071223,-0.072722845,0.016346753,-0.091171645,-0.10891807,-0.18415263,0.013264062,-0.077377856,-0.27663177
    , 0.19514087,-0.026380774,0.16482297,-0.1261736,0.11536841,0.13709877,-0.066721715,0.19842204,-0.015142447,0.17551057,0.06838948,0.024657926,-0.06887693,-0.141973,0.052712485,-0.06666264,-0.12096772,0.15716809,0.07108185,0.011713106,0.08611393,0.06311739,0.042878896,-0.01242286,0.05056068,0.095240794,0.07274486,-0.044401255,0.08560952,-0.0009640242,0.014286699,-0.03645228,-0.19733804,-0.15113813,-0.002357079,0.074246384,0.101410046,-0.13439043,0.011094919,-0.0735477,0.1808301,0.032195877,-0.09763108,0.068856195,-0.0883141,0.12788852,-0.017756391,0.055110566,0.18887435,-0.06713201,0.022852145,0.083536506,-0.121431194,-0.068643376,0.07120656,0.048119087,-0.056750588,0.032656707,-0.05628301,-0.114866674,-0.02222267,0.035185646,0.03280754,-0.13519764,-0.14417887,0.114143044,-0.017339155,-0.032302726,-0.100918524,-0.050472464,-0.14215288,-0.1273393,-0.052743707,-0.048028484,-0.0007242102,0.07203063,-0.10587278,-0.11046467,-0.0046728957,-0.00027976185,0.214098,-0.12959047,-0.17613235,-0.11795674,0.03361542,-0.11147654,0.009842542,-0.096781135,-0.16121495,0.004156462,0.105726875,0.20269094,0.07621228,-0.12522961,-0.09445959,-0.11782795,-0.22322652,-0.07570461,0.012635579,-0.015172375,0.03764805,0.00386303,-0.009022145,0.038006164,-0.022055093,0.004918642,-0.15831521,0.02200796,-0.19785415,-0.12144348,-0.10243629,-0.008483446,0.13417281,-0.18819395,-0.07779111,-0.07890873,-0.04312689,0.01681536,0.22170632,0.13841105
    , -0.16024856,0.33207995,-0.24433698,0.18582194,-0.10602002,0.010639068,0.20816451,-0.15766256,-0.19763905,-0.22392318,0.03977269,-0.016269132,0.01786242,0.024483858,0.05703757,0.1111864,0.1284613,-0.08692849,-0.058130544,0.032283794,-0.026927346,-0.069128156,0.25975975,0.12682766,-0.10298658,0.16709422,0.15445231,0.23068024,-0.057783574,0.10286926,0.30382225,-0.00756697,0.04194646,0.12134969,0.020165319,-0.037166283,-0.066873305,0.09097951,-0.08910242,-0.15247108,-0.20522945,-0.15888086,-0.039552253,-0.061281342,0.05849861,-0.02239002,-0.17827642,-0.040187437,-0.21726379,0.115359895,-0.118196994,0.031783834,0.0027903991,0.21212254,-0.25445893,-0.30343652,-0.09161977,0.05931497,0.26405582,-0.077448115,0.23669794,-0.2458705,-0.09747754,-0.02477251,0.104547665,-0.30599123,0.034234464,-0.12725171,0.23636283,0.07782023,-0.035073787,-0.09505298,0.18547459,0.22261772,-0.01646881,0.082672715,0.09485512,-0.012433373,0.0893116,0.068989486,-0.08142741,0.23910674,0.12910056,0.269552,-0.13771226,-0.041899476,-0.39040506,0.034988105,-0.15175626,0.0037319863,-0.42763653,-0.0706968,0.08053445,0.034572944,0.0061528585,-0.003096785,0.25095582,-0.04214349,-0.117170095,0.11541182,0.1588013,0.1265105,-0.08367073,-0.2621373,-0.029669788,0.09969671,-0.09852386,-0.1483963,-0.011542473,-0.15318212,-0.15256684,-0.22086655,-0.22379208,0.014046616,0.003936167,-0.07067812,0.15235266,-0.3484445,-0.26711917,0.03971441
    , -0.19543761,-0.10539527,0.029407352,0.1920641,-0.03380734,-0.066194996,0.06309768,-0.010937298,0.15537483,-0.027223183,-0.11949978,-0.06978107,-0.23731454,0.11386059,0.086813755,0.058366135,-0.1613104,-0.06139747,-0.067696676,-0.11673067,-0.09247995,-0.20764162,0.00905815,-0.031698238,-0.04932757,-0.094428815,0.101301886,-0.24914686,-0.037374794,0.06623389,0.098180056,0.3120838,0.071084894,-0.07153624,-0.11727205,0.09419821,-0.23169535,0.020746894,-0.16392322,-0.040319394,-0.15962514,0.22747374,-0.10428762,-0.028826304,0.2333902,0.252903,0.0978622,-0.14486896,0.011681495,-0.35201824,-0.13055989,-0.085840315,0.013665286,0.13716029,-0.1311179,-0.07699285,0.026970727,-0.08768754,-0.053886652,-0.15475406,0.08192705,0.055601954,-0.15942217,0.100379795,0.0020520638,0.12430391,-0.071977116,-0.07441755,0.20432374,0.19491152,0.11829072,0.016598927,0.16916993,0.16375151,0.15037914,-0.104627624,0.13164465,-0.099081926,0.10265733,-0.18619874,-0.015529637,0.2643811,0.19458877,-0.1055898,0.1606833,-0.098927796,0.084408544,0.110055424,0.18535869,-0.011837707,-0.06759432,-0.060244624,0.055847913,0.12000941,-0.056855235,-0.091445245,-0.046484992,-0.021614932,-0.057998676,-0.06715324,0.15825206,-0.07698826,-0.022676516,0.08524156,0.060781658,0.17862898,-0.07041159,0.050591756,0.28910482,0.06889578,-0.052898202,-0.04879988,-0.032569118,-0.012498419,0.07727127,0.0685504,-0.06891591,-0.07642205,-0.10118764,-0.023486657
    , 0.009822197,-0.075464174,0.099326834,0.118763775,-0.052413784,0.043670237,0.10192435,0.008681927,0.148511,0.16279815,-0.16035561,0.26100862,-0.014339248,-0.17843743,-0.10974118,-0.118246496,0.008535278,0.07691576,-0.20629528,0.03926248,-0.12421821,-0.028678777,0.07999245,0.19255015,-0.10117,-0.11764976,-0.2809071,-0.06327871,0.13792324,0.14951512,-0.08088771,0.019522177,-0.12509711,-0.11349657,-0.13510011,0.034836415,-0.09565749,-0.023485316,-0.08863633,-0.12975179,0.16015203,0.15051372,0.020454489,0.034566212,-0.1918599,-0.018426254,0.07927045,-0.030063681,-0.029072965,0.054917872,-0.041008584,0.13555941,-0.09833799,-0.14324239,0.21057466,-0.073543325,-0.2652954,0.01981936,0.029607002,-0.0015871946,-0.06548518,-0.039917007,-0.11170429,-0.11934241,-0.2159417,-0.0778341,-0.065395854,0.08711483,-0.0019054617,-0.15410176,0.06971877,0.18604678,-0.067290574,-0.16015558,0.059422683,0.250518,-0.41960013,0.02006742,0.084001414,-0.014047319,0.02633464,-0.15940158,-0.09495975,0.0910015,0.0007967173,-0.05977017,0.20309107,0.1679059,-0.032046866,0.092086785,-0.17299399,-0.0580744,-0.030053899,-0.07046004,0.035011906,-0.0748253,0.10628041,0.16465525,-0.0006301047,-0.42265108,0.0074473866,0.01585457,-0.14217123,0.06846854,0.22082579,-0.04291683,0.07331088,-0.07695896,0.06729626,0.054267455,-0.101538084,0.04244635,0.09732966,-0.08726795,-0.020226635,0.0061430163,0.067425795,-0.06374752,0.054345123,-0.20756802
    , -0.018178038,0.0002328328,0.037025925,0.08684045,0.030964594,0.05324992,0.031764947,0.002897196,-0.047857016,0.033488147,-0.12669042,0.18227337,0.039130412,-0.04419905,-0.12321214,-0.027649866,-0.07104509,-0.08894938,-0.01246598,-0.11423282,-0.16229592,0.04832772,0.1082042,0.10070601,-0.021632899,0.07961106,-0.034521233,-0.057354357,0.09148157,-0.040577017,0.0051461244,0.18360995,-0.09243718,-0.12800382,0.015002371,0.0012153422,0.009975323,-0.053139366,0.039819583,0.056902718,-0.120333925,-0.010258363,0.048889555,-0.11845104,-0.3144048,0.15081431,-0.08344696,0.036793094,-0.09731475,-0.097214736,0.0702163,0.13684799,-0.02923996,-0.14281456,0.015341452,0.07947697,0.052866448,-0.049106035,-0.07595459,0.06639962,-0.06602016,-0.111431666,-0.014165459,-0.061270498,-0.21199158,-0.010731817,-0.18318555,0.082085654,0.045792166,-0.15827747,-0.16227834,0.059931632,-0.00926301,-0.01883132,0.14650033,0.14305338,-0.13974778,-0.048265826,0.20008087,0.13101964,0.042194705,0.1671951,0.1330443,-0.09522504,-0.11325896,-0.17055227,0.11615698,0.059226908,0.095422596,-0.15486112,-0.11445884,-0.051040173,-0.05257725,-0.11259841,-0.12541877,0.08740246,0.0850885,-0.0072933277,-0.07064517,-0.27877244,-0.12703925,0.06999335,0.020176254,0.04101937,0.18097645,0.116646886,-0.100435205,-0.045260765,0.058914106,-0.15412703,0.02751053,0.16604449,0.043679632,-0.047156174,0.024725659,-0.051078323,-0.12703368,-0.123556495,0.056715045,0.023490055
    , 0.053347778,-0.0892526,-0.104183555,0.028839415,-0.07200452,-0.21212469,0.11610233,-0.09078598,-0.29300022,-0.22699511,-0.0107386215,-0.20904253,-0.05943172,-0.36131927,0.11040755,0.08509028,-0.08441995,0.15130252,0.027877253,-0.10338256,-0.1005672,0.06317856,0.1413335,-0.1557685,-0.12538694,0.16925818,0.07001606,0.28977537,-0.251398,0.056059547,0.053942017,-0.21019782,0.16800037,-0.081383355,-0.09558709,-0.011497131,0.1751978,0.0886895,0.26233205,0.054448962,-0.1660205,-0.16713354,-0.07630031,0.02510563,-0.43086204,0.014456111,-0.14974312,-0.07027034,0.19133036,0.1923875,-0.11172366,-0.08805986,0.039069485,0.1596797,-0.2280731,-0.36685503,0.2832008,-0.14578408,0.22486953,-0.03834273,-0.14854641,-0.22088662,-0.20838812,-0.0418257,0.115369864,-0.043232504,0.09249759,-0.15958302,0.026748432,-0.32651854,-0.10951049,-0.37411073,0.38084716,0.18099323,-0.03406168,-0.24709333,0.09573475,-0.09329634,-0.15023668,0.1237643,-0.14847428,0.27482983,-0.022218533,0.026035903,-0.06565406,0.17703234,-0.42739773,-0.31515074,-0.005405994,0.103413925,-0.20509098,0.029242232,-0.1424391,0.11367673,-0.05515543,0.09415846,-0.25215432,0.08007392,-0.03283634,0.04716246,0.122969955,0.02420692,0.08625277,-0.19832058,-0.014546222,0.034619007,-0.056414064,0.09152281,-0.17226647,-0.027754584,-0.084237926,-0.059443302,-0.3372885,-0.11237131,0.06952671,0.048986707,-0.036668755,0.05041528,-0.02792355,-0.026149282
    , 0.13716656,0.027329745,-0.07477883,0.017447982,0.10276025,-0.12891234,-0.08908132,-0.0940845,0.013553304,-0.08205888,-0.045489486,-0.1307796,0.16136089,-0.014767098,0.05029364,0.013232313,0.022683347,-0.23321262,-0.10645614,-0.12232848,0.24937794,-0.06408972,0.08737766,-0.030769581,-0.11874029,-0.03655318,-0.007897266,-0.23362033,0.16350748,-0.19569221,-0.03977565,0.00080293353,0.13664192,-0.069927506,0.03575362,-0.3714631,0.008976824,-0.20448136,0.035799097,0.10877018,0.011949244,-0.16786906,-0.14193197,0.12875332,-0.121732585,0.16538279,0.09169952,-0.05525465,-0.09469763,0.22287439,-0.112652235,-0.19434449,0.018813374,-0.13679801,-0.15768416,0.090801336,0.0138752945,0.2296006,-0.112064876,0.06299351,-0.27275175,0.041832346,0.13074929,-0.11315534,0.17093982,-0.1467221,-0.052504614,0.13072522,0.10861125,-0.08345908,0.107314885,-0.076877706,-0.11481382,-0.11172419,0.07680204,-0.17397603,-0.08854447,0.009696181,-0.040023163,0.015494426,-0.2118425,0.05410713,0.14237535,0.057901014,-0.08685731,0.039521687,0.08858361,0.005292193,0.07207806,0.04836123,0.14978966,0.093355075,0.10151598,-0.015666615,0.07228492,0.1772008,0.10528786,0.12421644,-0.005310584,-0.07676494,0.11023357,-0.011742506,-0.04804883,0.092516586,0.07753833,-0.04171826,0.0489102,0.04759104,0.114409596,0.063199796,-0.00014711227,0.11238039,-0.10727091,-0.05861019,0.048461303,-0.17377204,0.081969894,0.113703296,-0.15663287,0.083083555
    , -0.030354707,0.011918283,-0.1355039,0.030403323,0.17498627,0.21778347,0.27469438,-0.103043735,0.23138118,-0.0878693,-0.14528987,0.19263723,-0.03884083,-0.016046358,0.027330358,-0.1145772,-0.050811358,0.027497932,0.11540678,-0.08044716,0.026451029,-0.035692662,-0.12110427,0.23533693,-0.033738256,-0.085916854,-0.062206767,-0.07658428,0.12215718,-0.10894895,0.09636394,0.1999623,-0.032813895,0.094059974,-0.12405882,-0.10771683,0.013871187,-0.018766016,-0.011826672,-0.18903145,0.061179813,0.089873634,-0.08250324,-0.015886266,0.19784817,-0.0033176527,0.17190042,-0.15902323,-0.08221261,-0.020003228,-0.056660406,-0.037392806,0.013393667,-0.3117114,0.12905186,0.114903025,-0.22455728,0.05068205,0.15930901,-0.010281249,-0.1705022,-0.15857169,-0.15646793,0.07394639,-0.16077103,0.0022567671,0.06704629,0.114760146,-0.14341527,0.08680219,-0.074999906,-0.077591866,-0.029007073,-0.09102754,-0.104190215,0.35888693,-0.14717303,0.055418525,0.26271203,-0.008901381,-0.14295216,-0.089743145,-0.14575475,0.10388705,-0.034438785,-0.053615294,-0.044190213,0.12033414,-0.119487315,0.08877962,0.07461699,0.035386473,0.23990287,0.25026062,-0.07122536,-0.15063699,0.05298265,-0.18848918,-0.051471774,-0.09548617,-0.03805143,-0.13271715,0.07731319,-0.013077122,-0.016444702,-0.27307034,-0.025362313,-0.05430822,-0.027109757,0.04192241,0.08273666,-0.059207782,0.25379974,-0.17520624,-0.051234517,0.0060862284,0.031214612,0.20309986,-0.15474953,-0.19532889
    , -0.056528416,-0.06603841,0.04414284,-0.14359957,0.21387085,0.015918044,-0.044967864,-0.012247772,-0.17249523,-0.093021624,-0.12554611,-0.14422241,0.067652576,0.042602617,0.01742699,-0.0761127,-0.116579525,0.020313168,0.17200176,-0.047972266,-0.060117215,0.0016391574,0.029236326,-0.14620633,-0.07475282,-0.056636658,0.06866261,-0.03203622,-0.06270911,0.044994015,0.13768086,0.05550404,-0.090600595,0.027814686,0.06740667,0.028346203,-0.04377489,0.17891636,0.019906882,0.052870203,0.049332913,0.08343461,-0.069576986,0.00323225,0.023219086,0.06093527,-0.09359979,-0.040298115,0.05402841,-0.0426842,0.07505083,-0.13180548,0.0130149,0.118813455,0.0040701414,-0.009897527,0.16165055,0.031251043,-0.13032976,0.051305108,-0.15604885,0.041622747,0.0077454406,-0.04054501,0.17760499,0.013694462,-0.07449652,-0.11067733,-0.04972832,0.06390721,0.016498262,0.08905179,-0.08859217,0.08393574,0.06977441,-0.03265698,0.1533474,0.015264257,-0.075838484,0.03345262,0.099260055,0.09872365,0.064938895,-0.080352895,-0.08676814,-0.1714777,0.061375093,-0.0036784136,0.10423679,-0.023843793,0.058945097,-0.013015908,-0.036382634,0.12322461,0.074392475,0.012274363,-0.057214793,0.09643188,-0.035441622,-0.07467858,-0.10449654,-0.22216937,-0.054711226,0.15520903,-0.0138585195,-0.07700977,-0.13334715,0.021715675,-0.014662956,-0.15195142,-0.10470608,-0.008980034,-0.05781752,0.108486004,0.09057123,-0.08093659,-0.036391355,0.21310069,0.002614673,0.040727142
    , 0.07346035,0.21427502,0.08189422,0.09225665,0.056212965,-0.10924256,-0.12596376,0.083613515,0.0936301,0.032021437,-0.045307525,0.0041753785,0.18894018,-0.055756982,-0.043771014,-0.18006568,-0.070722476,-0.07554745,-0.20203264,-0.074931845,-0.04751449,-8.450916e-06,0.20621462,0.13630064,-0.11644213,-0.010019122,-0.10764381,-0.09921055,0.061838865,-0.16303772,0.07785003,0.24778134,-0.008377396,0.02561837,0.14880936,-0.09895887,-0.0147444615,0.027058123,-0.077899165,0.06464208,-0.035323355,-0.023616293,0.04583753,-0.011245888,-0.27492112,0.108373694,0.025080778,-0.012041796,-0.09821379,0.10370935,0.032142125,-0.098486535,-0.02708838,-0.032922167,-0.14309055,-0.0029621883,0.13352557,-0.2671837,-0.016121238,-0.03229551,-0.10383259,0.025422206,0.07704279,0.046288382,-0.15997353,-0.08166544,-0.062854335,0.07768191,-0.09401229,-0.15577856,0.0005631415,-0.17148037,-0.12739366,-0.069277324,0.013664785,0.052330814,-0.051797412,-0.0047924365,-0.0805731,0.091395386,0.021420242,-0.023427553,0.11676491,-0.047936767,0.15656197,-0.19732688,0.048114106,-0.052469425,-0.031674694,0.062436994,-0.024710348,-0.15308423,0.24490269,-0.2725565,0.018394928,0.2045914,-0.14085342,0.22502896,-0.07922024,-0.24617702,-0.0068266904,-0.017486956,-0.09834016,0.10456019,0.06257329,-0.14479756,0.073877916,-0.1254296,0.06528186,0.026029954,-0.004856343,0.10157558,-0.24320705,0.06108517,-0.1320538,-0.016186813,-0.093476795,0.051844228,0.05295282,0.10306015
