-0.03916203
-0.07384809
0.061986852
0.01509838
-0.051044147
0.04514589
0.026942763
0.06697207
0.0018618635
-0.026162645
-0.025783055
0.027829522
-0.06348012
0.021183135
-0.03362414
-0.041985862
-0.06421269
-0.00963752
0.014507466
-0.022661397
-0.021667873
-0.009718097
0.047067676
-0.028344894
-0.01930594
0.01738975
-0.029416293
0.05262155
0.022807695
0.001570751
-0.02024228
0.04515257
0.027501391
-0.034406826
-0.008231529
0.038829617
-0.0032128934
-0.015729701
0.0036958444
0.07282375
0.06200051
0.04392316
-0.012052829
-0.027106544
0.014528923
0.05839683
-0.017996784
0.04420924
0.056829054
-0.044627104
-0.03591357
0.0470979
-0.0264112
0.038052987
0.012523056
-0.060899854
0.025852446
-0.041453883
0.05889853
-0.030512199
0.055437487
0.00063931826
-0.024809467
-0.06350825
0.018458245
0.01929557
-0.010756312
-0.041408334
0.0006419377
-0.010213745
-0.05329325
-0.0139597785
0.0004266614
0.047131762
-0.026595522
-0.039664052
-0.012416979
-0.05077707
0.035949554
-0.03508678
0.034417067
-0.014857132
0.002775862
-0.002471271
0.051375177
0.03254764
0.017443648
0.0044109006
-0.029546173
-0.033726268
0.06397898
0.04475786
-0.022092503
-0.010065794
-0.045062505
-0.04358184
-0.04446545
-0.018963113
-0.014382106
-0.031790752
0.01232388
-0.004943064
-0.05716284
-0.009060103
0.025880191
0.065772355
-0.02465413
-0.009768121
-0.0067362324
-0.049346913
-0.03324911
-0.04758154
0.0070351725
-0.002989313
-0.016530221
-0.013806588
-0.013432162
0.0125760995
0.081481814
-0.018524364
