0
0.060061503
0.04838627
0.019382888
-0.102418125
0.031880144
0.027965628
-0.046091598
-0.07219606
0.08131476
-0.007875866
0.07653017
-0.008927342
-0.06928194
0.06355977
0.04271512
0.023862353
-0.04830814
0.047283493
0.17438659
-0.0068903076
0.020790718
-0.0013463346
0.062176973
-0.03495058
0.06774437
-0.022609089
-0.025159692
0.033625968
-0.026441505
0.028467594
0.040163714
0.040761854
0.046424657
-0.0016989717
0.0028419036
-0.039793547
0.011895237
-0.022190932
0.023435287
-0.04587053
0.040656976
-0.06559511
0.058764804
-0.025308674
0.056696605
-0.027321821
-0.005084538
0.01263521
0.0056416276
0.045330267
0.022845685
0.029197816
-0.003482499
0.01914883
-0.04227246
0.017182395
0.10151532
-0.0056760134
0.042999204
-0.0070320293
0.0687745
0.06240159
-0.050937403
-0.021403395
-0.027342625
0.008576323
-0.027794102
0.06395038
-0.06355536
-0.022572415
-0.057291407
-0.0020473667
0.0265982
-0.002211543
-0.045180704
0.023818614
-0.018327743
-0.043211672
-0.026341869
0.0023273658
0.021644104
-0.036780164
-0.002073015
0.02797789
