-0.1025764,0.06876674,0.19871753,-0.20189682,-0.22664501,-0.04172545,-0.09032855,-0.083135836,0.12279811,-0.3095561,0.03905066,-0.23794518,-0.12751907,-0.1683259,-0.095991455,0.2756245,0.15388125,-0.03478667,0.05838714,-0.2542751,-0.09463363,-0.19185174,0.14250952,-0.113380335,-0.18477303,-0.009868237,-0.06299673,-0.13843256,-0.0016506504,-0.06282046,0.30084303,0.12750871,-0.11571751,0.0029388315,0.008980583,0.22441256,0.20413321,-0.1042753,-0.13025908,-0.2978079,-0.11337162,0.11556939,0.2995941,-0.15576376,-0.19285847,-0.14241512,0.14367932,0.23862156,-0.049891315,-0.104856275,-0.23518933,0.00938437,-0.086398885,-0.017843248,-0.13830368,-0.091598466,-0.1837538,0.14181188,0.0041874712,0.16822585,0.084073044,0.2067881,0.10779574,-0.10765291,-0.29908592,-0.11936852,0.0207995,0.1490755,0.10923209,-0.0925146,0.36377332,-0.1085437,-0.26235318,-0.24579859,0.17065439,-0.22663243,0.04708449,-0.09233569,-0.048786756,-0.08495288,-0.06369444,0.1971289,-0.14692526,-0.30076435
-0.047374777,0.16446236,0.17380849,-0.08721801,-0.40130496,-0.056576174,-0.19832996,-0.07105796,0.37588376,-0.1848818,-0.0017267191,0.3497435,0.058845986,-0.21736689,-0.053182438,-0.021351801,0.21328539,-9.252621e-05,-0.014648569,-0.07252385,-0.07991175,-0.3106522,0.04260621,0.23016399,-0.009549579,-0.009868234,0.23818539,-0.27230984,0.11309013,-0.16643621,-0.14910792,-0.21948197,-0.12576061,-0.07341829,-0.18131536,0.29933155,0.20996864,-0.08627949,-0.01385374,-0.079458304,0.008925531,-0.058048885,-0.077715814,-0.121033594,-0.1374746,-0.2882331,0.20289458,-0.07270234,-0.2088866,-0.0029569494,-0.20469452,-0.11583675,-0.2132555,-0.10030818,-0.06834809,0.07003607,-0.107355334,-0.27827853,0.050049298,-0.22252068,-0.07543461,-0.0025974414,0.23022358,0.094667815,0.18007596,0.057458267,0.16545378,0.26266444,-0.26968697,-0.102951735,-0.1811194,0.3119548,-0.008237745,-0.1723005,-0.13077481,0.18927877,-0.12110779,-0.07884059,-0.20165072,-0.0060095317,-0.22935626,0.25961646,-0.002483462,0.19005829
0.033615943,0.1443354,0.032612156,-0.21149306,0.087843634,-0.03716119,0.004959637,0.0585543,-0.11412629,-0.1371947,0.12323793,-0.15748371,0.087470755,0.26415762,0.3561959,0.1485431,-0.02758391,-0.040678304,-0.109178,0.3536872,0.15931036,0.29220104,-0.13267119,-0.2187346,0.20679161,-0.046509176,0.09651408,-0.109257884,-0.2004591,-0.05884509,0.09127414,-0.18646646,0.32961062,-0.059275586,-0.25584581,0.035551667,-0.14857434,-0.19736178,-0.17537239,-0.09103287,0.049712457,-0.22075182,0.18074301,0.05085698,-0.12052329,0.15300965,0.02440691,0.13639495,-0.062593065,-0.0062039853,0.03676463,0.0531715,0.24217409,0.08982486,-0.13677804,-0.061260287,-0.071903765,-0.08231231,-0.11742316,0.15264434,0.12466602,0.0759532,0.031397108,-0.08547683,-0.19098134,-0.16128679,0.3679071,-0.024218122,-0.0060138335,0.13599075,-0.05814967,-0.22528657,-0.23241587,0.18312727,-0.055817086,-0.11282993,0.05050961,0.16658162,0.20020933,0.12787221,0.27915776,-0.26206082,-0.061167445,-0.022000847
-0.03227093,-0.04860269,-0.13079636,-0.12501231,0.1531591,-0.035236508,-0.014616686,-0.1628819,0.105940334,0.21750747,0.09118747,0.14583392,0.016206402,0.14097683,0.153715,-0.03912892,0.00756875,0.10495045,-0.17957605,-0.01639121,0.09436823,0.17142132,0.08506802,0.15380955,0.20653018,0.06610944,0.15450874,-0.16254465,0.1487307,0.081877284,-0.097129084,0.021612251,0.14842284,0.098553665,-0.1524328,-0.13665375,0.029583788,0.1386709,0.047016352,0.19705194,0.16680011,-0.053672757,-0.1678565,-0.17488213,0.066340394,0.14259592,-0.12037875,-0.04212474,-0.054184128,0.029531734,-0.023631975,-0.01328692,0.1441149,0.058160957,-0.010858578,0.16331677,-0.05187613,-0.0034171767,0.15817021,-0.22753787,0.11964276,0.06747983,-0.030390387,0.064261764,0.25109562,0.16465995,-0.116891034,-0.14173892,-0.1403667,-0.08984436,0.08708214,0.0083225565,0.10373397,0.09732221,0.18210296,0.19750355,0.10507578,0.16444977,-0.077811964,-0.10431783,0.06176884,0.15129235,0.078881726,-0.16794571
-0.06507382,0.22907206,0.18467495,0.07258856,0.015130173,0.04275926,0.051686864,0.0057572043,-0.15725343,0.07188916,0.18418452,0.081655554,-0.023016358,0.093485154,0.013291968,0.104864165,0.023805834,-0.2759976,-0.11296059,0.06724165,0.011623655,0.0043777293,-0.13241008,-0.33353797,-0.028506832,-0.093050905,0.16682723,0.1063957,-0.116945304,0.14195406,-0.022491379,-0.1166976,-0.09083508,-0.03465663,-0.06922511,-0.031204484,-0.19294365,-0.09006367,0.071776226,-0.09623291,0.046236917,-0.07366454,-0.121562116,-0.044059422,-0.057101786,-0.10109633,-0.056769356,0.10018738,-0.07609744,0.109576,-0.016349955,-0.015490362,0.008488494,0.18010984,-0.15776914,-0.19107288,-0.07895689,0.05297338,-0.26730207,0.045596458,0.11069268,0.093457304,0.19487047,0.10466509,-0.1657811,-0.10572636,0.103591695,0.08188571,-0.110552125,-0.108403996,0.09311933,-0.1581795,0.08267744,-0.13588358,-0.15108462,-0.13085653,0.068377316,-0.042661246,0.15252402,-0.11788003,0.017906247,-0.04255504,0.030103514,0.10251037
0.091662206,0.12594865,0.17668302,0.09257294,0.10773705,-0.10335584,-0.18848358,-0.10042472,0.04495806,-0.009799778,0.21650732,0.10547568,0.19691129,-0.012952189,0.01856407,-0.21219106,-0.0024763674,0.07614933,-0.03398426,0.118980765,0.022452056,0.14361618,-0.043077603,-0.071677126,0.037082694,0.11987936,-0.105509825,0.19342175,-0.047358297,0.20347333,0.093420394,-0.077285774,0.25399384,-0.040506266,-0.058693178,-0.15620552,0.13522233,0.03727989,-0.0073790997,0.046094276,0.15440199,-0.110619895,-0.18373086,-0.022560736,0.051216353,-0.017219163,0.010625151,-0.1892363,0.018676816,0.14125682,0.0864259,0.08172874,0.16918622,0.043384623,-0.12281654,-0.08792137,0.028651915,0.0949938,0.033273004,-0.14312322,0.06832868,0.093756065,0.106762856,-0.0077519994,0.2180969,0.042466417,-0.05391551,-0.09620895,-0.023642808,-0.08565181,0.0029523831,-0.20055261,0.013239347,-0.04037875,-0.11661609,-0.07460755,0.06607691,-0.18966667,0.002824655,-0.0914435,0.17702512,-0.14334282,-0.030314442,0.14154296
-0.1839261,-0.087392695,0.11189728,-0.08294811,-0.007092643,0.1378613,0.02301783,-0.13845819,-0.18185844,0.19888012,-0.011550931,0.08055643,-0.10361739,-0.040513575,-0.10978155,0.23401017,-0.05291847,0.120775364,-0.1623739,-0.23970732,-0.27605888,-0.17555669,0.107960306,0.08055652,0.1960232,-0.16028376,0.12203928,-0.2175174,0.106829464,0.06325078,0.017357329,0.15107983,0.10267357,0.14567694,-0.09155886,-0.046907265,0.2000222,0.009311157,-0.08251137,0.122936845,0.15546975,0.19920632,-0.056357104,-0.1563328,0.06759374,-0.19212453,0.12091224,-0.19885658,-0.039704904,-0.02608599,0.021890305,0.17521232,-0.07333414,-0.07027451,-0.091632634,-0.14978313,-0.024454953,-0.34515065,-0.06012219,0.29791772,-0.15901795,0.059598647,-0.19781473,-0.13764487,0.03854848,0.054345377,-0.02393298,0.17914632,0.25407398,0.033153124,0.17466173,-0.016179845,-0.08637772,-0.060095087,-0.04047611,-0.03310006,-0.065227926,0.099902034,-0.10860024,0.20008771,0.061211616,-0.23699383,-0.20111813,-0.15625757
0.10946359,0.08248678,-0.026516953,-0.0999425,0.15743713,0.17709206,-0.032407258,-0.25010657,0.09552886,-0.16916859,0.14638503,0.14832336,-0.026446022,0.031415403,0.25503498,0.00582679,-0.06305332,-0.102493465,0.07047394,-0.004943745,-0.21802837,0.01987619,0.16503367,-0.08612607,0.13520041,0.2247854,-0.19600788,-0.21754299,-0.025199926,0.32858083,-0.072145976,0.016436541,0.31902355,-0.45176306,-0.13216978,-0.19363111,-0.12931703,-0.049576893,-0.15147424,-0.20809512,0.08335836,-0.25778705,0.09972119,-0.018609202,-0.28591847,0.021744765,-0.07934279,-0.004429597,-0.17845829,0.1376394,0.14174175,0.18842073,0.0022322931,0.16608873,0.22820613,0.047207057,0.045464154,-0.18857782,0.096422225,0.21928266,-0.13145639,0.17343092,-0.27428827,-0.2698321,-0.19624136,-0.0343408,0.22341578,-0.26588768,-0.11533969,0.011586312,-0.12727317,0.102783345,-0.30586183,0.017982725,0.21136665,-0.10800887,-0.08954953,-0.073183216,0.07006151,-0.08665797,0.3379308,0.30342677,-0.03700031,0.09872596
-0.03060392,-0.19072443,0.15524589,0.06255449,0.25050297,0.18972203,-0.06259435,-0.16649163,-0.19288959,-0.15196909,-0.0960452,0.15923035,0.20149116,-0.03678655,-0.056085657,-0.089282006,-0.08601222,-0.12811603,-0.058643408,0.23048665,0.08634484,-0.0051470557,0.008217732,-0.10725622,0.12844786,0.035572417,-0.0027530112,0.021957146,0.13932043,0.00907594,0.10238585,-0.09851555,0.22946212,-0.14239392,-0.21643178,0.028352056,-0.13402179,0.06773582,-0.06718444,0.01525537,0.17511305,-0.018970897,0.12903294,-0.12299837,-0.048950247,0.00037030346,-0.099507816,-0.15876304,0.06279824,0.1120557,-0.016125338,0.06581691,-0.11763051,-0.014615831,0.18052338,0.16547976,-0.08290564,-0.06361735,-0.13237944,-0.20091559,0.005301307,0.106781155,-0.104746275,-0.1984031,0.06270924,-0.21540184,-0.17617114,-0.044824824,0.007664338,0.15201484,0.0718019,0.011777156,0.20195198,-0.07849965,0.15652163,-0.023505313,0.18253002,-0.043811813,-0.16761254,-0.034113273,0.07516886,-0.07795106,-0.096530505,0.16183013
0.049825817,0.11951955,-0.008450572,-0.13533644,-0.14373274,0.060822867,-0.018335836,-0.13449542,-0.109495334,0.07530504,-0.012086459,-0.010766495,-0.039148048,0.11986325,-0.043812163,-0.23016557,0.08250582,-0.061512936,0.11016256,-0.2282036,0.11252305,-0.0022416469,0.013185726,-0.07972067,-0.0014690164,0.18830228,0.10503006,0.019040292,-0.15978721,0.07035308,0.20597936,0.28226203,-0.11579018,-0.07195976,-0.18465905,0.0732735,-0.13425367,0.24277462,-0.09193126,-0.10448353,0.0061068935,-0.10632992,0.14885482,-0.16347055,-0.07378487,0.085055605,0.19728175,0.035422653,0.0606609,0.096466824,-0.10965755,-0.16675426,-0.025966657,0.040840738,0.041095544,-0.02797179,0.081558764,-0.24812262,-0.06309909,0.25603098,-0.11120386,0.03368259,0.15325591,-0.020236317,-0.12707734,0.079711124,0.027579287,-0.0641875,0.16295555,0.18617183,0.30866635,0.031505883,0.14704436,-0.36428878,-0.18844473,-0.10855362,-0.115970954,-0.26816106,-0.041850194,-0.18022612,-0.0015263339,0.16242504,-0.05105459,-0.11810182
0.023842044,-0.045372527,0.036871918,0.07194883,-0.052053843,0.14598404,0.063980155,0.10707879,-0.23668262,-0.046992905,0.13675329,0.23745255,0.123861834,-0.18749654,0.054429054,0.18912056,-0.13734995,-0.12077162,0.0018735816,-0.20970666,-0.110314496,-0.26757044,0.005379385,0.13523014,0.060142275,-0.07624456,-0.17141604,-0.07825925,0.024758127,0.18917093,0.07199735,-0.2497316,0.057729203,0.10179755,0.21911484,0.07162582,0.06527094,0.17254265,-0.18670876,0.1020234,-0.14350563,-0.081754275,-0.08421417,0.09654561,0.07183225,0.08591204,0.12631814,0.06749631,-0.00843723,0.2599326,0.02851333,-0.07896011,0.107783385,0.16023895,-0.078785405,-0.076411046,0.28063622,0.098369166,-0.1118216,0.034745153,0.059905656,-0.062192857,-0.025789052,0.14647123,0.2525365,0.1813976,0.050577167,-0.0056233658,-0.038491245,-0.15266895,0.039675735,0.09891351,0.011602993,-0.03159494,-0.13411286,0.14207642,0.051802166,-0.17121807,-0.13758633,0.08967895,0.10856223,-0.09981038,-0.1498123,0.08742673
0.008885849,0.0824827,-0.026321076,-0.078721054,-0.23668042,0.13697563,-0.233892,-0.0099953795,0.06728947,-0.2829833,-0.025103854,0.13746253,0.030985858,-0.07057275,0.22876021,-0.18890105,0.15723844,0.09348477,0.27838272,0.13740559,0.032178085,-0.023214173,0.100522324,0.028086897,0.18519023,-0.09335337,0.100406155,-0.123670906,-0.030351195,0.11699213,-0.17695986,0.09696915,0.18115178,-0.29218313,-0.19935718,0.15091658,-0.14860502,0.20732212,0.07929858,0.23535323,-0.27099115,-0.24140248,0.080970585,0.10046627,-0.33775172,0.14709651,-0.15531614,-0.046193883,-0.124525554,0.272526,0.14815755,0.15701424,-0.10076625,0.0727153,-0.04322609,-0.015919788,0.16343585,-0.21835665,-0.139754,0.045533758,0.039401185,0.06953596,-0.0933093,-0.059899926,-0.016428782,0.046597604,0.10808816,-0.17548399,-0.16828263,0.06552192,-0.11056096,0.20964032,-0.07935348,-0.2729354,0.08427526,0.107670344,-0.012951009,0.042346228,-0.22578378,0.002654781,0.042877745,0.05970878,-0.15742588,0.030800056
-0.09496562,0.24530075,0.064316496,-0.117117114,-0.22725779,0.21627551,-0.002501918,-0.059048153,-0.013073551,-0.012064883,-0.08188694,0.18513407,-0.03544264,0.09587766,-0.06427076,0.11687677,0.14692096,-0.1397713,-0.262061,0.16724257,0.19211411,-0.13818032,-0.119096465,-0.0029080433,-0.07862143,-0.09189461,-0.013378191,-0.06572716,0.07574905,-0.18363984,0.2533998,0.03329237,-0.18521166,-0.0167001,-0.2572558,0.111176774,0.2133957,-0.103051275,-0.022636037,-0.10543665,-0.22435637,-0.14231125,0.14593144,0.12373586,0.04131337,-0.05923051,-0.12619352,0.10375573,-0.058032535,-0.1895541,-0.04098996,-0.12915301,-0.119200364,-0.15081929,-0.14669217,-0.13899201,-0.042323247,0.100154616,-0.1940837,0.23250383,0.1397116,0.12967984,0.10664942,-0.017661268,-0.0787524,-0.17636369,0.2090125,0.16077219,0.06752368,0.13102002,0.27436623,0.15286088,-0.022693956,-0.044392932,0.08219948,0.17015782,0.17212258,-0.22436585,-0.10511652,-0.043921944,-0.049663156,-0.0320918,0.014335732,0.07376857
0.09005207,0.24490719,-0.1466786,0.06948582,-0.16966382,0.07623736,-0.014674293,-0.06678281,-0.0749479,-0.23400751,-0.1258181,0.27851978,0.24396269,-0.042227443,0.35181296,0.11204412,-0.10850585,0.014931724,-0.0014603641,0.17280756,0.19146688,-0.018749528,0.12897874,-0.05095821,0.08564002,0.10954728,-0.28408813,-0.16869457,0.24588898,-0.11256733,0.056031097,-0.0009673713,-0.14982237,-0.0895331,-0.19647932,0.3522402,0.12231071,-0.0044470835,0.092530526,0.07029607,-0.27149937,-0.3568464,0.29948705,0.15752825,0.15416424,0.18239929,-0.18208542,0.2981172,-0.0385426,-0.20292142,0.0579819,0.2085396,-0.15206434,-0.22636656,0.25355777,-0.07544851,-0.08713446,0.17342567,-0.0958703,-0.19484901,-0.0848637,-0.16091353,0.2745964,-0.29699397,0.013994926,-0.057713013,0.15746501,0.1875942,0.19943844,0.099194504,0.21033224,-0.13206321,-0.21045968,-0.05474319,0.0121458,0.21670191,-0.063676275,0.1880392,0.1393784,0.030178618,-0.15057907,-0.10595349,0.060580954,0.10270944
-0.13341856,0.11902732,-0.10372714,0.040182963,-0.0051557044,-0.064743236,0.14411192,-0.0002939007,0.062254313,-0.041409813,-0.05309569,-0.20033903,0.03606334,0.07169651,-0.14327028,0.123414464,-0.024113236,0.016194284,0.11100348,0.11828016,-0.10340781,-0.1258981,0.06225301,0.12581885,-0.015787119,0.05390022,-0.019559035,-0.007121688,0.17501912,-0.041266404,0.0113923345,0.037695065,-0.05197779,0.13277292,-0.17981726,0.07830194,-0.065849476,-0.07876381,0.12727772,-0.112826385,-0.08491621,-0.015316948,0.09351358,0.032504156,-0.048462573,-0.071558066,-0.000115997325,0.013557444,-0.10581072,-0.030161649,-0.05974554,0.088558435,0.083584614,-0.12062815,0.05327776,0.18382315,-0.026973765,0.1051454,0.09228478,0.0074006952,0.15505564,-0.049184117,-0.14838977,-0.049052518,0.08338016,-0.019036166,-0.08932901,-0.034830686,-0.122894175,0.10868976,-0.07366496,0.1314634,-0.009978011,-0.07125035,0.06524525,-0.022569569,0.10996258,0.1734693,0.026609872,-0.12306334,0.032800864,0.024730882,-0.12371805,-0.009309266
0.12187594,-0.1455831,-0.08518148,-0.021155685,0.0022838307,0.013932853,-0.1452105,0.025772316,0.16229223,0.062115766,-0.026634539,-0.033804618,-0.12547816,-0.21844709,-0.22635761,-0.0003157055,-0.090890765,0.063136965,-0.11334956,-0.059395973,-0.11366096,0.15291907,0.10750617,0.25688162,-0.031959284,-0.17145142,0.058194906,-0.17176266,0.07476138,-0.020285703,-0.14836942,0.18679883,-0.08782339,0.23082028,0.10205992,-0.14346851,-0.06140442,-0.01784043,-0.03356773,0.012868064,0.06234651,0.16346526,-0.08079884,-0.031781454,-0.04553053,0.1463622,0.0025090908,0.067164466,-0.017056871,0.10423791,0.22190942,-0.080497585,0.1611224,-0.19889075,0.022242462,0.0129922535,-0.046361234,-0.016285,-0.117120616,-0.024697758,0.008537298,0.19996148,-0.08674901,-0.13548596,-0.07723649,0.059543718,-0.062159415,0.26777515,-0.1545322,-0.16352612,-0.042504128,0.0060084807,0.013391992,0.11198833,0.12880608,-0.06207752,0.059778985,0.04307967,0.056391463,0.122116014,-0.06797056,-0.121271454,-0.063670136,-0.04434746
0.15702471,-0.06464532,0.14289905,0.10933883,0.04166059,0.21654087,-0.0013720607,-0.039651226,-0.051934045,-0.1707522,0.054829266,0.06691275,-0.011920156,0.028939186,-0.042904504,-0.22398421,-0.10089965,0.14999375,-0.10435403,0.09115525,-0.185361,-0.09190727,0.09970147,-0.10096142,0.24811791,0.035021193,-0.022558978,-0.08491374,-0.22239727,-0.05354346,0.118901886,-0.012656078,0.16293246,-0.109396055,-0.04319557,0.016440446,0.046297364,0.12824851,-0.082881935,-0.080303155,0.18043584,0.19413154,-0.13549209,0.15252282,-0.17242895,-0.009794437,0.035133515,-0.11350996,-0.0040879846,0.23985289,-0.117133945,-0.21400772,-0.20194827,-0.16215077,-0.06069957,-0.021983376,0.026152335,-0.09507932,-0.004947334,0.20569623,-0.056746818,0.111486726,-0.10560427,0.12572111,0.061587624,-0.078961596,0.0039364877,-0.10510261,0.08711303,0.12022806,0.2576954,0.021301568,-0.079326615,0.056199253,-0.012793679,0.07305551,-0.09822902,-0.23993891,-0.059890445,0.076769926,0.15264022,0.27333573,-0.08160195,-0.12455193
-0.111748315,0.21140353,-0.06630316,-0.15484312,-0.09374071,-0.17867187,0.009955159,-0.199006,0.28314385,-0.12266033,0.23944108,0.06449707,-0.12389097,0.27023992,-0.23341462,-0.08905677,0.055120748,-0.05554671,0.2316622,0.08423401,0.041286457,0.046923727,0.05945069,-0.10144929,-0.13148126,0.06284978,0.1525142,-0.14608885,-0.23386134,0.029742848,0.12624983,0.23131521,-0.18807915,0.025087964,0.04486506,0.097344436,0.04191508,-0.250938,0.08316621,-0.071708225,0.03904307,0.13852751,-0.33050656,0.10446476,-0.2906952,-0.0011818737,0.17503482,-0.023202382,-0.05554314,0.15561555,-0.19201969,0.25238287,0.21307522,0.15008684,-0.011326859,-0.036077555,0.02261559,-0.3110794,-0.17314886,0.08062606,-0.1380239,-0.2645133,0.2611557,0.17910627,0.20433553,-0.042568143,0.015776012,-0.13795754,-0.20352313,-0.15517671,0.33191875,-0.019492337,0.024270061,0.027184634,-0.17058596,-0.19470023,0.21764992,-0.19441444,0.034517787,0.16965814,-0.14053868,0.07995366,-0.16087914,0.47306728
-0.093918234,0.08789414,0.24553023,-0.12352943,-0.10875814,-0.022752529,-0.0606137,-0.085442476,-0.017306339,-0.16706276,-0.13473421,-0.041059885,0.24278599,0.0687712,0.20549212,0.14051117,-0.031251423,-0.068288796,-0.038234934,-0.08403107,0.2627977,-0.09935999,0.21328506,-0.28892097,-0.22470465,0.046734817,-0.09630952,0.19788545,-0.108414516,-0.169929,-0.04941827,-0.04868183,0.12099304,0.06852108,-0.07752216,0.28194013,-0.01737775,-0.0087447185,-0.031317156,-0.022377605,-0.40854052,-0.3189475,0.12537467,0.06345893,0.22136225,0.23792762,0.29373792,0.27788818,-0.006675643,-0.11708088,-0.1538692,-0.21222374,-0.23567122,0.21741468,-0.0343699,-0.026278436,-0.04721122,0.029311087,-0.05064301,-0.1138047,0.046101067,0.21347773,0.07390199,-0.05784697,0.2211454,0.002568659,0.24256787,0.17704034,0.20617901,0.07297627,-0.054199565,0.18941331,0.28252667,-0.051606987,-0.21886837,0.18493448,0.113876544,-0.049147904,0.006781893,-0.078034095,-0.036745064,0.023173956,0.22671829,-0.019861419
-0.05590011,-0.12739207,0.04503933,0.104544654,-0.1694953,0.019631812,-0.15556698,0.1407715,0.027426422,-0.042524688,-0.0023946029,-0.16158465,-0.008547182,0.18639627,-0.028851682,-0.13756345,0.09968163,-0.07377773,0.04107678,0.07332898,0.15998559,0.12595846,-0.08228764,0.080109134,0.15033472,-0.1780905,0.17331845,-0.1452993,0.1279065,0.01407508,-0.08584502,0.03734179,0.024846343,0.010804574,0.13338025,-0.095099054,-0.09541156,-0.09056353,0.11435555,-0.04202138,-0.10897026,0.08468066,0.07490122,0.14342268,0.03037545,0.08938907,0.021660589,0.13832006,-0.11008951,-0.1779802,0.08828329,0.06496508,-0.118354455,0.062564775,0.011283668,0.017718136,0.084521435,0.028585121,-0.12528315,-0.11400479,0.108579725,0.05951355,-0.0046900692,0.01768241,0.05900847,-0.16510619,-0.1365424,0.14988312,0.020584991,0.10587752,0.008261228,-0.002675073,0.11996576,-0.12990843,-0.094978325,0.012990113,-0.11289098,0.1655764,-0.087161236,-0.06654678,0.15096407,-0.0028955191,-0.059039906,0.06612947
0.07177428,0.006470923,0.22127043,-0.11895331,0.11578176,0.2030494,-0.088472135,-0.13119458,-0.19153373,0.09336386,0.0011346948,-0.17948633,-0.080908805,-0.04355373,0.1508945,-0.026405368,0.016226448,0.03615269,-0.113502994,-0.04031812,0.122763775,-0.20293923,0.278345,0.1710712,-0.13222496,0.16131908,0.12771578,-0.15993932,-0.03329022,-0.22323754,-0.017749285,0.08156228,-0.19637722,-0.027742803,-0.24240763,-0.09106121,-0.10506945,0.21375121,-0.15319261,-0.13197856,-0.11295425,-0.121974766,0.1863684,0.10435845,-0.033992212,0.11323582,0.0006341775,0.10057179,0.09946671,-0.05111501,-0.3741681,-0.21920267,-0.31246567,-0.11967725,0.12244731,0.02086402,-0.3080642,0.1349037,-0.07818483,0.0951169,-0.14129332,0.008510165,0.048860606,-0.12406352,-0.10888949,-0.08052235,0.22174478,0.21274483,0.3626495,0.017814996,0.3872387,-0.053686116,-0.28318688,-0.3803806,0.048996035,-0.16612463,0.17661048,-0.22651097,0.005771216,-0.04980044,-0.12637998,-0.1296635,-0.024107607,-0.10544411
0.08663755,0.069702536,0.19617473,-0.037419733,-0.03809408,-0.07890272,0.0068184203,-0.0993798,0.054934885,-0.007675872,-0.16969016,-0.026380502,0.050637163,0.09754581,0.011989471,-0.054646354,0.030819412,0.07839514,-0.11853128,-0.12666932,-0.004209721,-0.14249359,0.24878949,0.074988864,-0.061667547,-0.043620527,-0.007351813,-0.09877355,0.15196764,-0.03988061,-0.021457508,-0.13524601,0.01426699,-0.06162122,-0.03762081,-0.15547106,-0.05752272,0.010457949,-0.16055185,0.034294594,-0.042677633,-0.2266457,0.02289532,-0.04899741,-0.30296955,0.15575723,0.055957135,0.017720895,0.11721992,0.1767429,-0.07436449,-0.06910704,0.06654085,0.25418392,0.012929709,0.061627824,0.29128367,-0.029604368,-0.04420299,-0.15399536,0.10041499,-0.09094079,0.013787466,-0.021687334,0.065512836,0.16009645,-0.23126687,-0.073800474,-0.20150127,0.21559481,-0.14985442,-0.19068033,0.15917665,-0.093705565,-0.09569978,0.0852282,0.057746075,0.05901037,0.07095774,0.1290002,0.28115234,0.015656784,-0.20830376,-0.16362154
-0.13213211,-0.24191597,0.059918694,0.062883325,-0.017990189,-0.048056215,-0.04545253,-0.009732153,0.16078573,-0.023410399,0.063592285,0.050654124,-0.13528016,0.10044895,-0.09532732,0.07278919,0.27925974,0.04764307,-0.20604675,0.24718764,0.010168103,-0.057000104,-0.22222985,0.06148927,0.1440581,-0.121401474,-0.23351382,-0.0013648714,0.030046897,-0.010672705,-0.23908843,-0.12711202,0.11595915,0.20380661,-0.06570109,-0.17499536,0.17360127,0.15483123,-0.048545975,-0.03734748,0.06809012,0.060275752,0.03659988,0.11181744,-0.14133714,0.16594808,-0.08026625,-0.08969767,0.14234221,0.059964925,-0.013966612,-0.090077244,0.07026332,0.113276176,0.20666867,-0.041167285,0.18269157,-0.08247651,0.092085764,-0.16562723,-0.069985315,-0.0792677,0.012619459,0.06410165,0.012590904,0.14485505,-0.016946413,-0.08859919,-0.23095323,0.1428877,0.14938524,-0.09175591,-0.15119827,0.17431565,0.17008555,0.1320798,-0.22787184,0.1550405,-0.20092522,-0.20107865,-0.13970636,-0.07008506,0.10710774,-0.002819675
-0.079307675,-0.0914975,0.07423048,0.02483349,0.028907152,0.09365315,-0.16138397,0.03674609,0.11638716,-0.13111696,0.20455866,0.27438277,-0.075858,0.07682966,-0.033488575,-0.0144074205,0.04345149,-0.049755897,-0.22371477,0.0059892577,0.01424651,-0.1915444,-0.16208252,-0.15293387,0.23052222,0.15271674,0.032423418,-0.12842728,0.042351957,0.0073464094,0.051063772,-0.35679612,0.0053277025,-0.0797493,0.00033956225,-0.12560605,0.13561462,0.19867545,-0.18719546,-0.11346319,-0.27693105,-0.041625742,-0.26644704,0.10181251,-0.16022837,-0.023411347,0.16979873,-0.20241821,0.02674452,-0.00028200485,0.00118658,-0.08443546,-0.098998755,0.101625286,0.09886127,-0.14243844,0.19477393,-0.070495225,0.033640485,-0.09522376,0.10943898,-0.18139486,-0.20070778,0.23490447,0.20422088,0.02978306,-0.2013077,-0.16434844,-0.09427033,-0.004297468,-0.100526914,0.09935473,0.24643032,-0.15308163,-0.21878931,0.23209421,-0.007497041,-0.18132812,-0.32835343,-0.013655749,-0.12992842,0.10613957,-0.21773985,-0.075481355
0.016891181,0.05885278,0.119347334,-0.010515243,0.13395089,-0.14224476,-0.009940147,0.16937892,0.16778024,0.061000682,-0.060587816,-0.025789266,0.107519925,0.04624155,0.08852106,0.06797573,-0.043925524,0.04817085,-0.019271333,0.10122713,-0.084974,0.010121763,0.028352857,0.13674316,-0.12687743,-0.037008516,0.011188227,-0.043384552,-0.04065004,-0.11121397,0.04003166,0.109444365,-0.14917578,0.12832186,0.023547951,0.14146616,-0.04304959,-0.113590464,-0.13798556,-0.108054474,-0.028881777,0.112199575,0.027352395,-0.116397634,0.1163721,0.046264753,-0.17117774,0.11258567,-0.03927,0.03756723,-0.12650636,0.15208764,0.08858433,0.1053598,-0.08825868,0.065611586,0.10230768,-0.12262073,0.1541519,0.044193108,-0.12684081,-0.16466376,0.00912576,0.033944655,0.086318925,-0.15909418,0.120075926,0.15975805,0.11102659,-0.03643979,-0.09684534,-0.10342921,-0.1563487,-0.008005439,-0.110435285,0.10273371,0.102348566,-0.004456218,-0.009529456,0.049528435,-0.09750651,0.10806776,-0.10656967,0.062255096
-0.008048022,-0.08054419,-0.08470854,-0.020288719,0.074539855,0.1039441,-0.0643878,-0.096875146,0.028586362,-0.04795164,-0.23587376,-0.17767262,0.004325311,-0.047141872,-0.19250743,0.062278517,0.035011612,-0.10777886,-0.0027071,-0.04645451,-0.25373048,-0.11029656,0.0112629775,-0.078114934,0.2537607,-0.1498337,-0.0014489857,0.054305907,0.24791056,0.04299746,0.043605495,-0.14718823,0.10378217,0.10811386,0.14577405,-0.17148396,-0.21320467,0.0956399,0.0055076494,-0.13229491,0.07574138,0.16484512,0.19605441,-0.1544392,-0.099302344,0.0004386254,0.19365846,0.12751742,-0.109378844,-0.01725444,-0.34016663,0.040113818,-0.08956089,0.1488345,-0.1083236,0.18482329,0.20629784,-0.015940743,-0.11339013,-0.07457477,-0.055376995,0.14228895,-0.17032282,-0.013494042,0.0482902,-0.098353535,0.0016747101,0.12735699,0.12047071,-0.11663083,-0.17174447,-0.0678188,0.11244294,0.024934314,0.34781274,0.073792525,-0.18803602,0.08785797,-0.03035822,0.084962234,0.028885653,0.029937666,0.011205199,-0.2916514
0.05285993,-0.0010614897,0.26662016,-0.0030304184,0.09850084,0.2903353,0.10274517,-0.11966317,-0.18599766,0.10775997,-0.081343144,0.19039096,0.054135308,-0.0970189,-0.104023166,0.2897159,-0.12352383,-0.15690298,-0.016069941,-0.15359311,-0.016211115,-0.23580281,0.08947975,0.033647187,-0.14490277,0.044892617,0.1653855,0.12789725,-0.103033766,-0.08095001,0.18281174,-0.43096644,-0.048940845,0.16993442,0.16931212,0.25366664,-0.17158256,-0.040067356,0.10761544,0.0889019,-0.03799935,0.02151133,-0.07373496,0.007172701,0.040143926,-0.0635681,-0.039322212,-0.2023129,0.31608725,0.050669193,0.36269638,-0.2910047,0.055581443,-0.05628774,-0.34720635,-0.11500709,-0.23289932,-0.08044838,0.2844924,-0.020203495,0.06698867,-0.033567935,0.08899607,0.1667685,0.06787787,0.07540435,0.20764187,0.03731264,0.14354071,-0.0054767006,0.13581944,-0.0060039223,0.21380416,-0.05552444,-0.2242534,0.12929817,0.025202407,-0.030950224,-0.17445447,0.11427043,0.013194644,0.19091672,-0.017327253,-0.0167077
-0.111557215,-0.0010659217,-0.01233149,0.10694352,0.19133326,-0.036671214,0.07630197,-0.1447921,-0.09605694,0.095058024,-0.017316433,-0.058440764,0.12996192,-0.084393255,0.086371064,0.12824818,-0.2593113,-0.16114691,-0.012824092,0.23185311,-0.16374287,0.12117797,-0.0814877,-0.17883101,-0.06311801,0.005753668,-0.0912543,-0.05919711,0.095608816,0.07033477,-0.28607118,0.09015534,-0.05550376,-0.057472453,0.10323172,-0.034241874,-0.14791332,-0.07915193,-0.1796733,0.27467316,-0.20091961,-0.18626046,-0.20498453,-0.028131917,0.08363039,0.16491622,0.11173825,0.16877028,-0.1126416,0.14534,-0.09217413,0.121261,0.12224536,0.16023616,-0.08555395,-0.24660231,0.1855692,0.047793146,-0.21325976,-0.019651964,0.18416998,-0.22683384,-0.13852878,0.1881724,0.00055896956,-0.008928654,-0.07474768,-0.2379834,-0.09317309,0.025508035,-0.15276593,-0.04111018,-0.032762125,0.09683934,-0.14448565,-0.059594233,0.10354791,0.030358946,-0.14725308,0.14969067,-0.039692506,0.10944739,0.0779871,0.20671
-0.07359335,-0.068518646,-0.10339507,-0.16943923,-0.065090194,-0.06662981,-0.21003918,-0.07836472,0.17967752,0.074746415,0.111135125,0.16000615,-0.15445814,0.13464436,0.23945902,-0.24724932,0.10807172,0.09061223,-0.10777849,0.24912927,0.038466148,0.15743218,-0.10743343,0.17192885,0.059700266,-0.03443994,-0.063335575,0.099493854,0.12264015,0.1765227,-0.066945285,-0.16400003,0.18931153,-0.21116196,-0.13005975,-0.041812297,-0.1349083,0.007919531,-0.060934473,0.08949025,0.15536551,-0.15572867,0.11113295,-0.22368476,-0.027835922,0.08246743,-0.08436061,-0.08295232,-0.06525056,0.111065336,-0.014584005,-0.08551157,-0.13815041,-0.08903154,0.24550842,0.11912019,-0.04429347,-0.042342324,-0.26321515,-0.07174618,-0.17593679,0.20303445,0.18637075,-0.09995844,-0.17492382,0.017111402,-0.06821858,0.09454792,-0.14906618,0.011894512,0.020843083,0.19822599,-0.08616228,0.12510505,0.026477186,0.056379393,0.10816615,-0.26015717,0.06308055,0.10294818,0.023670685,-0.14894766,0.21405736,-0.0043875114
0.10727136,0.14784355,-0.04948066,-0.07846808,0.1512919,0.049309216,0.10059836,-0.053023234,-0.10836397,0.12372999,0.058897737,-0.15057176,-0.048298687,-0.025971878,-0.15220049,0.08473855,-0.09552778,-0.13024305,0.184278,-0.10420109,-0.03775812,-0.042889364,-0.25697854,0.10920986,0.087683834,-0.094046615,0.055882003,0.015331039,0.05970826,0.10814542,-0.15851519,0.27218878,-0.10587255,-0.05993944,0.020751886,-0.16940318,-0.0328717,0.12091432,0.0649993,-0.02317675,-0.02823857,-0.03170689,0.07122015,-0.15090916,0.15933786,0.208645,-0.11531944,0.19095133,-0.116528735,0.1964647,-0.17987688,-0.075812355,0.05939062,-0.027019244,0.14650501,0.12665677,0.25872627,0.06283014,0.0884586,-0.17122126,-0.14792828,-0.008955316,-0.05750154,0.24016188,0.26713198,0.241388,-0.1928365,-0.17209482,-0.08222159,-0.013168483,-0.09973602,-0.24618654,0.0087122135,-0.0053203763,0.06642822,0.0081140725,-0.051965464,-0.13966587,0.07032126,-0.17772643,-0.1219871,-0.1647192,-0.053576987,0.24025871
-0.0038298953,0.063444786,0.027215153,0.07049458,0.1523586,0.1636964,-0.11786516,-0.08892404,-0.1603682,0.11725945,0.06822132,-0.13190474,0.07373851,0.07206287,0.03246212,-0.029741053,0.18139009,-0.15367083,-0.11814737,0.1793062,0.17257358,-0.037001554,-0.21192314,-0.055523343,0.20879208,-0.16469386,0.11213043,-0.047986653,-0.051020026,-0.0063298116,-0.17687735,-0.12283219,-0.07465127,0.18679751,0.07987263,0.14437054,-0.061406847,-0.12397645,-0.12670454,-0.04387224,0.13095051,0.19644575,0.05674643,-0.14616218,0.0005208961,0.017466038,0.016052796,0.10855703,-0.038974248,-0.024600772,-0.108738124,-0.17001532,0.011487235,-0.086732574,0.094706275,-0.017797051,-0.14903645,-0.033372495,-0.112233594,0.039752644,-0.07397284,-0.13097636,0.07351721,0.13557594,-0.046769336,0.09463041,-0.14274512,0.07222908,-0.13386539,0.05378191,0.19197522,-0.12310772,-0.037767198,0.20404229,-0.03887791,0.12507984,0.1241442,-0.09373368,-0.10547597,-0.14647107,0.07387327,-0.29872617,-0.11890882,0.06019989
-0.17774354,-0.03925993,0.09020224,-0.106247574,0.1925905,0.0023215394,-0.22269075,0.048135486,0.063073725,0.09867333,-0.017294565,-0.12422026,0.0073797847,0.067190416,0.06062185,-0.0010092689,-0.14913128,0.12224111,-0.0120561905,0.20568623,0.07901292,0.1205684,-0.18209983,0.14834835,0.19383185,0.10030601,-0.09267662,0.010845576,0.11242864,0.16707076,0.020154351,-0.013022677,0.07688249,-0.0074105915,-0.267905,0.1385467,0.028805835,0.14788304,0.09122647,0.11482603,0.103163935,0.04866975,-0.12451213,-0.05643979,-0.012740776,-0.15108985,-0.12427644,-0.12583758,-0.19250822,0.020496756,0.11018297,-0.03445704,0.069630146,-0.14558913,0.04987168,-0.080198005,-0.03423622,0.15174954,-0.20403996,-0.18771842,-0.18382615,0.08373475,-0.16765083,0.06638213,0.014215781,-0.07901803,-0.09187664,-0.22348146,0.0015590141,0.118958205,-0.097955965,0.102201164,0.14761242,0.011050169,0.108241566,0.14683832,0.049141638,-0.16582535,-0.11119282,0.06579343,-0.17654905,-0.01692469,-0.0009618595,-0.06061496
-0.045638714,-0.07095394,0.1185161,-0.052885927,0.22208712,0.11768052,-0.07554813,-0.10520773,-0.10679156,-0.018178325,0.14897549,0.06533521,0.1586401,-0.20730999,-0.07068157,0.20324892,-0.2829947,0.012920943,-0.094448715,-0.09051138,-0.18020047,-0.109042354,0.18062474,-0.0864384,0.10476549,0.06884555,-0.15946704,-0.14815202,-0.049519986,-0.15818733,-0.12933423,0.033898816,0.17698589,0.16315687,0.24869072,-0.10135816,0.23468742,-0.018850403,-0.029496137,0.040486798,-0.018965146,0.046520498,-0.09621836,0.10246591,0.0608592,0.024421252,0.06432977,0.103994034,-0.13134375,-0.08933467,-0.029998654,-0.2512365,-0.09461024,-0.0038988446,-0.07767524,0.020558694,0.13316727,-0.23835671,0.124053456,-0.1554977,0.16742867,0.06241591,0.010920279,-0.0051408005,0.066096224,0.16083713,0.062305152,0.18185188,0.07259407,0.05691393,-0.23411371,0.24590555,-0.051474456,0.12826863,-0.18198217,0.20209911,-0.17550457,-0.023396794,0.00355521,-0.06246038,0.271421,0.06233925,0.11215824,-0.27360106
0.11933376,0.121831685,0.075807385,0.08224915,0.13040225,0.16196609,-0.07733011,0.0067353547,-0.035206452,-0.16835369,-0.1442063,0.026946515,-0.121236905,0.036427066,-0.078994356,0.11113496,0.02304835,-0.14274786,-0.115920894,0.13154052,0.03074689,0.012960683,0.086128466,0.13469587,0.085604616,-0.13078706,0.12673798,0.17511623,0.061809026,0.007485445,-0.12903824,0.14648391,0.033954933,0.11207264,0.055954438,0.18288535,-0.015609569,-0.10672858,-0.05594153,-0.0070005045,-0.13064152,0.01953529,0.0030423568,-0.0069506317,0.08457826,-0.00013641565,-0.08799589,0.09248292,-0.036556453,0.06454295,0.108917564,0.029509101,0.12029407,-0.08562825,-0.039471515,0.15958752,0.08473108,0.05805805,0.11814819,-0.14277932,0.010834396,-0.011959018,-0.10518234,-0.18124105,0.00592255,-0.08276993,0.12740731,-0.12764007,-0.09055544,-0.07438887,-0.06587384,-0.09084434,-0.06744629,-0.05303805,0.09272967,-0.04346883,-0.059281174,0.017122913,-0.041285962,0.14919537,-0.0896974,0.14507084,-0.06602797,-0.05132026
-0.11288736,-0.10637932,0.09836287,-0.033237316,-0.35776085,0.24031092,-0.031856876,-0.11011946,-0.012802733,0.09983487,0.021303957,0.3091975,0.043292247,0.019466756,0.32581884,-0.052450027,0.020877028,0.007931663,-0.27253303,0.009500317,0.26629388,-0.27382278,0.26241353,-0.111418866,-0.19241355,-0.0019021863,-0.14646433,0.13297734,0.19517224,-0.046287447,0.032525856,-0.029804097,-0.018393964,0.15496378,0.079930134,0.22082989,0.08511652,0.08785456,-0.16471452,-0.32036042,-0.11946155,0.059032246,0.37198865,0.034465324,-0.023467613,-0.24979754,-0.0055308677,0.21409306,-0.2735836,-0.18121444,0.096826024,-0.40345082,-0.022043424,-0.19611023,0.05161935,0.13561355,-0.2863261,0.21485883,-0.014501677,-0.056154806,0.42660573,0.07635535,0.038187154,0.12082513,-0.1109536,-0.16726977,-0.14045706,0.12752664,-0.22403312,0.29296026,0.03382561,-0.0015123436,0.10673546,-0.023042776,0.31976643,0.37588847,0.03496407,-0.051113836,-0.17209104,-0.1395568,-0.0048206495,0.11569662,-0.06008666,-0.10683494
-0.1204755,-0.06537294,0.12541966,0.0020505616,-0.025435857,-0.065176554,-0.019375423,0.0055217086,-0.092319086,0.058675848,0.008195579,-0.21390139,0.16086486,0.074327976,-0.31148168,-0.1481083,-0.22416766,-0.08585346,0.13589096,-0.09016099,-0.07456795,-0.0045164865,-0.25913963,-0.2518368,-0.2268553,0.042577464,0.035254247,-0.014420878,-0.26393253,-0.002542344,-0.22119868,0.18507817,-0.093221456,0.11344491,0.14652625,-0.08981519,-0.18381113,0.022384986,0.0027992683,0.040282466,0.10721976,0.0026069034,-0.3127684,0.037365876,0.10337835,0.114180036,0.002405432,0.08730277,-0.092979334,0.27283978,-0.15803258,0.08872864,0.12958772,0.22387469,0.18706477,-0.33570305,0.070722185,0.1050061,-0.058775242,0.0692089,-0.10898891,-0.22561036,-0.12013676,0.1108218,0.21833,0.19886974,-0.12138839,-0.20142268,-0.18575846,-0.077204145,0.18321325,-0.1626106,-0.14803642,0.20366582,-0.44962645,-0.22295463,-0.043938532,-0.11324605,0.31905422,-0.1866801,-0.07239461,0.05932459,-0.0944865,0.077099785
0.01863081,0.24468601,-0.20198695,-0.11643988,0.04463889,-0.012254944,0.0031513814,0.022510843,0.06352001,-0.109897666,-0.01589103,-0.066538386,-0.26636693,0.20452912,0.0021642295,0.02449663,-0.043593436,0.12637985,0.0848351,-0.06870786,0.14996183,-0.06353501,0.10045616,-0.19176929,-0.08649949,-0.0604716,0.13885444,0.1362392,0.16781633,0.16086459,0.1398237,0.2628413,-0.20379613,-0.04909921,0.18377289,-0.1533413,-0.4126489,0.08020108,-0.048480228,-0.13950467,0.1255013,-0.18564163,0.15420204,0.13296825,-0.33748624,-0.29563382,0.12621938,0.33859769,-0.13584526,0.07326507,-0.05067617,-0.1266351,0.113272645,0.13728628,0.092212096,0.08595817,0.1882097,-0.08892676,-0.20350026,0.19424462,-0.081323266,-0.24151617,-0.028913673,0.07644328,-0.22985266,0.0788592,-0.10863491,-0.25056034,-0.013233918,0.026745627,-0.019835448,-0.044265095,0.0054443213,-0.00885825,-0.0052742213,-0.053357575,-0.012397308,0.20215315,-0.082221724,-0.18430412,-0.019531654,-0.102965795,0.04506024,0.042599265
-0.039535988,0.112128064,0.01735544,0.1126243,-0.06807405,-0.05240672,-0.10081507,0.03551862,-0.04762329,-0.03143972,0.16597174,-0.045139935,-0.10332506,0.17825995,-0.11791049,-0.18030182,-0.21900189,-0.011655862,0.09515634,-0.13127875,-0.07230023,0.09321016,0.12790403,-0.13452898,-0.044683203,0.13569157,0.11501237,0.25703412,-0.20621067,0.03912629,-0.17604117,0.17397916,-0.0941484,-0.00083512947,0.14284629,-0.09288814,0.121963516,0.046566304,-0.030932587,-0.052303337,-0.081029564,0.12135574,-0.1236985,0.006070902,0.10326129,-0.08528792,-0.12881316,-0.11247026,-0.05997559,0.091097526,-0.16918586,-0.016784798,-0.06799077,0.17742097,-0.13999435,-0.10877853,-0.033187162,0.042648666,-0.079850085,0.16009715,0.1655493,-0.14268476,0.025605356,0.36652553,0.09549202,0.08919102,-0.08788461,0.04955352,-0.11797224,0.034001492,0.18105817,-0.122319035,0.10551829,0.030069746,-0.15936914,0.10164659,-0.015192629,-0.11827552,-0.079369135,0.09604944,-0.1522856,-0.15002762,-0.038367286,-0.061317496
-0.12742715,-0.07251433,0.18432564,-0.18597797,0.15218797,0.079843976,-0.027665338,0.043510903,-0.323396,0.10340144,0.08807011,-0.1280449,0.16556022,-0.11935994,-0.1701346,0.18724358,-0.13641743,-0.18364942,-0.10072098,-0.15724725,-0.09081689,-0.13462575,0.3163451,0.04115578,0.12595347,-0.032698974,-0.056067508,-0.0010598786,-0.10374945,-0.18598907,-0.008667384,-0.17860363,-0.036101878,-0.09257455,0.103745446,-0.11304936,-0.13522592,-0.18443862,0.07909363,0.18353087,-0.01849105,-0.052200004,0.031975932,-0.0762439,-0.010762576,-0.06824417,-0.099663414,-0.06922928,0.13611814,0.25502408,-0.0004887853,0.05117975,0.03141688,0.07581974,-0.19255824,0.14079368,0.26463413,0.042448133,0.11586141,0.22253247,-0.030382065,-0.14397375,-0.096613176,-0.016022796,0.0024605794,0.19485478,-0.26342025,0.20057525,0.24169101,0.0047667413,-0.012771867,-0.22676112,0.002899359,0.18960771,0.108236454,0.021265287,-0.26179737,0.18116938,0.07416071,0.11468243,0.32067344,0.11436201,-0.26464373,-0.22479583
-0.041472796,0.07142942,0.0279934,-0.086334854,0.04332817,-0.094093725,-0.06724698,0.07771776,0.17648104,0.14107414,-0.10182136,-0.049132235,0.10999568,0.046880584,0.05180605,0.22040024,-0.09285194,0.057670925,-0.1529995,-0.027430654,-0.057634253,0.16126235,0.096430965,0.1297665,0.061784226,0.064102165,-0.2020968,-0.117805414,0.16203237,-0.030751808,-0.12590562,0.042826265,0.11752487,-0.026694234,-0.08541371,0.228654,0.12358363,-0.028806586,-0.19450048,0.14279738,0.040460873,-0.056577202,0.20826082,-0.13241282,-0.13549541,0.09516143,-0.027879644,0.16680759,0.1128237,-0.04086404,-0.048626196,0.07584921,-0.013740187,0.1712696,0.17030863,0.095814735,0.1490538,-0.19791704,0.10477161,-0.19026516,0.09979738,-0.083779715,0.17358123,0.019864853,-0.092840955,0.019236552,0.27188358,0.23005961,0.17804171,-0.08025716,0.020828769,0.07811249,0.054697223,0.09104473,0.07665871,0.081566416,-0.09493306,0.22492513,0.16832869,0.2975612,-0.12473388,0.09693427,0.11564422,-0.08223286
-0.020881755,0.004479013,-0.03234099,-0.020880584,-0.11188304,0.038753867,-0.17694908,0.06550206,-0.0921066,-0.20149976,0.07317107,-0.09817939,0.018181378,0.1644229,-0.10056824,-0.098224744,-0.20259978,-0.0924805,-0.20981248,0.029555123,-0.055286545,-0.13354896,0.15010445,-0.16568975,0.1531356,-0.13379768,0.019240262,-0.120248206,-0.076624885,0.22153737,0.03039489,0.07005347,0.20994118,0.007044114,-0.112649836,0.071483195,-0.20326632,-0.05816204,-0.028278627,0.028361727,-0.20296803,-0.16712683,0.08085413,-0.12114689,-0.14565724,0.051096153,-0.17157255,-0.10782622,0.0008426514,0.044936165,0.06512132,-0.021098753,0.007703042,0.19642597,-0.076981276,-0.046187967,0.14011334,-0.13817196,0.0028607063,0.05143501,0.18106987,-0.08360737,0.05930787,-0.09486723,0.10957261,0.1431089,0.03065878,-0.015018482,0.0367655,-0.21885692,0.04884375,0.22708084,0.041874185,-0.100994125,0.06529962,0.19330458,0.014284696,0.20845677,0.07355323,-0.027114157,0.18760018,0.14933836,-0.004406353,-0.04738035
-0.025331901,-0.049997807,-0.047546577,0.034787454,0.19327489,0.10038293,0.022576004,0.0032017564,0.11610357,0.1589514,0.054391965,-0.2607243,-0.06499669,0.28623542,0.15462324,-0.10208778,-0.015268702,-0.0333131,-0.06252004,-0.060145315,0.041836154,0.14801964,-0.033279054,0.09892466,-0.13051994,0.043520384,-0.109767586,-0.26551232,-0.19450879,0.169152,-0.06372878,0.018611627,-0.06899728,0.022699052,-0.02627763,-0.18066382,-0.11977023,-0.09028594,0.034421403,0.01736084,0.10872041,0.14998022,-0.09317781,0.03856648,-0.0688138,0.12782028,-0.07753712,0.17576316,-0.03548531,-0.070959285,0.14883976,0.16288261,0.31010693,0.19273531,0.18562974,0.07555889,-0.11761997,-0.09004109,0.17332499,0.15171173,-0.019074457,-0.3058742,-0.011300753,-0.09452097,-0.069802925,-0.16384906,-0.19205616,-0.14255637,-0.06757464,-0.118767,0.125016,-0.103477225,-0.07353219,0.076045774,0.05880604,-0.25535235,0.04356563,0.12677203,0.09650708,-0.08104272,0.12170177,-0.08457355,0.052857194,0.12095199
0.14544645,-0.03373043,-0.014847441,0.14783324,-0.02284737,0.15917411,0.0025541056,0.05900676,0.020946585,0.094200134,0.054606084,0.02476053,0.057954475,0.11793724,0.019075722,0.041692726,0.04321256,0.0059625953,0.049221106,0.011247725,0.10476651,-0.014900249,0.015528534,-0.0765122,-0.055770487,0.16354361,-0.090461634,0.11607438,0.019850036,0.03390305,0.08419046,-0.10543393,0.011575405,-0.003583891,-0.09585231,0.06563571,0.024628274,-0.15185852,0.040685687,0.0060965987,-0.009945613,-0.088159196,0.1503067,-0.13604604,-0.10946958,0.1177957,0.1669447,0.08676975,0.016477704,0.03949548,-0.045669936,0.16687669,-0.056402545,0.097119585,-0.15638365,-0.12900768,-0.09680878,-0.008809175,-0.045433108,-0.17982443,-0.10926448,0.15686801,-0.11586985,0.018476248,-0.068011194,0.16155957,-0.11991807,0.086574264,-0.05018817,-0.0100902645,0.0963057,-0.13695659,-0.11831202,-0.14099269,0.15165104,0.07841613,-0.0748644,0.17991294,0.14930184,-0.004795758,0.15511754,-0.09955878,-0.05816123,0.06019705
0.041325226,0.13910012,0.10885382,-0.15627512,0.003886484,0.08894331,0.026253821,-0.11603221,-0.079887964,0.003315551,0.08233532,0.18372178,-0.1364708,0.24608943,0.14244387,-0.037445806,0.06252684,-0.21647543,0.058801193,0.23520754,-0.044914283,-0.16733205,-0.0090402085,0.0447038,-0.11691676,-0.065487795,0.042797446,0.059754044,-0.00038591976,0.09317158,0.0049179276,0.09241241,-0.112903774,0.11164599,0.05554986,0.15987495,-0.0062117386,-0.053293016,0.004516611,0.09886555,-0.15596499,0.060263578,-0.14291212,-0.1700278,-0.05070771,-0.047738183,0.05789681,-0.0047369604,-0.032502122,-0.082785115,0.07880273,-0.035691567,-0.13595435,0.22232328,0.023890244,-0.019505786,0.013358559,0.019633938,0.023743508,0.09870361,-0.083484,0.098977625,0.13817362,0.17846985,0.116741225,0.17970777,-0.122118376,-0.1321495,-0.22868791,0.12379217,-0.019137593,-0.2214536,0.10327861,0.07781146,-0.03530264,-0.09318563,-0.14431272,-0.16040817,0.1165649,0.040939167,0.081735194,-0.11955535,0.117772266,0.17873062
0.14546965,0.1165428,0.09761613,-0.045376178,-0.10858826,0.08999729,-0.060991086,-0.119128436,-0.090817235,-0.32511598,0.092719905,0.20163915,0.024077317,0.1262779,0.15156735,-0.20255095,-0.14580564,0.02090986,0.16001719,0.12837507,-0.27016398,-0.15637374,-0.13408786,-0.0638028,0.032797243,0.21297939,-0.14817482,7.62877e-05,-0.13971928,0.10510098,0.057328887,0.0018311986,0.06544013,-0.19220534,-0.11068476,0.04295703,0.215165,0.11001502,0.010528752,0.25688764,-0.18954821,-0.14055958,-0.3004426,0.045419414,0.20047687,-0.18600091,0.07139556,-0.12264333,-0.19384918,0.31081507,-0.29842687,-0.044978812,-0.17967176,0.0937629,0.16298078,-0.19117287,0.10262633,-0.06019212,-0.059920575,-0.02115013,-0.33052006,0.13843772,0.047057666,0.17454414,0.28304154,-0.10344623,0.083170146,-0.17926125,-0.1186859,-0.12230821,0.1800986,-0.11189459,-0.03284458,-0.18802136,-0.35138053,0.06446632,-0.13919768,0.022985406,-0.016713021,-0.077545725,0.21006986,-0.31385487,0.02398294,0.40495425
-0.19185162,0.054223344,0.14074838,-0.10518595,0.09869024,0.14130649,-0.18337546,0.009227908,0.122523256,0.08690924,-0.06924412,0.030009106,0.13509479,0.11977506,0.17418765,0.0162955,0.12730646,-0.02366845,-0.11611437,0.06793334,-0.10308564,0.16439694,0.060195655,0.14549907,0.13887118,0.099348105,-0.21012315,-0.18309464,0.08378119,0.1218164,0.13561536,-0.19219938,-0.06677106,0.15270536,-0.0801431,-0.14687918,0.05770849,-0.024281314,-0.05902306,0.11252676,0.21131355,0.08960348,0.03518187,-0.011466573,0.099815995,0.1733293,-0.120943785,-0.18587987,-0.0044314316,-0.1391101,-0.08319144,0.08178089,0.09545029,-0.0077656102,0.104996175,0.041597784,0.23299412,-0.12684909,-0.19288264,-0.11852295,0.056402408,0.10005886,0.0793665,-0.10842292,-0.10121158,0.18263862,0.029637378,0.14508556,0.101962455,-0.053789817,0.026860463,-0.200112,-0.10172355,0.2157198,0.16877079,0.036264315,-0.033832915,0.07543191,0.08568668,0.1137009,-0.10793388,0.081542656,-0.057890575,0.008489118
-0.20195498,-0.036795087,-0.18894544,-0.07609036,-0.071943395,0.15519361,-0.05896063,-0.19862238,-0.053346206,-0.14183046,-0.040454574,0.014401433,-0.042469036,0.17165917,0.06577847,-0.121907175,-0.094672956,-0.056205668,-0.09971782,0.102461465,0.0659611,-0.17371385,-0.1361348,-0.0046756812,-0.1097538,0.2303555,0.104152,-0.2607423,-0.11080916,0.07138005,-0.17676193,-0.27243423,-0.06414672,-0.20701927,-0.20342165,0.08610405,0.04360507,-0.03557314,0.07757506,-0.21198158,-0.10698618,0.028204499,0.20502405,-0.026641877,-0.40661082,0.013595084,-0.0068048113,0.23772456,-0.054252665,-0.04911147,-0.12424885,-0.15652303,0.033779513,0.16328463,0.17038836,0.08684413,-0.06672503,0.28251776,-0.14859019,-0.15144494,-0.021505084,-0.12289553,0.13825713,-0.19077258,0.086797506,-0.04929894,-0.07821488,-0.16504917,-0.23337041,-0.042660635,0.086889036,0.12987395,-0.07516905,0.15992844,0.10162015,0.18987279,-0.038621295,0.026473308,-0.015782489,-0.056193274,0.063893475,-0.2901005,-0.024939189,-0.016509382
0.051448017,-0.109683596,0.0030456218,-0.18485567,-0.13284315,0.16897948,0.079857364,-0.031201765,0.060326044,0.05292462,-0.087553546,-0.01244895,-0.05746528,0.19974105,0.30184355,0.09547095,0.05810676,-0.100627206,-0.092543945,0.22806579,0.2369583,-0.005785987,-0.13109988,0.06753618,0.060863893,0.0071630822,-0.23020239,-0.16248304,0.13301365,0.074549474,-0.079000086,-0.10628345,0.12468217,-0.098395616,-0.12978487,0.06905554,0.08487254,-0.15896477,0.0033837117,0.029851677,-0.06365619,0.028840581,-0.003934714,-0.17852624,-0.103464395,0.0886097,-0.038853638,0.1311936,-0.13119423,0.01786371,-0.1074404,-0.09200792,0.10233514,-0.12295635,0.17785227,-0.0582545,0.15994264,-0.0749447,-0.09724546,0.088993765,-0.08107464,0.10947693,0.041071612,-0.01079541,-0.19256173,-0.23294185,0.040686227,0.06635122,0.11196932,0.20221551,0.07124853,0.13547292,-0.10485259,0.19696191,0.24123727,0.1931525,-0.057570715,0.27028534,-0.037450008,0.120041065,-0.018862855,-0.14488235,-0.06870428,-0.16260579
-0.08257069,-0.009164799,0.14639924,0.06902723,0.019462701,0.14354782,-0.18123391,-0.05729317,-0.09556442,-0.062142406,-0.10045307,-0.0009042863,-0.102478676,0.14150897,-0.07889728,0.16013561,0.039545666,0.13928838,0.035086088,0.075792395,0.06887874,0.066004716,-0.1076578,-0.069621086,-0.015831714,0.117035024,0.05258347,0.14097244,0.10199279,0.012622124,0.0017496794,-0.11230711,0.113226995,0.05392912,0.1906543,-0.16151294,-0.25875673,0.1353725,-0.13150367,0.04616192,0.17441584,0.095168546,-0.03600814,-0.14248163,0.0715562,-0.1565368,0.102167085,0.19432634,-0.19402345,0.17598414,0.16384028,0.20582932,0.09409655,0.048878577,-0.11345062,-0.017713733,0.13640621,0.21462525,-0.0222053,0.047632527,-0.107302964,-0.187549,-0.111420594,0.09366667,0.08319029,-0.016909163,-0.13360769,0.13557293,-0.1059785,0.0035426992,-0.1596826,-0.4188937,-0.09698751,-0.072412364,0.17055778,0.034590244,-0.19122063,0.08811511,-0.13056839,-0.093994334,0.2536734,-0.14759307,0.10009663,0.15218933
-0.028007492,0.07858782,0.088489994,0.028903872,-0.24991582,-0.19771999,0.01439461,-0.003439692,0.1986921,0.007657864,-0.13767286,0.04973561,0.026724232,-0.10219942,0.087525606,0.010554537,0.27386782,-0.11280106,0.041978456,-0.025435077,0.056795772,-0.006133476,0.22524959,0.096126385,-0.17325594,-0.090070866,0.1268402,0.048636254,-0.061611414,0.08474505,0.025347514,0.04714259,-0.30686408,0.015575519,0.17182252,0.32078332,0.26727736,-0.17137542,0.08155459,0.11823693,-0.22805163,-0.20489177,0.07048016,-0.08714428,-0.08429628,-0.106750384,0.24014227,0.17032267,-0.06473103,-0.11463402,0.12634924,0.23545536,0.12116287,0.026753208,0.22177099,-0.027994337,-0.05361293,-0.038526535,-0.12726867,0.032276392,0.1980838,-0.17369328,0.33864495,0.22296095,-0.00731385,-0.15656883,0.18317868,0.22936274,-0.08177859,0.107634835,-0.018797215,0.22136392,-0.019552385,-0.29838812,-0.078401655,-0.10782141,0.021123828,-0.23789187,-0.13440539,0.21770062,-0.008565328,-0.16092058,-0.20146286,-0.007507405
-0.12145255,0.12752281,-0.15347469,0.14166217,0.07246176,-0.030360943,0.062408425,0.03467067,-0.049744163,-0.16077371,0.1902556,0.10444767,0.055130698,0.09457406,-0.1619751,-0.05974305,-0.08418819,-0.1748628,-0.03925107,-0.08329624,0.12917478,0.17464672,-0.058465764,0.079019,-0.03335823,-0.100033164,0.062487055,0.06786441,-0.05305533,0.16292271,0.073670425,-0.10945578,0.050228674,0.03144341,0.01949424,0.1066576,0.15579036,0.20480639,0.15652099,-0.11292905,-0.09837389,0.028923105,-0.12481045,-0.14012907,0.11410838,-0.002388094,0.093360715,-0.13054502,-0.14934964,0.05219505,-0.03348143,-0.04333931,0.06532527,0.1080438,0.11793073,0.043269258,-0.14487478,-0.020598857,0.15919723,-0.057766445,0.06013815,-0.040260132,0.072627984,0.12356823,0.10564499,-0.015382941,0.13603677,0.08156723,-0.12361739,-0.054575227,-0.05004364,-0.07187098,-0.0075665256,0.0018313408,0.021160562,0.009143517,0.071425885,-0.07838414,-0.00961502,-0.03686888,0.06086445,0.0943671,0.045039117,0.040285945
-0.20131338,0.1580362,0.01231647,-0.10092349,-0.19328833,-0.15643084,-0.21309486,-0.0075542075,0.13099603,-0.065690786,-0.17943546,0.00011936849,0.043680683,0.18411602,0.23329678,-0.19727328,0.07784677,-0.066340305,0.17057212,-0.016364204,-0.20694023,0.17094783,-0.11489683,0.17021471,-0.012213774,0.10685469,-0.08997674,0.036317848,0.019153636,0.04867216,0.22423694,-0.084589496,0.17295796,-0.25037205,0.0008645042,0.103830054,-0.10269697,-0.05435345,-0.14723912,0.19700605,0.18802036,0.10914895,-0.104781196,-0.14115773,-0.1210327,-0.07594311,0.089420326,0.059464168,-0.024474438,0.111252226,-0.0076246513,0.19813806,-0.16470864,0.070675746,0.30195022,0.07740034,0.28263035,-0.18759319,-0.090135,-0.034519948,-0.14981191,0.02800719,-0.12046164,0.14607029,0.15294197,0.041782577,-0.07936388,-0.040277578,-0.0059976224,0.19013591,-0.102567405,0.24878192,-0.1442207,-0.020193234,-0.11076428,-0.0043731923,-0.091490485,-0.15438972,0.05333925,0.0140438955,0.056161113,0.020958714,0.16554642,-0.055907514
0.0010753274,0.07052039,-0.1331276,-0.14771843,0.057278786,-0.01539592,-0.085244074,-0.05141154,-0.054264765,-0.18454178,0.02812567,-0.15443884,-0.02376442,-0.14758837,0.088773,0.050220598,0.076966755,0.10365786,-0.0934689,0.10697908,-0.0007428811,0.20441213,0.11838873,0.058559056,-0.11579636,0.059794825,0.14965306,0.12555361,0.10963798,0.043068275,0.1787169,0.1264067,0.11052512,-0.15760945,-0.1786884,-0.12271633,0.04701716,-0.14421982,-0.10322665,0.058848046,0.15042454,0.022528978,-0.0747978,0.096640095,0.13255171,-0.124311954,-0.12098436,0.13737157,-0.07143145,0.14238052,0.20087142,-0.05629351,-0.059328265,-0.10719465,0.0143720945,-0.0402428,-2.1367761e-05,-0.13459072,-0.011585087,0.1289701,-0.047727987,0.0013740474,-0.06698836,0.055828415,-0.13532071,0.10785007,0.028010437,-0.09385854,0.084723435,-0.04773204,-0.006799097,-0.03220216,0.17050894,0.018394187,-0.023178503,-0.092891276,0.14003563,-0.0898955,0.1327098,-0.17565675,-0.07555498,0.0034862477,-0.016818501,0.14578275
0.101933576,0.06929712,-0.2801039,-0.18360509,0.12584145,-0.041270755,0.052678097,-0.018054686,-0.15460537,-0.03494986,-0.0500421,-0.02429474,0.16481826,0.022451174,-0.18021128,-0.05319805,0.102803394,-0.09023692,-0.050335847,0.135675,0.038281187,0.015958898,-0.06435894,-0.120078474,0.15138438,-0.19068694,0.15613206,0.14871748,0.1952598,0.009923139,-0.011198909,-0.052408375,0.14663967,0.03603463,0.031200757,0.13216156,-0.05809473,-0.18265514,-0.13913047,0.08284504,0.16919461,-0.017405245,0.07590218,-0.04250098,0.048435118,0.033277065,0.052466158,0.04807557,0.02605159,0.054127775,-0.057210248,0.2976349,0.0033048652,0.038564574,0.3061214,-0.033455256,0.251277,0.059099887,0.0384634,0.07521654,0.12413503,-0.21781601,0.089317225,-0.1207726,0.07150084,0.22602513,0.10714031,-0.106882036,-0.19051771,-0.13236307,-0.22683707,-0.027304089,-0.05653334,0.26813826,-0.095859215,0.10052042,-0.073485024,0.06494196,0.18075526,0.15763964,-0.043423355,0.07646484,-0.1023767,-0.01225323
-0.18972476,0.1590703,0.15338314,-0.10531143,-0.029399766,0.14377564,-0.057570532,-0.026174545,-0.104558356,-0.20976722,0.17299655,0.07259431,-0.09300337,-0.14705537,-0.17986383,0.017501427,-0.24310525,-0.04394714,0.14136404,0.08518737,0.18675563,0.014245138,0.10941355,-0.015822032,0.09049811,-0.107282795,0.12649058,0.099696666,-0.20772538,-0.013046407,0.26662874,0.17652768,0.14899197,-0.094154,0.055023775,-0.08884451,0.0821599,0.0072549134,-0.17444062,-0.037421968,-0.079668164,-0.11054129,-0.13366243,0.04303922,0.028772889,-0.1343393,0.2131469,-0.010008563,0.051983874,0.19309959,0.16185398,0.12537014,-0.07892329,0.02742616,-0.012972229,-0.19035144,0.010707258,-0.017559377,-0.02801264,0.13641319,0.18028887,0.18519856,-0.10444005,0.13815355,0.008028223,0.09053267,0.0022748862,0.1345197,0.1638939,-0.03675311,0.11357169,-0.16815096,0.17803724,0.058965262,-0.18342072,0.11528675,0.11122445,-0.008564514,0.18749115,0.04917835,0.1565876,-0.08211716,-0.13705043,0.18431391
0.0640455,0.024256771,0.093653865,-0.010891277,-0.093430676,0.16533406,0.08776871,0.04470113,-0.017125187,-0.1834832,-0.17496039,0.063381605,0.14230642,0.087383635,0.2224018,0.08382612,0.15519969,-0.20091389,-0.18342121,-0.08660377,0.011652147,0.0030698865,-0.07134361,-0.083159626,0.044829845,0.19132267,-0.19986744,0.026358562,0.1522328,-0.046892855,0.295928,-0.15899323,-0.02005819,-0.20320168,-0.005007882,0.12730065,-0.050490122,0.11941268,-0.14733768,-0.09979141,0.037661813,-0.070357755,0.15014662,0.01704934,-0.16568013,-0.22621366,0.05960076,0.19327095,-0.1514504,0.01024647,-0.03740613,-0.31100827,-0.33041593,-0.18867235,0.07628111,0.1523605,0.085704856,0.16327344,-0.029084917,0.06937909,0.033636328,-0.058796972,-0.028403016,0.057263695,-0.08267146,0.0816019,0.18825004,0.03005352,-0.05463069,-0.21683303,-0.028507289,0.18692023,-0.074088104,0.07057596,0.04177439,0.11352486,0.0018943682,0.019360334,0.0017936466,-0.104046926,-0.09738451,0.07273972,-0.07438497,-0.05628246
0.09479591,-0.10432414,-0.20331945,-0.00069239934,0.105075024,-0.03827757,0.0791892,0.021970935,-0.09314574,0.21296103,-0.09634483,-0.059622154,-0.062398974,0.13039476,-0.06672116,0.20915286,0.0036002304,-0.07076417,-0.24482065,-0.002009339,-0.05990947,0.16551283,0.14824757,0.14279574,0.042320568,0.031445738,0.14223897,0.09317931,0.11938212,0.043691296,0.15434898,-0.043073073,-0.11215444,-0.007376199,-0.043137155,0.16998139,-0.026953934,0.09413004,0.011911273,-0.14575535,-0.006139483,0.07218471,0.17138015,-0.11997301,-0.031598046,0.09048321,0.14725512,0.23353203,-0.06610167,-0.0034054327,-0.04456122,0.10664394,0.14293735,0.035443835,-0.021849057,0.1697172,0.111987814,0.09401272,0.10387385,-0.13053346,0.06762961,-0.123585634,0.07136502,0.008355144,0.15621504,0.07567062,-0.102275655,0.06705485,0.045405656,0.116699986,0.11397005,0.009221524,0.026133187,0.14279373,0.084069796,-0.06602791,-0.0890781,-0.065087296,0.18827373,0.16149384,0.08444554,-0.026165187,0.14257415,-0.10183252
-0.076734446,0.17436007,-0.002968558,0.12489562,-0.30230454,0.26826257,-0.091592506,-0.13709839,-0.015997386,0.17743018,0.052383672,0.2068478,0.0866619,0.19668032,0.34803906,0.1350927,-0.04247056,-0.119173676,0.042151883,0.055175923,0.32253957,-0.23068471,-0.043211494,0.01655021,-0.052454993,-0.016709127,0.03188607,0.10341955,-0.13552052,-0.017882226,-0.28336385,-0.12031893,0.11965949,0.35714683,-0.39620614,0.28840932,0.0529128,-0.04551374,-0.08437155,-0.14545713,-0.22296536,-0.12517978,-0.11449834,0.17419367,0.04454221,-0.046560336,-0.13499577,-0.03293311,0.25651821,-0.024701256,0.25947955,-0.13802129,0.16286126,-0.1358913,-0.107934505,-0.085710235,-0.12128177,-0.15695931,0.016099302,0.113899834,0.07519648,0.13528903,0.043870624,-0.05329016,-0.0072654956,-0.17049702,0.33587483,-0.0015897722,-0.13109046,0.01533144,-0.0010098126,-0.17234176,0.099063925,-0.164616,0.025375558,0.26378813,0.03808551,0.11343784,-0.46844184,0.056260157,-0.31135798,-0.009229482,-0.18083638,0.073008
0.06382694,-0.15958038,0.20886001,-0.002051223,0.17453592,0.08589792,-0.027928276,-0.18912295,0.0364959,-0.062242042,-0.06032625,0.05246027,-0.124343395,-0.12358103,0.031443387,0.026122754,0.10045986,0.022458926,-0.2078979,0.19200046,0.09928261,0.031298608,-0.03730255,0.050800487,0.13266775,-0.18356808,0.1270822,0.020448118,0.021873653,0.2540467,-0.14324133,0.13991375,0.123087205,0.029126253,0.0039158305,-0.07447637,0.013944699,-0.013181982,-0.18151866,-0.23708507,0.16457471,0.24121886,-0.18063481,-0.105473265,0.122982614,0.065326385,-0.023834644,-0.118725285,-0.06861223,0.16201396,-0.038801502,0.09521725,0.23727332,0.0234091,-0.17191851,-0.06452301,-0.026503373,-0.1155988,-0.14029752,0.08010008,0.04415606,0.026098905,-0.15081166,0.07829272,0.19296834,-0.098978885,-0.20037557,-0.028482867,-0.082022734,-0.002517797,-0.18863936,-0.2030234,0.0007004475,0.038031,0.12293835,-0.08642047,0.14833498,0.1144384,-0.18998088,-0.18719457,0.014335435,0.058358125,0.01779294,-0.22050205
-0.024511116,-0.013463872,-0.12654091,-0.07247674,0.08638893,0.00814235,0.055461943,-0.13762534,-0.124878384,-0.04956867,0.14236362,0.07053947,0.11793858,0.046821915,-0.018229984,0.08355443,-0.099681735,0.0258853,0.06689087,-0.13873637,0.05971311,0.067456394,-0.014508055,-0.09961986,-0.021794481,-0.07808606,0.15179896,-0.110085875,-0.1034816,-0.05896686,0.042143695,0.067609794,0.16505551,0.11933263,0.059953526,0.13182902,-0.084218405,0.03184506,0.041924186,0.09775056,0.14918219,-0.009543374,0.09549017,0.049682587,0.06603217,-0.0096251415,-0.0943951,0.028469926,0.102790914,-0.08673654,0.011293923,-0.1076273,0.11295454,0.06380816,-0.013327121,0.1352669,0.15536794,-0.08941704,-0.15902098,0.095615715,-0.04525839,0.13959059,-0.06766799,-0.11104825,0.09333878,-0.028192243,0.112669356,-0.112033315,0.18112935,0.1423806,-0.04292744,0.12692836,-0.13512087,-0.1370257,0.0052501364,-0.16209486,-0.06756915,0.13811453,-0.09854989,0.0788213,-0.06978636,0.12731194,-0.14675492,-0.106819354
-0.07843032,-0.00077560474,-0.07167757,0.07760553,0.091716014,-0.14016727,-0.18931346,0.07628012,-0.26617002,-0.005584737,-0.03796733,-0.19551618,-0.08145634,0.12675284,0.13107027,-0.22901143,0.09718899,-0.1610774,-0.0744915,0.01112211,-0.1372014,0.17512867,-0.1423151,-0.039509587,-0.081047766,-0.16015403,0.026400676,-0.052619155,0.14999492,0.0020000385,-0.22172153,0.015665298,0.069222726,-0.1291511,-0.007180582,0.04796066,0.08793237,-0.17727838,-0.1716959,0.28714103,0.17398271,-0.19534929,-0.050149634,0.1593709,-0.12755683,0.21356821,0.21729758,-0.008728951,-0.12657276,0.088228844,-0.019599793,0.24960586,-0.12126703,0.0618023,0.30648676,-0.12822255,0.13834271,0.11187029,0.01629691,-0.10735339,-0.30855837,-0.029950906,0.17618851,0.10216162,0.15502152,0.039434027,-0.048010737,-0.01290154,-0.13029926,-0.15926433,0.10241904,-0.07731285,-0.027814483,0.15292332,-0.08669892,-0.057198104,-0.050116573,-0.05623745,0.100617625,0.20219271,0.08052535,0.0352062,-0.0007062565,0.34170803
-0.17139915,0.2307082,-0.21594319,-0.08148481,0.020255817,0.024369739,-0.1542088,0.105102055,-0.04110779,0.1382107,-0.05486485,-0.055199344,0.04368152,0.1258339,0.04777863,-0.029395362,-0.17553696,-0.009993307,0.054507915,0.05795753,-0.012200781,-0.011761355,-0.11221001,0.0008007203,-0.11891511,0.13709831,0.13639084,0.11173246,0.107633345,-0.20359914,0.23187503,0.017721388,-0.023356438,0.08976224,-0.10803939,0.17189755,-0.09483383,0.0610008,0.104157664,-0.042541303,-0.09195822,-0.07910745,0.16433047,-0.13454051,-0.1545279,0.1682442,-0.030318188,-0.07398931,0.08289345,0.026738713,0.046392098,-0.0606492,-0.22578396,-0.023316277,0.21468362,0.019564258,-0.11490755,0.049872614,-0.02819616,-0.13835995,0.094903424,0.062242538,0.1884645,-0.11008913,0.047881123,0.00518759,-0.078107744,0.030959053,0.33133596,-0.067214206,0.16911356,0.34108794,-0.07110564,0.04828921,-0.13980874,-0.016680721,-0.049926884,-0.023696812,0.27855155,-0.12090176,-0.023019332,0.13118185,0.26526752,0.10261022
0.089377746,-0.15366155,-0.07688564,-0.18448518,0.034061823,0.07763401,-0.116316415,0.13131872,-0.051491473,0.122664765,-0.0762268,0.031785212,-0.10925065,-0.04275973,-0.015744904,0.014857459,-0.00717043,-0.018954195,-0.36873364,0.04960493,-0.0022161547,0.13675095,-0.0025825738,0.043550014,0.050391447,0.19915996,-0.19552758,-0.09846964,0.06434442,0.06585232,0.2045342,-0.09190712,-0.1254683,0.033177063,-0.109499544,0.1800883,0.086559124,0.18800789,0.0197817,-0.18663104,-0.017236859,-0.06481098,0.108637035,-0.12571126,-0.24109966,-0.16390955,-0.22090603,0.09404083,-0.11672662,0.12055443,0.040006377,-0.12587574,-0.17653416,0.053599045,0.139503,0.24314128,0.15240937,0.0015724485,-0.10977916,-0.068379305,0.14489958,0.1976714,-0.15543069,-0.06541278,-0.060410723,0.011925759,-0.123802654,0.08296852,0.074131556,0.09658558,-0.20098425,0.23491216,-0.115128525,-0.029936586,0.09778347,0.07645999,0.055240206,0.21712565,-0.11882619,-0.17911993,0.02525932,-0.031590965,0.2502006,-0.07643241
-0.04674097,0.10986703,0.17304951,-0.12838985,0.09529193,0.049204685,0.1740633,-0.13581218,0.25330925,0.052922327,0.05284686,0.03837657,-0.088885084,-0.17351477,0.22518079,-0.022488184,-0.012055865,-0.04636038,0.104965486,-0.1694117,-0.025174089,0.0123343645,-0.0188017,-0.047548153,0.106569566,-0.021497356,0.09811345,0.23166731,-0.0861084,-0.13795015,-0.031706363,-0.1766407,0.14440584,-0.13606742,0.21955813,0.08723334,0.18186767,-0.047219124,-0.019573407,-0.03711931,0.09909637,0.16188526,-0.07292705,0.057532404,-0.14308219,0.103478625,0.17183357,-0.019975184,-0.051174365,0.052048992,0.16572553,-0.012852129,-0.023080166,-0.054881223,-0.11531354,0.118424,0.15153082,-0.04010589,-0.025597963,0.06622457,0.20776334,-0.08466687,0.06889941,-0.019557122,0.20107494,0.09268865,-0.09337638,0.13575655,-0.01985828,-0.047126766,0.130793,0.17706281,-0.038724367,0.11197877,0.22441366,-0.056462154,-0.2101354,0.11494175,-0.08377667,-0.06921929,0.10120896,-0.17459734,-0.08832986,0.12144528
-0.06826198,0.15428841,-0.107134186,-0.21718596,0.12167088,-0.11101535,-0.21970366,-0.20452674,-0.24733835,0.16288255,-0.094666764,0.08086641,-0.11160269,-0.09307239,-0.04500466,0.08439176,-0.15949874,0.04055285,0.067499645,-0.13371894,-0.008801629,-0.1597228,0.16689777,0.09027649,-0.051849008,0.15252024,0.22330473,-0.106372915,0.014320116,-0.14911953,0.030861802,-0.06183011,0.15000468,0.15105285,0.03046673,0.09375991,-0.11739852,0.09327284,-0.12126141,0.0961219,0.071171656,-0.12587513,-0.09129621,0.0090251835,-0.31064647,-0.05285559,0.0671468,-0.10659391,-0.101755634,-0.02727687,-0.103234574,0.067539856,0.09539255,0.17051458,0.06475896,0.020028736,0.1741558,-0.18093307,-0.124354236,0.17896688,0.09958241,0.13556792,0.14273036,0.015720155,-0.007113799,0.2248406,0.09614151,0.21709251,0.16843857,-0.08633528,0.043591563,-0.205759,0.18278417,-0.041669965,0.10318086,-0.11077064,-0.059715193,0.19692339,0.16160615,0.18081766,0.091712914,0.10292991,-0.1474613,-0.19171655
-0.030451668,-0.07075997,-0.008937769,-0.16378766,0.118235454,-0.19197372,-0.16124228,-0.14741345,-0.29304057,-0.03051258,-0.12476506,0.026507365,0.07141783,0.07589009,-0.103163876,0.21870096,-0.22183949,0.09855765,-0.031531505,0.14358643,0.046755455,-0.10396745,-0.078245096,0.0919116,-0.018465912,-0.053126078,-0.07530365,-0.047625866,-0.107009895,-0.021739386,-0.09772043,-0.24777336,0.27095243,-0.038775243,-0.13152835,0.14467818,-0.2778866,0.024469156,0.030935887,-0.056800563,-0.041809138,0.11372298,0.115086906,0.04903044,-0.17334016,0.07567224,-0.21669286,0.1613129,0.24981084,-0.13671522,0.16192901,-0.017516268,0.1383566,0.25576514,-0.07013792,0.08840663,-0.040005732,0.11811799,0.023565719,0.115562834,0.14527625,0.045032267,-0.1265143,0.058576368,0.12089047,0.21432334,-0.037588082,-0.051119912,-0.1880719,-0.20131175,-0.2477553,-0.089239046,0.113655895,0.26636964,-0.2077979,-0.020150676,-0.22541244,0.31344473,-0.19120517,-0.051524863,0.053949986,0.07312126,0.031954356,-0.22905731
-0.0788281,0.17645647,-0.048526213,-0.10619847,-0.20447004,-0.11588616,0.04353753,-0.018668216,0.0067311344,0.028335005,-0.06794757,0.06869463,-0.20805466,0.16893618,0.01924203,0.05236573,-0.13994697,-0.13607568,-0.07131543,0.17592199,-0.009801464,-0.023050742,-0.26576927,-0.08895316,-0.06929034,-0.108294435,0.18465649,0.13689494,0.21503897,0.16898818,-0.25167742,-0.08910058,-0.21777621,0.19992115,0.21556625,-0.025289701,-0.15621659,-0.1451286,-0.1125775,-0.14596692,0.024319539,0.13885723,0.0017241666,-0.15576787,-0.26707178,-0.14054608,0.094439134,0.20159109,-0.06911012,-0.119503684,-0.01628376,0.13485232,-0.093866505,0.1177527,-0.06219158,-0.20475507,-0.154303,0.15357542,-0.14592631,0.1394952,0.06745212,-0.16135387,0.17901926,0.0046436707,-0.019907536,-0.15409043,-0.14319588,0.001483957,-0.02995955,0.048381183,0.086290635,0.092569456,0.071088746,0.0024850955,-0.13932079,0.08844705,0.05723502,0.11077555,0.010303398,-0.23326288,-0.14924267,0.012594303,0.10033123,0.1165376
-0.15231922,-0.0597113,-0.10096609,0.039467424,0.06131313,0.1287018,0.09667572,0.12132536,-0.026631229,0.13097163,-0.20363337,-0.06607189,-0.096603,0.091615684,0.13737245,-0.1679521,0.23406127,-0.08712519,0.014302058,-0.035306618,0.042026784,0.114541404,0.0039886995,-0.08695015,0.19104709,0.04258774,-0.008117175,0.060809806,0.2415064,-0.088662356,-0.051943693,0.07540665,0.093255535,-0.12279466,-0.005218635,-0.00840748,-0.15898721,0.1187045,0.082661375,0.054470737,0.11640649,0.018684339,-0.072212964,-0.0719293,-0.055932336,0.03083198,0.028993275,0.04452806,0.010706351,0.1738497,-0.12649739,-0.047346946,-0.1290604,-0.15921755,0.022341292,0.22756392,0.021403689,0.20958906,-0.0014940535,-0.08600047,-0.19989696,-0.09627394,-0.20997056,0.14650427,-0.12701438,0.14997795,-0.11266142,-0.16255128,0.060768865,0.16971971,-0.11693098,-0.05606527,0.072845004,0.039439876,0.18706422,-0.037099335,-0.10377363,-0.15682408,0.0132583575,-0.10608109,0.056567546,0.041895445,0.12169552,-0.20947863
0.11131825,0.016584279,0.033108726,-0.17708631,0.16066737,0.019418312,0.016047379,-0.12053388,-0.24527442,0.30553356,-0.01934551,-0.10282124,-0.042779118,-0.24843718,-0.009776127,-0.06206003,0.006608667,0.07674236,0.17825413,-0.36116937,0.17776677,0.25206286,0.028993279,0.20487365,0.13917156,-0.06704379,0.06354815,-0.03466428,0.07962195,-0.20858134,0.23865135,0.12205038,-0.23145552,0.24832053,-0.1811838,0.019121716,-0.13451862,-0.039588343,-0.07414841,0.19858581,0.22863485,0.22031905,-0.09593215,0.099335514,-0.07634302,-0.08167646,-0.1673326,-0.3155628,-0.18084958,-0.11916584,-0.35678008,0.0777762,0.090820186,-0.20426968,0.04100599,0.2122641,-0.0077723986,0.049512513,-0.28577814,0.024648404,-0.20462814,-0.055900708,0.14914227,-0.086913645,0.010369133,0.07470496,0.050949257,0.20562394,0.24044676,-0.3149187,0.27255493,-0.15995835,0.05708136,-0.12736814,-0.15434672,-0.053523336,0.055583026,0.014936973,0.18264702,-0.08549135,-0.06520176,-0.12556241,0.10002015,0.12828171
-0.029086944,0.29691005,0.05042984,0.023413358,0.029394023,-0.23921016,-0.032313228,0.027740251,-0.11448084,-0.4039257,0.15170553,-0.048565883,0.24883266,-0.10341748,-0.08221949,0.227133,-0.1922376,-0.020451274,-0.0074321995,-0.11860019,0.0015613023,-0.028766744,0.22889961,-0.17374603,-0.011105552,0.11362369,0.0919194,0.09943345,-0.009485198,0.06351632,0.26576534,-0.105177745,0.07097433,0.049567793,0.104057565,-0.029110286,0.21408923,-0.092561215,-0.045021832,-0.004871345,-0.049067255,-0.23615241,-0.124719106,-0.022447625,0.09781075,-0.097170085,0.2369264,0.04261164,0.0020015547,0.028987667,0.04999872,-0.038602855,-0.29114872,0.098059535,0.02187181,0.0811178,0.09933896,0.013529998,0.09818131,0.14158243,-0.10147754,0.060351983,0.13597818,-0.031738933,0.075583205,0.1428423,0.108684726,-0.08458226,0.23743127,-0.43005848,0.13739367,0.2869176,-0.09793486,0.0394479,-0.18320929,-0.19027315,-0.35433835,-0.16727607,0.26299682,-0.05049011,0.34228578,-0.12369877,-0.21388753,0.028966973
-0.032394677,-0.02062273,-0.11738903,0.118962206,-0.084789224,-0.1739752,-0.17867807,0.13233587,-0.05767789,-0.017790493,0.1217054,-0.018638417,-0.03970692,-0.04034868,0.20287351,0.044752806,0.027287524,0.100361876,-0.016736355,0.119431265,-0.09401841,0.13227141,-0.10142546,0.021118622,0.06776033,0.13287719,-0.12087801,-0.059165154,-0.098417334,-0.1430279,0.15627433,0.12957579,0.04165355,0.08964069,0.037736442,0.22188734,-0.0057755564,-0.13847107,0.04040524,0.296233,0.0754494,-0.027267486,-0.037339177,-0.09365782,-0.0315491,-0.1461944,0.081799865,-0.14317782,-0.10631434,0.10362676,-0.035321172,0.06515286,-0.20242526,-0.09611745,0.1452981,0.06532057,-0.008091199,-0.029153286,-0.06312425,-0.09815672,0.0030665074,0.062772065,0.13084939,-0.079961784,-0.038887504,-0.15017061,-0.120137006,-0.09572115,-0.21503882,-0.040358238,-0.09620425,-0.004496462,-0.07805576,0.14545839,-0.14552736,0.21006341,0.1259817,-0.0930745,0.08762723,0.14287892,-0.15135345,0.08831568,0.046497557,-0.013051819
-0.025271103,0.11913589,-0.35931838,-0.10265965,-0.21968745,-0.04230098,0.017390333,-0.109773785,-0.11035497,-0.19460233,0.081872255,-0.03918888,0.079695284,0.01095033,0.16234013,0.084369324,0.10748136,0.004883735,0.11354653,-0.098317556,0.056635413,0.056795273,-0.051439404,-0.17992127,-0.24025652,0.09858397,0.3139694,0.004830018,-0.033316117,-0.09347227,0.19265497,0.15417796,-0.07897126,-0.11610478,0.0067669763,0.037273183,-0.16524728,0.07087511,-0.03669092,0.009962593,0.03870933,0.114670075,-0.09006472,0.0881551,0.14912827,0.0139264185,0.17206508,0.2239086,0.026858874,-0.02463982,-0.032866072,0.18296911,-0.079328425,-0.096866935,0.2350798,-0.05306621,-0.027050812,-0.000730393,-0.2060491,-0.18884043,-0.11124319,0.34333596,0.34169474,0.037819456,0.14274862,0.19994393,0.27324474,0.08498888,0.15072046,-0.18610035,0.058298137,-0.23008154,-0.13460095,-0.058631238,0.11963227,-0.1022134,-0.0014981059,-0.118701726,0.17026834,-0.00036120115,-0.16643633,-0.2268656,0.038120717,0.33712453
0.01192079,-0.036263015,0.17952292,-0.025004119,0.10398332,0.15040807,-0.14677225,-0.1147925,-0.29904756,0.12915061,-0.15033217,-0.12262233,-0.11146589,-0.06651665,-0.16172045,0.08557847,0.014436564,-0.17263816,-0.15664518,-0.10820293,-0.18438649,-0.093130365,0.1518489,-0.12634034,-0.057812843,0.027482042,-0.014127039,0.18420817,-0.009352073,-0.15064333,-0.03342213,0.049233958,0.23801507,0.067227356,0.16881672,-0.1480679,-0.15539071,0.047112327,0.057339564,-0.1614669,0.22340737,0.21007308,-0.09637705,-0.04786475,0.13622516,-0.13215353,0.018720683,0.06864925,0.12338588,0.1169328,-0.054765087,0.085188255,-0.11925253,0.1649692,-0.07213116,-0.098696545,-0.032387797,0.15990289,-0.141826,-0.01214075,0.020770151,-0.012818863,0.036537196,0.19159073,0.20013703,-0.07318403,0.032835018,-0.15251034,-0.086612195,-0.19964994,-0.081673965,-0.22486325,0.1525983,-0.02845594,-0.012737198,0.042390145,-0.12293044,0.06509062,-0.06768607,0.2111993,0.1283718,-0.14897472,0.15134218,-0.04166241
-0.21086887,-0.24762358,-0.03638828,-0.18105611,0.29615945,-0.006555119,-0.01613528,-0.15224291,-0.05739506,0.021915317,0.037738353,-0.025382927,0.031421013,-0.10845149,0.056602888,0.10823488,-0.30341613,-0.20051704,0.05948721,-0.010984633,0.15255283,-0.02399333,-0.18966614,0.015240978,0.02851324,-0.014502113,-0.014984271,0.08953733,0.069456026,-0.14080146,-0.07371016,-0.023571799,-0.094762295,0.19453134,0.18790016,0.039301615,0.065559946,-0.13888375,0.0032463819,0.021429062,0.19162536,0.22109978,-0.09506809,0.04491572,0.15279594,-0.11955946,-0.036083505,0.07924701,-0.07971001,0.13709842,-0.21139613,0.20526378,-0.0026821324,0.0042716404,0.011498572,0.03420385,0.029263642,-0.038965423,0.028143218,0.09214269,0.16794422,-0.1370341,-0.15876506,-0.14312486,-0.004219599,-0.111146785,-0.10691894,0.05464948,0.017586336,-0.111966744,0.02323656,-0.14830725,-0.14526148,0.03891293,0.0028882553,0.12819175,0.149223,0.31023535,0.0133940885,0.12579355,0.087596364,-0.3085892,-0.11985312,0.1462474
0.07191013,-0.13857289,0.09618699,0.10124023,0.09739038,0.09898961,-0.0063367016,-0.1923844,0.13468331,0.03132453,-0.123193085,-0.17524296,0.04579896,0.06409354,-0.09235479,-0.045259308,0.2458093,0.10628777,-0.1385198,0.00093625044,-0.037270017,0.122666284,0.10474686,0.15243939,-0.05717851,-0.15151738,0.050652422,0.10628037,0.13921468,0.20284489,0.20927167,0.0648162,-0.15895914,0.13944834,-0.076690495,-0.18035679,0.032707445,0.06564754,-0.11424764,0.11838685,0.21827596,-0.031007318,0.1870502,-0.0033291713,-0.108883925,-0.12725382,-0.07119411,-0.13914193,-0.2407797,0.055063542,-0.104259655,0.06975217,-0.04713399,-0.06902003,0.09591707,0.10922672,-0.06286767,-0.036150582,-0.32946354,-0.038798526,-0.21223494,0.22192045,0.15735883,0.08663848,-0.049526002,0.14167464,-0.24658297,0.17546536,0.12839681,0.002198474,0.21348837,0.13711305,0.112826504,-0.035142723,0.14694172,-0.019124422,0.096688405,-0.19185819,-0.097677894,-0.16071768,-0.05964705,-0.019345697,0.044544883,0.09516501
-0.14494687,0.018100925,-0.08114048,-0.047452766,-0.14821357,0.28895372,0.09485565,-0.1796241,0.039308257,-0.07728483,0.05681579,0.18157218,0.1079205,0.0016063852,0.18036997,-0.013791781,0.04438931,-0.0368653,-0.10116998,0.14029187,0.095660634,-0.37228712,-0.25341395,0.05950945,0.10278582,0.20419213,0.06401327,0.14618112,0.0015207244,0.29468665,-0.28993648,-0.25154448,-0.055769585,-0.2303476,-0.32536826,0.09561213,0.094590664,0.15596963,-0.07819854,-0.029873913,-0.07143013,-0.032813065,0.11667617,-0.05683756,0.052133515,-0.08607398,-0.13100171,-0.11019099,0.15402006,-0.04100248,0.28422463,-0.12335436,0.06406388,0.00918702,-0.124794945,-0.045227434,-0.16778798,0.006747326,-0.05797545,-0.15682076,0.048335977,-0.05150373,-0.18713859,0.024700407,0.08572589,-0.19321704,-0.061675392,-0.19657451,-0.22613347,0.28577635,-0.09323808,0.17802308,0.21257383,-0.05130599,0.061789896,0.06901517,0.16469832,-0.124037094,-0.47562504,-0.21155298,-0.18741672,-0.28689003,0.1898851,-0.08138226
0.08798096,-0.0288785,0.055007115,0.09800151,-0.010519149,-0.13283387,0.061073102,0.029709104,-0.13394275,-0.02577712,-0.08174448,0.11888055,0.17159551,-0.35530108,-0.19296038,0.19288425,-0.27584782,-0.13702227,0.08175761,-0.21512365,-0.13768284,-0.13543701,0.11276217,0.07054609,0.0213711,-0.14572716,0.20209703,0.22789983,0.21975194,-0.118481874,-0.042881187,-0.017513737,-0.10613543,0.22755496,0.23777194,0.21420826,0.10719299,0.028331494,-0.16057166,0.13450848,-0.17716686,0.03226776,-0.16654915,-0.15837449,0.24974905,-0.21691887,0.17154384,-0.010869033,0.1428031,-0.068651214,-0.08251323,-0.04809715,-0.077453,-0.06288484,-0.02363609,0.15986203,-0.08375659,0.31136695,-0.028681818,-0.02943931,0.113615476,0.06602915,-0.08984753,0.00070825516,0.025010128,0.042361785,0.08149286,0.19618666,-0.06449727,-0.2820749,0.012068012,0.15634216,0.18653989,0.2227941,0.05687926,0.26809502,0.16448113,0.13176824,0.029889826,0.040517602,-0.13269372,0.11791737,-0.27532208,0.1268453
0.06682986,-0.04236852,-0.09245351,0.15032597,-0.18674295,0.024447212,0.07160556,0.1390973,-0.0057936953,-0.002667361,0.19351317,-0.07077207,0.048604336,-0.051964287,0.21439192,-0.16668566,-0.028842144,-0.115554415,0.17540704,0.081916705,-0.11866794,-0.076944776,-0.12984435,0.08684284,-0.08566685,0.09376819,-0.009308545,0.123341784,0.10016884,0.16550483,0.18233137,-0.20266488,0.06533443,-0.13799925,-0.10698358,-0.047463283,-0.021277033,0.1432939,0.08215116,-0.16726968,0.13923,0.0399619,-0.11797125,-0.057646208,0.03672992,-0.04199248,0.159033,-0.09135754,0.09053248,0.005509357,0.011439619,0.028855145,0.064221874,0.14109626,-0.09913483,-0.15475279,0.15937556,-0.13471468,-0.015604932,0.061114915,-0.026839836,-0.10236997,-0.046374574,-0.0053054215,0.07719822,-0.12778272,0.14363353,0.023160836,0.29749697,0.06742652,-0.07613658,-0.023179606,0.111491695,-0.014198825,-0.040303584,-0.15740655,-0.07579499,0.008892854,-0.003360521,-0.07764339,-0.1254149,-0.01552546,-0.13547635,0.09420175
0.087269604,-0.08806796,0.01993978,-0.0072809635,0.19200194,0.07926963,0.09533068,-0.13521738,0.19948423,0.14635767,-0.061507884,0.11206831,0.20996423,-0.019521074,-0.08632323,-0.08580555,-0.095858246,0.101305686,-0.14676516,0.16033886,-0.14024462,-0.16144171,-0.12271915,-0.109523036,0.29969484,0.1528974,-0.107087635,-0.0016220221,-0.013151462,0.16375093,0.10012706,0.17934951,-0.018953362,0.046505496,-0.19412123,-0.15932873,0.18169332,0.116079874,0.064146034,0.07087942,-0.097058706,0.14306581,-0.036018014,0.13800712,-0.10066596,-0.19772841,-0.0001572399,0.072001144,-0.15443192,0.17372262,0.00049317087,0.0074948138,0.040729236,-0.10999957,0.12668349,0.17007186,0.08819368,-0.25207978,-0.110357665,-0.015999742,-0.087836675,0.0015700008,0.037484854,-0.09527437,0.060758285,-0.05521021,-0.10427034,0.020680854,-0.012933547,0.18444422,-0.059665017,-0.0956585,-0.0008327574,-0.032855842,0.1460314,0.19047533,0.014221613,-0.1832746,0.060136914,-0.06827415,0.108227395,-0.025409847,-0.0708142,0.13815884
0.0064611747,0.16284339,-0.29144824,-0.13078567,-0.09474469,0.14350949,0.042554572,-0.13296483,0.34564292,0.031083088,-0.07731151,0.10423427,0.10228297,0.13396089,0.008010406,-0.074254416,0.064384945,-0.0068372553,-0.13576575,0.0668191,0.32236165,-0.19345553,0.009484469,0.19401497,0.009612049,0.0519209,0.15165956,0.14758946,0.123190716,-0.021415887,0.09796147,-0.08173144,-0.3592648,-0.11353926,-0.14307468,0.2745377,0.18846112,-0.05686479,-0.01006393,-0.24543947,0.1235074,0.07553414,0.11690814,-0.08966263,0.16888195,-0.2771351,0.088964015,0.17864026,-0.0932475,-0.21336332,0.15662499,-0.24331014,-0.03708212,-0.016709624,0.05579599,-0.14336945,-0.3466502,-0.013237178,-0.21872711,-0.15138586,0.08598207,0.031868946,0.28146702,0.06764909,-0.033785056,-0.23100579,0.18595393,-0.18207242,0.14366452,-0.046194505,0.120131485,0.30115095,0.1022969,-0.00859197,0.054318037,-0.097530894,0.03811227,-0.20984124,0.09938546,-0.1310859,-0.07142526,-0.17606074,0.12065379,0.055998363
-0.08518461,-0.10330125,0.067668974,-0.030734017,0.13887407,0.06850401,-0.14348334,-0.14106768,-0.24877317,0.022173384,0.097245455,-0.16591856,-0.13960095,0.038579773,-0.031438213,-0.19017442,0.0643741,-0.08779721,0.062118698,0.046783987,-0.058930986,0.045518953,0.056511357,-0.11326884,-0.14883009,-0.0758526,0.16123849,0.018600132,-0.19578478,0.16679986,0.03506427,0.06383777,-0.03428741,0.110925525,0.08859862,-0.008972481,-0.24872124,0.08365446,-0.106977075,0.0465306,0.13630198,0.06094311,-0.18938981,0.02489552,-0.042581916,-0.043794904,-0.003050962,0.003299721,-0.21255596,0.21389489,0.15875414,-0.018250579,-0.073039584,-0.013538663,0.13556606,-0.24054776,0.09898119,0.17870809,-0.18495604,-0.05085698,-0.042108335,-0.039349765,0.045680508,0.21860412,-0.06131798,0.3096483,0.069357954,-0.12505642,-0.15812884,-0.06269962,-0.22034808,-0.3159528,-0.00060990563,0.12795408,-0.12387807,0.057884324,0.1492346,-0.09514062,0.2367652,-0.0017997903,0.18666026,-0.120422766,0.16266462,0.11202547
-0.16768934,0.16565156,-0.049201168,-0.106718466,0.18653902,0.05651386,-0.14511982,0.0062558074,-0.012972567,0.021442827,-0.043351844,-0.022775978,-0.029821634,-0.031739775,0.08861131,0.1929221,-0.3398702,-0.041628234,0.0036502404,-0.06244833,0.040260173,0.048187505,0.0049573043,-0.015683524,-0.1525576,-0.1923488,0.21347202,0.23078896,-0.20626894,-0.006247401,-0.019771466,0.12673566,-0.12531778,0.2165201,0.123940535,0.057102725,-0.037968747,0.0028295182,-0.022247644,-0.051650077,-0.08089853,0.20241283,0.121326424,-0.017987141,-0.13882819,-0.08982437,-0.10364021,0.07242146,-0.0020797714,-0.23734002,-0.07679642,-0.0624864,0.2070299,-0.05854025,0.07969233,0.09377396,-0.1400026,-0.05830222,0.04667378,0.183153,0.1639094,-0.09319724,-0.05667698,0.0026603665,0.114849366,0.024230413,0.21087725,-0.037323758,0.012325743,-0.31501055,0.1111814,-0.20635949,0.19321388,0.2795212,-0.21114844,-0.108275004,0.1773596,0.08064359,-0.10041256,0.2377948,-0.16949432,-0.11204008,-0.043817583,0.07926207
-0.0975059,-0.04656085,-0.046875272,0.112481944,0.17393574,-0.012252853,0.016409593,0.08400408,-0.101912946,0.21211027,0.13812014,0.13023357,-0.04637103,-0.007520304,-0.09815081,0.03499735,0.13103303,-0.11384396,0.025747016,0.053491306,0.11371351,0.1245093,-0.01448169,0.008153942,0.17403172,0.13415505,0.0052583865,-0.05924,-0.008348648,0.070725076,-0.015485155,0.10226111,-0.01874181,0.20508,-0.19479994,0.110428125,0.07856491,-0.049638327,-0.13084556,-0.13290332,0.020622004,0.1735953,-0.20463434,-0.1367571,-0.12531061,-0.17895435,-0.0025154657,-0.060803577,-0.24186464,-0.22503673,-0.21276483,0.1416819,0.04124791,-0.1359111,0.023324298,0.10620001,0.1354775,-0.123073176,-0.10871005,0.14129812,-0.23785776,-0.14564916,0.075824924,-0.012075083,-0.09895757,0.05703928,-0.19782609,0.03621918,-0.016574286,-0.00079411844,0.12881073,-0.1632089,0.15495951,0.029710043,-0.03202344,0.015500868,-0.031309027,-0.10069071,0.20673072,0.16518134,-0.09183035,-0.17140742,0.12092273,0.067962006
-0.1783795,0.15846029,0.062260363,-0.09522329,-0.033073287,0.110476226,-0.008134429,-0.023219194,0.13128391,0.013202032,0.12400092,0.25417563,0.055078723,-0.19732808,0.17487459,0.060570955,-0.21737349,0.025569092,-0.13885397,-0.10128214,0.07487972,-0.109856814,-0.09651076,-0.01730988,0.25423655,-0.033563517,-0.00039265415,0.023318136,0.061881546,0.17172702,-0.02999364,0.021126179,0.07472717,0.26726145,0.17281052,0.0441165,0.07235352,0.05007743,0.008642495,0.08554794,-0.1791546,-0.0071011367,-0.013477861,0.031444237,0.07813682,0.06030601,0.0478943,-0.21990776,-0.02063102,-0.034178544,0.25924644,0.004610267,0.032379795,-0.13753104,-0.19104551,-0.12785006,0.099826165,0.1497527,0.037575923,-0.11141212,0.14923075,0.06405626,-0.13870223,0.12385591,0.16849418,-0.15479733,0.19337684,-0.057947937,0.0020980777,-0.1976249,0.08307374,0.057301544,0.14659162,0.022490434,0.06624729,0.086085476,-0.13376898,0.14097759,-0.25464234,0.019248813,0.15668097,-0.09781492,-0.1748612,0.21472022
-0.10093718,0.10067603,-0.03654549,-0.05687174,0.028269732,-0.14404845,-0.1055517,0.05010986,-0.13189103,0.015353836,0.1739103,0.11222521,0.13718791,-0.013365779,-0.14217381,0.1065654,-0.17814021,-0.11656957,-0.16731864,0.02760343,0.14404663,0.1822113,-0.049208473,0.032046624,0.029733388,0.025110204,0.1580149,0.153115,-0.07055262,-0.024188837,0.13741371,0.067521505,0.20687625,0.014952596,0.028743282,0.14859483,0.26773933,-0.16525641,-0.046553984,-0.014520012,-0.015076903,-0.030837158,-0.11660298,0.0633117,-0.13653955,0.1290738,-0.034711298,-0.099409275,-0.050685965,-0.22867978,0.156666,-0.07173356,0.13635252,0.21045794,-0.16608155,0.084528774,-0.04871075,-0.28618273,-0.05131589,-0.1642307,0.114276774,0.14011164,-0.13845867,0.20608133,0.07449569,-0.18013398,0.08343084,0.08330295,-0.0113642905,0.17712125,-0.0013244139,0.0072710626,-0.09476019,0.09601806,-0.17735772,0.18064216,-0.047305766,0.17217758,0.07486645,0.29602578,0.032354947,-0.05566895,0.019234015,0.21207118
-0.24688718,-0.10209084,0.110834844,0.09217523,-0.040053014,-0.11075513,-0.15596512,-0.021702666,-0.0077348724,-0.12503734,0.11243603,-0.19616179,-0.008365281,-0.038746044,-0.08782478,-0.00040560518,-0.16823095,-0.21844456,0.119051196,-0.06272993,0.10415769,0.05028579,0.039664,0.0030703463,0.047493286,0.09953356,-0.11748945,-0.015651954,0.02346818,0.0067251804,0.27448815,0.18023035,-0.22737497,0.0061751814,0.15648577,-0.07037186,0.04673254,0.07371811,-0.1309866,0.18413585,0.13177308,0.1301402,0.18849944,-0.13936329,-0.0357471,-0.30158997,0.08591773,-0.2646138,-0.1570617,0.09440611,-0.01191923,0.19041644,0.06827273,-0.10634971,0.04294757,-0.05999457,0.17517884,0.0708732,0.039982844,0.14094083,-0.0632546,0.096237466,0.1736835,-0.06388327,0.083809264,-0.13453765,0.12974927,0.13093136,0.13917668,-0.123680815,0.16335784,-0.13196026,-0.07215819,0.16199973,-0.01615179,-0.15495087,-0.12941335,0.10166384,0.08267815,0.012665863,0.08356468,-0.12619631,0.0021004013,0.19375671
-0.05176026,-0.022865547,-0.025179356,-0.020155683,0.0276632,0.15786272,-0.07735545,0.086434074,0.108583964,-0.039045766,0.20508604,0.18030159,0.13636966,-0.09441053,-0.072991796,-0.01253301,0.122805774,-0.15990214,-0.019974928,0.24249116,0.10544953,0.11207213,0.14676124,0.0577648,-0.21128117,0.23917186,-0.02926235,-0.070952184,-0.14072907,-0.10833574,0.082157604,0.09743828,0.09817796,-0.08992733,-0.07079405,0.11651719,-0.25460994,0.06698039,0.032112252,-0.07332837,0.038894612,0.19228661,0.052997038,-0.03884704,-0.26105198,0.028982975,-0.2510679,0.078991964,-0.06794937,0.10803368,-0.12500356,0.062200505,0.072462045,0.13532783,0.06566142,0.16917631,-0.048253182,-0.090760835,0.0027683522,-0.11776966,-0.07503309,-0.07926718,-0.11222719,0.20114131,0.111338556,0.0061929976,0.13382293,0.13346691,-0.091650665,-0.06552841,-0.16821891,-0.17298949,0.13409773,-0.12018826,0.003993009,0.034858406,0.14939147,0.025073819,-0.007914909,-0.10013193,0.14622095,0.0895896,0.06833856,-0.18210529
0.07830224,0.13129033,0.16188292,-0.09361013,0.028982058,0.105222225,-0.19917199,0.0057198987,0.20088801,0.04985572,0.027081383,0.167646,0.08026813,0.057373714,-0.053314168,0.027077578,-0.2495509,-0.22956233,0.050312173,0.12255365,-0.11552263,-0.090466484,-0.11339334,0.0822699,-0.00052866887,0.0507787,-0.016593896,0.036975544,-0.051557712,-0.008359727,0.019501554,0.016791672,0.10800298,-0.1479115,0.043489587,-0.0600109,0.14383289,0.13909467,-0.046952154,0.20598827,-0.1138237,0.04117596,-0.0954697,-0.13939257,0.13289091,-0.17689371,-0.055920035,-0.13102897,-0.124609135,0.06647335,0.02576632,-0.10735369,-0.2700137,-0.049374435,0.08341785,0.14404953,0.25190383,0.07343559,-0.2283567,-0.12253238,0.09932452,0.1900502,0.19980922,0.15977061,-0.060414806,-0.023076253,0.07288671,0.032664835,-0.25308564,-0.09793122,0.16364048,-0.0024848077,0.109523594,0.007049164,0.036746547,-0.038587146,-0.07584237,0.10890981,-0.04166853,-0.1119776,0.028314544,0.1249523,-0.1322745,0.24436669
-0.10637362,0.16808048,-0.30180213,-0.010565105,0.014945229,-0.23000482,-0.10807107,0.0021682826,-0.009843705,0.1995391,-0.073095,-0.344243,-0.09417058,0.038395982,-0.11059255,-0.059215687,-0.1715259,0.104637414,0.18849596,0.09603474,-0.077172875,0.19827473,-0.0016328058,0.13616216,-0.25321636,-0.15533449,0.25422856,0.14109747,0.068470836,0.11225717,-0.029248996,0.13695186,-0.14171337,-0.16626519,-0.025340501,-0.16468036,-0.27414018,-0.27256277,-0.13407655,0.21225165,0.22906996,0.23821065,0.039701097,-0.15498844,-0.24444363,-0.32754993,0.0708009,0.25904015,-0.028370302,0.013188532,-0.08119488,0.11714879,0.06264045,0.10036689,0.09673467,0.0506775,0.011819626,-0.06186129,0.18011662,-0.049631473,-0.18984978,-0.06414402,0.06635245,0.12325081,0.19402045,0.13449578,0.092859335,0.013765541,0.004757107,0.010529907,0.10673616,-0.01833966,-0.07213782,0.066844486,-0.12997757,0.031990886,-0.06866962,-0.06550026,0.21476702,-0.10857329,0.039791133,0.028352732,0.2264869,0.03391748
0.16479556,0.08340146,0.10385727,0.037154928,0.09571703,-0.022011312,-0.06758582,-0.0150763765,-0.013428831,0.14053631,0.081817746,-0.040753376,0.17696212,0.008574594,-0.02174048,-0.076478735,-0.12645392,0.02450188,0.16197196,0.08489887,0.13590212,-0.067782916,0.1645625,-0.14022428,-0.17596397,-0.020388843,-0.08737073,-0.13577814,-0.10929827,-0.01665849,0.077161476,-0.116967075,-0.115917414,0.024555296,-0.047530662,0.01735798,0.09526282,-0.15154035,-0.07421844,-0.14822394,0.108486004,-0.046911106,-0.018767633,0.10207064,-0.057543337,0.12528399,0.16760741,0.1578917,-0.024543256,0.05406818,0.08153884,0.033528265,0.07129361,-0.05916025,-0.008964634,0.04921811,0.14330193,0.15393281,-0.15574786,-0.12518288,-0.0647526,-0.11602528,0.14934482,0.034700345,-0.0052632857,-0.054133493,0.08731224,-0.00088325224,-0.123283744,-0.1435471,-0.09334678,0.13027503,0.065773696,0.11356785,0.14846492,0.089216985,-0.19324943,0.12425934,-0.14471665,0.14184731,-0.098923616,0.16750476,-0.035139587,0.112455
-0.15188853,-0.024088144,-0.17569093,-0.065017916,0.15218733,0.10451061,0.07409949,-0.13991992,-0.06876108,-0.20072092,-0.17972715,-0.15692858,0.08710067,0.20483622,0.1742185,0.10753999,-0.08976515,0.07364454,-0.21723673,0.20257224,0.13260274,0.017497392,-0.14247522,-0.12005668,-0.13102795,-0.11759086,0.07746947,0.24884327,0.018250627,-0.16755487,0.10198207,-0.1089249,0.088152096,-0.07055118,0.121394545,0.13640825,-0.43053636,0.112419836,0.0074439445,0.19471437,2.0393389e-05,-0.102149375,0.17654772,-0.069748774,-0.22417602,0.28593898,-0.07057451,0.16108513,-0.104533456,-0.04240851,-0.14203273,0.036506247,-0.20300642,-0.0727864,0.033615787,0.11787587,-0.08169918,0.12311163,0.0782929,0.16896495,0.16152053,0.19083808,0.10733996,-0.15170152,-0.01509479,0.038410917,0.12062589,0.13748734,-0.048389014,-0.25776425,-0.121219486,-0.20764865,-0.064741485,0.11788793,0.06958222,-0.1727919,-0.0629637,0.13814397,0.075004354,0.19347176,0.054373447,-0.1918935,0.15006866,-0.041911427
-0.097277805,0.08858764,0.22572243,-0.13523224,0.17837568,0.06791171,0.080987014,-0.13053916,-0.03399225,-0.0070287623,-0.07702017,-0.10128611,0.07329296,0.056201123,0.1061482,0.13211145,0.10663342,0.031544216,0.0011791474,0.012176683,0.06983375,-0.062225852,0.1631015,-0.003816777,0.22720292,-0.1307632,-0.25619888,-0.2260864,0.071047164,0.09105931,0.26756108,0.06462433,0.15474142,0.21544272,0.103132755,-0.13095056,-0.06395738,0.17783502,-0.07876637,0.13383768,0.24423301,0.095146924,0.18719622,-0.20974804,-0.2947676,-0.13093686,-0.004642957,0.08335151,-0.029019045,0.022970317,-0.13943115,-0.038213506,0.18125442,0.14087698,-0.025558326,0.12198899,-0.008322259,-0.104519375,-0.09377148,0.092035145,0.09529084,0.11720713,-0.090321265,-0.08375183,-0.12342523,-0.17067192,-0.05965325,-0.010601643,0.07890002,0.04233581,0.1501901,-0.22658028,0.005934359,-0.14956295,0.14915077,-0.13702248,-0.20803201,0.18851937,0.04970154,0.10711989,0.21068914,-0.11556178,-0.08782419,-0.25437757
0.014195015,0.056866437,0.07964145,0.075142056,-0.025930665,0.019031486,0.09455634,-0.17533451,0.02259073,0.14642054,0.02226952,0.2412137,-0.07872307,-0.19412954,0.031914625,0.042375788,-0.13104181,-0.16535594,-0.29496527,-0.021106238,0.08857097,0.009815537,-0.08036889,0.15655953,0.20537554,0.18137497,-0.09189587,-0.003620471,0.21953887,-0.04981818,-0.0959058,-0.3411369,0.1105441,0.057053808,0.16673414,-0.13465233,0.14220394,0.020917304,0.0324173,0.15199985,-0.22627968,-0.10984286,0.086711526,-0.085425004,-0.058132403,-0.17259856,0.18827239,-0.11452723,-0.052671395,0.16804633,-0.061780374,-0.19699064,-0.23928122,0.17604785,-0.01733525,0.06623916,0.2257883,0.10360309,-0.015668036,0.016158998,0.11745475,0.15765424,-0.019026639,0.24184531,0.14978725,0.060424536,0.078987926,0.11790309,-0.1334364,-0.13790749,-0.03983608,-0.08646808,0.04328947,0.13190354,0.048824504,0.27675194,-0.07328191,-0.18017426,-0.18261112,-0.04957766,0.061301526,0.21550211,-0.114164494,0.08049207
0.040835183,-0.01125494,0.24256907,-0.14834383,-0.061233614,0.11642479,-0.21383971,-0.027684757,0.044682834,0.15941675,0.021214282,0.16603649,0.0836587,-0.1057808,-0.14168635,0.10664578,0.012057924,-0.0996127,-0.06478604,-0.23304549,-0.03746488,-0.12976198,0.19523087,0.17119256,-0.06931849,0.1205421,0.16744052,0.07245059,-0.050210398,0.023682088,-0.001163802,-0.019280374,0.14630814,0.109855674,0.08466633,0.0689306,0.13755175,0.06276746,-0.09211666,-0.12197274,0.0910642,-0.116785124,0.1274676,-0.01750559,-0.1833182,-0.15066813,-0.11419104,-0.08768456,0.03689375,0.18269697,-0.14599879,0.14496551,0.17885277,0.146124,-0.16535278,0.10444802,-0.03536268,-0.22281559,-0.00730976,0.15962115,-0.12697676,-0.111674584,0.122302555,0.23267071,0.052909046,0.19033368,-0.14076261,0.050186023,0.21278411,-0.22930992,0.12732181,-0.2758732,-0.073252454,-0.30249646,-0.055360563,-0.033161607,-0.13997564,0.039451137,0.19112156,0.21429428,-0.07200228,-0.25836617,0.027121803,0.15510894
-0.1137042,0.17674182,0.1282124,0.008651018,0.01601751,0.010584583,0.1579161,-0.16903841,-0.05723321,-0.11515683,0.11860512,-0.1159781,0.035974484,0.01351561,0.16835772,0.15078525,0.0070133274,0.13621293,0.061504323,-0.08230699,-0.09712629,0.10440618,0.07015463,-0.06681724,-0.025907328,0.15518305,-0.13712798,0.056648586,0.024045035,-0.0064816847,-0.024847727,-0.033530843,-0.20089824,0.07695796,0.23062049,0.21190162,-0.0013933892,0.17300387,0.01338739,0.015465886,0.016084272,0.035991494,0.021018613,0.12564136,-0.10769665,-0.049714863,-0.098137565,0.01381765,-0.18847011,0.072830275,-0.08132076,-0.02106385,-0.06959789,0.10965515,0.056898884,0.067989096,0.033169255,-0.021532636,0.07084416,-0.11153327,0.14986435,0.04018027,-0.053832557,-0.18147881,-0.10892277,0.02531188,-0.019194653,0.020473098,-0.07888613,0.078241974,-0.13737796,0.13728264,-0.14120868,0.08838984,-0.14121287,0.23004137,0.008896335,-0.032873232,-0.12744047,-0.101698026,-0.055117276,0.18358222,-0.050483417,0.10612902
-0.17467435,0.09426363,0.073950835,-0.06227478,0.03487429,-0.12532865,-0.09299934,0.026140869,0.18074495,-0.040266074,0.02356899,-0.05687629,-0.11335536,-0.17875071,0.14171141,0.051512532,-0.14338264,0.06340946,-0.2050755,-0.088225074,0.0365484,-0.13034847,0.22740497,0.1917152,0.024746235,-0.09346937,0.07852121,0.11521248,0.24530222,-0.0614853,0.15953432,0.21845786,-0.16405743,-0.07763106,0.1482449,0.123085275,0.2209259,0.14619614,-0.1365345,-0.16123657,-0.15130895,-0.09456341,0.121512376,-0.08092981,0.017073521,-0.18115368,0.021969818,0.14689353,0.12371319,-0.061844338,0.06127071,0.0052581234,-0.067987524,-0.08809721,-0.08054002,0.022520293,-0.0052111447,0.0010485135,-0.03741585,-0.0835678,0.23316054,0.100625835,0.11458026,0.09186795,0.18026635,-0.046983648,0.11203274,0.11879578,-0.066030405,-0.13049242,-0.0764728,0.09481825,0.19586602,-0.14989097,-0.067362234,0.17678699,-0.15192086,-0.041847017,0.050118748,0.01634004,-0.06706009,0.3594325,-0.022062657,-0.2313462
0.040242977,-0.026304623,0.18606757,0.0012663845,-0.28138325,0.12050462,0.008545835,-0.15214008,-0.06907032,0.07464182,-0.0035648607,0.103661686,0.15414868,-0.22068557,0.3609873,-0.08391915,-0.029046364,0.06629944,-0.2681791,0.29205054,0.20521829,-0.034549583,-0.28030598,0.2077071,0.09721077,0.07198549,-0.04051266,-0.1346077,0.032814253,0.053747416,0.030666728,-0.027455699,0.3123758,-0.008587617,-0.410689,0.3046597,-0.19811991,0.16141964,-0.023140317,-0.012236313,-0.32384813,0.120688505,0.19665396,0.19849885,-0.018095417,-0.038741104,0.021794477,0.050385945,0.22296254,-0.3098439,-0.05388548,-0.034221493,-0.068775505,-0.11669241,-0.075415775,0.090045,-0.29753423,0.042453285,-0.27757508,-0.1995982,0.03680821,-0.06673045,-0.17716895,-0.14074847,-0.21776302,-0.34203887,0.32624024,-0.0454349,0.07194192,-0.29083523,0.25947174,0.11477112,-0.042872068,0.0041678534,0.27253106,0.15857139,0.1176717,0.063737966,-0.42701864,0.08480183,-0.22516756,-0.02197415,0.22827417,-0.032526743
-0.06934012,0.10248187,-0.19798484,-0.030804193,-0.12182142,0.013778905,0.06263348,0.06717807,0.2370282,-0.10381771,0.11488978,-0.03642777,-0.16175553,0.113028735,-0.03142113,-0.07465964,0.023520736,-0.08759995,-0.10874341,-0.073125295,0.1424769,-0.022205168,0.0233236,-0.11083909,-0.19131032,-0.10203774,0.17317303,-0.1561213,-0.020505631,-0.03406415,-0.047241118,0.008318764,-0.17234476,0.008756412,0.12008097,0.28661793,0.1237822,-0.06960915,-0.11616662,-0.03418667,-0.06173809,-0.118541114,-0.39842325,-0.104195215,-0.110831395,-0.23217556,0.22619535,-0.20663847,0.20086892,0.18415134,-0.07435788,0.20888792,0.089051254,-0.04114037,0.03242349,-0.107855,-0.11204345,-0.0036632237,0.0018218387,0.13845891,-0.004078121,-0.2803628,0.25121415,0.20369259,0.04895893,-0.07254695,0.13026859,-0.14305036,0.033927787,0.10121845,-0.009784041,-0.040439595,0.1617489,-0.2376092,-0.047506023,0.06528742,0.2862012,0.036669254,0.016380975,0.13177264,-0.15710665,0.01707498,-0.05674483,0.16865928
-0.054073527,0.13517505,-0.11876004,-0.14730951,-0.016850634,-0.016735602,0.0034173292,-0.038847115,0.079035364,-0.046731003,0.017596668,-0.08622237,-0.0058728885,0.07430202,-0.110009916,0.15410413,0.0013372676,0.1087822,-0.041309815,0.04371157,0.066166855,-0.034124475,0.02813762,0.11664493,0.15645112,0.120884806,-0.14054087,-0.11947592,-0.010326661,0.095138416,-0.13294752,-0.04343682,-0.0012093631,0.1241676,0.11737974,-0.01585395,0.06673135,-0.07858288,0.06468031,0.14904964,0.117285155,-0.038573857,-0.07688046,-0.10829067,-0.14375064,-0.043538317,-0.15761885,-0.118736506,0.0033870945,0.1492507,-0.1259048,-0.17517157,0.15460275,-0.01479414,-0.014741515,0.11679719,-0.10275669,0.13660182,-0.037287097,-0.041547485,-0.1325869,-0.10372039,-0.00862534,0.07033833,-0.05177414,-0.0977284,-0.065421015,0.003329982,-0.018509727,-0.1077961,0.019508887,-0.1259589,0.1260694,-0.015987799,-0.018723814,0.049862467,-0.04871429,-0.123659916,-0.035126798,0.0009899699,0.15250912,-0.15283522,-0.01751407,0.09643513
-0.1497105,0.023299016,0.055738773,-0.17635974,-0.08411976,-0.11069366,0.05890204,0.07981058,-0.22035679,-0.17857721,-0.13309115,-0.093563154,0.19388528,0.0058355224,-0.016053464,0.14050452,-0.27788985,-0.13683262,-0.024235923,-0.035579085,0.044064734,-0.16837937,0.03778434,0.051074535,0.19506486,-0.23364,0.05557125,0.02589873,-0.10335971,-0.020853573,-0.11873966,-0.13226387,-0.028675865,0.2070979,0.13842528,0.03490625,0.06701797,-0.23893315,0.065314,0.070870176,-0.28001192,-0.2020853,0.009196826,-0.076560356,0.13635373,-0.08038242,0.19576089,0.05149232,-0.18312097,-0.03905869,-0.029490996,-0.042988457,-0.024957612,-0.0034830216,-0.18209131,0.041613467,0.23226653,0.1927312,0.17979258,0.021945385,0.17680925,-0.04594983,-0.11813559,0.005709489,0.057132535,-0.075210035,-0.003185751,-0.09688568,0.11799636,0.0131436335,0.24268249,0.109271206,-0.15213245,-0.047456108,0.1291982,0.06661702,-0.13419215,0.20486853,-0.21263698,-0.12343991,0.06856758,-0.0686466,-0.19105087,-0.12990686
-0.046234462,-0.025877776,0.18534057,0.051477518,-0.035855126,0.17789347,0.08133287,-0.027495548,-0.021370739,0.026919892,-0.098708734,0.1797058,0.13394086,-0.15692076,0.09484421,0.29122913,0.07271204,-0.10273191,-0.27967283,0.0020066737,0.24964136,-0.027147748,0.11888672,0.11647379,-0.027373765,0.019581774,0.033065245,0.11490503,-0.1595642,-0.14455912,0.14152415,0.02751195,-0.13123089,0.28178656,-0.14320843,-0.02538967,0.10040294,-0.09599916,-0.058383413,-0.03656798,0.12605749,0.03336971,-0.0017379699,-0.07130491,0.17864123,-0.17396356,-0.11579669,-0.23797329,0.24407187,-0.325923,-0.11825252,-0.2942915,0.11455652,-0.20276347,-0.28358307,-0.16745004,-0.27656215,-0.24139844,-0.08880429,-0.030669045,0.103660055,0.10015555,-0.081392385,0.069585375,-0.14211102,0.062651396,0.0595192,-0.0053462577,0.2935297,-0.20883217,0.2281425,-0.23451282,0.22288115,-0.2330184,0.050888732,-0.08105526,0.25662443,0.15774092,0.15402654,-0.1028484,-0.03821456,-0.03476573,-0.052615296,0.046373837
